{"learner":{"attributes":{"best_iteration":"7","best_ntree_limit":"8","best_score":"0.6901145657667747","scikit_learn":"{\"use_label_encoder\": null, \"n_estimators\": 500, \"objective\": \"binary:logistic\", \"max_depth\": 7, \"max_leaves\": null, \"max_bin\": null, \"grow_policy\": null, \"learning_rate\": null, \"verbosity\": null, \"booster\": null, \"tree_method\": \"gpu_hist\", \"gamma\": null, \"min_child_weight\": null, \"max_delta_step\": null, \"subsample\": null, \"sampling_method\": null, \"colsample_bytree\": null, \"colsample_bylevel\": null, \"colsample_bynode\": null, \"reg_alpha\": null, \"reg_lambda\": null, \"scale_pos_weight\": null, \"base_score\": null, \"missing\": NaN, \"num_parallel_tree\": null, \"random_state\": null, \"n_jobs\": null, \"monotone_constraints\": null, \"interaction_constraints\": null, \"importance_type\": null, \"gpu_id\": null, \"validate_parameters\": null, \"predictor\": null, \"enable_categorical\": false, \"feature_types\": null, \"max_cat_to_onehot\": null, \"max_cat_threshold\": null, \"eval_metric\": null, \"early_stopping_rounds\": 20, \"callbacks\": null, \"kwargs\": {\"eta\": 0.01}, \"classes_\": [0.0, 1.0], \"n_classes_\": 2, \"evals_result_\": {\"validation_0\": {\"logloss\": [0.6880931716923621, 0.6834190210290984, 0.6788145835493126, 0.674278700468587, 0.6698094892735574, 0.6654060813141804, 0.6608015418637032, 0.6562641175354228, 0.6522979739249921, 0.6478770962532829, 0.643904824759446, 0.6396146378680772, 0.6357393276457693, 0.6317906721549875, 0.627562923466458, 0.6236341633633071, 0.6199178833003137, 0.6163275592467364, 0.6125480082689547, 0.6088567855311375, 0.6052881756833955, 0.6015981573100183, 0.5980204516181759, 0.5945612186310338, 0.5914587422328836, 0.5873981641203749, 0.5834197209161871, 0.5796553659088471]}, \"validation_1\": {\"logloss\": [0.6927334035818393, 0.6923406353363624, 0.6919697546041929, 0.6916298086826618, 0.6914705072457974, 0.6912504893082839, 0.6905843168497086, 0.6901145657667747, 0.6907075975949948, 0.6901812622180352, 0.6908063968786826, 0.6902278386629545, 0.6909960794907349, 0.6913681213672345, 0.6910296346132572, 0.6916074099449011, 0.6924093640767611, 0.6930250387925369, 0.6923186205900632, 0.6927961512253835, 0.6935112739984806, 0.6928443083396325, 0.6933362495440704, 0.6941815878336246, 0.6946644416222205, 0.6944839346867341, 0.694466131237837, 0.6940909624099731]}}, \"_estimator_type\": \"classifier\"}"},"feature_names":["st_stoch","st_ich","st_cut_ema5_sma10","st_macd","st_ich_close","st_dmi","st_cut_sma10_close","st_hisse","st_mfi","st_fishert","st_ema_5","st_ema_6","st_cut_ema_5_6","st_ema_7","st_ema_8","st_cut_ema_7_8","st_ema_9","st_ema_10","st_cut_ema_9_10","st_ema_11","st_ema_12","st_cut_ema_11_12","st_ema_13","st_ema_14","st_cut_ema_13_14","st_ema_15","st_ema_16","st_cut_ema_15_16","st_ema_17","st_ema_18","st_cut_ema_17_18","st_ema_19","st_ema_20","st_cut_ema_19_20","st_mfi_5","st_mfi_6","st_mfi_7","st_mfi_8","st_mfi_9","st_mfi_10","st_mfi_11","st_mfi_12","st_mfi_13","st_mfi_14","st_mfi_15","st_mfi_16","st_mfi_17","st_mfi_18","st_mfi_19","st_mfi_20","st_sma_5","st_sma_6","st_cut_sma_5_6","st_sma_7","st_sma_8","st_cut_sma_7_8","st_sma_9","st_sma_10","st_cut_sma_9_10","st_sma_11","st_sma_12","st_cut_sma_11_12","st_sma_13","st_sma_14","st_cut_sma_13_14","st_sma_15","st_sma_16","st_cut_sma_15_16","st_sma_17","st_sma_18","st_cut_sma_17_18","st_sma_19","st_sma_20","st_cut_sma_19_20","st_wma_5","st_wma_6","st_cut_wma_5_6","st_wma_7","st_wma_8","st_cut_wma_7_8","st_wma_9","st_wma_10","st_cut_wma_9_10","st_wma_11","st_wma_12","st_cut_wma_11_12","st_wma_13","st_wma_14","st_cut_wma_13_14","st_wma_15","st_wma_16","st_cut_wma_15_16","st_wma_17","st_wma_18","st_cut_wma_17_18","st_wma_19","st_wma_20","st_cut_wma_19_20","st_tema_5","st_tema_6","st_cut_tema_5_6","st_tema_7","st_tema_8","st_cut_tema_7_8","st_tema_9","st_tema_10","st_cut_tema_9_10","st_tema_11","st_tema_12","st_cut_tema_11_12","st_tema_13","st_tema_14","st_cut_tema_13_14","st_tema_15","st_tema_16","st_cut_tema_15_16","st_tema_17","st_tema_18","st_cut_tema_17_18","st_tema_19","st_tema_20","st_cut_tema_19_20","st_kama_5","st_kama_6","st_cut_kama_5_6","st_kama_7","st_kama_8","st_cut_kama_7_8","st_kama_9","st_kama_10","st_cut_kama_9_10","st_kama_11","st_kama_12","st_cut_kama_11_12","st_kama_13","st_kama_14","st_cut_kama_13_14","st_kama_15","st_kama_16","st_cut_kama_15_16","st_kama_17","st_kama_18","st_cut_kama_17_18","st_kama_19","st_kama_20","st_cut_kama_19_20","st_rsi_5","st_rsi_6","st_rsi_7","st_rsi_8","st_rsi_9","st_rsi_10","st_rsi_11","st_rsi_12","st_rsi_13","st_rsi_14","st_rsi_15","st_rsi_16","st_rsi_17","st_rsi_18","st_rsi_19","st_rsi_20","st_adx_5","st_adxdmi_5","st_adx_6","st_adxdmi_6","st_adx_7","st_adxdmi_7","st_adx_8","st_adxdmi_8","st_adx_9","st_adxdmi_9","st_adx_10","st_adxdmi_10","st_adx_11","st_adxdmi_11","st_adx_12","st_adxdmi_12","st_adx_13","st_adxdmi_13","st_adx_14","st_adxdmi_14","st_adx_15","st_adxdmi_15","st_adx_16","st_adxdmi_16","st_adx_17","st_adxdmi_17","st_adx_18","st_adxdmi_18","st_adx_19","st_adxdmi_19","st_adx_20","st_adxdmi_20","month","weekday","hour","is_quarter_end","candle_label","vol_delta","log_return","lag_2","lag_3","lag_4","lag_5","lag_6","lag_7","lag_8","lag_9","lag_10","lag_11","lag_12","lag_13","lag_14","lag_15","lag_16","lag_17","lag_18","lag_19","lag_20","lag_21","lag_22","lag_23","kz_score","twitter_sent_score"],"feature_types":["int","int","int","int","int","int","int","int","int","int","int","int","int","int","int","int","int","int","int","int","int","int","int","int","int","int","int","int","int","int","int","int","int","int","float","float","float","float","float","float","float","float","float","float","float","float","float","float","float","float","int","int","int","int","int","int","int","int","int","int","int","int","int","int","int","int","int","int","int","int","int","int","int","int","int","int","int","int","int","int","int","int","int","int","int","int","int","int","int","int","int","int","int","int","int","int","int","int","int","int","int","int","int","int","int","int","int","int","int","int","int","int","int","int","int","int","int","int","int","int","int","int","int","int","int","int","int","int","int","int","int","int","int","int","int","int","int","int","int","int","int","int","int","int","int","int","float","float","float","float","float","float","float","float","float","float","float","float","float","float","float","float","float","int","float","int","float","int","float","int","float","int","float","int","float","int","float","int","float","int","float","int","float","int","float","int","float","int","float","int","float","int","float","int","int","int","int","int","float","int","float","int","int","int","int","int","int","int","int","int","int","int","int","int","int","int","int","int","int","int","int","int","int","float","float"],"gradient_booster":{"model":{"gbtree_model_param":{"num_parallel_tree":"1","num_trees":"28","size_leaf_vector":"0"},"tree_info":[0,0,0,0,0,0,0,0,0,0,0,0,0,0,0,0,0,0,0,0,0,0,0,0,0,0,0,0],"trees":[{"base_weights":[-1.15384616E-1,1.368421E-2,-2.5906736E-1,1.0989011E-1,-5.660377E-1,-5.365854E-1,5.925926E-1,-8.923077E-1,-4.4444446E-2,7.692308E-1,-1E0,1.1E0,-6.666667E-1,-1.0666667E0,6.666667E-3,1E0,-5.4545456E-1,1.1111111E-2,-0E0,2.2222223E-3,-1.2592592E0,1.4444444E0,-1E-2,6.666667E-3,-1.3846154E-2,-1.5294118E0,-4E-1,1.3333334E-2,-0E0,-9.5652175E-1,2.857143E-1,-1.47826085E-2,-0E0,-0E0,1.625E-2,-1.7037038E-2,-5.4545454E-3,4.4444445E-1,-1.2499999E-2,-2.857143E-1,-1.3846154E-2,1E-2,-4E-3,-6.666667E-3,1.0769231E-2,4E-3,-1E-2],"categories":[],"categories_nodes":[],"categories_segments":[],"categories_sizes":[],"default_left":[0,0,0,0,0,0,0,0,0,0,0,0,0,0,0,0,0,0,0,0,0,0,0,0,0,0,0,0,0,0,0,0,0,0,0,0,0,0,0,0,0,0,0,0,0,0,0],"id":0,"left_children":[1,-1,3,5,7,9,11,13,15,17,19,21,23,25,-1,27,29,-1,-1,-1,31,33,-1,-1,-1,35,37,-1,-1,39,41,-1,-1,-1,-1,-1,-1,43,-1,45,-1,-1,-1,-1,-1,-1,-1],"loss_changes":[1.1440772E1,0E0,5.526949E0,7.417235E0,4.4701176E0,6.971857E0,9.35926E0,5.1282063E0,6.432323E0,8.5470104E-1,2.8148146E0,8.677778E0,5.2307696E0,4.015686E0,0E0,1.3333335E0,3.0920382E0,0E0,0E0,0E0,1.8615141E0,2.3472214E0,0E0,0E0,0E0,5.284214E-1,5.9388885E0,0E0,0E0,1.2556143E0,2.1142857E0,0E0,0E0,0E0,0E0,0E0,0E0,3.880342E0,0E0,2.1142857E0,0E0,0E0,0E0,0E0,0E0,0E0,0E0],"parents":[2147483647,0,0,2,2,3,3,4,4,5,5,6,6,7,7,8,8,9,9,10,10,11,11,12,12,13,13,15,15,16,16,20,20,21,21,25,25,26,26,29,29,30,30,37,37,39,39],"right_children":[2,-1,4,6,8,10,12,14,16,18,20,22,24,26,-1,28,30,-1,-1,-1,32,34,-1,-1,-1,36,38,-1,-1,40,42,-1,-1,-1,-1,-1,-1,44,-1,46,-1,-1,-1,-1,-1,-1,-1],"split_conditions":[1.5356162E-1,1.368421E-2,1E0,4.3201867E-1,5.7353E-1,3.2556155E-1,5.59379E-1,6.330196E-1,6.028713E-1,1E0,7.8338504E-1,4.7967257E-3,3.582109E-1,1E0,6.666667E-3,7.1077436E-1,1E0,1.1111111E-2,-0E0,2.2222223E-3,8.8577217E-1,2.0973262E-1,-1E-2,6.666667E-3,-1.3846154E-2,5.3501487E-1,4.8885357E-1,1.3333334E-2,-0E0,1E0,1E0,-1.47826085E-2,-0E0,-0E0,1.625E-2,-1.7037038E-2,-5.4545454E-3,8.267112E-1,-1.2499999E-2,1E0,-1.3846154E-2,1E-2,-4E-3,-6.666667E-3,1.0769231E-2,4E-3,-1E-2],"split_indices":[36,0,56,47,48,49,41,44,48,1,170,200,36,219,0,34,145,0,0,0,192,34,0,0,0,158,49,0,0,203,204,0,0,0,0,0,0,186,0,207,0,0,0,0,0,0,0],"split_type":[0,0,0,0,0,0,0,0,0,0,0,0,0,0,0,0,0,0,0,0,0,0,0,0,0,0,0,0,0,0,0,0,0,0,0,0,0,0,0,0,0,0,0,0,0,0,0],"sum_hessian":[5.1E1,3.75E0,4.725E1,2.175E1,2.55E1,9.25E0,1.25E1,1.525E1,1.025E1,2.25E0,7E0,9E0,3.5E0,1.4E1,1.25E0,3E0,7.25E0,1.25E0,1E0,1.25E0,5.75E0,8E0,1E0,1.25E0,2.25E0,7.5E0,6.5E0,2E0,1E0,4.75E0,2.5E0,4.75E0,1E0,1E0,7E0,5.75E0,1.75E0,3.5E0,3E0,2.5E0,2.25E0,1E0,1.5E0,1.25E0,2.25E0,1.5E0,1E0],"tree_param":{"num_deleted":"0","num_feature":"225","num_nodes":"47","size_leaf_vector":"0"}},{"base_weights":[-1.1449343E-1,1.357668E-2,-2.570483E-1,1.0869105E-1,-5.6132996E-1,-5.313765E-1,5.866244E-1,-8.849103E-1,-4.4046625E-2,7.6496637E-1,-9.916025E-1,1.0896783E0,-6.616136E-1,-1.0581037E0,6.62967E-3,9.933556E-1,-5.416896E-1,1.1049572E-2,-0E0,2.209879E-3,-1.2489048E0,-3.3407072E-3,1.4873817E0,6.62967E-3,-1.3750755E-2,-1.5168409E0,-3.9713004E-1,1.3244838E-2,-0E0,-9.5043117E-1,2.84574E-1,-1.4661155E-2,-0E0,3.918881E-3,1.6798932E-2,-5.398866E-3,-1.6901454E-2,4.4091952E-1,-1.2406615E-2,-2.845739E-1,-1.3750755E-2,-2.2311262E-3,6.657824E-3,-6.62967E-3,1.0694889E-2,-6.642283E-3,2.2155659E-3],"categories":[],"categories_nodes":[],"categories_segments":[],"categories_sizes":[],"default_left":[0,0,0,0,0,0,0,0,0,0,0,0,0,0,0,0,0,0,0,0,0,0,0,0,0,0,0,0,0,0,0,0,0,0,0,0,0,0,0,0,0,0,0,0,0,0,0],"id":1,"left_children":[1,-1,3,5,7,9,11,13,15,17,19,21,23,25,-1,27,29,-1,-1,-1,31,-1,33,-1,-1,35,37,-1,-1,39,41,-1,-1,-1,-1,-1,-1,43,-1,45,-1,-1,-1,-1,-1,-1,-1],"loss_changes":[1.1261488E1,0E0,5.430445E0,7.270884E0,4.396515E0,6.8736234E0,9.197632E0,5.0576496E0,6.3458357E0,8.4525526E-1,2.7719307E0,6.1589117E0,5.1641855E0,3.9456272E0,0E0,1.3156834E0,3.0566692E0,0E0,0E0,0E0,1.8310385E0,0E0,1.0287437E0,0E0,0E0,5.265808E-1,5.8488016E0,0E0,0E0,1.234477E0,8.259089E-1,0E0,0E0,0E0,0E0,0E0,0E0,3.8313932E0,0E0,8.1969965E-1,0E0,0E0,0E0,0E0,0E0,0E0,0E0],"parents":[2147483647,0,0,2,2,3,3,4,4,5,5,6,6,7,7,8,8,9,9,10,10,11,11,12,12,13,13,15,15,16,16,20,20,22,22,25,25,26,26,29,29,30,30,37,37,39,39],"right_children":[2,-1,4,6,8,10,12,14,16,18,20,22,24,26,-1,28,30,-1,-1,-1,32,-1,34,-1,-1,36,38,-1,-1,40,42,-1,-1,-1,-1,-1,-1,44,-1,46,-1,-1,-1,-1,-1,-1,-1],"split_conditions":[1.5356162E-1,1.357668E-2,1E0,4.3201867E-1,5.7353E-1,3.2556155E-1,5.59379E-1,6.330196E-1,6.028713E-1,1E0,7.8338504E-1,6.116663E-1,3.582109E-1,1E0,6.62967E-3,7.1077436E-1,1E0,1.1049572E-2,-0E0,2.209879E-3,8.8577217E-1,-3.3407072E-3,-1.5462362E-3,6.62967E-3,-1.3750755E-2,7.141459E-1,4.8885357E-1,1.3244838E-2,-0E0,1E0,1E0,-1.4661155E-2,-0E0,3.918881E-3,1.6798932E-2,-5.398866E-3,-1.6901454E-2,8.267112E-1,-1.2406615E-2,6.9101715E-1,-1.3750755E-2,-2.2311262E-3,6.657824E-3,-6.62967E-3,1.0694889E-2,-6.642283E-3,2.2155659E-3],"split_indices":[36,0,56,47,48,49,41,44,48,1,170,164,36,219,0,34,145,0,0,0,192,0,200,0,0,166,49,0,0,203,198,0,0,0,0,0,0,186,0,34,0,0,0,0,0,0,0],"split_type":[0,0,0,0,0,0,0,0,0,0,0,0,0,0,0,0,0,0,0,0,0,0,0,0,0,0,0,0,0,0,0,0,0,0,0,0,0,0,0,0,0,0,0,0,0,0,0],"sum_hessian":[5.0998016E1,3.7498245E0,4.724819E1,2.174909E1,2.5499102E1,9.2497E0,1.2499391E1,1.5249359E1,1.0249742E1,2.2499614E0,6.9997387E0,8.999513E0,3.4998784E0,1.3999373E1,1.2499862E0,2.999911E0,7.2498302E0,1.2499614E0,1E0,1.2499985E0,5.74974E0,1.9999255E0,6.999587E0,1.2499862E0,2.2498922E0,7.49957E0,6.4998035E0,1.9999111E0,1E0,4.7498612E0,2.499969E0,4.74974E0,1E0,1.4999175E0,5.49967E0,1.7499543E0,5.749615E0,3.4999208E0,2.9998827E0,2.499969E0,2.2498922E0,1.2499845E0,1.2499845E0,1.249986E0,2.249935E0,1.2499793E0,1.2499897E0],"tree_param":{"num_deleted":"0","num_feature":"225","num_nodes":"47","size_leaf_vector":"0"}},{"base_weights":[-1.1340049E-1,1.3470982E-2,-2.548284E-1,1.0800463E-1,-5.566949E-1,-5.2624565E-1,5.8158207E-1,-8.776403E-1,-4.3653652E-2,7.607437E-1,-9.8333883E-1,1.0806409E0,-6.56633E-1,-1.049694E0,6.592961E-3,9.8679876E-1,-5.3796417E-1,1.09887505E-2,-0E0,2.197606E-3,-1.2387301E0,-3.318438E-3,1.4753044E0,6.592961E-3,-1.36569105E-2,-1.5045172E0,-3.9430174E-1,1.3157704E-2,-0E0,-9.441469E-1,2.829946E-1,-1.45419985E-2,-0E0,3.8859851E-3,1.6663112E-2,-5.3542396E-3,-1.6764604E-2,4.374368E-1,-1.2314641E-2,-2.8299582E-1,-1.36569105E-2,6.6349464E-3,-2.2328128E-3,-6.592961E-3,1.0621486E-2,-6.634975E-3,2.232796E-3],"categories":[],"categories_nodes":[],"categories_segments":[],"categories_sizes":[],"default_left":[0,0,0,0,0,0,0,0,0,0,0,0,0,0,0,0,0,0,0,0,0,0,0,0,0,0,0,0,0,0,0,0,0,0,0,0,0,0,0,0,0,0,0,0,0,0,0],"id":2,"left_children":[1,-1,3,5,7,9,11,13,15,17,19,21,23,25,-1,27,29,-1,-1,-1,31,-1,33,-1,-1,35,37,-1,-1,39,41,-1,-1,-1,-1,-1,-1,43,-1,45,-1,-1,-1,-1,-1,-1,-1],"loss_changes":[1.1082629E1,0E0,5.344078E0,7.1384115E0,4.3245707E0,6.777179E0,9.050514E0,4.988473E0,6.2607436E0,8.359624E-1,2.7299943E0,6.063239E0,5.0987597E0,3.8773518E0,0E0,1.2984011E0,3.018046E0,0E0,0E0,0E0,1.801362E0,0E0,1.012701E0,0E0,0E0,5.184498E-1,5.760397E0,0E0,0E0,1.2159271E0,8.2236904E-1,0E0,0E0,0E0,0E0,0E0,0E0,3.7831945E0,0E0,8.2236797E-1,0E0,0E0,0E0,0E0,0E0,0E0,0E0],"parents":[2147483647,0,0,2,2,3,3,4,4,5,5,6,6,7,7,8,8,9,9,10,10,11,11,12,12,13,13,15,15,16,16,20,20,22,22,25,25,26,26,29,29,30,30,37,37,39,39],"right_children":[2,-1,4,6,8,10,12,14,16,18,20,22,24,26,-1,28,30,-1,-1,-1,32,-1,34,-1,-1,36,38,-1,-1,40,42,-1,-1,-1,-1,-1,-1,44,-1,46,-1,-1,-1,-1,-1,-1,-1],"split_conditions":[1.5356162E-1,1.3470982E-2,1E0,4.3201867E-1,5.7353E-1,3.2556155E-1,5.59379E-1,6.330196E-1,6.028713E-1,1E0,7.8338504E-1,6.116663E-1,3.582109E-1,1E0,6.592961E-3,7.1077436E-1,1E0,1.09887505E-2,-0E0,2.197606E-3,8.8577217E-1,-3.318438E-3,3.3096257E-1,6.592961E-3,-1.36569105E-2,7.50586E-1,4.8885357E-1,1.3157704E-2,-0E0,1E0,7.403749E-1,-1.45419985E-2,-0E0,3.8859851E-3,1.6663112E-2,-5.3542396E-3,-1.6764604E-2,8.267112E-1,-1.2314641E-2,6.687053E-1,-1.36569105E-2,6.6349464E-3,-2.2328128E-3,-6.592961E-3,1.0621486E-2,-6.634975E-3,2.232796E-3],"split_indices":[36,0,56,47,48,49,41,44,48,1,170,164,36,219,0,34,145,0,0,0,192,0,146,0,0,168,49,0,0,203,36,0,0,0,0,0,0,186,0,172,0,0,0,0,0,0,0],"split_type":[0,0,0,0,0,0,0,0,0,0,0,0,0,0,0,0,0,0,0,0,0,0,0,0,0,0,0,0,0,0,0,0,0,0,0,0,0,0,0,0,0,0,0,0,0,0,0],"sum_hessian":[5.099262E1,3.7493033E0,4.7243317E1,2.1746723E1,2.5496593E1,9.248811E0,1.2497911E1,1.5247492E1,1.0249102E1,2.2498465E0,6.9989643E0,8.998395E0,3.4995162E0,1.3997547E1,1.2499448E0,2.9996467E0,7.2494545E0,1.2498465E0,1E0,1.2499939E0,5.7489705E0,1.9999235E0,6.9984717E0,1.2499448E0,2.2495716E0,7.4983263E0,6.4992204E0,1.9996468E0,1E0,4.7495055E0,2.4999492E0,4.7489705E0,1E0,1.4998369E0,5.498635E0,1.7498598E0,5.7484665E0,3.4996858E0,2.9995346E0,2.4999337E0,2.2495716E0,1.2499722E0,1.2499769E0,1.2499448E0,2.2497408E0,1.2499567E0,1.249977E0],"tree_param":{"num_deleted":"0","num_feature":"225","num_nodes":"47","size_leaf_vector":"0"}},{"base_weights":[-1.1232494E-1,1.3367063E-2,-2.526439E-1,1.0733077E-1,-5.52132E-1,-5.2119064E-1,5.7662624E-1,-8.704958E-1,-4.3265473E-2,7.5656205E-1,-9.752051E-1,1.071761E0,-6.5172374E-1,-1.0414349E0,6.556534E-3,9.8032814E-1,-5.3427935E-1,1.0928632E-2,-0E0,2.1854038E-3,-1.2287294E0,-3.2963308E-3,1.4634644E0,6.556534E-3,-1.3564584E-2,-1.492437E0,-3.9151427E-1,1.3071901E-2,-0E0,-9.3793917E-1,2.8142545E-1,-1.4425067E-2,-0E0,3.8468125E-3,1.6532768E-2,-1.6630685E-2,-5.3102844E-3,4.339953E-1,-1.2224048E-2,-2.8142664E-1,-1.3564584E-2,-2.2359048E-3,6.613644E-3,-6.556534E-3,1.0548997E-2,-6.598258E-3,2.2204234E-3],"categories":[],"categories_nodes":[],"categories_segments":[],"categories_sizes":[],"default_left":[0,0,0,0,0,0,0,0,0,0,0,0,0,0,0,0,0,0,0,0,0,0,0,0,0,0,0,0,0,0,0,0,0,0,0,0,0,0,0,0,0,0,0,0,0,0,0],"id":3,"left_children":[1,-1,3,5,7,9,11,13,15,17,19,21,23,25,-1,27,29,-1,-1,-1,31,-1,33,-1,-1,35,37,-1,-1,39,41,-1,-1,-1,-1,-1,-1,43,-1,45,-1,-1,-1,-1,-1,-1,-1],"loss_changes":[1.0907377E1,0E0,5.2594137E0,7.008794E0,4.254242E0,6.682477E0,8.906399E0,4.920638E0,6.1770315E0,8.2681894E-1,2.688974E0,5.969799E0,5.034465E0,3.8108215E0,0E0,1.2814755E0,2.9800367E0,0E0,0E0,0E0,1.7724495E0,0E0,1.0014515E0,0E0,0E0,5.106487E-1,5.6736345E0,0E0,0E0,1.197854E0,8.194214E-1,0E0,0E0,0E0,0E0,0E0,0E0,3.7357278E0,0E0,8.132825E-1,0E0,0E0,0E0,0E0,0E0,0E0,0E0],"parents":[2147483647,0,0,2,2,3,3,4,4,5,5,6,6,7,7,8,8,9,9,10,10,11,11,12,12,13,13,15,15,16,16,20,20,22,22,25,25,26,26,29,29,30,30,37,37,39,39],"right_children":[2,-1,4,6,8,10,12,14,16,18,20,22,24,26,-1,28,30,-1,-1,-1,32,-1,34,-1,-1,36,38,-1,-1,40,42,-1,-1,-1,-1,-1,-1,44,-1,46,-1,-1,-1,-1,-1,-1,-1],"split_conditions":[1.5356162E-1,1.3367063E-2,1E0,4.3201867E-1,5.7353E-1,3.2556155E-1,5.59379E-1,6.330196E-1,6.028713E-1,1E0,7.8338504E-1,6.116663E-1,3.582109E-1,1E0,6.556534E-3,7.1077436E-1,1E0,1.0928632E-2,-0E0,2.1854038E-3,8.8577217E-1,-3.2963308E-3,-1.5462362E-3,6.556534E-3,-1.3564584E-2,5.3501487E-1,4.8885357E-1,1.3071901E-2,-0E0,1E0,1E0,-1.4425067E-2,-0E0,3.8468125E-3,1.6532768E-2,-1.6630685E-2,-5.3102844E-3,8.267112E-1,-1.2224048E-2,6.9101715E-1,-1.3564584E-2,-2.2359048E-3,6.613644E-3,-6.556534E-3,1.0548997E-2,-6.598258E-3,2.2204234E-3],"split_indices":[36,0,56,47,48,49,41,44,48,1,170,164,36,219,0,34,145,0,0,0,192,0,200,0,0,158,49,0,0,203,198,0,0,0,0,0,0,186,0,34,0,0,0,0,0,0,0],"split_type":[0,0,0,0,0,0,0,0,0,0,0,0,0,0,0,0,0,0,0,0,0,0,0,0,0,0,0,0,0,0,0,0,0,0,0,0,0,0,0,0,0,0,0,0,0,0,0],"sum_hessian":[5.0983696E1,3.748445E0,4.7235252E1,2.1742779E1,2.5492472E1,9.247346E0,1.2495433E1,1.5244409E1,1.0248064E1,2.2496567E0,6.9976892E0,8.996513E0,3.4989195E0,1.3994533E1,1.2498764E0,2.9992108E0,7.248853E0,1.2496567E0,1E0,1.2499863E0,5.747703E0,1.9999106E0,6.996603E0,1.2498764E0,2.249043E0,7.496274E0,6.4982586E0,1.9992107E0,1E0,4.7489405E0,2.4999127E0,4.747703E0,1E0,1.4997182E0,5.496885E0,5.746547E0,1.7497267E0,3.4992974E0,2.998961E0,2.4998975E0,2.249043E0,1.2499651E0,1.2499477E0,1.2498764E0,2.2494211E0,1.2499193E0,1.2499781E0],"tree_param":{"num_deleted":"0","num_feature":"225","num_nodes":"47","size_leaf_vector":"0"}},{"base_weights":[-1.1126646E-1,1.3264876E-2,-2.5049412E-1,1.066687E-1,-5.4763997E-1,-5.162098E-1,5.717536E-1,-8.6347294E-1,-4.288229E-2,7.524209E-1,-9.6719813E-1,1.0630326E0,-6.468842E-1,-1.033322E0,6.5203873E-3,9.739416E-1,-5.306363E-1,1.0869203E-2,-0E0,2.1732731E-3,-1.218898E0,-3.2743807E-3,1.4518515E0,6.5203873E-3,-1.3473741E-2,-1.4805928E0,-3.8876617E-1,1.2987398E-2,-0E0,-9.3181115E-1,2.7986616E-1,-1.4310298E-2,-0E0,3.8146211E-3,1.6402703E-2,-5.2664247E-3,-1.6499799E-2,4.3059483E-1,-1.2134795E-2,-2.798686E-1,-1.3473741E-2,6.600843E-3,-2.247375E-3,-6.5203863E-3,1.0477409E-2,-6.5910844E-3,2.2374757E-3],"categories":[],"categories_nodes":[],"categories_segments":[],"categories_sizes":[],"default_left":[0,0,0,0,0,0,0,0,0,0,0,0,0,0,0,0,0,0,0,0,0,0,0,0,0,0,0,0,0,0,0,0,0,0,0,0,0,0,0,0,0,0,0,0,0,0,0],"id":4,"left_children":[1,-1,3,5,7,9,11,13,15,17,19,21,23,25,-1,27,29,-1,-1,-1,31,-1,33,-1,-1,35,37,-1,-1,39,41,-1,-1,-1,-1,-1,-1,43,-1,45,-1,-1,-1,-1,-1,-1,-1],"loss_changes":[1.0735642E1,0E0,5.176408E0,6.8819466E0,4.1854663E0,6.5894747E0,8.765193E0,4.8541107E0,6.094676E0,8.178216E-1,2.6488457E0,5.878504E0,4.9712753E0,3.7459831E0,0E0,1.2648969E0,2.9426475E0,0E0,0E0,0E0,1.7442799E0,0E0,9.8654175E-1,0E0,0E0,5.034771E-1,5.5884757E0,0E0,0E0,1.1802177E0,8.198272E-1,0E0,0E0,0E0,0E0,0E0,0E0,3.688982E0,0E0,8.159113E-1,0E0,0E0,0E0,0E0,0E0,0E0,0E0],"parents":[2147483647,0,0,2,2,3,3,4,4,5,5,6,6,7,7,8,8,9,9,10,10,11,11,12,12,13,13,15,15,16,16,20,20,22,22,25,25,26,26,29,29,30,30,37,37,39,39],"right_children":[2,-1,4,6,8,10,12,14,16,18,20,22,24,26,-1,28,30,-1,-1,-1,32,-1,34,-1,-1,36,38,-1,-1,40,42,-1,-1,-1,-1,-1,-1,44,-1,46,-1,-1,-1,-1,-1,-1,-1],"split_conditions":[1.5356162E-1,1.3264876E-2,1E0,4.3201867E-1,5.7353E-1,3.2556155E-1,5.59379E-1,6.330196E-1,6.028713E-1,1E0,7.8338504E-1,6.116663E-1,3.582109E-1,1E0,6.5203873E-3,7.1077436E-1,1E0,1.0869203E-2,-0E0,2.1732731E-3,8.8577217E-1,-3.2743807E-3,3.3096257E-1,6.5203873E-3,-1.3473741E-2,7.50586E-1,4.8885357E-1,1.2987398E-2,-0E0,1E0,7.5624806E-1,-1.4310298E-2,-0E0,3.8146211E-3,1.6402703E-2,-5.2664247E-3,-1.6499799E-2,8.267112E-1,-1.2134795E-2,6.687053E-1,-1.3473741E-2,6.600843E-3,-2.247375E-3,-6.5203863E-3,1.0477409E-2,-6.5910844E-3,2.2374757E-3],"split_indices":[36,0,56,47,48,49,41,44,48,1,170,164,36,219,0,34,145,0,0,0,192,0,146,0,0,168,49,0,0,203,146,0,0,0,0,0,0,186,0,172,0,0,0,0,0,0,0],"split_type":[0,0,0,0,0,0,0,0,0,0,0,0,0,0,0,0,0,0,0,0,0,0,0,0,0,0,0,0,0,0,0,0,0,0,0,0,0,0,0,0,0,0,0,0,0,0,0],"sum_hessian":[5.0971317E1,3.7472577E0,4.7224056E1,2.1737309E1,2.548675E1,9.245319E0,1.2491989E1,1.524014E1,1.0246609E1,2.249393E0,6.9959264E0,8.9938965E0,3.4980922E0,1.3990358E1,1.2497815E0,2.9986062E0,7.248003E0,1.2493931E0,1E0,1.2499757E0,5.7459507E0,1.9998868E0,6.99401E0,1.2497815E0,2.2483106E0,7.4934325E0,6.4969263E0,1.9986063E0,1E0,4.7481413E0,2.4998615E0,4.7459507E0,1E0,1.4995804E0,5.4944296E0,1.7495368E0,5.7438955E0,3.4987593E0,2.998167E0,2.4998307E0,2.2483106E0,1.2499223E0,1.2499391E0,1.2497815E0,2.248978E0,1.2498788E0,1.2499521E0],"tree_param":{"num_deleted":"0","num_feature":"225","num_nodes":"47","size_leaf_vector":"0"}},{"base_weights":[-1.1022458E-1,1.3164372E-2,-2.4837801E-1,1.0601826E-1,-5.432163E-1,-5.1130134E-1,5.6696254E-1,-8.565687E-1,-4.250376E-2,7.483197E-1,-9.593147E-1,1.0544527E0,-6.4211285E-1,-1.0253513E0,6.4845155E-3,9.6763754E-1,-5.2703184E-1,1.0810457E-2,-0E0,2.1612127E-3,-1.2092317E0,-3.2525896E-3,1.4404612E0,6.4845155E-3,-1.3384342E-2,-1.4689772E0,-3.8605723E-1,1.2904161E-2,-0E0,-9.257566E-1,2.7831602E-1,-1.4197626E-2,-0E0,3.776184E-3,1.627788E-2,-5.223256E-3,-1.6371608E-2,4.2723384E-1,-1.2046856E-2,-2.783193E-1,-1.3384342E-2,-2.248827E-3,6.578374E-3,-6.4845174E-3,1.0406696E-2,2.2291439E-3,-6.5588895E-3],"categories":[],"categories_nodes":[],"categories_segments":[],"categories_sizes":[],"default_left":[0,0,0,0,0,0,0,0,0,0,0,0,0,0,0,0,0,0,0,0,0,0,0,0,0,0,0,0,0,0,0,0,0,0,0,0,0,0,0,0,0,0,0,0,0,0,0],"id":5,"left_children":[1,-1,3,5,7,9,11,13,15,17,19,21,23,25,-1,27,29,-1,-1,-1,31,-1,33,-1,-1,35,37,-1,-1,39,41,-1,-1,-1,-1,-1,-1,43,-1,45,-1,-1,-1,-1,-1,-1,-1],"loss_changes":[1.0567328E1,0E0,5.0950165E0,6.7578053E0,4.1182113E0,6.4981327E0,8.626833E0,4.7888527E0,6.013643E0,8.089676E-1,2.609579E0,5.7892942E0,4.909163E0,3.682764E0,0E0,1.2486553E0,2.9058466E0,0E0,0E0,0E0,1.7168226E0,0E0,9.762554E-1,0E0,0E0,4.965458E-1,5.5048814E0,0E0,0E0,1.1630254E0,8.163103E-1,0E0,0E0,0E0,0E0,0E0,0E0,3.6429417E0,0E0,8.085395E-1,0E0,0E0,0E0,0E0,0E0,0E0,0E0],"parents":[2147483647,0,0,2,2,3,3,4,4,5,5,6,6,7,7,8,8,9,9,10,10,11,11,12,12,13,13,15,15,16,16,20,20,22,22,25,25,26,26,29,29,30,30,37,37,39,39],"right_children":[2,-1,4,6,8,10,12,14,16,18,20,22,24,26,-1,28,30,-1,-1,-1,32,-1,34,-1,-1,36,38,-1,-1,40,42,-1,-1,-1,-1,-1,-1,44,-1,46,-1,-1,-1,-1,-1,-1,-1],"split_conditions":[1.5356162E-1,1.3164372E-2,1E0,4.3201867E-1,5.7353E-1,3.2556155E-1,5.59379E-1,6.330196E-1,6.028713E-1,1E0,7.8338504E-1,6.116663E-1,3.582109E-1,1E0,6.4845155E-3,7.1077436E-1,1E0,1.0810457E-2,-0E0,2.1612127E-3,8.8577217E-1,-3.2525896E-3,-1.5462362E-3,6.4845155E-3,-1.3384342E-2,7.141459E-1,4.8885357E-1,1.2904161E-2,-0E0,1E0,1E0,-1.4197626E-2,-0E0,3.776184E-3,1.627788E-2,-5.223256E-3,-1.6371608E-2,8.267112E-1,-1.2046856E-2,1E0,-1.3384342E-2,-2.248827E-3,6.578374E-3,-6.4845174E-3,1.0406696E-2,2.2291439E-3,-6.5588895E-3],"split_indices":[36,0,56,47,48,49,41,44,48,1,170,164,36,219,0,34,145,0,0,0,192,0,200,0,0,166,49,0,0,203,202,0,0,0,0,0,0,186,0,201,0,0,0,0,0,0,0],"split_type":[0,0,0,0,0,0,0,0,0,0,0,0,0,0,0,0,0,0,0,0,0,0,0,0,0,0,0,0,0,0,0,0,0,0,0,0,0,0,0,0,0,0,0,0,0,0,0],"sum_hessian":[5.0955585E1,3.745749E0,4.7209835E1,2.173034E1,2.5479498E1,9.242745E0,1.2487594E1,1.5234715E1,1.0244782E1,2.249057E0,6.993688E0,8.990554E0,3.497039E0,1.3985055E1,1.2496605E0,2.997837E0,7.2469454E0,1.2490569E0,1E0,1.2499623E0,5.743726E0,1.9998524E0,6.9907017E0,1.2496605E0,2.2473786E0,7.489823E0,6.495232E0,1.9978371E0,1E0,4.747142E0,2.4998035E0,4.743726E0,1E0,1.4993894E0,5.4913125E0,1.7492949E0,5.740528E0,3.4980745E0,2.9971578E0,2.4997633E0,2.2473786E0,1.2499634E0,1.2498401E0,1.2496605E0,2.248414E0,1.2499839E0,1.2497793E0],"tree_param":{"num_deleted":"0","num_feature":"225","num_nodes":"47","size_leaf_vector":"0"}},{"base_weights":[-1.0919874E-1,1.30655095E-2,-2.4629469E-1,1.0537921E-1,-5.3885984E-1,3.030824E-1,-1.29644275E-2,-8.497795E-1,-4.212992E-2,-3.541477E-1,7.653892E-1,-1.0175185E0,6.448918E-3,9.614143E-1,-5.2346754E-1,5.838386E-1,-9.5967156E-1,1.3819965E0,-6.37408E-1,-1.4575833E0,-3.8338587E-1,1.2822165E-2,-0E0,-9.197778E-1,2.7677587E-1,1.3128891E-2,-6.47635E-3,-1.2831962E-2,6.057754E-5,2.074594E-3,1.5448482E-2,6.448918E-3,-1.329635E-2,-1.625007E-2,-5.170593E-3,4.239124E-1,-1.1960193E-2,-2.7678078E-1,-1.329635E-2,-2.2574833E-3,6.562959E-3,-6.4489166E-3,1.0336847E-2,-6.5380717E-3,2.2322647E-3],"categories":[],"categories_nodes":[],"categories_segments":[],"categories_sizes":[],"default_left":[0,0,0,0,0,0,0,0,0,0,0,0,0,0,0,0,0,0,0,0,0,0,0,0,0,0,0,0,0,0,0,0,0,0,0,0,0,0,0,0,0,0,0,0,0],"id":6,"left_children":[1,-1,3,5,7,9,-1,11,13,15,17,19,-1,21,23,25,27,29,31,33,35,-1,-1,37,39,-1,-1,-1,-1,-1,-1,-1,-1,-1,-1,41,-1,43,-1,-1,-1,-1,-1,-1,-1],"loss_changes":[1.04023485E1,0E0,5.0152054E0,6.690186E0,4.0524178E0,6.567874E0,0E0,4.7248297E0,5.933915E0,5.809229E0,1.167791E1,3.6211166E0,0E0,1.2327416E0,2.8696373E0,4.663459E0,1.8806143E0,1.3984356E0,4.8481035E0,4.9594688E-1,5.422817E0,0E0,0E0,1.1462455E0,8.156191E-1,0E0,0E0,0E0,0E0,0E0,0E0,0E0,0E0,0E0,0E0,3.5975919E0,0E0,8.0569065E-1,0E0,0E0,0E0,0E0,0E0,0E0,0E0],"parents":[2147483647,0,0,2,2,3,3,4,4,5,5,7,7,8,8,9,9,10,10,11,11,13,13,14,14,15,15,16,16,17,17,18,18,19,19,20,20,23,23,24,24,35,35,37,37],"right_children":[2,-1,4,6,8,10,-1,12,14,16,18,20,-1,22,24,26,28,30,32,34,36,-1,-1,38,40,-1,-1,-1,-1,-1,-1,-1,-1,-1,-1,42,-1,44,-1,-1,-1,-1,-1,-1,-1],"split_conditions":[1.5356162E-1,1.30655095E-2,1E0,4.7967257E-3,5.7353E-1,4.3201867E-1,-1.29644275E-2,6.330196E-1,6.028713E-1,3.4736326E-1,5.59379E-1,1E0,6.448918E-3,7.1077436E-1,1E0,1E0,1E0,2.2334287E-1,3.582109E-1,5.3501487E-1,4.8885357E-1,1.2822165E-2,-0E0,1E0,1E0,1.3128891E-2,-6.47635E-3,-1.2831962E-2,6.057754E-5,2.074594E-3,1.5448482E-2,6.448918E-3,-1.329635E-2,-1.625007E-2,-5.170593E-3,8.267112E-1,-1.1960193E-2,6.9101715E-1,-1.329635E-2,-2.2574833E-3,6.562959E-3,-6.4489166E-3,1.0336847E-2,-6.5380717E-3,2.2322647E-3],"split_indices":[36,0,56,200,48,47,0,44,48,49,41,219,0,34,145,213,198,35,36,158,49,0,0,203,198,0,0,0,0,0,0,0,0,0,0,186,0,34,0,0,0,0,0,0,0],"split_type":[0,0,0,0,0,0,0,0,0,0,0,0,0,0,0,0,0,0,0,0,0,0,0,0,0,0,0,0,0,0,0,0,0,0,0,0,0,0,0,0,0,0,0,0,0],"sum_hessian":[5.093656E1,3.743927E0,4.7192635E1,2.1721914E1,2.547072E1,1.9723976E1,1.9979382E0,1.5228162E1,1.0242558E1,8.241522E0,1.1482454E1,1.3978648E1,1.2495137E0,2.9969063E0,7.2456512E0,3.247224E0,4.9942975E0,7.986689E0,3.4957657E0,7.485464E0,6.493184E0,1.9969064E0,1E0,4.7459216E0,2.4997294E0,1.9981673E0,1.2490568E0,3.4947908E0,1.4995068E0,1.2494168E0,6.7372723E0,1.2495137E0,2.2462518E0,5.7365303E0,1.7489338E0,3.4972458E0,2.995938E0,2.49967E0,2.2462518E0,1.2499024E0,1.2498271E0,1.2495139E0,2.2477322E0,1.2497277E0,1.2499422E0],"tree_param":{"num_deleted":"0","num_feature":"225","num_nodes":"45","size_leaf_vector":"0"}},{"base_weights":[-1.08515404E-1,1.296824E-2,-2.4459374E-1,1.0399831E-1,-5.3456813E-1,3.0039454E-1,-1.2881554E-2,-8.4310126E-1,-4.1760657E-2,-3.513561E-1,7.58966E-1,-1.0098188E0,6.4135897E-3,9.5527E-1,-5.199416E-1,5.7965684E-1,-9.524661E-1,1.3708398E0,-6.3276845E-1,-1.4464014E0,-3.807516E-1,1.27413785E-2,-0E0,-9.138717E-1,2.7524495E-1,1.3043594E-2,-6.4408234E-3,-1.2736833E-2,6.021375E-5,2.0631047E-3,1.5323147E-2,6.4135897E-3,-1.3209734E-2,-1.6123379E-2,-5.1381E-3,4.2062917E-1,-1.1874777E-2,-2.752519E-1,-1.3209734E-2,6.540665E-3,-2.2589227E-3,-6.4135883E-3,1.0267841E-2,-6.5311217E-3,2.2490704E-3],"categories":[],"categories_nodes":[],"categories_segments":[],"categories_sizes":[],"default_left":[0,0,0,0,0,0,0,0,0,0,0,0,0,0,0,0,0,0,0,0,0,0,0,0,0,0,0,0,0,0,0,0,0,0,0,0,0,0,0,0,0,0,0,0,0],"id":7,"left_children":[1,-1,3,5,7,9,-1,11,13,15,17,19,-1,21,23,25,27,29,31,33,35,-1,-1,37,39,-1,-1,-1,-1,-1,-1,-1,-1,-1,-1,41,-1,43,-1,-1,-1,-1,-1,-1,-1],"loss_changes":[1.0245216E1,0E0,4.92507E0,6.59691E0,3.988039E0,6.458012E0,0E0,4.6620007E0,5.85546E0,5.7227592E0,1.1491827E1,3.5609598E0,0E0,1.2171454E0,2.8339994E0,4.60617E0,1.8527074E0,1.3728714E0,4.7880726E0,4.8391342E-1,5.342244E0,0E0,0E0,1.1298723E0,8.121269E-1,0E0,0E0,0E0,0E0,0E0,0E0,0E0,0E0,0E0,0E0,3.5529218E0,0E0,8.082725E-1,0E0,0E0,0E0,0E0,0E0,0E0,0E0],"parents":[2147483647,0,0,2,2,3,3,4,4,5,5,7,7,8,8,9,9,10,10,11,11,13,13,14,14,15,15,16,16,17,17,18,18,19,19,20,20,23,23,24,24,35,35,37,37],"right_children":[2,-1,4,6,8,10,-1,12,14,16,18,20,-1,22,24,26,28,30,32,34,36,-1,-1,38,40,-1,-1,-1,-1,-1,-1,-1,-1,-1,-1,42,-1,44,-1,-1,-1,-1,-1,-1,-1],"split_conditions":[1.5356162E-1,1.296824E-2,1E0,4.7967257E-3,5.7353E-1,4.3201867E-1,-1.2881554E-2,6.330196E-1,6.028713E-1,3.4736326E-1,5.59379E-1,1E0,6.4135897E-3,7.1077436E-1,1E0,1E0,1E0,2.2334287E-1,3.582109E-1,5.3501487E-1,4.8885357E-1,1.27413785E-2,-0E0,1E0,7.5624806E-1,1.3043594E-2,-6.4408234E-3,-1.2736833E-2,6.021375E-5,2.0631047E-3,1.5323147E-2,6.4135897E-3,-1.3209734E-2,-1.6123379E-2,-5.1381E-3,8.267112E-1,-1.1874777E-2,6.687053E-1,-1.3209734E-2,6.540665E-3,-2.2589227E-3,-6.4135883E-3,1.0267841E-2,-6.5311217E-3,2.2490704E-3],"split_indices":[36,0,56,200,48,47,0,44,48,49,41,219,0,34,145,213,198,35,36,158,49,0,0,203,146,0,0,0,0,0,0,0,0,0,0,186,0,172,0,0,0,0,0,0,0],"split_type":[0,0,0,0,0,0,0,0,0,0,0,0,0,0,0,0,0,0,0,0,0,0,0,0,0,0,0,0,0,0,0,0,0,0,0,0,0,0,0,0,0,0,0,0,0],"sum_hessian":[5.091495E1,3.7417996E0,4.7173153E1,2.171267E1,2.5460484E1,1.9715548E1,1.9971211E0,1.5220522E1,1.0239961E1,8.239234E0,1.1476314E1,1.397118E1,1.2493418E0,2.9958177E0,7.244143E0,3.2465668E0,4.9926677E0,7.9820375E0,3.494276E0,7.4803905E0,6.4907894E0,1.9958178E0,1E0,4.7444963E0,2.4996464E0,1.9976633E0,1.2489034E0,3.4931602E0,1.4995072E0,1.249381E0,6.7326565E0,1.2493418E0,2.244934E0,5.731672E0,1.7487189E0,3.4962764E0,2.994513E0,2.4995625E0,2.244934E0,1.2497592E0,1.2498872E0,1.249342E0,2.2469344E0,1.2496597E0,1.2499027E0],"tree_param":{"num_deleted":"0","num_feature":"225","num_nodes":"45","size_leaf_vector":"0"}},{"base_weights":[-1.078433E-1,1.2872522E-2,-2.4292016E-1,1.02639705E-1,-5.303405E-1,2.9775134E-1,-1.2799914E-2,-8.365333E-1,-4.13958E-2,1.1418463E0,-6.194437E-2,-1.0022509E0,6.3785277E-3,9.492032E-1,-5.164529E-1,1.3396967E-2,1.9410042E-3,-8.4659725E-1,2.3768671E-1,-1.4354311E0,-3.7815356E-1,1.2661775E-2,-0E0,-9.080346E-1,2.7372384E-1,-1.234175E-2,-1.5070424E-3,8.020852E-1,-2.8034094E-1,-5.0863973E-3,-1.600689E-2,4.1738364E-1,-1.1790579E-2,-2.737315E-1,-1.3124461E-2,-2.2617695E-3,6.519893E-3,1.2416469E-2,-1.6853645E-3,-9.619953E-3,9.498342E-3,-6.3785263E-3,1.0199658E-2,-6.4952695E-3,2.2366697E-3],"categories":[],"categories_nodes":[],"categories_segments":[],"categories_sizes":[],"default_left":[0,0,0,0,0,0,0,0,0,0,0,0,0,0,0,0,0,0,0,0,0,0,0,0,0,0,0,0,0,0,0,0,0,0,0,0,0,0,0,0,0,0,0,0,0],"id":8,"left_children":[1,-1,3,5,7,9,-1,11,13,15,17,19,-1,21,23,-1,-1,25,27,29,31,-1,-1,33,35,-1,-1,37,39,-1,-1,41,-1,43,-1,-1,-1,-1,-1,-1,-1,-1,-1,-1,-1],"loss_changes":[1.0091119E1,0E0,4.8368006E0,6.5053344E0,3.9250555E0,6.357338E0,0E0,4.6003466E0,5.7782536E0,9.097347E-1,3.8376906E0,3.5022888E0,0E0,1.2018595E0,2.7989135E0,0E0,0E0,1.025945E0,3.7257063E0,4.8379135E-1,5.2631283E0,0E0,0E0,1.113904E0,8.092127E-1,0E0,0E0,2.76465E0,6.7705517E0,0E0,0E0,3.5089157E0,0E0,7.9939604E-1,0E0,0E0,0E0,0E0,0E0,0E0,0E0,0E0,0E0,0E0,0E0],"parents":[2147483647,0,0,2,2,3,3,4,4,5,5,7,7,8,8,9,9,10,10,11,11,13,13,14,14,17,17,18,18,19,19,20,20,23,23,24,24,27,27,28,28,31,31,33,33],"right_children":[2,-1,4,6,8,10,-1,12,14,16,18,20,-1,22,24,-1,-1,26,28,30,32,-1,-1,34,36,-1,-1,38,40,-1,-1,42,-1,44,-1,-1,-1,-1,-1,-1,-1,-1,-1,-1,-1],"split_conditions":[1.5356162E-1,1.2872522E-2,1E0,4.7967257E-3,5.7353E-1,7.8465915E-1,-1.2799914E-2,6.330196E-1,6.028713E-1,1E0,8.260294E-1,1E0,6.3785277E-3,7.1077436E-1,1E0,1.3396967E-2,1.9410042E-3,1E0,8.3604324E-1,7.50586E-1,4.8885357E-1,1.2661775E-2,-0E0,1E0,1E0,-1.234175E-2,-1.5070424E-3,1E0,5.360311E-1,-5.0863973E-3,-1.600689E-2,8.267112E-1,-1.1790579E-2,6.9101715E-1,-1.3124461E-2,-2.2617695E-3,6.519893E-3,1.2416469E-2,-1.6853645E-3,-9.619953E-3,9.498342E-3,-6.3785263E-3,1.0199658E-2,-6.4952695E-3,2.2366697E-3],"split_indices":[36,0,56,200,48,184,0,44,48,15,192,219,0,34,145,0,0,216,174,168,49,0,0,203,198,0,0,207,39,0,0,186,0,34,0,0,0,0,0,0,0,0,0,0,0],"split_type":[0,0,0,0,0,0,0,0,0,0,0,0,0,0,0,0,0,0,0,0,0,0,0,0,0,0,0,0,0,0,0,0,0,0,0,0,0,0,0,0,0,0,0,0,0],"sum_hessian":[5.0890007E1,3.7393744E0,4.7150635E1,2.1701836E1,2.54488E1,1.9705692E1,1.9961436E0,1.5211794E1,1.0237005E1,5.2383714E0,1.446732E1,1.3962648E1,1.2491452E0,2.9945745E0,7.242431E0,3.99154E0,1.2468312E0,3.4934506E0,1.0973869E1,7.4745917E0,6.4880567E0,1.9945744E0,1E0,4.7428837E0,2.4995475E0,1.7469656E0,1.7464851E0,4.989449E0,5.984421E0,1.7482111E0,5.726381E0,3.4951694E0,2.992887E0,2.499454E0,2.2434294E0,1.2498556E0,1.2496918E0,3.24202E0,1.7474294E0,3.9909759E0,1.9934448E0,1.2491453E0,2.2460241E0,1.2495462E0,1.2499079E0],"tree_param":{"num_deleted":"0","num_feature":"225","num_nodes":"45","size_leaf_vector":"0"}},{"base_weights":[-1.0702541E-1,1.2778317E-2,-2.4109128E-1,1.0161737E-1,-5.2617484E-1,2.954527E-1,-1.2719476E-2,-8.300703E-1,-4.103539E-2,-3.480681E-1,7.4856055E-1,-9.9480873E-1,6.343729E-3,9.4321245E-1,-5.1300263E-1,5.7662517E-1,-9.4530916E-1,1.3533232E0,-6.262529E-1,-1.4246603E0,-3.7559074E-1,1.2583329E-2,-0E0,-9.0226966E-1,2.7221224E-1,1.2937145E-2,-6.3560037E-3,-1.2614563E-2,8.359644E-6,2.0393021E-3,1.5128276E-2,6.346735E-3,-1.30767105E-2,-5.044949E-3,-1.5889002E-2,4.1417542E-1,-1.17075695E-2,-2.7222198E-1,-1.3040494E-2,-2.277001E-3,6.5118438E-3,-6.343729E-3,1.0132289E-2,-6.488449E-3,2.2533014E-3],"categories":[],"categories_nodes":[],"categories_segments":[],"categories_sizes":[],"default_left":[0,0,0,0,0,0,0,0,0,0,0,0,0,0,0,0,0,0,0,0,0,0,0,0,0,0,0,0,0,0,0,0,0,0,0,0,0,0,0,0,0,0,0,0,0],"id":9,"left_children":[1,-1,3,5,7,9,-1,11,13,15,17,19,-1,21,23,25,27,29,31,33,35,-1,-1,37,39,-1,-1,-1,-1,-1,-1,-1,-1,-1,-1,41,-1,43,-1,-1,-1,-1,-1,-1,-1],"loss_changes":[9.9377165E0,0E0,4.755784E0,6.4180107E0,3.8633976E0,6.2960906E0,0E0,4.5398216E0,5.7022796E0,5.6453214E0,1.1210545E1,3.4450073E0,0E0,1.1868751E0,2.7643838E0,4.51252E0,1.792769E0,1.3364658E0,4.689047E0,4.7817612E-1,5.18544E0,0E0,0E0,1.0983038E0,8.112527E-1,0E0,0E0,0E0,0E0,0E0,0E0,0E0,0E0,0E0,0E0,3.4655643E0,0E0,8.019396E-1,0E0,0E0,0E0,0E0,0E0,0E0,0E0],"parents":[2147483647,0,0,2,2,3,3,4,4,5,5,7,7,8,8,9,9,10,10,11,11,13,13,14,14,15,15,16,16,17,17,18,18,19,19,20,20,23,23,24,24,35,35,37,37],"right_children":[2,-1,4,6,8,10,-1,12,14,16,18,20,-1,22,24,26,28,30,32,34,36,-1,-1,38,40,-1,-1,-1,-1,-1,-1,-1,-1,-1,-1,42,-1,44,-1,-1,-1,-1,-1,-1,-1],"split_conditions":[1.5356162E-1,1.2778317E-2,1E0,4.7967257E-3,5.7353E-1,4.3201867E-1,-1.2719476E-2,6.330196E-1,6.028713E-1,3.4736326E-1,5.59379E-1,1E0,6.343729E-3,7.1077436E-1,1E0,1E0,1E0,2.2334287E-1,3.582109E-1,7.141459E-1,4.8885357E-1,1.2583329E-2,-0E0,1E0,1E0,1.2937145E-2,-6.3560037E-3,-1.2614563E-2,8.359644E-6,2.0393021E-3,1.5128276E-2,6.346735E-3,-1.30767105E-2,-5.044949E-3,-1.5889002E-2,8.267112E-1,-1.17075695E-2,6.687053E-1,-1.3040494E-2,-2.277001E-3,6.5118438E-3,-6.343729E-3,1.0132289E-2,-6.488449E-3,2.2533014E-3],"split_indices":[36,0,56,200,48,47,0,44,48,49,41,219,0,34,145,213,198,35,36,166,49,0,0,203,202,0,0,0,0,0,0,0,0,0,0,186,0,172,0,0,0,0,0,0,0],"split_type":[0,0,0,0,0,0,0,0,0,0,0,0,0,0,0,0,0,0,0,0,0,0,0,0,0,0,0,0,0,0,0,0,0,0,0,0,0,0,0,0,0,0,0,0,0],"sum_hessian":[5.0866505E1,3.7366586E0,4.7129845E1,2.1694138E1,2.5435707E1,1.969913E1,1.9950092E0,1.5202033E1,1.0233674E1,8.235121E0,1.1464008E1,1.3953109E1,1.2489241E0,2.9931798E0,7.2404943E0,3.2451913E0,4.989929E0,7.972597E0,3.491411E0,7.4681163E0,6.484993E0,1.9931799E0,1E0,4.74106E0,2.4994345E0,1.9967787E0,1.2484126E0,3.490385E0,1.4995444E0,1.2492191E0,6.723378E0,1.2489316E0,2.2424793E0,1.747777E0,5.7203393E0,3.493927E0,2.9910657E0,2.499317E0,2.2417428E0,1.2498664E0,1.2495681E0,1.2489241E0,2.245003E0,1.249461E0,1.2498558E0],"tree_param":{"num_deleted":"0","num_feature":"225","num_nodes":"45","size_leaf_vector":"0"}},{"base_weights":[-1.06375165E-1,1.1013829E0,-2.5842825E-1,1.4987899E-2,-2.2602384E-3,2.051365E-2,-6.441803E-1,1.8925723E-1,-1.1322521E-2,4.8786953E-1,-8.764905E-1,5.48785E-1,-4.000829E-1,-1.7815394E-3,1.0851127E-2,1.1709417E-1,-1.1245521E0,1.3450588E0,-4.7960486E-2,-1.0855589E0,4.5970085E-1,-6.6452473E-3,6.6467295E-3,-1.5768854E-2,-6.726183E-1,1.9158479E-3,1.5626932E-2,-1.0584954E-2,3.6862478E-1,-1.4090143E-2,-2.916467E-3,1.1407611E-2,-7.4671004E-3,6.2465486E-3,-9.823259E-1,-5.1025986E-3,6.9663255E-3,-1.4477808E-2,-2.418995E-3],"categories":[],"categories_nodes":[],"categories_segments":[],"categories_sizes":[],"default_left":[0,0,0,0,0,0,0,0,0,0,0,0,0,0,0,0,0,0,0,0,0,0,0,0,0,0,0,0,0,0,0,0,0,0,0,0,0,0,0],"id":10,"left_children":[1,3,5,-1,-1,7,9,11,-1,13,15,17,19,-1,-1,21,23,25,27,29,31,-1,-1,-1,33,-1,-1,-1,35,-1,-1,-1,-1,-1,37,-1,-1,-1,-1],"loss_changes":[9.803929E0,3.496653E0,5.0543365E0,0E0,0E0,5.691641E0,5.6062107E0,5.6055117E0,0E0,1.7825578E0,4.246793E0,7.7668433E0,6.516285E0,0E0,0E0,2.2569737E0,1.6898632E0,1.4524174E0,4.6972666E0,1.1242447E0,5.1502714E0,0E0,0E0,0E0,4.0183496E0,0E0,0E0,0E0,2.6577811E0,0E0,0E0,0E0,0E0,0E0,2.1414008E0,0E0,0E0,0E0,0E0],"parents":[2147483647,0,0,1,1,2,2,5,5,6,6,7,7,9,9,10,10,11,11,12,12,15,15,16,16,17,17,18,18,19,19,20,20,24,24,28,28,34,34],"right_children":[2,4,6,-1,-1,8,10,12,-1,14,16,18,20,-1,-1,22,24,26,28,30,32,-1,-1,-1,34,-1,-1,-1,36,-1,-1,-1,-1,-1,38,-1,-1,-1,-1],"split_conditions":[3.7491286E-1,2.68871E-1,1E0,1.4987899E-2,-2.2602384E-3,5.838382E-3,7.400798E-1,8.365014E-1,-1.1322521E-2,1E0,3.634536E-1,4.9229285E-1,9.0409875E-1,-1.7815394E-3,1.0851127E-2,7.73027E-1,1E0,1.8619491E-1,0E0,5.229635E-1,5.4873586E-1,-6.6452473E-3,6.6467295E-3,-1.5768854E-2,5.1189107E-1,1.9158479E-3,1.5626932E-2,-1.0584954E-2,4.189106E-1,-1.4090143E-2,-2.916467E-3,1.1407611E-2,-7.4671004E-3,6.2465486E-3,1E0,-5.1025986E-3,6.9663255E-3,-1.4477808E-2,-2.418995E-3],"split_indices":[153,37,221,0,0,200,180,174,0,214,49,38,186,0,0,166,51,35,198,39,149,0,0,0,34,0,0,0,34,0,0,0,0,0,209,0,0,0,0],"split_type":[0,0,0,0,0,0,0,0,0,0,0,0,0,0,0,0,0,0,0,0,0,0,0,0,0,0,0,0,0,0,0,0,0,0,0,0,0,0,0],"sum_hessian":[5.0835815E1,4.9862895E0,4.5849525E1,3.7380564E0,1.2482328E0,2.7158043E1,1.8691483E1,2.4419329E1,2.7387147E0,2.9952965E0,1.5696186E1,1.5209541E1,9.209787E0,1.7478571E0,1.2474394E0,3.2413335E0,1.2454852E1,5.9783173E0,9.231224E0,4.9782243E0,4.2315626E0,1.2473236E0,1.99401E0,4.9806285E0,7.4742236E0,1.24739E0,4.7309275E0,2.244858E0,6.9863663E0,2.9866369E0,1.9915876E0,2.7394607E0,1.4921021E0,1.2444931E0,6.22973E0,1.7477369E0,5.2386293E0,3.2385461E0,2.9911842E0],"tree_param":{"num_deleted":"0","num_feature":"225","num_nodes":"39","size_leaf_vector":"0"}},{"base_weights":[-1.0575013E-1,1.2623121E-2,-2.3817527E-1,9.966912E-2,-5.191407E-1,2.9136658E-1,-1.2581188E-2,-8.1860954E-1,-4.1239105E-2,-3.4331954E-1,7.384071E-1,-9.818467E-1,6.296724E-3,9.3214893E-1,-5.0780034E-1,5.699359E-1,-9.333774E-1,1.3355771E0,-6.183871E-1,-1.4076067E0,-3.691483E-1,1.21062705E-2,1.7711144E-3,-8.939737E-1,2.7058086E-1,1.2796928E-2,-6.2935227E-3,-1.2452505E-2,-1.6164956E-6,1.9866168E-3,1.4939143E-2,6.310308E-3,-1.294744E-2,-4.970118E-3,-1.5706133E-2,4.104802E-1,-1.1549013E-2,-2.702271E-1,-1.2918099E-2,6.4778626E-3,-2.2684003E-3,-6.2796483E-3,1.0038148E-2,2.2481603E-3,-6.45284E-3],"categories":[],"categories_nodes":[],"categories_segments":[],"categories_sizes":[],"default_left":[0,0,0,0,0,0,0,0,0,0,0,0,0,0,0,0,0,0,0,0,0,0,0,0,0,0,0,0,0,0,0,0,0,0,0,0,0,0,0,0,0,0,0,0,0],"id":11,"left_children":[1,-1,3,5,7,9,-1,11,13,15,17,19,-1,21,23,25,27,29,31,33,35,-1,-1,37,39,-1,-1,-1,-1,-1,-1,-1,-1,-1,-1,41,-1,43,-1,-1,-1,-1,-1,-1,-1],"loss_changes":[9.687186E0,0E0,4.6156654E0,6.2670856E0,3.7460947E0,6.120155E0,0E0,4.444251E0,5.572232E0,5.5044985E0,1.0912693E1,3.3763618E0,0E0,6.246278E-1,2.7178407E0,4.416842E0,1.7416639E0,1.3163328E0,4.6098213E0,4.7457695E-1,5.0554867E0,0E0,0E0,1.0747676E0,8.034753E-1,0E0,0E0,0E0,0E0,0E0,0E0,0E0,0E0,0E0,0E0,3.397939E0,0E0,7.9473233E-1,0E0,0E0,0E0,0E0,0E0,0E0,0E0],"parents":[2147483647,0,0,2,2,3,3,4,4,5,5,7,7,8,8,9,9,10,10,11,11,13,13,14,14,15,15,16,16,17,17,18,18,19,19,20,20,23,23,24,24,35,35,37,37],"right_children":[2,-1,4,6,8,10,-1,12,14,16,18,20,-1,22,24,26,28,30,32,34,36,-1,-1,38,40,-1,-1,-1,-1,-1,-1,-1,-1,-1,-1,42,-1,44,-1,-1,-1,-1,-1,-1,-1],"split_conditions":[1.5356162E-1,1.2623121E-2,1E0,4.7967257E-3,5.7353E-1,4.3201867E-1,-1.2581188E-2,6.330196E-1,6.028713E-1,3.4736326E-1,5.59379E-1,1E0,6.296724E-3,1E0,1E0,1E0,1E0,2.2334287E-1,3.582109E-1,7.50586E-1,4.8885357E-1,1.21062705E-2,1.7711144E-3,1E0,7.403749E-1,1.2796928E-2,-6.2935227E-3,-1.2452505E-2,-1.6164956E-6,1.9866168E-3,1.4939143E-2,6.310308E-3,-1.294744E-2,-4.970118E-3,-1.5706133E-2,8.267112E-1,-1.1549013E-2,1E0,-1.2918099E-2,6.4778626E-3,-2.2684003E-3,-6.2796483E-3,1.0038148E-2,2.2481603E-3,-6.45284E-3],"split_indices":[36,0,56,200,48,47,0,44,48,49,41,219,0,209,145,213,198,35,36,168,49,0,0,203,36,0,0,0,0,0,0,0,0,0,0,186,0,201,0,0,0,0,0,0,0],"split_type":[0,0,0,0,0,0,0,0,0,0,0,0,0,0,0,0,0,0,0,0,0,0,0,0,0,0,0,0,0,0,0,0,0,0,0,0,0,0,0,0,0,0,0,0,0],"sum_hessian":[5.0811836E1,3.7313726E0,4.7080463E1,2.1669468E1,2.5410995E1,1.967683E1,1.9926361E0,1.5183557E1,1.0227439E1,8.227644E0,1.1449187E1,1.3934992E1,1.2485642E0,2.9904795E0,7.2369595E0,3.2427757E0,4.984868E0,7.960948E0,3.4882393E0,7.456282E0,6.4787097E0,1.7438872E0,1.2465924E0,4.7378807E0,2.4990785E0,1.995038E0,1.2477375E0,3.4856331E0,1.4992352E0,1.2488017E0,6.7121468E0,1.2486513E0,2.239588E0,1.7468692E0,5.709413E0,3.4917612E0,2.9869485E0,2.499028E0,2.2388527E0,1.2493663E0,1.2497122E0,1.2484238E0,2.2433374E0,1.2498776E0,1.2491504E0],"tree_param":{"num_deleted":"0","num_feature":"225","num_nodes":"45","size_leaf_vector":"0"}},{"base_weights":[-1.0508939E-1,1.0871353E0,-2.551972E-1,1.481156E-2,-2.2601245E-3,1.9890642E-2,-6.3555735E-1,1.8643408E-1,-1.117749E-2,4.842548E-1,-8.6562526E-1,5.405077E-1,-3.942174E-1,-1.7605686E-3,1.0762339E-2,1.1447753E-1,-1.1104232E0,1.327651E0,-4.8752457E-2,-1.0714124E0,4.5494586E-1,-6.6107265E-3,6.584367E-3,-1.557867E-2,-6.6362643E-1,1.8813496E-3,1.5430359E-2,-1.0504028E-2,3.6432126E-1,-1.3926034E-2,-2.8522785E-3,1.127732E-2,-7.372516E-3,6.174939E-3,-9.696081E-1,-5.042581E-3,6.885151E-3,-1.4295063E-2,-2.3860151E-3],"categories":[],"categories_nodes":[],"categories_segments":[],"categories_sizes":[],"default_left":[0,0,0,0,0,0,0,0,0,0,0,0,0,0,0,0,0,0,0,0,0,0,0,0,0,0,0,0,0,0,0,0,0,0,0,0,0,0,0],"id":12,"left_children":[1,3,5,-1,-1,7,9,11,-1,13,15,17,19,-1,-1,21,23,25,27,29,31,-1,-1,-1,33,-1,-1,-1,35,-1,-1,-1,-1,-1,37,-1,-1,-1,-1],"loss_changes":[9.543495E0,3.4289036E0,4.909077E0,0E0,0E0,5.537308E0,5.4869723E0,5.4333653E0,0E0,1.7506306E0,4.1283245E0,7.576417E0,6.350911E0,0E0,0E0,2.2237453E0,1.652504E0,1.4200583E0,4.613811E0,1.1104836E0,5.0229926E0,0E0,0E0,0E0,3.9172542E0,0E0,0E0,0E0,2.5950456E0,0E0,0E0,0E0,0E0,0E0,2.0870733E0,0E0,0E0,0E0,0E0],"parents":[2147483647,0,0,1,1,2,2,5,5,6,6,7,7,9,9,10,10,11,11,12,12,15,15,16,16,17,17,18,18,19,19,20,20,24,24,28,28,34,34],"right_children":[2,4,6,-1,-1,8,10,12,-1,14,16,18,20,-1,-1,22,24,26,28,30,32,-1,-1,-1,34,-1,-1,-1,36,-1,-1,-1,-1,-1,38,-1,-1,-1,-1],"split_conditions":[3.7491286E-1,2.68871E-1,1E0,1.481156E-2,-2.2601245E-3,5.838382E-3,7.400798E-1,8.365014E-1,-1.117749E-2,1E0,3.634536E-1,4.9229285E-1,9.0409875E-1,-1.7605686E-3,1.0762339E-2,7.73027E-1,1E0,3.0387792E-1,0E0,5.544518E-1,5.4873586E-1,-6.6107265E-3,6.584367E-3,-1.557867E-2,5.1189107E-1,1.8813496E-3,1.5430359E-2,-1.0504028E-2,4.189106E-1,-1.3926034E-2,-2.8522785E-3,1.127732E-2,-7.372516E-3,6.174939E-3,1E0,-5.042581E-3,6.885151E-3,-1.4295063E-2,-2.3860151E-3],"split_indices":[153,37,221,0,0,200,180,174,0,214,49,38,186,0,0,166,51,40,198,40,149,0,0,0,34,0,0,0,34,0,0,0,0,0,209,0,0,0,0],"split_type":[0,0,0,0,0,0,0,0,0,0,0,0,0,0,0,0,0,0,0,0,0,0,0,0,0,0,0,0,0,0,0,0,0,0,0,0,0,0,0],"sum_hessian":[5.077662E1,4.9800925E0,4.5796528E1,3.7322557E0,1.2478367E0,2.712594E1,1.8670588E1,2.4391323E1,2.7346172E0,2.9938335E0,1.5676754E1,1.5194843E1,9.196479E0,1.747365E0,1.2464684E0,3.239412E0,1.2437342E1,5.968689E0,9.226154E0,4.970696E0,4.2257833E0,1.2466712E0,1.9927409E0,4.9716988E0,7.465643E0,1.2466486E0,4.7220407E0,2.2433724E0,6.982782E0,2.9813423E0,1.9893534E0,2.7359133E0,1.4898701E0,1.2430444E0,6.222599E0,1.7469463E0,5.2358356E0,3.2330554E0,2.9895434E0],"tree_param":{"num_deleted":"0","num_feature":"225","num_nodes":"39","size_leaf_vector":"0"}},{"base_weights":[-1.0448243E-1,1.2472342E-2,-2.353084E-1,9.777294E-2,-5.122191E-1,2.8739864E-1,-1.2446732E-2,-8.074568E-1,-4.131257E-2,1.1060131E0,-6.1347432E-2,-9.692493E-1,6.2503633E-3,7.670047E-1,-5.920675E-1,1.3038675E-2,1.7322984E-3,-1.0801337E-2,2.1818508E-1,-1.3910722E0,-3.628554E-1,1.3083513E-2,-1.5219713E-3,-1.3067451E-2,-7.0170105E-2,7.690963E-1,-3.25324E-1,-1.553224E-2,-4.889205E-3,4.0686348E-1,-1.1394715E-2,-7.827725E-3,4.2385387E-1,1.1316467E-2,-1.6900928E-3,-9.801681E-3,9.29691E-3,-6.2166066E-3,9.9458685E-3,-3.527122E-3,1.0961913E-2],"categories":[],"categories_nodes":[],"categories_segments":[],"categories_sizes":[],"default_left":[0,0,0,0,0,0,0,0,0,0,0,0,0,0,0,0,0,0,0,0,0,0,0,0,0,0,0,0,0,0,0,0,0,0,0,0,0,0,0,0,0],"id":13,"left_children":[1,-1,3,5,7,9,-1,11,13,15,17,19,-1,21,23,-1,-1,-1,25,27,29,-1,-1,-1,31,33,35,-1,-1,37,-1,-1,39,-1,-1,-1,-1,-1,-1,-1,-1],"loss_changes":[9.444558E0,0E0,4.4793954E0,6.1210055E0,3.634612E0,5.9632573E0,0E0,4.3516426E0,5.4493732E0,9.2239E-1,4.62945E0,3.31009E0,0E0,2.678566E0,2.607961E0,0E0,0E0,0E0,4.1243544E0,4.7563553E-1,4.9297714E0,0E0,0E0,0E0,2.1764455E0,2.477759E0,6.841488E0,0E0,0E0,3.3319592E0,0E0,0E0,2.3410559E0,0E0,0E0,0E0,0E0,0E0,0E0,0E0,0E0],"parents":[2147483647,0,0,2,2,3,3,4,4,5,5,7,7,8,8,9,9,10,10,11,11,13,13,14,14,18,18,19,19,20,20,24,24,25,25,26,26,29,29,32,32],"right_children":[2,-1,4,6,8,10,-1,12,14,16,18,20,-1,22,24,-1,-1,-1,26,28,30,-1,-1,-1,32,34,36,-1,-1,38,-1,-1,40,-1,-1,-1,-1,-1,-1,-1,-1],"split_conditions":[1.5356162E-1,1.2472342E-2,1E0,4.7967257E-3,5.7353E-1,7.7903515E-1,-1.2446732E-2,6.330196E-1,6.3343954E-1,4.9030888E-1,8.21202E-1,1E0,6.2503633E-3,5.401867E-1,2.0721207E0,1.3038675E-2,1.7322984E-3,-1.0801337E-2,8.3604324E-1,5.3501487E-1,4.8885357E-1,1.3083513E-2,-1.5219713E-3,-1.3067451E-2,1E0,1E0,5.360311E-1,-1.553224E-2,-4.889205E-3,8.267112E-1,-1.1394715E-2,-7.827725E-3,1E0,1.1316467E-2,-1.6900928E-3,-9.801681E-3,9.29691E-3,-6.2166066E-3,9.9458685E-3,-3.527122E-3,1.0961913E-2],"split_indices":[36,0,56,200,48,186,0,44,147,38,192,219,0,34,223,0,0,0,174,158,49,0,0,0,198,207,39,0,0,186,0,0,217,0,0,0,0,0,0,0,0],"split_type":[0,0,0,0,0,0,0,0,0,0,0,0,0,0,0,0,0,0,0,0,0,0,0,0,0,0,0,0,0,0,0,0,0,0,0,0,0,0,0,0,0],"sum_hessian":[5.074786E1,3.7251742E0,4.7022686E1,2.163999E1,2.5382696E1,1.9650234E1,1.989757E0,1.5162062E1,1.0220634E1,5.221759E0,1.4428474E1,1.39139385E1,1.2481228E0,3.9827278E0,6.2379065E0,3.9797757E0,1.2419833E0,2.489856E0,1.1938619E1,7.4426427E0,6.4712963E0,2.240105E0,1.742623E0,1.998018E0,4.239888E0,5.7228107E0,6.215808E0,5.696983E0,1.7456598E0,3.4891958E0,2.9821002E0,1.4966172E0,2.743271E0,3.9788072E0,1.7440037E0,4.2284684E0,1.9873394E0,1.2477944E0,2.2414012E0,1.4935633E0,1.2497078E0],"tree_param":{"num_deleted":"0","num_feature":"225","num_nodes":"41","size_leaf_vector":"0"}},{"base_weights":[-1.0370922E-1,1.2384284E-2,-2.3357801E-1,9.687496E-2,-5.0832796E-1,2.852987E-1,-1.2371385E-2,-8.014298E-1,-4.10794E-2,-3.3704364E-1,7.239528E-1,-9.623256E-1,6.2165186E-3,9.192093E-1,-5.0117356E-1,5.652473E-1,-9.206292E-1,1.3126564E0,-6.1178166E-1,-4.3574676E-1,-1.4640242E-2,1.1942759E-2,1.7424073E-3,-8.831156E-1,2.680199E-1,1.2661014E-2,-6.200288E-3,-1.2254081E-2,-5.957415E-5,1.9057478E-3,1.4698712E-2,6.2034135E-3,-1.2786606E-2,6.86577E-1,-1.0669689E0,-2.6629007E-1,-1.277162E-2,-2.258635E-3,6.4276084E-3,-2.031826E-3,1.2108247E-2,-1.3794543E-2,-1.9776546E-3,-6.379476E-3,2.236539E-3],"categories":[],"categories_nodes":[],"categories_segments":[],"categories_sizes":[],"default_left":[0,0,0,0,0,0,0,0,0,0,0,0,0,0,0,0,0,0,0,0,0,0,0,0,0,0,0,0,0,0,0,0,0,0,0,0,0,0,0,0,0,0,0,0,0],"id":14,"left_children":[1,-1,3,5,7,9,-1,11,13,15,17,19,-1,21,23,25,27,29,31,33,-1,-1,-1,35,37,-1,-1,-1,-1,-1,-1,-1,-1,39,41,43,-1,-1,-1,-1,-1,-1,-1,-1,-1],"loss_changes":[9.303294E0,0E0,4.40669E0,6.040757E0,3.5778885E0,5.878627E0,0E0,4.2956295E0,5.416844E0,5.3730507E0,1.0573048E1,3.2984753E0,0E0,6.087961E-1,2.6548755E0,4.306471E0,1.6588163E0,1.297246E0,4.4766645E0,6.8914466E0,0E0,0E0,0E0,1.0533223E0,7.9261786E-1,0E0,0E0,0E0,0E0,0E0,0E0,0E0,0E0,1.9895818E0,1.3448505E0,7.7966154E-1,0E0,0E0,0E0,0E0,0E0,0E0,0E0,0E0,0E0],"parents":[2147483647,0,0,2,2,3,3,4,4,5,5,7,7,8,8,9,9,10,10,11,11,13,13,14,14,15,15,16,16,17,17,18,18,19,19,23,23,24,24,33,33,34,34,35,35],"right_children":[2,-1,4,6,8,10,-1,12,14,16,18,20,-1,22,24,26,28,30,32,34,-1,-1,-1,36,38,-1,-1,-1,-1,-1,-1,-1,-1,40,42,44,-1,-1,-1,-1,-1,-1,-1,-1,-1],"split_conditions":[1.5356162E-1,1.2384284E-2,1E0,4.7967257E-3,5.7353E-1,4.3201867E-1,-1.2371385E-2,6.330196E-1,6.028713E-1,3.4736326E-1,5.59379E-1,4.8777607E-1,6.2165186E-3,1E0,1E0,1E0,1E0,2.2334287E-1,3.582109E-1,7.06377E-1,-1.4640242E-2,1.1942759E-2,1.7424073E-3,1E0,1E0,1.2661014E-2,-6.200288E-3,-1.2254081E-2,-5.957415E-5,1.9057478E-3,1.4698712E-2,6.2034135E-3,-1.2786606E-2,1E0,1E0,6.9101715E-1,-1.277162E-2,-2.258635E-3,6.4276084E-3,-2.031826E-3,1.2108247E-2,-1.3794543E-2,-1.9776546E-3,-6.379476E-3,2.236539E-3],"split_indices":[36,0,56,200,48,47,0,44,48,49,41,47,0,209,145,213,198,35,36,164,0,0,0,203,198,0,0,0,0,0,0,0,0,61,219,34,0,0,0,0,0,0,0,0,0],"split_type":[0,0,0,0,0,0,0,0,0,0,0,0,0,0,0,0,0,0,0,0,0,0,0,0,0,0,0,0,0,0,0,0,0,0,0,0,0,0,0,0,0,0,0,0,0],"sum_hessian":[5.071504E1,3.721275E0,4.6993763E1,2.1628132E1,2.5365631E1,1.9640175E1,1.9879564E0,1.5148111E1,1.0217519E1,8.215723E0,1.1424452E1,1.3900296E1,1.2478148E0,2.9864526E0,7.2310667E0,3.2391088E0,4.9766145E0,7.941597E0,3.4828548E0,7.6936483E0,6.206648E0,1.7406319E0,1.2458205E0,4.7328634E0,2.498203E0,1.9926584E0,1.2464504E0,3.4779863E0,1.4986283E0,1.2478156E0,6.6937814E0,1.2475923E0,2.2352626E0,2.7379074E0,4.955741E0,2.498145E0,2.2347186E0,1.2491665E0,1.2490367E0,1.2421483E0,1.4957591E0,3.213448E0,1.7422929E0,1.2487763E0,1.2493689E0],"tree_param":{"num_deleted":"0","num_feature":"225","num_nodes":"45","size_leaf_vector":"0"}},{"base_weights":[-1.029256E-1,1.2297539E-2,-2.3186013E-1,9.5624216E-2,-5.0406617E-1,2.828802E-1,-1.2297098E-2,-7.9490125E-1,-4.06011E-2,1.0916144E0,-6.1582655E-2,-9.548407E-1,6.1829225E-3,7.607707E-1,-5.8646655E-1,1.2881228E-2,1.6823348E-3,-1.0682114E-2,2.147761E-1,-4.3228522E-1,-1.4528777E-2,1.2973938E-2,-1.504105E-3,-1.295814E-2,-6.861294E-2,7.591688E-1,-3.2233477E-1,6.824008E-1,-1.0598066E0,-7.770965E-3,4.2237294E-1,1.1181295E-2,-1.6842971E-3,-9.693902E-3,9.182432E-3,-2.0206112E-3,1.2035299E-2,-1.3705149E-2,-1.9650608E-3,-3.475408E-3,1.0876354E-2],"categories":[],"categories_nodes":[],"categories_segments":[],"categories_sizes":[],"default_left":[0,0,0,0,0,0,0,0,0,0,0,0,0,0,0,0,0,0,0,0,0,0,0,0,0,0,0,0,0,0,0,0,0,0,0,0,0,0,0,0,0],"id":15,"left_children":[1,-1,3,5,7,9,-1,11,13,15,17,19,-1,21,23,-1,-1,-1,25,27,-1,-1,-1,-1,29,31,33,35,37,-1,39,-1,-1,-1,-1,-1,-1,-1,-1,-1,-1],"loss_changes":[9.164447E0,0E0,4.3233633E0,5.958978E0,3.5193558E0,5.8124537E0,0E0,4.2374706E0,5.351278E0,9.1077423E-1,4.516262E0,3.2466574E0,0E0,2.6294842E0,2.5686305E0,0E0,0E0,0E0,4.023385E0,6.800995E0,0E0,0E0,0E0,0E0,2.1501698E0,2.4245765E0,6.675333E0,1.9660738E0,1.3269353E0,0E0,2.2944047E0,0E0,0E0,0E0,0E0,0E0,0E0,0E0,0E0,0E0,0E0],"parents":[2147483647,0,0,2,2,3,3,4,4,5,5,7,7,8,8,9,9,10,10,11,11,13,13,14,14,18,18,19,19,24,24,25,25,26,26,27,27,28,28,30,30],"right_children":[2,-1,4,6,8,10,-1,12,14,16,18,20,-1,22,24,-1,-1,-1,26,28,-1,-1,-1,-1,30,32,34,36,38,-1,40,-1,-1,-1,-1,-1,-1,-1,-1,-1,-1],"split_conditions":[1.5356162E-1,1.2297539E-2,1E0,4.7967257E-3,5.7353E-1,7.7903515E-1,-1.2297098E-2,6.330196E-1,6.3343954E-1,4.9030888E-1,8.21202E-1,4.8777607E-1,6.1829225E-3,5.401867E-1,2.0721207E0,1.2881228E-2,1.6823348E-3,-1.0682114E-2,8.3604324E-1,7.06377E-1,-1.4528777E-2,1.2973938E-2,-1.504105E-3,-1.295814E-2,1E0,1E0,5.360311E-1,1E0,1E0,-7.770965E-3,1E0,1.1181295E-2,-1.6842971E-3,-9.693902E-3,9.182432E-3,-2.0206112E-3,1.2035299E-2,-1.3705149E-2,-1.9650608E-3,-3.475408E-3,1.0876354E-2],"split_indices":[36,0,56,200,48,186,0,44,147,38,192,47,0,34,223,0,0,0,174,164,0,0,0,0,198,207,39,61,219,0,217,0,0,0,0,0,0,0,0,0,0],"split_type":[0,0,0,0,0,0,0,0,0,0,0,0,0,0,0,0,0,0,0,0,0,0,0,0,0,0,0,0,0,0,0,0,0,0,0,0,0,0,0,0,0],"sum_hessian":[5.067548E1,3.7171237E0,4.695836E1,2.1609367E1,2.534899E1,1.962335E1,1.9860169E0,1.5135798E1,1.0213191E1,5.213648E0,1.4409702E1,1.3888314E1,1.2474843E0,3.9786036E0,6.2345877E0,3.973108E0,1.24054E0,2.4866917E0,1.1923011E1,7.688884E0,6.1994305E0,2.237192E0,1.7414118E0,1.9969369E0,4.2376504E0,5.7160425E0,6.206968E0,2.73794E0,4.950944E0,1.4960915E0,2.741559E0,3.973126E0,1.7429166E0,4.222968E0,1.984E0,1.2421025E0,1.4958375E0,3.208611E0,1.7423328E0,1.4922056E0,1.2493535E0],"tree_param":{"num_deleted":"0","num_feature":"225","num_nodes":"41","size_leaf_vector":"0"}},{"base_weights":[-1.0202435E-1,1.0591875E0,-2.4822693E-1,1.4482503E-2,-2.2958692E-3,2.1273281E-2,-6.2083524E-1,1.8470564E-1,-1.0953913E-2,4.7642037E-1,-8.4666145E-1,5.290111E-1,-3.810019E-1,-1.7271119E-3,1.0581021E-2,1.1413138E-1,-1.0871005E0,1.2986826E0,-4.6255242E-2,-1.0456507E0,4.5117578E-1,-6.581205E-3,6.5567247E-3,-1.5286381E-2,-6.47122E-1,1.7938514E-3,1.5114074E-2,-1.0344672E-2,3.61102E-1,-1.3620285E-2,-2.7424607E-3,1.1087584E-2,-7.1752374E-3,6.0595083E-3,-9.467438E-1,-4.9417363E-3,6.8000834E-3,-1.3980641E-2,-2.3130411E-3],"categories":[],"categories_nodes":[],"categories_segments":[],"categories_sizes":[],"default_left":[0,0,0,0,0,0,0,0,0,0,0,0,0,0,0,0,0,0,0,0,0,0,0,0,0,0,0,0,0,0,0,0,0,0,0,0,0,0,0],"id":16,"left_children":[1,3,5,-1,-1,7,9,11,-1,13,15,17,19,-1,-1,21,23,25,27,29,31,-1,-1,-1,33,-1,-1,-1,35,-1,-1,-1,-1,-1,37,-1,-1,-1,-1],"loss_changes":[9.030019E0,3.3232274E0,4.7002983E0,0E0,0E0,5.321847E0,5.265852E0,5.1345587E0,0E0,1.689055E0,3.966773E0,7.216436E0,6.0933585E0,0E0,0E0,2.2024038E0,1.613904E0,1.3831358E0,4.48572E0,1.0790935E0,4.8007927E0,0E0,0E0,0E0,3.7446387E0,0E0,0E0,0E0,2.5111592E0,0E0,0E0,0E0,0E0,0E0,2.0034776E0,0E0,0E0,0E0,0E0],"parents":[2147483647,0,0,1,1,2,2,5,5,6,6,7,7,9,9,10,10,11,11,12,12,15,15,16,16,17,17,18,18,19,19,20,20,24,24,28,28,34,34],"right_children":[2,4,6,-1,-1,8,10,12,-1,14,16,18,20,-1,-1,22,24,26,28,30,32,-1,-1,-1,34,-1,-1,-1,36,-1,-1,-1,-1,-1,38,-1,-1,-1,-1],"split_conditions":[3.7491286E-1,2.68871E-1,1E0,1.4482503E-2,-2.2958692E-3,5.838382E-3,7.400798E-1,8.365014E-1,-1.0953913E-2,1E0,3.634536E-1,4.9229285E-1,9.0409875E-1,-1.7271119E-3,1.0581021E-2,7.73027E-1,1E0,3.0387792E-1,0E0,5.544518E-1,5.4873586E-1,-6.581205E-3,6.5567247E-3,-1.5286381E-2,5.1189107E-1,1.7938514E-3,1.5114074E-2,-1.0344672E-2,4.189106E-1,-1.3620285E-2,-2.7424607E-3,1.1087584E-2,-7.1752374E-3,6.0595083E-3,1E0,-4.9417363E-3,6.8000834E-3,-1.3980641E-2,-2.3130411E-3],"split_indices":[153,37,221,0,0,200,180,174,0,214,49,38,186,0,0,166,51,40,198,40,149,0,0,0,34,0,0,0,34,0,0,0,0,0,209,0,0,0,0],"split_type":[0,0,0,0,0,0,0,0,0,0,0,0,0,0,0,0,0,0,0,0,0,0,0,0,0,0,0,0,0,0,0,0,0,0,0,0,0,0,0],"sum_hessian":[5.064038E1,4.9645844E0,4.5675797E1,3.7183306E0,1.2462537E0,2.7052307E1,1.8623491E1,2.4326527E1,2.7257805E0,2.9892917E0,1.5634198E1,1.5162856E1,9.163671E0,1.7450145E0,1.2442772E0,3.234496E0,1.2399703E1,5.947684E0,9.215173E0,4.9520297E0,4.2116413E0,1.2445134E0,1.9899826E0,4.9539E0,7.4458027E0,1.2442211E0,4.7034626E0,2.240489E0,6.9746833E0,2.9687872E0,1.9832424E0,2.7279925E0,1.4836487E0,1.2395195E0,6.206283E0,1.7450475E0,5.229636E0,3.2205393E0,2.985744E0],"tree_param":{"num_deleted":"0","num_feature":"225","num_nodes":"39","size_leaf_vector":"0"}},{"base_weights":[-1.0145363E-1,1.2155177E-2,-2.2882597E-1,9.417444E-2,-4.9725157E-1,2.794469E-1,-1.2169759E-2,-7.837564E-1,-4.094354E-2,1.0775834E0,-6.0451686E-2,-9.4228214E-1,6.137635E-3,9.0665257E-1,-4.9474567E-1,1.2714966E-2,1.6650959E-3,-1.0589669E-2,2.1373424E-1,-1.3570868E0,-3.481567E-1,1.1784598E-2,1.7142923E-3,-8.725791E-1,2.6550066E-1,7.498342E-1,-3.1554475E-1,-4.72294E-3,-1.5174847E-2,4.0458703E-1,-1.1108569E-2,-2.624438E-1,-1.2629843E-2,6.3663665E-3,-2.2355912E-3,1.1052916E-2,-1.6767143E-3,-9.563014E-3,9.114451E-3,-6.137377E-3,9.859628E-3,-6.322095E-3,2.237123E-3],"categories":[],"categories_nodes":[],"categories_segments":[],"categories_sizes":[],"default_left":[0,0,0,0,0,0,0,0,0,0,0,0,0,0,0,0,0,0,0,0,0,0,0,0,0,0,0,0,0,0,0,0,0,0,0,0,0,0,0,0,0,0,0],"id":17,"left_children":[1,-1,3,5,7,9,-1,11,13,15,17,19,-1,21,23,-1,-1,-1,25,27,29,-1,-1,31,33,35,37,-1,-1,39,-1,41,-1,-1,-1,-1,-1,-1,-1,-1,-1,-1,-1],"loss_changes":[8.934475E0,0E0,4.1993723E0,5.8248076E0,3.4083638E0,5.6525793E0,0E0,4.147604E0,5.2671227E0,8.844452E-1,4.440219E0,3.1907053E0,0E0,5.9365296E-1,2.5939338E0,0E0,0E0,0E0,3.8991246E0,4.7653675E-1,4.7301626E0,0E0,0E0,1.0326777E0,7.770503E-1,2.3732681E0,6.5314827E0,0E0,0E0,3.2607331E0,0E0,7.700482E-1,0E0,0E0,0E0,0E0,0E0,0E0,0E0,0E0,0E0,0E0,0E0],"parents":[2147483647,0,0,2,2,3,3,4,4,5,5,7,7,8,8,9,9,10,10,11,11,13,13,14,14,18,18,19,19,20,20,23,23,24,24,25,25,26,26,29,29,31,31],"right_children":[2,-1,4,6,8,10,-1,12,14,16,18,20,-1,22,24,-1,-1,-1,26,28,30,-1,-1,32,34,36,38,-1,-1,40,-1,42,-1,-1,-1,-1,-1,-1,-1,-1,-1,-1,-1],"split_conditions":[1.5356162E-1,1.2155177E-2,1E0,4.7967257E-3,5.7353E-1,7.7903515E-1,-1.2169759E-2,6.330196E-1,6.028713E-1,4.9030888E-1,8.21202E-1,1E0,6.137635E-3,1E0,1E0,1.2714966E-2,1.6650959E-3,-1.0589669E-2,8.3604324E-1,7.50586E-1,4.8885357E-1,1.1784598E-2,1.7142923E-3,1E0,7.403749E-1,1E0,5.360311E-1,-4.72294E-3,-1.5174847E-2,8.267112E-1,-1.1108569E-2,6.687053E-1,-1.2629843E-2,6.3663665E-3,-2.2355912E-3,1.1052916E-2,-1.6767143E-3,-9.563014E-3,9.114451E-3,-6.137377E-3,9.859628E-3,-6.322095E-3,2.237123E-3],"split_indices":[36,0,56,200,48,186,0,44,48,38,192,219,0,209,145,0,0,0,174,168,49,0,0,203,36,207,39,0,0,186,0,172,0,0,0,0,0,0,0,0,0,0,0],"split_type":[0,0,0,0,0,0,0,0,0,0,0,0,0,0,0,0,0,0,0,0,0,0,0,0,0,0,0,0,0,0,0,0,0,0,0,0,0,0,0,0,0,0,0],"sum_hessian":[5.0603897E1,3.7092218E0,4.6894672E1,2.1578323E1,2.5316349E1,1.9596153E1,1.9821708E0,1.5110947E1,1.0205403E1,5.204602E0,1.4391552E1,1.3864045E1,1.2469018E0,2.9815814E0,7.2238216E0,3.9650726E0,1.2395291E0,2.483835E0,1.1907717E1,7.407867E0,6.4561777E0,1.7366819E0,1.2448995E0,4.7268667E0,2.4969552E0,5.7087193E0,6.1989975E0,1.7421687E0,5.6656985E0,3.4856064E0,2.9705713E0,2.4968934E0,2.2299733E0,1.2480686E0,1.2488865E0,3.9671192E0,1.7416E0,4.2172723E0,1.9817253E0,1.2465366E0,2.23907E0,1.2475749E0,1.2493186E0],"tree_param":{"num_deleted":"0","num_feature":"225","num_nodes":"43","size_leaf_vector":"0"}},{"base_weights":[-1.006678E-1,1.207179E-2,-2.2712642E-1,9.332105E-2,-4.9345985E-1,2.774469E-1,-1.20982705E-2,-2.2263528E-1,-9.973464E-1,-3.294034E-1,7.0567137E-1,6.5696156E-1,-5.308957E-1,-1.2083529E0,3.4547786E-4,5.625906E-1,-9.074002E-1,1.2849753E0,-6.057815E-1,1.0911078E-2,-1.3530608E-3,-9.2482495E-1,-1.3176301E-1,-1.7139688E-3,-1.3870259E-2,1.2530752E-2,-6.0789315E-3,-1.202465E-2,-1.6339218E-4,1.7990342E-3,1.44110555E-2,6.044921E-3,-1.2597865E-2,2.250471E-3,-1.2148403E0,2.3418379E-1,-1.0709363E-2,-1.4300875E-2,-3.6152722E-3,-3.9530275E-3,1.0332282E-2],"categories":[],"categories_nodes":[],"categories_segments":[],"categories_sizes":[],"default_left":[0,0,0,0,0,0,0,0,0,0,0,0,0,0,0,0,0,0,0,0,0,0,0,0,0,0,0,0,0,0,0,0,0,0,0,0,0,0,0,0,0],"id":18,"left_children":[1,-1,3,5,7,9,-1,11,13,15,17,19,21,23,-1,25,27,29,31,-1,-1,33,35,-1,-1,-1,-1,-1,-1,-1,-1,-1,-1,-1,37,39,-1,-1,-1,-1,-1],"loss_changes":[8.801943E0,0E0,4.130496E0,5.7494984E0,3.366242E0,5.5813484E0,0E0,5.335096E0,1.9806261E0,5.252331E0,1.0188313E1,1.9428582E0,2.1061838E0,1.1371584E0,0E0,4.183359E0,1.5483198E0,1.278265E0,4.30319E0,0E0,0E0,2.5962996E0,3.0707338E0,0E0,0E0,0E0,0E0,0E0,0E0,0E0,0E0,0E0,0E0,0E0,5.3340244E-1,3.7909803E0,0E0,0E0,0E0,0E0,0E0],"parents":[2147483647,0,0,2,2,3,3,4,4,5,5,7,7,8,8,9,9,10,10,11,11,12,12,13,13,15,15,16,16,17,17,18,18,21,21,22,22,34,34,35,35],"right_children":[2,-1,4,6,8,10,-1,12,14,16,18,20,22,24,-1,26,28,30,32,-1,-1,34,36,-1,-1,-1,-1,-1,-1,-1,-1,-1,-1,-1,38,40,-1,-1,-1,-1,-1],"split_conditions":[1.5356162E-1,1.207179E-2,1E0,4.7967257E-3,7.0108503E-1,4.3201867E-1,-1.20982705E-2,5.272601E-1,7.175302E-1,3.4736326E-1,5.59379E-1,5.7747775E-1,1E0,4.3334135E-1,3.4547786E-4,1E0,1E0,2.2334287E-1,3.582109E-1,1.0911078E-2,-1.3530608E-3,1E0,8.456261E-1,-1.7139688E-3,-1.3870259E-2,1.2530752E-2,-6.0789315E-3,-1.202465E-2,-1.6339218E-4,1.7990342E-3,1.44110555E-2,6.044921E-3,-1.2597865E-2,2.250471E-3,8.2188857E-1,8.2945615E-1,-1.0709363E-2,-1.4300875E-2,-3.6152722E-3,-3.9530275E-3,1.0332282E-2],"split_indices":[36,0,56,200,162,47,0,154,39,49,41,40,198,39,0,213,198,35,36,0,0,101,176,0,0,0,0,0,0,0,0,0,0,0,178,184,0,0,0,0,0],"split_type":[0,0,0,0,0,0,0,0,0,0,0,0,0,0,0,0,0,0,0,0,0,0,0,0,0,0,0,0,0,0,0,0,0,0,0,0,0,0,0,0,0],"sum_hessian":[5.0561993E1,3.704427E0,4.6857567E1,2.1562986E1,2.529458E1,1.958312E1,1.979865E0,1.7389864E1,7.9047165E0,8.197275E0,1.1385846E1,4.2192826E0,1.3170581E1,6.420764E0,1.4839526E0,3.2336287E0,4.9636464E0,7.9113708E0,3.4744751E0,2.482001E0,1.7372813E0,5.965634E0,7.2049475E0,1.2316973E0,5.1890664E0,1.9894581E0,1.2441707E0,3.466333E0,1.4973134E0,1.2458258E0,6.665545E0,1.2454346E0,2.2290406E0,1.24669E0,4.7189436E0,5.724901E0,1.480046E0,3.2286074E0,1.4903364E0,3.4848332E0,2.2400682E0],"tree_param":{"num_deleted":"0","num_feature":"225","num_nodes":"41","size_leaf_vector":"0"}},{"base_weights":[-1.0016508E-1,1.1989598E-2,-2.2573718E-1,9.211798E-2,-4.8977485E-1,2.7513114E-1,-1.2027758E-2,-7.740876E-1,-3.7627608E-2,1.0638936E0,-6.0692422E-2,-9.312171E-1,6.085122E-3,7.518946E-1,-5.751792E-1,1.2566154E-2,1.6165732E-3,-1.047519E-2,2.1045445E-1,-1.3439233E0,-3.4107438E-1,1.2772847E-2,-1.4268886E-3,-1.281975E-2,-6.066975E-2,7.403202E-1,-3.127138E-1,-1.5022202E-2,-4.6971864E-3,4.03025E-1,-1.0965384E-2,-7.6016597E-3,4.2217824E-1,1.0923995E-2,-1.6711489E-3,-9.459969E-3,9.004313E-3,-6.067522E-3,9.789543E-3,-3.4191618E-3,1.0803517E-2],"categories":[],"categories_nodes":[],"categories_segments":[],"categories_sizes":[],"default_left":[0,0,0,0,0,0,0,0,0,0,0,0,0,0,0,0,0,0,0,0,0,0,0,0,0,0,0,0,0,0,0,0,0,0,0,0,0,0,0,0,0],"id":19,"left_children":[1,-1,3,5,7,9,-1,11,13,15,17,19,-1,21,23,-1,-1,-1,25,27,29,-1,-1,-1,31,33,35,-1,-1,37,-1,-1,39,-1,-1,-1,-1,-1,-1,-1,-1],"loss_changes":[8.675324E0,0E0,4.058505E0,5.6726637E0,3.349207E0,5.511459E0,0E0,4.0607452E0,5.184409E0,8.7397146E-1,4.3327255E0,3.155342E0,0E0,2.5176039E0,2.5506434E0,0E0,0E0,0E0,3.8043904E0,4.5558262E-1,4.627729E0,0E0,0E0,0E0,2.0882292E0,2.3232481E0,6.3744016E0,0E0,0E0,3.200852E0,0E0,0E0,2.2495646E0,0E0,0E0,0E0,0E0,0E0,0E0,0E0,0E0],"parents":[2147483647,0,0,2,2,3,3,4,4,5,5,7,7,8,8,9,9,10,10,11,11,13,13,14,14,18,18,19,19,20,20,24,24,25,25,26,26,29,29,32,32],"right_children":[2,-1,4,6,8,10,-1,12,14,16,18,20,-1,22,24,-1,-1,-1,26,28,30,-1,-1,-1,32,34,36,-1,-1,38,-1,-1,40,-1,-1,-1,-1,-1,-1,-1,-1],"split_conditions":[1.5356162E-1,1.1989598E-2,1E0,4.7967257E-3,5.7353E-1,7.7903515E-1,-1.2027758E-2,6.330196E-1,6.3343954E-1,4.9030888E-1,8.21202E-1,1E0,6.085122E-3,5.401867E-1,2.0721207E0,1.2566154E-2,1.6165732E-3,-1.047519E-2,8.3604324E-1,5.3501487E-1,4.8885357E-1,1.2772847E-2,-1.4268886E-3,-1.281975E-2,1E0,1E0,5.360311E-1,-1.5022202E-2,-4.6971864E-3,8.267112E-1,-1.0965384E-2,-7.6016597E-3,1E0,1.0923995E-2,-1.6711489E-3,-9.459969E-3,9.004313E-3,-6.067522E-3,9.789543E-3,-3.4191618E-3,1.0803517E-2],"split_indices":[36,0,56,200,48,186,0,44,147,38,192,219,0,34,223,0,0,0,174,158,49,0,0,0,198,207,39,0,0,186,0,0,217,0,0,0,0,0,0,0,0],"split_type":[0,0,0,0,0,0,0,0,0,0,0,0,0,0,0,0,0,0,0,0,0,0,0,0,0,0,0,0,0,0,0,0,0,0,0,0,0,0,0,0,0],"sum_hessian":[5.0520115E1,3.699404E0,4.682071E1,2.1540651E1,2.528006E1,1.956322E1,1.9774318E0,1.5083465E1,1.0196594E1,5.194552E0,1.4368668E1,1.3837354E1,1.2461113E0,3.9687717E0,6.227823E0,3.956621E0,1.2379311E0,2.4798987E0,1.1888769E1,7.3911757E0,6.4461775E0,2.2308133E0,1.7379584E0,1.995249E0,4.2325735E0,5.7003617E0,6.1884074E0,5.6497583E0,1.7414173E0,3.4825432E0,2.9636343E0,1.4939572E0,2.7386165E0,3.960053E0,1.7403084E0,4.2106075E0,1.9777999E0,1.2454233E0,2.23712E0,1.4896927E0,1.2489238E0],"tree_param":{"num_deleted":"0","num_feature":"225","num_nodes":"41","size_leaf_vector":"0"}},{"base_weights":[-9.944721E-2,1.0327101E0,-2.4196011E-1,1.4173007E-2,-2.3304296E-3,2.2039607E-2,-6.068662E-1,1.8203354E-1,-1.0715706E-2,4.728226E-1,-8.296589E-1,5.1714635E-1,-3.6951587E-1,-1.6754052E-3,1.0454072E-2,1.1457144E-1,-1.0664665E0,1.2706537E0,-4.475874E-2,-1.0225923E0,4.472127E-1,-6.536006E-3,6.5278057E-3,-1.5026619E-2,-6.325475E-1,1.7090146E-3,1.4808767E-2,-1.020589E-2,3.5741386E-1,-1.3341585E-2,-2.6522537E-3,1.0907149E-2,-6.9963136E-3,5.936545E-3,-9.258864E-1,-4.835777E-3,6.706585E-3,-1.3697069E-2,-2.2443337E-3],"categories":[],"categories_nodes":[],"categories_segments":[],"categories_sizes":[],"default_left":[0,0,0,0,0,0,0,0,0,0,0,0,0,0,0,0,0,0,0,0,0,0,0,0,0,0,0,0,0,0,0,0,0,0,0,0,0,0,0],"id":20,"left_children":[1,3,5,-1,-1,7,9,11,-1,13,15,17,19,-1,-1,21,23,25,27,29,31,-1,-1,-1,33,-1,-1,-1,35,-1,-1,-1,-1,-1,37,-1,-1,-1,-1],"loss_changes":[8.555227E0,3.2242646E0,4.495863E0,0E0,0E0,5.087751E0,5.099136E0,4.8578677E0,0E0,1.6359367E0,3.8302221E0,6.883269E0,5.858392E0,0E0,0E0,2.1746998E0,1.577282E0,1.3470535E0,4.368414E0,1.0456848E0,4.596999E0,0E0,0E0,0E0,3.5790064E0,0E0,0E0,0E0,2.4225514E0,0E0,0E0,0E0,0E0,0E0,1.9300122E0,0E0,0E0,0E0,0E0],"parents":[2147483647,0,0,1,1,2,2,5,5,6,6,7,7,9,9,10,10,11,11,12,12,15,15,16,16,17,17,18,18,19,19,20,20,24,24,28,28,34,34],"right_children":[2,4,6,-1,-1,8,10,12,-1,14,16,18,20,-1,-1,22,24,26,28,30,32,-1,-1,-1,34,-1,-1,-1,36,-1,-1,-1,-1,-1,38,-1,-1,-1,-1],"split_conditions":[3.7491286E-1,2.68871E-1,1E0,1.4173007E-2,-2.3304296E-3,5.838382E-3,7.400798E-1,8.365014E-1,-1.0715706E-2,1E0,3.634536E-1,4.9229285E-1,9.0409875E-1,-1.6754052E-3,1.0454072E-2,7.73027E-1,1E0,1.8619491E-1,0E0,5.544518E-1,5.4873586E-1,-6.536006E-3,6.5278057E-3,-1.5026619E-2,5.1189107E-1,1.7090146E-3,1.4808767E-2,-1.020589E-2,4.189106E-1,-1.3341585E-2,-2.6522537E-3,1.0907149E-2,-6.9963136E-3,5.936545E-3,1E0,-4.835777E-3,6.706585E-3,-1.3697069E-2,-2.2443337E-3],"split_indices":[153,37,221,0,0,200,180,174,0,214,49,38,186,0,0,166,51,35,198,40,149,0,0,0,34,0,0,0,34,0,0,0,0,0,209,0,0,0,0],"split_type":[0,0,0,0,0,0,0,0,0,0,0,0,0,0,0,0,0,0,0,0,0,0,0,0,0,0,0,0,0,0,0,0,0,0,0,0,0,0,0],"sum_hessian":[5.047509E1,4.944929E0,4.553016E1,3.7007513E0,1.2441778E0,2.6962858E1,1.85673E1,2.4248829E1,2.7140284E0,2.98402E0,1.55832815E1,1.5122817E1,9.126013E0,1.7425712E0,1.2414489E0,3.228071E0,1.235521E1,5.921214E0,9.201602E0,4.931002E0,4.1950107E0,1.241587E0,1.986484E0,4.933164E0,7.422046E0,1.241168E0,4.6800466E0,2.236727E0,6.964875E0,2.9541478E0,1.9768542E0,2.7185535E0,1.4764571E0,1.2351491E0,6.186897E0,1.7426041E0,5.2222714E0,3.2058399E0,2.9810572E0],"tree_param":{"num_deleted":"0","num_feature":"225","num_nodes":"39","size_leaf_vector":"0"}},{"base_weights":[-9.8906696E-2,1.1854857E-2,-2.2300884E-1,9.074115E-2,-4.835899E-1,2.7186885E-1,-1.1907011E-2,-2.165569E-1,-9.81138E-1,-3.235887E-1,6.924183E-1,6.5172815E-1,-5.2107984E-1,-1.1903936E0,3.8233792E-4,5.5825865E-1,-8.957241E-1,1.2638128E0,-5.9890366E-1,1.0788745E-2,-1.2973404E-3,-9.086924E-1,-1.2849991E-1,-1.6660193E-3,-1.36704035E-2,1.2403722E-2,-5.9911823E-3,-1.1842619E-2,-2.1814555E-4,1.7231817E-3,1.4190031E-2,5.9584496E-3,-1.2448392E-2,2.2263862E-3,-1.1945654E0,-7.3546445E-1,4.130013E-1,-1.4083753E-2,-3.519752E-3,-1.2203499E-2,2.3710525E-3,8.4599005E-3,-3.6277294E-3],"categories":[],"categories_nodes":[],"categories_segments":[],"categories_sizes":[],"default_left":[0,0,0,0,0,0,0,0,0,0,0,0,0,0,0,0,0,0,0,0,0,0,0,0,0,0,0,0,0,0,0,0,0,0,0,0,0,0,0,0,0,0,0],"id":21,"left_children":[1,-1,3,5,7,9,-1,11,13,15,17,19,21,23,-1,25,27,29,31,-1,-1,33,35,-1,-1,-1,-1,-1,-1,-1,-1,-1,-1,-1,37,39,41,-1,-1,-1,-1,-1,-1],"loss_changes":[8.462354E0,0E0,3.947108E0,5.546759E0,3.273642E0,5.365234E0,0E0,5.193674E0,1.9398527E0,5.131422E0,9.8699875E0,1.8793898E0,2.0359578E0,1.1104097E0,0E0,4.081079E0,1.4748325E0,1.2602806E0,4.189149E0,0E0,0E0,2.514936E0,2.9966035E0,0E0,0E0,0E0,0E0,0E0,0E0,0E0,0E0,0E0,0E0,0E0,5.326443E-1,2.2807007E0,1.9764891E0,0E0,0E0,0E0,0E0,0E0,0E0],"parents":[2147483647,0,0,2,2,3,3,4,4,5,5,7,7,8,8,9,9,10,10,11,11,12,12,13,13,15,15,16,16,17,17,18,18,21,21,22,22,34,34,35,35,36,36],"right_children":[2,-1,4,6,8,10,-1,12,14,16,18,20,22,24,-1,26,28,30,32,-1,-1,34,36,-1,-1,-1,-1,-1,-1,-1,-1,-1,-1,-1,38,40,42,-1,-1,-1,-1,-1,-1],"split_conditions":[1.5356162E-1,1.1854857E-2,1E0,4.7967257E-3,7.0108503E-1,4.3201867E-1,-1.1907011E-2,5.272601E-1,7.175302E-1,3.4736326E-1,5.59379E-1,5.7747775E-1,1E0,4.3334135E-1,3.8233792E-4,1E0,1E0,2.2334287E-1,3.582109E-1,1.0788745E-2,-1.2973404E-3,1E0,3.30991E-4,-1.6660193E-3,-1.36704035E-2,1.2403722E-2,-5.9911823E-3,-1.1842619E-2,-2.1814555E-4,1.7231817E-3,1.4190031E-2,5.9584496E-3,-1.2448392E-2,2.2263862E-3,8.2188857E-1,8.089111E-1,7.141459E-1,-1.4083753E-2,-3.519752E-3,-1.2203499E-2,2.3710525E-3,8.4599005E-3,-3.6277294E-3],"split_indices":[36,0,56,200,162,47,0,154,39,49,41,40,198,39,0,213,198,35,36,0,0,101,200,0,0,0,0,0,0,0,0,0,0,0,178,36,166,0,0,0,0,0,0],"split_type":[0,0,0,0,0,0,0,0,0,0,0,0,0,0,0,0,0,0,0,0,0,0,0,0,0,0,0,0,0,0,0,0,0,0,0,0,0,0,0,0,0,0,0],"sum_hessian":[5.043158E1,3.6899564E0,4.6741623E1,2.1502966E1,2.5238655E1,1.9530268E1,1.9726987E0,1.7357937E1,7.880719E0,8.179475E0,1.1350793E1,4.2109914E0,1.3146945E1,6.399305E0,1.4814141E0,3.2281291E0,4.951346E0,7.883668E0,3.4671254E0,2.4766645E0,1.7343271E0,5.9538054E0,7.1931396E0,1.2276067E0,5.171698E0,1.9859666E0,1.2421625E0,3.4553616E0,1.4959841E0,1.244082E0,6.639586E0,1.2439016E0,2.2232237E0,1.2455981E0,4.708207E0,3.222674E0,3.9704657E0,3.2197118E0,1.4884953E0,1.9805033E0,1.2421706E0,2.4901235E0,1.480342E0],"tree_param":{"num_deleted":"0","num_feature":"225","num_nodes":"43","size_leaf_vector":"0"}},{"base_weights":[-9.843687E-2,1.1775725E-2,-2.2168101E-1,8.9573495E-2,-4.800316E-1,2.6962873E-1,-1.1839076E-2,-7.597368E-1,-3.5913806E-2,1.0447605E0,-6.0293403E-2,-9.1516966E-1,6.030277E-3,7.458973E-1,-5.6802326E-1,1.23525215E-2,1.5614699E-3,-1.0343732E-2,2.0759432E-1,-1.3258936E0,-3.2949293E-1,1.263189E-2,-1.3672204E-3,-1.2682913E-2,-5.8471177E-2,7.2778517E-1,-3.063001E-1,-4.63532E-3,-1.4823526E-2,4.022873E-1,-1.0752629E-2,-7.4556177E-3,4.1534957E-1,1.0756468E-2,-1.6688764E-3,-9.305627E-3,8.887059E-3,-5.9633246E-3,9.705511E-3,-3.4214305E-3,1.069152E-2],"categories":[],"categories_nodes":[],"categories_segments":[],"categories_sizes":[],"default_left":[0,0,0,0,0,0,0,0,0,0,0,0,0,0,0,0,0,0,0,0,0,0,0,0,0,0,0,0,0,0,0,0,0,0,0,0,0,0,0,0,0],"id":22,"left_children":[1,-1,3,5,7,9,-1,11,13,15,17,19,-1,21,23,-1,-1,-1,25,27,29,-1,-1,-1,31,33,35,-1,-1,37,-1,-1,39,-1,-1,-1,-1,-1,-1,-1,-1],"loss_changes":[8.341906E0,0E0,3.878751E0,5.4733415E0,3.2301674E0,5.3075724E0,0E0,3.949438E0,5.075849E0,8.5278654E-1,4.215168E0,3.1220903E0,0E0,2.4378133E0,2.502717E0,0E0,0E0,0E0,3.659822E0,4.4162083E-1,4.4870296E0,0E0,0E0,0E0,2.011817E0,2.260166E0,6.17677E0,0E0,0E0,3.1196914E0,0E0,0E0,2.216394E0,0E0,0E0,0E0,0E0,0E0,0E0,0E0,0E0],"parents":[2147483647,0,0,2,2,3,3,4,4,5,5,7,7,8,8,9,9,10,10,11,11,13,13,14,14,18,18,19,19,20,20,24,24,25,25,26,26,29,29,32,32],"right_children":[2,-1,4,6,8,10,-1,12,14,16,18,20,-1,22,24,-1,-1,-1,26,28,30,-1,-1,-1,32,34,36,-1,-1,38,-1,-1,40,-1,-1,-1,-1,-1,-1,-1,-1],"split_conditions":[1.5356162E-1,1.1775725E-2,1E0,4.7967257E-3,5.7353E-1,7.7903515E-1,-1.1839076E-2,6.330196E-1,6.3343954E-1,4.9030888E-1,8.21202E-1,1E0,6.030277E-3,5.401867E-1,2.0721207E0,1.23525215E-2,1.5614699E-3,-1.0343732E-2,8.3604324E-1,7.141459E-1,4.8885357E-1,1.263189E-2,-1.3672204E-3,-1.2682913E-2,1E0,1E0,5.360311E-1,-4.63532E-3,-1.4823526E-2,8.267112E-1,-1.0752629E-2,-7.4556177E-3,1E0,1.0756468E-2,-1.6688764E-3,-9.305627E-3,8.887059E-3,-5.9633246E-3,9.705511E-3,-3.4214305E-3,1.069152E-2],"split_indices":[36,0,56,200,48,186,0,44,147,38,192,219,0,34,223,0,0,0,174,166,49,0,0,0,198,207,39,0,0,186,0,0,217,0,0,0,0,0,0,0,0],"split_type":[0,0,0,0,0,0,0,0,0,0,0,0,0,0,0,0,0,0,0,0,0,0,0,0,0,0,0,0,0,0,0,0,0,0,0,0,0,0,0,0,0],"sum_hessian":[5.038513E1,3.684353E0,4.6700775E1,2.1477951E1,2.5222826E1,1.950802E1,1.9699303E0,1.5039987E1,1.0182839E1,5.1773853E0,1.4330636E1,1.3795013E1,1.2449725E0,3.9611201E0,6.221719E0,3.942207E0,1.2351785E0,2.4739099E0,1.1856726E1,7.365713E0,6.4293003E0,2.2255638E0,1.7355562E0,1.9933132E0,4.228406E0,5.6854253E0,6.171301E0,1.7396818E0,5.6260314E0,3.4775548E0,2.9517455E0,1.4917293E0,2.7366765E0,3.9480765E0,1.7373487E0,4.199042E0,1.972259E0,1.2432958E0,2.2342591E0,1.4886363E0,1.2480402E0],"tree_param":{"num_deleted":"0","num_feature":"225","num_nodes":"41","size_leaf_vector":"0"}},{"base_weights":[-9.774097E-2,1.0138572E0,-2.3762374E-1,1.3950812E-2,-2.3465978E-3,2.2212744E-2,-5.967334E-1,1.7991987E-1,-1.055756E-2,4.6753225E-1,-8.166974E-1,5.093494E-1,-3.6285955E-1,-1.6436303E-3,1.0321542E-2,1.1356142E-1,-1.0503623E0,1.250189E0,-4.211716E-2,-1.006266E0,4.4145638E-1,-6.4941645E-3,6.481403E-3,-1.4826277E-2,-6.2107825E-1,1.6397252E-3,1.4589078E-2,-1.00786835E-2,3.5562617E-1,-1.3142183E-2,-2.5934852E-3,1.0760942E-2,-6.897784E-3,5.8484552E-3,-9.097829E-1,-4.7442224E-3,6.6428697E-3,-1.3486778E-2,-2.1841999E-3],"categories":[],"categories_nodes":[],"categories_segments":[],"categories_sizes":[],"default_left":[0,0,0,0,0,0,0,0,0,0,0,0,0,0,0,0,0,0,0,0,0,0,0,0,0,0,0,0,0,0,0,0,0,0,0,0,0,0,0],"id":23,"left_children":[1,3,5,-1,-1,7,9,11,-1,13,15,17,19,-1,-1,21,23,25,27,29,31,-1,-1,-1,33,-1,-1,-1,35,-1,-1,-1,-1,-1,37,-1,-1,-1,-1],"loss_changes":[8.223152E0,3.148776E0,4.3434916E0,0E0,0E0,4.9312263E0,4.950953E0,4.6879544E0,0E0,1.589273E0,3.7143078E0,6.6254935E0,5.668899E0,0E0,0E0,2.1432362E0,1.5501766E0,1.3246412E0,4.2727447E0,1.0194626E0,4.4625354E0,0E0,0E0,0E0,3.457284E0,0E0,0E0,0E0,2.3537376E0,0E0,0E0,0E0,0E0,0E0,1.8811612E0,0E0,0E0,0E0,0E0],"parents":[2147483647,0,0,1,1,2,2,5,5,6,6,7,7,9,9,10,10,11,11,12,12,15,15,16,16,17,17,18,18,19,19,20,20,24,24,28,28,34,34],"right_children":[2,4,6,-1,-1,8,10,12,-1,14,16,18,20,-1,-1,22,24,26,28,30,32,-1,-1,-1,34,-1,-1,-1,36,-1,-1,-1,-1,-1,38,-1,-1,-1,-1],"split_conditions":[3.7491286E-1,2.68871E-1,1E0,1.3950812E-2,-2.3465978E-3,5.838382E-3,7.400798E-1,8.365014E-1,-1.055756E-2,1E0,3.634536E-1,4.9229285E-1,9.0409875E-1,-1.6436303E-3,1.0321542E-2,7.73027E-1,1E0,3.0387792E-1,0E0,5.544518E-1,5.4873586E-1,-6.4941645E-3,6.481403E-3,-1.4826277E-2,5.1189107E-1,1.6397252E-3,1.4589078E-2,-1.00786835E-2,4.189106E-1,-1.3142183E-2,-2.5934852E-3,1.0760942E-2,-6.897784E-3,5.8484552E-3,1E0,-4.7442224E-3,6.6428697E-3,-1.3486778E-2,-2.1841999E-3],"split_indices":[153,37,221,0,0,200,180,174,0,214,49,38,186,0,0,166,51,40,198,40,149,0,0,0,34,0,0,0,34,0,0,0,0,0,209,0,0,0,0],"split_type":[0,0,0,0,0,0,0,0,0,0,0,0,0,0,0,0,0,0,0,0,0,0,0,0,0,0,0,0,0,0,0,0,0,0,0,0,0,0,0],"sum_hessian":[5.0334873E1,4.927767E0,4.540711E1,3.6851482E0,1.2426189E0,2.6889297E1,1.8517809E1,2.4184233E1,2.705066E0,2.9789712E0,1.5538837E1,1.5088281E1,9.095952E0,1.7402604E0,1.2387109E0,3.2227066E0,1.2316131E1,5.8979526E0,9.190328E0,4.913973E0,4.1819787E0,1.2392163E0,1.9834903E0,4.9141397E0,7.401991E0,1.2384443E0,4.659508E0,2.2334278E0,6.9569E0,2.9416249E0,1.9723481E0,2.7102413E0,1.4717376E0,1.2316427E0,6.170348E0,1.7401817E0,5.2167187E0,3.1927538E0,2.9775944E0],"tree_param":{"num_deleted":"0","num_feature":"225","num_nodes":"39","size_leaf_vector":"0"}},{"base_weights":[-9.722166E-2,1.1646277E-2,-2.1904843E-1,8.824867E-2,-4.7405857E-1,2.6648688E-1,-1.1722893E-2,-2.1083449E-1,-9.652519E-1,1.031898E0,-5.921874E-2,6.461228E-1,-5.116005E-1,-1.172839E0,4.1818392E-4,1.2201025E-2,1.5454987E-3,-1.0257287E-2,2.0667545E-1,1.0670046E-2,-1.2521368E-3,-8.9347535E-1,-1.2501797E-1,-1.6194334E-3,-1.3475094E-2,7.1913075E-1,-2.9993168E-1,2.5986665E-4,-1.2671421E-2,-7.25727E-1,4.102184E-1,1.0638186E-2,-1.6615335E-3,-9.183962E-3,8.823435E-3,-1.1730162E-2,5.9147435E-4,8.376182E-3,-3.57403E-3],"categories":[],"categories_nodes":[],"categories_segments":[],"categories_sizes":[],"default_left":[0,0,0,0,0,0,0,0,0,0,0,0,0,0,0,0,0,0,0,0,0,0,0,0,0,0,0,0,0,0,0,0,0,0,0,0,0,0,0],"id":24,"left_children":[1,-1,3,5,7,9,-1,11,13,15,17,19,21,23,-1,-1,-1,-1,25,-1,-1,27,29,-1,-1,31,33,-1,-1,35,37,-1,-1,-1,-1,-1,-1,-1,-1],"loss_changes":[8.139197E0,0E0,3.7729297E0,5.3531456E0,3.180993E0,5.1645103E0,0E0,5.053171E0,1.8999949E0,8.2940626E-1,4.145478E0,1.8223989E0,1.9729116E0,1.0840397E0,0E0,0E0,0E0,0E0,3.548091E0,0E0,0E0,2.4176679E0,2.9277117E0,0E0,0E0,2.2137618E0,6.046075E0,0E0,0E0,1.5492406E0,1.9281416E0,0E0,0E0,0E0,0E0,0E0,0E0,0E0,0E0],"parents":[2147483647,0,0,2,2,3,3,4,4,5,5,7,7,8,8,9,9,10,10,11,11,12,12,13,13,18,18,21,21,22,22,25,25,26,26,29,29,30,30],"right_children":[2,-1,4,6,8,10,-1,12,14,16,18,20,22,24,-1,-1,-1,-1,26,-1,-1,28,30,-1,-1,32,34,-1,-1,36,38,-1,-1,-1,-1,-1,-1,-1,-1],"split_conditions":[1.5356162E-1,1.1646277E-2,1E0,4.7967257E-3,7.0108503E-1,7.7903515E-1,-1.1722893E-2,5.272601E-1,7.175302E-1,4.9030888E-1,8.21202E-1,5.7747775E-1,3.30991E-4,4.3334135E-1,4.1818392E-4,1.2201025E-2,1.5454987E-3,-1.0257287E-2,8.3604324E-1,1.0670046E-2,-1.2521368E-3,1E0,1E0,-1.6194334E-3,-1.3475094E-2,1E0,5.360311E-1,2.5986665E-4,-1.2671421E-2,1E0,7.141459E-1,1.0638186E-2,-1.6615335E-3,-9.183962E-3,8.823435E-3,-1.1730162E-2,5.9147435E-4,8.376182E-3,-3.57403E-3],"split_indices":[36,0,56,200,162,186,0,154,39,38,192,40,200,39,0,0,0,0,174,0,0,204,198,0,0,207,39,0,0,219,166,0,0,0,0,0,0,0,0],"split_type":[0,0,0,0,0,0,0,0,0,0,0,0,0,0,0,0,0,0,0,0,0,0,0,0,0,0,0,0,0,0,0,0,0,0,0,0,0,0,0],"sum_hessian":[5.0286274E1,3.6738462E0,4.6612427E1,2.1435617E1,2.517681E1,1.9471035E1,1.9645828E0,1.7322916E1,7.8538938E0,5.165014E0,1.4306022E1,4.2020297E0,1.3120887E1,6.375176E0,1.4787179E0,3.9310687E0,1.2339453E0,2.4700124E0,1.1836009E1,2.4706132E0,1.7314162E0,5.9410095E0,7.1798773E0,1.223186E0,5.15199E0,5.675494E0,6.160515E0,1.9856012E0,3.9554083E0,3.2153313E0,3.9645457E0,3.939838E0,1.7356564E0,4.1912236E0,1.9692912E0,1.7331215E0,1.4822098E0,2.4880507E0,1.476495E0],"tree_param":{"num_deleted":"0","num_feature":"225","num_nodes":"39","size_leaf_vector":"0"}},{"base_weights":[-9.6565686E-2,1.0889525E0,-2.2508925E-1,1.3335557E-2,1.6941284E-3,1.2995745E-1,-5.555348E-1,6.6118556E-1,-5.152861E-1,-9.2904824E-1,-7.248242E-2,8.8841695E-1,-6.9388137E-3,-7.9221374E-1,7.7126035E-3,-1.1506902E0,-2.5234756E-1,4.3383873E-1,-1.2969021E-2,1.1158475E0,2.1021988E-2,-1.354728E-2,1.137301E-2,-1.5983148E-3,-1.27076E0,7.3647797E-3,-9.399057E-3,1.3112765E-2,-1.9816506E-1,1.05510704E-1,1.5148767E-2,-6.3691884E-3,6.685344E-3,1.03773195E-2,-6.081869E-1,-1.5136661E-2,-3.7560689E-3,6.756671E-3,-8.575361E-1,7.3694913E-3,-6.4141755E-3,-1.1166197E-2,2.2573343E-3,-1.130002E-2,-1.4047519E-3],"categories":[],"categories_nodes":[],"categories_segments":[],"categories_sizes":[],"default_left":[0,0,0,0,0,0,0,0,0,0,0,0,0,0,0,0,0,0,0,0,0,0,0,0,0,0,0,0,0,0,0,0,0,0,0,0,0,0,0,0,0,0,0,0,0],"id":25,"left_children":[1,3,5,-1,-1,7,9,11,13,15,17,19,-1,21,-1,23,25,27,-1,29,31,-1,33,-1,35,-1,-1,-1,37,39,-1,-1,-1,-1,41,-1,-1,-1,43,-1,-1,-1,-1,-1,-1],"loss_changes":[8.052802E0,9.399023E-1,5.5933766E0,0E0,0E0,8.394351E0,4.3646097E0,4.7192082E0,4.591127E0,1.7746048E0,7.8754864E0,2.3140965E0,0E0,4.3937263E0,0E0,9.9733543E-1,3.87251E0,5.303075E0,0E0,3.6171894E0,1.9086673E0,0E0,3.7978797E0,0E0,1.3570232E0,0E0,0E0,0E0,4.1259484E0,2.2306757E0,0E0,0E0,0E0,0E0,1.8360579E0,0E0,0E0,0E0,6.1276126E-1,0E0,0E0,0E0,0E0,0E0,0E0],"parents":[2147483647,0,0,1,1,2,2,5,5,6,6,7,7,8,8,9,9,10,10,11,11,13,13,15,15,16,16,17,17,19,19,20,20,22,22,24,24,28,28,29,29,34,34,38,38],"right_children":[2,4,6,-1,-1,8,10,12,14,16,18,20,-1,22,-1,24,26,28,-1,30,32,-1,34,-1,36,-1,-1,-1,38,40,-1,-1,-1,-1,42,-1,-1,-1,44,-1,-1,-1,-1,-1,-1],"split_conditions":[3.2556155E-1,1E0,7.576394E-1,1.3335557E-2,1.6941284E-3,5.7874465E-1,1E0,5.4787607E-3,8.6841583E-1,8.855893E-1,5.721257E-1,5.682765E-1,-6.9388137E-3,1E0,7.7126035E-3,7.653058E-1,3.9949092E-1,8E0,-1.2969021E-2,4.3201867E-1,1E0,-1.354728E-2,1E0,-1.5983148E-3,1.9E1,7.3647797E-3,-9.399057E-3,1.3112765E-2,1E0,1E0,1.5148767E-2,-6.3691884E-3,6.685344E-3,1.03773195E-2,7.576244E-1,-1.5136661E-2,-3.7560689E-3,6.756671E-3,5.209738E-1,7.3694913E-3,-6.4141755E-3,-1.1166197E-2,2.2573343E-3,-1.130002E-2,-1.4047519E-3],"split_indices":[49,218,168,0,0,148,73,200,190,176,41,39,0,145,0,188,49,196,0,47,4,0,204,0,196,0,0,0,216,218,0,0,0,0,43,0,0,0,38,0,0,0,0,0,0],"split_type":[0,0,0,0,0,0,0,0,0,0,0,0,0,0,0,0,0,0,0,0,0,0,0,0,0,0,0,0,0,0,0,0,0,0,0,0,0,0,0,0,0,0,0,0,0],"sum_hessian":[5.0242645E1,4.183227E0,4.6059418E1,2.9486306E0,1.2345963E0,2.2495686E1,2.3563734E1,1.2324354E1,1.017133E1,1.2767872E1,1.0795863E1,1.0849392E1,1.4749622E0,8.685927E0,1.4854033E0,9.090115E0,3.6777568E0,8.094365E0,2.701498E0,8.3686905E0,2.4807012E0,4.705915E0,3.9800124E0,1.2344184E0,7.855696E0,1.4792271E0,2.1985297E0,2.9390981E0,5.1552672E0,2.727391E0,5.6412997E0,1.2385571E0,1.2421442E0,1.2440978E0,2.7359145E0,5.6355047E0,2.2201915E0,2.206451E0,2.9488163E0,1.4851959E0,1.2421951E0,1.4890534E0,1.2468612E0,1.7195487E0,1.2292675E0],"tree_param":{"num_deleted":"0","num_feature":"225","num_nodes":"45","size_leaf_vector":"0"}},{"base_weights":[-9.586172E-2,1.0820168E0,-2.2356685E-1,1.3252565E-2,1.6848447E-3,1.2899217E-1,-5.5177385E-1,6.559327E-1,-5.1088727E-1,-9.2238355E-1,-7.233394E-2,8.8182247E-1,-6.9002E-3,-7.8615355E-1,7.667569E-3,-1.1111782E0,-1.7308706E-1,4.3072397E-1,-1.2890301E-2,1.1078111E0,2.0903952E-2,-1.3448232E-2,1.1558748E-2,-4.6310806E-1,-1.3824899E-2,6.2587443E-3,-7.6677785E-3,1.3033118E-2,-1.9726896E-1,1.0473584E-1,1.504503E-2,-6.334642E-3,6.6483594E-3,1.0324029E-2,-6.046949E-1,3.2073879E-3,-9.2654135E-3,6.7125503E-3,-8.5273045E-1,7.327313E-3,-6.3792327E-3,-1.1105057E-2,2.244801E-3,-1.1238598E-2,-1.397086E-3],"categories":[],"categories_nodes":[],"categories_segments":[],"categories_sizes":[],"default_left":[0,0,0,0,0,0,0,0,0,0,0,0,0,0,0,0,0,0,0,0,0,0,0,0,0,0,0,0,0,0,0,0,0,0,0,0,0,0,0,0,0,0,0,0,0],"id":26,"left_children":[1,3,5,-1,-1,7,9,11,13,15,17,19,-1,21,-1,23,25,27,-1,29,31,-1,33,35,-1,-1,-1,-1,37,39,-1,-1,-1,-1,41,-1,-1,-1,43,-1,-1,-1,-1,-1,-1],"loss_changes":[7.941714E0,9.273505E-1,5.5108294E0,0E0,0E0,8.2502985E0,4.292849E0,4.65561E0,4.5288925E0,1.7532396E0,7.766712E0,2.27989E0,0E0,4.3287964E0,0E0,1.258853E0,2.3546712E0,5.235615E0,0E0,3.5656462E0,1.8876978E0,0E0,3.7558427E0,2.0012555E0,0E0,0E0,0E0,0E0,4.0744057E0,2.2054417E0,0E0,0E0,0E0,0E0,1.8156236E0,0E0,0E0,0E0,6.0588574E-1,0E0,0E0,0E0,0E0,0E0,0E0],"parents":[2147483647,0,0,1,1,2,2,5,5,6,6,7,7,8,8,9,9,10,10,11,11,13,13,15,15,16,16,17,17,19,19,20,20,22,22,23,23,28,28,29,29,34,34,38,38],"right_children":[2,4,6,-1,-1,8,10,12,14,16,18,20,-1,22,-1,24,26,28,-1,30,32,-1,34,36,-1,-1,-1,-1,38,40,-1,-1,-1,-1,42,-1,-1,-1,44,-1,-1,-1,-1,-1,-1],"split_conditions":[3.2556155E-1,1E0,7.576394E-1,1.3252565E-2,1.6848447E-3,5.7874465E-1,1E0,5.4787607E-3,8.6841583E-1,6.2723523E-1,5.721257E-1,5.682765E-1,-6.9002E-3,1E0,7.667569E-3,4.2009434E-1,6.2997663E-1,8E0,-1.2890301E-2,4.3201867E-1,1E0,-1.3448232E-2,1E0,3.5243383E-1,-1.3824899E-2,6.2587443E-3,-7.6677785E-3,1.3033118E-2,1E0,1E0,1.504503E-2,-6.334642E-3,6.6483594E-3,1.0324029E-2,7.576244E-1,3.2073879E-3,-9.2654135E-3,6.7125503E-3,5.209738E-1,7.327313E-3,-6.3792327E-3,-1.1105057E-2,2.244801E-3,-1.1238598E-2,-1.397086E-3],"split_indices":[49,218,168,0,0,148,73,200,190,39,41,39,0,145,0,151,40,196,0,47,4,0,204,41,0,0,0,0,216,218,0,0,0,0,43,0,0,0,38,0,0,0,0,0,0],"split_type":[0,0,0,0,0,0,0,0,0,0,0,0,0,0,0,0,0,0,0,0,0,0,0,0,0,0,0,0,0,0,0,0,0,0,0,0,0,0,0,0,0,0,0,0,0],"sum_hessian":[5.0188362E1,4.1782074E0,4.6010155E1,2.9437118E0,1.2344956E0,2.2474785E1,2.3535368E1,1.2311324E1,1.0163461E1,1.2753199E1,1.0782169E1,1.0837339E1,1.4739848E0,8.678399E0,1.4850618E0,9.800802E0,2.9523964E0,8.085224E0,2.6969457E0,8.356899E0,2.48044E0,4.70056E0,3.977839E0,3.691059E0,6.109743E0,1.2355036E0,1.7168927E0,2.9336271E0,5.1515965E0,2.7265549E0,5.630345E0,1.2383133E0,1.2421266E0,1.2431806E0,2.7346582E0,1.4858363E0,2.2052228E0,2.2053225E0,2.9462743E0,1.484567E0,1.2419877E0,1.4877908E0,1.2468675E0,1.7171344E0,1.2291399E0],"tree_param":{"num_deleted":"0","num_feature":"225","num_nodes":"45","size_leaf_vector":"0"}},{"base_weights":[-9.514848E-2,1.0751748E0,-2.2204801E-1,1.6539389E-3,1.31817125E-2,1.280416E-1,-5.4804254E-1,6.5075564E-1,-5.0655115E-1,-1.9282585E-1,-1.0600494E0,8.753272E-1,-6.8618916E-3,-7.801833E-1,7.622925E-3,-1.1829176E-2,5.5481873E-2,-1.2971629E-2,-2.4569814E-1,1.0999062E0,2.0786675E-2,-1.3350825E-2,1.1742226E-2,5.10211E-1,-8.400639E-1,-6.103107E-3,2.2869166E-3,1.039683E-1,1.4943272E-2,-6.3003507E-3,6.6116587E-3,1.0271313E-2,-6.012384E-1,-2.1211311E-1,1.2357163E-2,-2.4017345E-3,-1.1574295E-2,7.2854874E-3,-6.344551E-3,-1.1044648E-2,2.232341E-3,-8.172511E-3,6.1429674E-3],"categories":[],"categories_nodes":[],"categories_segments":[],"categories_sizes":[],"default_left":[0,0,0,0,0,0,0,0,0,0,0,0,0,0,0,0,0,0,0,0,0,0,0,0,0,0,0,0,0,0,0,0,0,0,0,0,0,0,0,0,0,0,0],"id":27,"left_children":[1,3,5,-1,-1,7,9,11,13,15,17,19,-1,21,-1,-1,23,-1,25,27,29,-1,31,33,35,-1,-1,37,-1,-1,-1,-1,39,41,-1,-1,-1,-1,-1,-1,-1,-1,-1],"loss_changes":[7.832324E0,9.2558956E-1,5.4293203E0,0E0,0E0,8.109137E0,4.2523966E0,4.5931196E0,4.4677143E0,3.9229836E0,1.5764942E0,2.2464266E0,0E0,4.2652044E0,0E0,0E0,5.9259267E0,0E0,7.357986E-1,3.5153427E0,1.8669808E0,0E0,3.7143834E0,5.2800417E0,6.5946555E-1,0E0,0E0,2.1805239E0,0E0,0E0,0E0,0E0,1.7954935E0,3.3283846E0,0E0,0E0,0E0,0E0,0E0,0E0,0E0,0E0,0E0],"parents":[2147483647,0,0,1,1,2,2,5,5,6,6,7,7,8,8,9,9,10,10,11,11,13,13,16,16,18,18,19,19,20,20,22,22,23,23,24,24,27,27,32,32,33,33],"right_children":[2,4,6,-1,-1,8,10,12,14,16,18,20,-1,22,-1,-1,24,-1,26,28,30,-1,32,34,36,-1,-1,38,-1,-1,-1,-1,40,42,-1,-1,-1,-1,-1,-1,-1,-1,-1],"split_conditions":[3.2556155E-1,7.8842163E-1,7.576394E-1,1.6539389E-3,1.31817125E-2,5.7874465E-1,1E0,5.4787607E-3,8.6841583E-1,3.7002218E-1,8.773786E-1,5.682765E-1,-6.8618916E-3,1E0,7.622925E-3,-1.1829176E-2,5.8447397E-1,-1.2971629E-2,1E0,4.3201867E-1,1E0,-1.3350825E-2,1E0,1E0,5.624397E-1,-6.103107E-3,2.2869166E-3,1E0,1.4943272E-2,-6.3003507E-3,6.6116587E-3,1.0271313E-2,7.576244E-1,4.9761173E-1,1.2357163E-2,-2.4017345E-3,-1.1574295E-2,7.2854874E-3,-6.344551E-3,-1.1044648E-2,2.232341E-3,-8.172511E-3,6.1429674E-3],"split_indices":[49,172,168,0,0,148,221,200,190,49,174,39,0,145,0,0,42,0,3,47,4,0,204,208,48,0,0,218,0,0,0,0,43,35,0,0,0,0,0,0,0,0,0],"split_type":[0,0,0,0,0,0,0,0,0,0,0,0,0,0,0,0,0,0,0,0,0,0,0,0,0,0,0,0,0,0,0,0,0,0,0,0,0,0,0,0,0,0,0],"sum_hessian":[5.0130604E1,4.1729727E0,4.595763E1,1.2338966E0,2.939076E0,2.2452663E1,2.3504969E1,1.2297633E1,1.0155029E1,1.4690027E1,8.814941E0,1.0824654E1,1.4729795E0,8.67035E0,1.4846797E0,2.190761E0,1.2499266E1,6.367922E0,2.447019E0,8.344525E0,2.4801288E0,4.694831E0,3.975519E0,8.575291E0,3.9239755E0,1.2215939E0,1.2254254E0,2.7256598E0,5.6188655E0,1.2380466E0,1.2420821E0,1.2422028E0,2.7333162E0,4.6516604E0,3.92363E0,1.9655081E0,1.9584675E0,1.4839032E0,1.2417567E0,1.4864454E0,1.2468706E0,2.6917274E0,1.9599329E0],"tree_param":{"num_deleted":"0","num_feature":"225","num_nodes":"43","size_leaf_vector":"0"}}]},"name":"gbtree"},"learner_model_param":{"base_score":"5E-1","boost_from_average":"1","num_class":"0","num_feature":"225","num_target":"1"},"objective":{"name":"binary:logistic","reg_loss_param":{"scale_pos_weight":"1"}}},"version":[1,7,4]}