{"learner":{"attributes":{"best_iteration":"0","best_ntree_limit":"1","best_score":"0.6934018433094025","scikit_learn":"{\"use_label_encoder\": null, \"n_estimators\": 500, \"objective\": \"binary:logistic\", \"max_depth\": 7, \"max_leaves\": null, \"max_bin\": null, \"grow_policy\": null, \"learning_rate\": null, \"verbosity\": null, \"booster\": null, \"tree_method\": \"gpu_hist\", \"gamma\": null, \"min_child_weight\": null, \"max_delta_step\": null, \"subsample\": null, \"sampling_method\": null, \"colsample_bytree\": null, \"colsample_bylevel\": null, \"colsample_bynode\": null, \"reg_alpha\": null, \"reg_lambda\": null, \"scale_pos_weight\": null, \"base_score\": null, \"missing\": NaN, \"num_parallel_tree\": null, \"random_state\": null, \"n_jobs\": null, \"monotone_constraints\": null, \"interaction_constraints\": null, \"importance_type\": null, \"gpu_id\": null, \"validate_parameters\": null, \"predictor\": null, \"enable_categorical\": false, \"feature_types\": null, \"max_cat_to_onehot\": null, \"max_cat_threshold\": null, \"eval_metric\": null, \"early_stopping_rounds\": 20, \"callbacks\": null, \"kwargs\": {\"eta\": 0.01}, \"classes_\": [0.0, 1.0], \"n_classes_\": 2, \"evals_result_\": {\"validation_0\": {\"logloss\": [0.6881853660246483, 0.6836585469711992, 0.6792014411517552, 0.6748123496098626, 0.6703842640819406, 0.6661271426014435, 0.6619331294432619, 0.6577007779501435, 0.6536283134517813, 0.6495164587981719, 0.6453745378587479, 0.641291854524971, 0.6372671606845426, 0.6333002425674209, 0.629388197472221, 0.6255306700118503, 0.6216325634404233, 0.6177876820241598, 0.6140631087740561, 0.6103185213598094, 0.6066245158812157]}, \"validation_1\": {\"logloss\": [0.6934018433094025, 0.6936743557453156, 0.6941854831050424, 0.6945389982532052, 0.6948635753463296, 0.6952941154732424, 0.6959574222564697, 0.6967784727320951, 0.6973189396016738, 0.6982120012535769, 0.6983799022786757, 0.6985853629953721, 0.6988272561746485, 0.6991050225846908, 0.6996567810282988, 0.700003552086213, 0.7012310992268955, 0.7022532522678375, 0.7024564480080324, 0.7037573895033669, 0.7046612904352301]}}, \"_estimator_type\": \"classifier\"}"},"feature_names":["st_stoch","st_ich","st_cut_ema5_sma10","st_macd","st_ich_close","st_dmi","st_cut_sma10_close","st_hisse","st_mfi","st_fishert","st_ema_5","st_ema_6","st_cut_ema_5_6","st_ema_7","st_ema_8","st_cut_ema_7_8","st_ema_9","st_ema_10","st_cut_ema_9_10","st_ema_11","st_ema_12","st_cut_ema_11_12","st_ema_13","st_ema_14","st_cut_ema_13_14","st_ema_15","st_ema_16","st_cut_ema_15_16","st_ema_17","st_ema_18","st_cut_ema_17_18","st_ema_19","st_ema_20","st_cut_ema_19_20","st_mfi_5","st_mfi_6","st_mfi_7","st_mfi_8","st_mfi_9","st_mfi_10","st_mfi_11","st_mfi_12","st_mfi_13","st_mfi_14","st_mfi_15","st_mfi_16","st_mfi_17","st_mfi_18","st_mfi_19","st_mfi_20","st_sma_5","st_sma_6","st_cut_sma_5_6","st_sma_7","st_sma_8","st_cut_sma_7_8","st_sma_9","st_sma_10","st_cut_sma_9_10","st_sma_11","st_sma_12","st_cut_sma_11_12","st_sma_13","st_sma_14","st_cut_sma_13_14","st_sma_15","st_sma_16","st_cut_sma_15_16","st_sma_17","st_sma_18","st_cut_sma_17_18","st_sma_19","st_sma_20","st_cut_sma_19_20","st_wma_5","st_wma_6","st_cut_wma_5_6","st_wma_7","st_wma_8","st_cut_wma_7_8","st_wma_9","st_wma_10","st_cut_wma_9_10","st_wma_11","st_wma_12","st_cut_wma_11_12","st_wma_13","st_wma_14","st_cut_wma_13_14","st_wma_15","st_wma_16","st_cut_wma_15_16","st_wma_17","st_wma_18","st_cut_wma_17_18","st_wma_19","st_wma_20","st_cut_wma_19_20","st_tema_5","st_tema_6","st_cut_tema_5_6","st_tema_7","st_tema_8","st_cut_tema_7_8","st_tema_9","st_tema_10","st_cut_tema_9_10","st_tema_11","st_tema_12","st_cut_tema_11_12","st_tema_13","st_tema_14","st_cut_tema_13_14","st_tema_15","st_tema_16","st_cut_tema_15_16","st_tema_17","st_tema_18","st_cut_tema_17_18","st_tema_19","st_tema_20","st_cut_tema_19_20","st_kama_5","st_kama_6","st_cut_kama_5_6","st_kama_7","st_kama_8","st_cut_kama_7_8","st_kama_9","st_kama_10","st_cut_kama_9_10","st_kama_11","st_kama_12","st_cut_kama_11_12","st_kama_13","st_kama_14","st_cut_kama_13_14","st_kama_15","st_kama_16","st_cut_kama_15_16","st_kama_17","st_kama_18","st_cut_kama_17_18","st_kama_19","st_kama_20","st_cut_kama_19_20","st_rsi_5","st_rsi_6","st_rsi_7","st_rsi_8","st_rsi_9","st_rsi_10","st_rsi_11","st_rsi_12","st_rsi_13","st_rsi_14","st_rsi_15","st_rsi_16","st_rsi_17","st_rsi_18","st_rsi_19","st_rsi_20","st_adx_5","st_adxdmi_5","st_adx_6","st_adxdmi_6","st_adx_7","st_adxdmi_7","st_adx_8","st_adxdmi_8","st_adx_9","st_adxdmi_9","st_adx_10","st_adxdmi_10","st_adx_11","st_adxdmi_11","st_adx_12","st_adxdmi_12","st_adx_13","st_adxdmi_13","st_adx_14","st_adxdmi_14","st_adx_15","st_adxdmi_15","st_adx_16","st_adxdmi_16","st_adx_17","st_adxdmi_17","st_adx_18","st_adxdmi_18","st_adx_19","st_adxdmi_19","st_adx_20","st_adxdmi_20","month","weekday","hour","is_quarter_end","candle_label","vol_delta","log_return","lag_2","lag_3","lag_4","lag_5","lag_6","lag_7","lag_8","lag_9","lag_10","lag_11","lag_12","lag_13","lag_14","lag_15","lag_16","lag_17","lag_18","lag_19","lag_20","lag_21","lag_22","lag_23","kz_score","twitter_sent_score"],"feature_types":["int","int","int","int","int","int","int","int","int","int","int","int","int","int","int","int","int","int","int","int","int","int","int","int","int","int","int","int","int","int","int","int","int","int","float","float","float","float","float","float","float","float","float","float","float","float","float","float","float","float","int","int","int","int","int","int","int","int","int","int","int","int","int","int","int","int","int","int","int","int","int","int","int","int","int","int","int","int","int","int","int","int","int","int","int","int","int","int","int","int","int","int","int","int","int","int","int","int","int","int","int","int","int","int","int","int","int","int","int","int","int","int","int","int","int","int","int","int","int","int","int","int","int","int","int","int","int","int","int","int","int","int","int","int","int","int","int","int","int","int","int","int","int","int","int","int","float","float","float","float","float","float","float","float","float","float","float","float","float","float","float","float","float","int","float","int","float","int","float","int","float","int","float","int","float","int","float","int","float","int","float","int","float","int","float","int","float","int","float","int","float","int","float","int","int","int","int","int","float","int","float","int","int","int","int","int","int","int","int","int","int","int","int","int","int","int","int","int","int","int","int","int","int","float","float"],"gradient_booster":{"model":{"gbtree_model_param":{"num_parallel_tree":"1","num_trees":"21","size_leaf_vector":"0"},"tree_info":[0,0,0,0,0,0,0,0,0,0,0,0,0,0,0,0,0,0,0,0,0],"trees":[{"base_weights":[4.379562E-2,7.368421E-1,-4.2857143E-1,1.2222222E0,-8E-2,9.52381E-2,-8.695652E-1,1.5E0,-5E-3,-1.3846154E-2,1E0,-1.0769231E-2,5.4545456E-1,4.6153846E-1,-1.2432432E0,1.68E-2,5.4545454E-3,2.2222223E-3,1.2727272E-2,1.04E0,-6.666667E-1,-2.2222223E-3,1E-2,-1.5E-2,2.2222223E-3,1.5384616E-1,1.5E-2,-0E0,-1E-2,6.666667E-3,-5E-3],"categories":[],"categories_nodes":[],"categories_segments":[],"categories_sizes":[],"default_left":[0,0,0,0,0,0,0,0,0,0,0,0,0,0,0,0,0,0,0,0,0,0,0,0,0,0,0,0,0,0,0],"id":0,"left_children":[1,3,5,7,9,11,13,15,-1,-1,17,-1,19,21,23,-1,-1,-1,-1,25,27,-1,-1,-1,-1,29,-1,-1,-1,-1,-1],"loss_changes":[1.1528291E1,5.7476025E0,4.933747E0,5.0555553E0,1.019077E1,6.1285377E0,6.293952E0,4.5818138E-1,0E0,0E0,5.6565666E-1,0E0,5.6387877E0,1.4188035E0,3.8138132E0,0E0,0E0,0E0,0E0,2.3169231E0,6.666666E-1,0E0,0E0,0E0,0E0,1.4230769E0,0E0,0E0,0E0,0E0,0E0],"parents":[2147483647,0,0,1,1,2,2,3,3,4,4,5,5,6,6,7,7,10,10,12,12,13,13,14,14,19,19,20,20,25,25],"right_children":[2,4,6,8,10,12,14,16,-1,-1,18,-1,20,22,24,-1,-1,-1,-1,26,28,-1,-1,-1,-1,30,-1,-1,-1,-1,-1],"split_conditions":[-5.005005E-4,1E0,1E0,8.317027E-1,8.525308E-1,3.5902712E-1,4.2397642E-1,-2.112458E-3,-5E-3,-1.3846154E-2,1E0,-1.0769231E-2,2.030927E0,4.0347445E-1,8.31221E-1,1.68E-2,5.4545454E-3,2.2222223E-3,1.2727272E-2,7.378727E-1,7.0815516E-1,-2.2222223E-3,1E-2,-1.5E-2,2.2222223E-3,4.5041466E-1,1.5E-2,-0E0,-1E-2,6.666667E-3,-5E-3],"split_indices":[200,207,202,170,188,45,46,200,0,0,124,0,223,36,38,0,0,0,0,170,35,0,0,0,0,37,0,0,0,0,0],"split_type":[0,0,0,0,0,0,0,0,0,0,0,0,0,0,0,0,0,0,0,0,0,0,0,0,0,0,0,0,0,0,0],"sum_hessian":[3.325E1,1.325E1,2E1,8E0,5.25E0,9.5E0,1.05E1,7E0,1E0,2.25E0,3E0,2.25E0,7.25E0,2.25E0,8.25E0,5.25E0,1.75E0,1.25E0,1.75E0,5.25E0,2E0,1.25E0,1E0,7E0,1.25E0,2.25E0,3E0,1E0,1E0,1.25E0,1E0],"tree_param":{"num_deleted":"0","num_feature":"225","num_nodes":"31","size_leaf_vector":"0"}},{"base_weights":[4.3629523E-2,7.307913E-1,-4.2473337E-1,1.2119699E0,-7.902588E-2,9.38976E-2,-8.6133605E-1,1.4718703E0,-2.2186898E-3,-1.3750755E-2,9.937554E-1,-1.0694888E-2,5.408222E-1,4.5931996E-3,-1.232245E0,1.652764E-2,5.41986E-3,1.2675121E-2,2.17489E-3,1.0322981E0,-6.6333883E-3,-1.4869483E-2,2.209879E-3,1.52181E-3,1.4893296E-2],"categories":[],"categories_nodes":[],"categories_segments":[],"categories_sizes":[],"default_left":[0,0,0,0,0,0,0,0,0,0,0,0,0,0,0,0,0,0,0,0,0,0,0,0,0],"id":1,"left_children":[1,3,5,7,9,11,13,15,-1,-1,17,-1,19,-1,21,-1,-1,-1,-1,23,-1,-1,-1,-1,-1],"loss_changes":[1.1333038E1,5.6483054E0,4.835868E0,3.680316E0,1.00561E1,6.0376925E0,6.198984E0,4.0779495E-1,0E0,0E0,5.7434773E-1,0E0,5.567119E0,0E0,3.7522783E0,0E0,0E0,0E0,0E0,2.2872853E0,0E0,0E0,0E0,0E0,0E0],"parents":[2147483647,0,0,1,1,2,2,3,3,4,4,5,5,6,6,7,7,10,10,12,12,14,14,19,19],"right_children":[2,4,6,8,10,12,14,16,-1,-1,18,-1,20,-1,22,-1,-1,-1,-1,24,-1,-1,-1,-1,-1],"split_conditions":[-5.005005E-4,1E0,1E0,8.2091314E-1,8.525308E-1,3.5902712E-1,4.2397642E-1,-2.112458E-3,-2.2186898E-3,-1.3750755E-2,1.5118462E-1,-1.0694888E-2,2.030927E0,4.5931996E-3,8.31221E-1,1.652764E-2,5.41986E-3,1.2675121E-2,2.17489E-3,7.6407737E-1,-6.6333883E-3,-1.4869483E-2,2.209879E-3,1.52181E-3,1.4893296E-2],"split_indices":[200,207,202,168,188,45,46,200,0,0,224,0,223,0,38,0,0,0,0,172,0,0,0,0,0],"split_type":[0,0,0,0,0,0,0,0,0,0,0,0,0,0,0,0,0,0,0,0,0,0,0,0,0],"sum_hessian":[3.324873E1,1.324943E1,1.99993E1,7.9996104E0,5.2498198E0,9.499722E0,1.0499578E1,6.7496343E0,1.2499762E0,2.2498922E0,2.9999275E0,2.249935E0,7.2497864E0,2.2499733E0,8.249605E0,4.999647E0,1.749987E0,1.7499586E0,1.249969E0,5.249811E0,1.999975E0,6.9996066E0,1.2499985E0,2.2499685E0,2.9998424E0],"tree_param":{"num_deleted":"0","num_feature":"225","num_nodes":"25","size_leaf_vector":"0"}},{"base_weights":[4.3543722E-2,7.2502553E-1,-4.209528E-1,1.2021871E0,-7.806599E-2,9.287835E-2,-8.535139E-1,1.4601871E0,-2.206366E-3,-1.36569105E-2,9.8757374E-1,-1.0621485E-2,5.366356E-1,4.561441E-3,-1.2214468E0,1.6392754E-2,5.3854454E-3,1.2604625E-2,2.1511852E-3,1.0246826E0,-6.589288E-3,-1.4741537E-2,2.197606E-3,1.5074069E-3,1.4786507E-2],"categories":[],"categories_nodes":[],"categories_segments":[],"categories_sizes":[],"default_left":[0,0,0,0,0,0,0,0,0,0,0,0,0,0,0,0,0,0,0,0,0,0,0,0,0],"id":2,"left_children":[1,3,5,7,9,11,13,15,-1,-1,17,-1,19,-1,21,-1,-1,-1,-1,23,-1,-1,-1,-1,-1],"loss_changes":[1.1145386E1,5.5536904E0,4.746217E0,3.62543E0,9.923697E0,5.9512563E0,6.0978365E0,3.9612007E-1,0E0,0E0,5.719769E-1,0E0,5.488555E0,0E0,3.6922703E0,0E0,0E0,0E0,0E0,2.256473E0,0E0,0E0,0E0,0E0,0E0],"parents":[2147483647,0,0,1,1,2,2,3,3,4,4,5,5,6,6,7,7,10,10,12,12,14,14,19,19],"right_children":[2,4,6,8,10,12,14,16,-1,-1,18,-1,20,-1,22,-1,-1,-1,-1,24,-1,-1,-1,-1,-1],"split_conditions":[-5.005005E-4,1E0,1E0,8.2091314E-1,8.525308E-1,3.5902712E-1,4.2397642E-1,-2.112458E-3,-2.206366E-3,-1.36569105E-2,1E0,-1.0621485E-2,2.030927E0,4.561441E-3,8.31221E-1,1.6392754E-2,5.3854454E-3,1.2604625E-2,2.1511852E-3,7.378727E-1,-6.589288E-3,-1.4741537E-2,2.197606E-3,1.5074069E-3,1.4786507E-2],"split_indices":[200,207,202,168,188,45,46,200,0,0,204,0,223,0,38,0,0,0,0,170,0,0,0,0,0],"split_type":[0,0,0,0,0,0,0,0,0,0,0,0,0,0,0,0,0,0,0,0,0,0,0,0,0],"sum_hessian":[3.3245216E1,1.3247858E1,1.9997358E1,7.9985337E0,5.249325E0,9.4989805E0,1.0498378E1,6.74856E0,1.2499738E0,2.2495716E0,2.999753E0,2.249741E0,7.2492394E0,2.249945E0,8.248432E0,4.998612E0,1.7499483E0,1.7498236E0,1.2499295E0,5.24932E0,1.9999198E0,6.998439E0,1.2499939E0,2.2499511E0,2.9993687E0],"tree_param":{"num_deleted":"0","num_feature":"225","num_nodes":"25","size_leaf_vector":"0"}},{"base_weights":[4.3459367E-2,7.1935815E-1,-4.1723144E-1,1.1925762E0,-7.7119984E-2,9.18733E-2,-8.4581995E-1,1.4487274E0,-2.1941143E-3,-1.3564584E-2,9.814617E-1,-1.0548998E-2,5.325049E-1,4.5299353E-3,-1.2108427E0,1.6260786E-2,5.3513013E-3,1.2535047E-2,2.1277117E-3,1.0171759E0,-6.5455753E-3,-1.4616081E-2,2.1854038E-3,1.4906501E-3,1.4683618E-2],"categories":[],"categories_nodes":[],"categories_segments":[],"categories_sizes":[],"default_left":[0,0,0,0,0,0,0,0,0,0,0,0,0,0,0,0,0,0,0,0,0,0,0,0,0],"id":3,"left_children":[1,3,5,7,9,11,13,15,-1,-1,17,-1,19,-1,21,-1,-1,-1,-1,23,-1,-1,-1,-1,-1],"loss_changes":[1.0961618E1,5.4611206E0,4.658557E0,3.5718374E0,9.79355E0,5.866301E0,5.998906E0,3.8503075E-1,0E0,0E0,5.696435E-1,0E0,5.411351E0,0E0,3.6337366E0,0E0,0E0,0E0,0E0,2.2285314E0,0E0,0E0,0E0,0E0,0E0],"parents":[2147483647,0,0,1,1,2,2,3,3,4,4,5,5,6,6,7,7,10,10,12,12,14,14,19,19],"right_children":[2,4,6,8,10,12,14,16,-1,-1,18,-1,20,-1,22,-1,-1,-1,-1,24,-1,-1,-1,-1,-1],"split_conditions":[-5.005005E-4,1E0,1E0,8.2091314E-1,8.525308E-1,3.5902712E-1,4.2397642E-1,-2.112458E-3,-2.1941143E-3,-1.3564584E-2,1.5118462E-1,-1.0548998E-2,2.030927E0,4.5299353E-3,8.31221E-1,1.6260786E-2,5.3513013E-3,1.2535047E-2,2.1277117E-3,7.6407737E-1,-6.5455753E-3,-1.4616081E-2,2.1854038E-3,1.4906501E-3,1.4683618E-2],"split_indices":[200,207,202,168,188,45,46,200,0,0,224,0,223,0,38,0,0,0,0,172,0,0,0,0,0],"split_type":[0,0,0,0,0,0,0,0,0,0,0,0,0,0,0,0,0,0,0,0,0,0,0,0,0],"sum_hessian":[3.3239407E1,1.3245257E1,1.999415E1,7.9967637E0,5.248494E0,9.497751E0,1.0496398E1,6.746795E0,1.2499682E0,2.249043E0,2.999451E0,2.2494211E0,7.2483306E0,2.2498932E0,8.246505E0,4.996911E0,1.7498844E0,1.749569E0,1.2498819E0,5.248509E0,1.9998214E0,6.996518E0,1.2499863E0,2.2499144E0,2.9985948E0],"tree_param":{"num_deleted":"0","num_feature":"225","num_nodes":"25","size_leaf_vector":"0"}},{"base_weights":[4.3376654E-2,7.137866E-1,-4.135673E-1,1.1831325E0,-7.618758E-2,9.0882204E-2,-8.3825016E-1,1.4374847E0,-2.1819337E-3,-1.3473741E-2,9.7541815E-1,-1.0477407E-2,5.284288E-1,4.4986773E-3,-1.2004263E0,1.6131643E-2,5.3174207E-3,2.0813593E-3,1.2484939E-2,1.0097746E0,-6.5022456E-3,-1.4493029E-2,2.1732731E-3,1.4765382E-1,1.458057E-2,6.575361E-3,-4.9975994E-3],"categories":[],"categories_nodes":[],"categories_segments":[],"categories_sizes":[],"default_left":[0,0,0,0,0,0,0,0,0,0,0,0,0,0,0,0,0,0,0,0,0,0,0,0,0,0,0],"id":4,"left_children":[1,3,5,7,9,11,13,15,-1,-1,17,-1,19,-1,21,-1,-1,-1,-1,23,-1,-1,-1,25,-1,-1,-1],"loss_changes":[1.0781627E1,5.370533E0,4.57283E0,3.519496E0,9.665609E0,5.782795E0,5.9021206E0,3.7450027E-1,0E0,0E0,5.780442E-1,0E0,5.335472E0,0E0,3.57662E0,0E0,0E0,0E0,0E0,2.1991634E0,0E0,0E0,0E0,1.401411E0,0E0,0E0,0E0],"parents":[2147483647,0,0,1,1,2,2,3,3,4,4,5,5,6,6,7,7,10,10,12,12,14,14,19,19,23,23],"right_children":[2,4,6,8,10,12,14,16,-1,-1,18,-1,20,-1,22,-1,-1,-1,-1,24,-1,-1,-1,26,-1,-1,-1],"split_conditions":[-5.005005E-4,1E0,1E0,8.2091314E-1,8.525308E-1,3.5902712E-1,4.2397642E-1,-2.112458E-3,-2.1819337E-3,-1.3473741E-2,1E0,-1.0477407E-2,2.030927E0,4.4986773E-3,8.31221E-1,1.6131643E-2,5.3174207E-3,2.0813593E-3,1.2484939E-2,7.378727E-1,-6.5022456E-3,-1.4493029E-2,2.1732731E-3,4.5041466E-1,1.458057E-2,6.575361E-3,-4.9975994E-3],"split_indices":[200,207,202,168,188,45,46,200,0,0,124,0,223,0,38,0,0,0,0,170,0,0,0,37,0,0,0],"split_type":[0,0,0,0,0,0,0,0,0,0,0,0,0,0,0,0,0,0,0,0,0,0,0,0,0,0,0],"sum_hessian":[3.323136E1,1.3241652E1,1.998971E1,7.9943175E0,5.247334E0,9.49605E0,1.049366E1,6.7443576E0,1.2499598E0,2.2483106E0,2.9990237E0,2.248978E0,7.247072E0,2.2498188E0,8.243841E0,4.994562E0,1.7497957E0,1.2497356E0,1.7492881E0,5.247391E0,1.9996809E0,6.9938655E0,1.2499757E0,2.2498796E0,2.9975114E0,1.2498796E0,1E0],"tree_param":{"num_deleted":"0","num_feature":"225","num_nodes":"27","size_leaf_vector":"0"}},{"base_weights":[4.3298326E-2,7.083066E-1,-4.0995592E-1,1.1738513E0,-7.526887E-2,8.9914925E-2,-8.3080155E-1,1.4264524E0,-2.1698226E-3,-1.3384342E-2,9.6943414E-1,-1.0406696E-2,5.2442324E-1,4.467668E-3,-1.1901927E0,1.6005235E-2,5.2838014E-3,1.2407724E-2,2.0698255E-3,1.002505E0,-6.4592944E-3,-1.4372312E-2,2.1612127E-3,1.4643283E-3,1.4478205E-2],"categories":[],"categories_nodes":[],"categories_segments":[],"categories_sizes":[],"default_left":[0,0,0,0,0,0,0,0,0,0,0,0,0,0,0,0,0,0,0,0,0,0,0,0,0],"id":5,"left_children":[1,3,5,7,9,11,13,15,-1,-1,17,-1,19,-1,21,-1,-1,-1,-1,23,-1,-1,-1,-1,-1],"loss_changes":[1.0605219E1,5.281893E0,4.4890704E0,3.4683638E0,9.539789E0,5.7008176E0,5.8074207E0,3.6449432E-1,0E0,0E0,5.7040095E-1,0E0,5.2610445E0,0E0,3.5208797E0,0E0,0E0,0E0,0E0,2.1690645E0,0E0,0E0,0E0,0E0,0E0],"parents":[2147483647,0,0,1,1,2,2,3,3,4,4,5,5,6,6,7,7,10,10,12,12,14,14,19,19],"right_children":[2,4,6,8,10,12,14,16,-1,-1,18,-1,20,-1,22,-1,-1,-1,-1,24,-1,-1,-1,-1,-1],"split_conditions":[-5.005005E-4,1E0,1E0,8.2091314E-1,8.525308E-1,3.5902712E-1,4.2397642E-1,-2.112458E-3,-2.1698226E-3,-1.3384342E-2,1.5118462E-1,-1.0406696E-2,2.030927E0,4.467668E-3,8.31221E-1,1.6005235E-2,5.2838014E-3,1.2407724E-2,2.0698255E-3,7.6407737E-1,-6.4592944E-3,-1.4372312E-2,2.1612127E-3,1.4643283E-3,1.4478205E-2],"split_indices":[200,207,202,168,188,45,46,200,0,0,224,0,223,0,38,0,0,0,0,172,0,0,0,0,0],"split_type":[0,0,0,0,0,0,0,0,0,0,0,0,0,0,0,0,0,0,0,0,0,0,0,0,0],"sum_hessian":[3.322108E1,1.3237091E1,1.998399E1,7.991213E0,5.245878E0,9.493808E0,1.0490182E1,6.7412643E0,1.2499484E0,2.2473786E0,2.9984999E0,2.248414E0,7.2453938E0,2.249722E0,8.240459E0,4.9915814E0,1.7496828E0,1.7487987E0,1.2497011E0,5.245895E0,1.9994987E0,6.9904976E0,1.2499623E0,2.2497735E0,2.9961216E0],"tree_param":{"num_deleted":"0","num_feature":"225","num_nodes":"25","size_leaf_vector":"0"}},{"base_weights":[4.3218467E-2,7.0291805E-1,-4.0640247E-1,1.1647276E0,-7.436298E-2,8.895081E-2,-8.234705E-1,1.4156241E0,-2.1577822E-3,-1.329635E-2,9.6352005E-1,-1.0336847E-2,5.2045345E-1,4.4369022E-3,-1.180136E0,1.5881473E-2,5.2504414E-3,2.0240783E-3,1.2358981E-2,9.953091E-1,-6.416715E-3,-1.4253855E-2,2.1492222E-3,1.446573E-3,1.4381809E-2],"categories":[],"categories_nodes":[],"categories_segments":[],"categories_sizes":[],"default_left":[0,0,0,0,0,0,0,0,0,0,0,0,0,0,0,0,0,0,0,0,0,0,0,0,0],"id":6,"left_children":[1,3,5,7,9,11,13,15,-1,-1,17,-1,19,-1,21,-1,-1,-1,-1,23,-1,-1,-1,-1,-1],"loss_changes":[1.0432479E1,5.195113E0,4.4070473E0,3.418397E0,9.416096E0,5.620123E0,5.714734E0,3.5499096E-1,0E0,0E0,5.786388E-1,0E0,5.1877384E0,0E0,3.4664574E0,0E0,0E0,0E0,0E0,2.14432E0,0E0,0E0,0E0,0E0,0E0],"parents":[2147483647,0,0,1,1,2,2,3,3,4,4,5,5,6,6,7,7,10,10,12,12,14,14,19,19],"right_children":[2,4,6,8,10,12,14,16,-1,-1,18,-1,20,-1,22,-1,-1,-1,-1,24,-1,-1,-1,-1,-1],"split_conditions":[-5.005005E-4,1E0,1E0,8.2091314E-1,8.525308E-1,3.5902712E-1,4.2397642E-1,-2.112458E-3,-2.1577822E-3,-1.329635E-2,1E0,-1.0336847E-2,2.030927E0,4.4369022E-3,8.31221E-1,1.5881473E-2,5.2504414E-3,2.0240783E-3,1.2358981E-2,7.378727E-1,-6.416715E-3,-1.4253855E-2,2.1492222E-3,1.446573E-3,1.4381809E-2],"split_indices":[200,207,202,168,188,45,46,200,0,0,124,0,223,0,38,0,0,0,0,170,0,0,0,0,0],"split_type":[0,0,0,0,0,0,0,0,0,0,0,0,0,0,0,0,0,0,0,0,0,0,0,0,0],"sum_hessian":[3.3208725E1,1.323156E1,1.9977165E1,7.987466E0,5.244094E0,9.4911785E0,1.0485986E1,6.7375317E0,1.2499341E0,2.2462518E0,2.9978418E0,2.2477322E0,7.2434464E0,2.249603E0,8.236383E0,4.9879856E0,1.7495462E0,1.2494867E0,1.7483552E0,5.24417E0,1.9992758E0,6.986437E0,1.249946E0,2.2496877E0,2.9944828E0],"tree_param":{"num_deleted":"0","num_feature":"225","num_nodes":"25","size_leaf_vector":"0"}},{"base_weights":[4.313983E-2,6.976163E-1,-4.029022E-1,1.1557575E0,-7.347031E-2,8.799966E-2,-8.16254E-1,1.4049941E0,-2.14581E-3,-1.3209734E-2,9.576635E-1,-1.0267842E-2,5.1653445E-1,4.406377E-3,-1.1702511E0,1.5760276E-2,5.217338E-3,1.22924335E-2,2.0015058E-3,9.251624E-1,-7.927247E-3,-1.41375875E-2,2.1372994E-3,1.3513813E-2,-1.8558223E-3],"categories":[],"categories_nodes":[],"categories_segments":[],"categories_sizes":[],"default_left":[0,0,0,0,0,0,0,0,0,0,0,0,0,0,0,0,0,0,0,0,0,0,0,0,0],"id":7,"left_children":[1,3,5,7,9,11,13,15,-1,-1,17,-1,19,-1,21,-1,-1,-1,-1,23,-1,-1,-1,-1,-1],"loss_changes":[1.0263214E1,5.110173E0,4.3267994E0,3.3695564E0,9.294432E0,5.540788E0,5.624008E0,3.4596348E-1,0E0,0E0,5.7626915E-1,0E0,5.1424265E0,0E0,3.413313E0,0E0,0E0,0E0,0E0,3.4427476E0,0E0,0E0,0E0,0E0,0E0],"parents":[2147483647,0,0,1,1,2,2,3,3,4,4,5,5,6,6,7,7,10,10,12,12,14,14,19,19],"right_children":[2,4,6,8,10,12,14,16,-1,-1,18,-1,20,-1,22,-1,-1,-1,-1,24,-1,-1,-1,-1,-1],"split_conditions":[-5.005005E-4,1E0,1E0,8.2091314E-1,8.525308E-1,3.5902712E-1,4.2397642E-1,-2.112458E-3,-2.14581E-3,-1.3209734E-2,1E0,-1.0267842E-2,6.891234E-1,4.406377E-3,8.31221E-1,1.5760276E-2,5.217338E-3,1.22924335E-2,2.0015058E-3,2.1E1,-7.927247E-3,-1.41375875E-2,2.1372994E-3,1.3513813E-2,-1.8558223E-3],"split_indices":[200,207,202,168,188,45,46,200,0,0,204,0,146,0,38,0,0,0,0,196,0,0,0,0,0],"split_type":[0,0,0,0,0,0,0,0,0,0,0,0,0,0,0,0,0,0,0,0,0,0,0,0,0],"sum_hessian":[3.319432E1,1.3225119E1,1.9969202E1,7.9830933E0,5.2420254E0,9.48811E0,1.04810915E1,6.733176E0,1.249917E0,2.244934E0,2.997091E0,2.2469344E0,7.241175E0,2.249463E0,8.231628E0,4.9837904E0,1.7493862E0,1.7477577E0,1.2493335E0,5.7423286E0,1.4988469E0,6.9817014E0,1.2499268E0,3.9933438E0,1.7489846E0],"tree_param":{"num_deleted":"0","num_feature":"225","num_nodes":"25","size_leaf_vector":"0"}},{"base_weights":[4.2897534E-2,6.924003E-1,-3.9970964E-1,1.1469363E0,-7.259029E-2,8.6520955E-2,-8.091491E-1,1.3945562E0,-2.1339084E-3,-1.3124461E-2,9.5187074E-1,-1.0199658E-2,5.119458E-1,4.376092E-3,-1.1605332E0,1.5641563E-2,5.1844884E-3,1.9790959E-3,1.2226975E-2,9.8194927E-1,-6.3677393E-3,-1.4023445E-2,2.1254465E-3,1.4046261E-3,1.4210512E-2],"categories":[],"categories_nodes":[],"categories_segments":[],"categories_sizes":[],"default_left":[0,0,0,0,0,0,0,0,0,0,0,0,0,0,0,0,0,0,0,0,0,0,0,0,0],"id":8,"left_children":[1,3,5,7,9,11,13,15,-1,-1,17,-1,19,-1,21,-1,-1,-1,-1,23,-1,-1,-1,-1,-1],"loss_changes":[1.0102212E1,5.026998E0,4.242914E0,3.3218088E0,9.174787E0,5.4578457E0,5.535181E0,3.3738613E-1,0E0,0E0,5.7401633E-1,0E0,5.0736437E0,0E0,3.3613997E0,0E0,0E0,0E0,0E0,2.106176E0,0E0,0E0,0E0,0E0,0E0],"parents":[2147483647,0,0,1,1,2,2,3,3,4,4,5,5,6,6,7,7,10,10,12,12,14,14,19,19],"right_children":[2,4,6,8,10,12,14,16,-1,-1,18,-1,20,-1,22,-1,-1,-1,-1,24,-1,-1,-1,-1,-1],"split_conditions":[-5.005005E-4,1E0,1E0,8.2091314E-1,8.525308E-1,3.5902712E-1,4.2397642E-1,-2.112458E-3,-2.1339084E-3,-1.3124461E-2,1E0,-1.0199658E-2,2.030927E0,4.376092E-3,8.31221E-1,1.5641563E-2,5.1844884E-3,1.9790959E-3,1.2226975E-2,7.6407737E-1,-6.3677393E-3,-1.4023445E-2,2.1254465E-3,1.4046261E-3,1.4210512E-2],"split_indices":[200,207,202,168,188,45,46,200,0,0,124,0,223,0,38,0,0,0,0,172,0,0,0,0,0],"split_type":[0,0,0,0,0,0,0,0,0,0,0,0,0,0,0,0,0,0,0,0,0,0,0,0,0],"sum_hessian":[3.317851E1,1.3217766E1,1.9960743E1,7.978112E0,5.239653E0,9.485228E0,1.0475516E1,6.728215E0,1.2498971E0,2.2434294E0,2.9962234E0,2.2460241E0,7.2392035E0,2.249302E0,8.226214E0,4.979012E0,1.7492033E0,1.249228E0,1.7469954E0,5.2402945E0,1.998909E0,6.9763093E0,1.249905E0,2.2494252E0,2.990869E0],"tree_param":{"num_deleted":"0","num_feature":"225","num_nodes":"25","size_leaf_vector":"0"}},{"base_weights":[4.282229E-2,6.8726814E-1,-3.963088E-1,1.1382602E0,-7.172247E-2,8.559731E-2,-8.021527E-1,1.3843052E0,-2.1220755E-3,-1.3040494E-2,9.4614094E-1,-1.0132289E-2,5.081245E-1,4.346043E-3,-1.1509775E0,1.552526E-2,5.151887E-3,1.2180111E-2,1.9342568E-3,9.129806E-1,-7.871251E-3,-1.3911363E-2,2.113662E-3,1.334929E-2,-1.8506215E-3],"categories":[],"categories_nodes":[],"categories_segments":[],"categories_sizes":[],"default_left":[0,0,0,0,0,0,0,0,0,0,0,0,0,0,0,0,0,0,0,0,0,0,0,0,0],"id":9,"left_children":[1,3,5,7,9,11,13,15,-1,-1,17,-1,19,-1,21,-1,-1,-1,-1,23,-1,-1,-1,-1,-1],"loss_changes":[9.939575E0,4.94554E0,4.1661654E0,3.2751179E0,9.057117E0,5.3811865E0,5.448199E0,3.2923508E-1,0E0,0E0,5.819948E-1,0E0,5.037707E0,0E0,3.3106813E0,0E0,0E0,0E0,0E0,3.368874E0,0E0,0E0,0E0,0E0,0E0],"parents":[2147483647,0,0,1,1,2,2,3,3,4,4,5,5,6,6,7,7,10,10,12,12,14,14,19,19],"right_children":[2,4,6,8,10,12,14,16,-1,-1,18,-1,20,-1,22,-1,-1,-1,-1,24,-1,-1,-1,-1,-1],"split_conditions":[-5.005005E-4,1E0,1E0,8.2091314E-1,8.525308E-1,3.5902712E-1,4.2397642E-1,-2.112458E-3,-2.1220755E-3,-1.3040494E-2,1.5118462E-1,-1.0132289E-2,6.891234E-1,4.346043E-3,8.31221E-1,1.552526E-2,5.151887E-3,1.2180111E-2,1.9342568E-3,2.1E1,-7.871251E-3,-1.3911363E-2,2.113662E-3,1.334929E-2,-1.8506215E-3],"split_indices":[200,207,202,168,188,45,46,200,0,0,224,0,146,0,38,0,0,0,0,196,0,0,0,0,0],"split_type":[0,0,0,0,0,0,0,0,0,0,0,0,0,0,0,0,0,0,0,0,0,0,0,0,0],"sum_hessian":[3.316019E1,1.3209522E1,1.9950668E1,7.9725385E0,5.236984E0,9.481389E0,1.0469279E1,6.722664E0,1.2498745E0,2.2417428E0,2.9952412E0,2.245003E0,7.236386E0,2.2491205E0,8.220159E0,4.973666E0,1.748998E0,1.7463334E0,1.2489078E0,5.737993E0,1.4983929E0,6.9702783E0,1.2498804E0,3.9892833E0,1.7487096E0],"tree_param":{"num_deleted":"0","num_feature":"225","num_nodes":"25","size_leaf_vector":"0"}},{"base_weights":[4.258477E-2,6.822158E-1,-3.9321235E-1,1.1297252E0,-7.086742E-2,-8.263489E-2,-1.036444E0,1.3742356E0,-2.1103104E-3,-1.29578095E-2,9.4046557E-1,4.1918057E-1,-6.9464946E-1,-1.3349409E-2,3.5817E-5,1.54112885E-2,5.119534E-3,1.2107116E-2,1.9235696E-3,-6.2623876E-1,9.798403E-1,4.4580535E-3,-1.2988584E-2,2.352547E-3,-1.1512337E-2,1.33045595E-2,-2.3416393E-3],"categories":[],"categories_nodes":[],"categories_segments":[],"categories_sizes":[],"default_left":[0,0,0,0,0,0,0,0,0,0,0,0,0,0,0,0,0,0,0,0,0,0,0,0,0,0,0],"id":10,"left_children":[1,3,5,7,9,11,13,15,-1,-1,17,19,21,-1,-1,-1,-1,-1,-1,23,25,-1,-1,-1,-1,-1,-1],"loss_changes":[9.784903E0,4.865774E0,4.0976214E0,3.2294455E0,8.94135E0,4.9619155E0,2.0946412E0,3.2149315E-1,0E0,0E0,5.746267E-1,5.877077E0,5.5597506E0,0E0,0E0,0E0,0E0,0E0,0E0,1.9645818E0,2.965551E0,0E0,0E0,0E0,0E0,0E0,0E0],"parents":[2147483647,0,0,1,1,2,2,3,3,4,4,5,5,6,6,7,7,10,10,11,11,12,12,19,19,20,20],"right_children":[2,4,6,8,10,12,14,16,-1,-1,18,20,22,-1,-1,-1,-1,-1,-1,24,26,-1,-1,-1,-1,-1,-1],"split_conditions":[-5.005005E-4,1E0,7.271485E-1,8.2091314E-1,8.525308E-1,1E0,8.1206566E-1,-2.112458E-3,-2.1103104E-3,-1.29578095E-2,1.5118462E-1,4.5751166E-1,4.2662E-1,-1.3349409E-2,3.5817E-5,1.54112885E-2,5.119534E-3,1.2107116E-2,1.9235696E-3,3.0934444E-1,6.4666045E-1,4.4580535E-3,-1.2988584E-2,2.352547E-3,-1.1512337E-2,1.33045595E-2,-2.3416393E-3],"split_indices":[200,207,35,168,188,202,39,200,0,0,224,47,45,0,0,0,0,0,0,147,147,0,0,0,0,0,0],"split_type":[0,0,0,0,0,0,0,0,0,0,0,0,0,0,0,0,0,0,0,0,0,0,0,0,0,0,0],"sum_hessian":[3.3140514E1,1.3200437E1,1.9940077E1,7.9663877E0,5.2340493E0,1.4208246E1,5.73183E0,6.7165384E0,1.2498491E0,2.2398777E0,2.9941716E0,7.980111E0,6.2281346E0,4.233276E0,1.4985542E0,4.9677677E0,1.7487708E0,1.7453277E0,1.2488438E0,2.7449133E0,5.235198E0,2.24771E0,3.9804244E0,1.2483379E0,1.4965755E0,3.9876142E0,1.2475839E0],"tree_param":{"num_deleted":"0","num_feature":"225","num_nodes":"27","size_leaf_vector":"0"}},{"base_weights":[4.216856E-2,6.772437E-1,-3.9043698E-1,1.1213273E0,-7.002393E-2,-8.228956E-2,-1.0286111E0,1.3643421E0,-2.098613E-3,-1.2876372E-2,9.348546E-1,4.1534343E-1,-6.8924147E-1,-1.3250587E-2,3.5602414E-5,1.5299581E-2,5.0874264E-3,1.879305E-3,1.2061502E-2,-6.2254643E-1,9.722016E-1,4.427375E-3,-1.2894135E-2,2.3445971E-3,-1.1450463E-2,1.320507E-2,-2.3286114E-3],"categories":[],"categories_nodes":[],"categories_segments":[],"categories_sizes":[],"default_left":[0,0,0,0,0,0,0,0,0,0,0,0,0,0,0,0,0,0,0,0,0,0,0,0,0,0,0],"id":11,"left_children":[1,3,5,7,9,11,13,15,-1,-1,17,19,21,-1,-1,-1,-1,-1,-1,23,25,-1,-1,-1,-1,-1,-1],"loss_changes":[9.6384325E0,4.787626E0,4.031169E0,3.184764E0,8.827492E0,4.8776393E0,2.0634527E0,3.1413746E-1,0E0,0E0,5.824542E-1,5.793456E0,5.479007E0,0E0,0E0,0E0,0E0,0E0,0E0,1.9450548E0,2.923521E0,0E0,0E0,0E0,0E0,0E0,0E0],"parents":[2147483647,0,0,1,1,2,2,3,3,4,4,5,5,6,6,7,7,10,10,11,11,12,12,19,19,20,20],"right_children":[2,4,6,8,10,12,14,16,-1,-1,18,20,22,-1,-1,-1,-1,-1,-1,24,26,-1,-1,-1,-1,-1,-1],"split_conditions":[-5.005005E-4,1E0,7.271485E-1,8.2091314E-1,8.525308E-1,1E0,8.1206566E-1,-2.112458E-3,-2.098613E-3,-1.2876372E-2,1E0,4.5751166E-1,4.2662E-1,-1.3250587E-2,3.5602414E-5,1.5299581E-2,5.0874264E-3,1.879305E-3,1.2061502E-2,4.7171214E-1,6.4666045E-1,4.427375E-3,-1.2894135E-2,2.3445971E-3,-1.1450463E-2,1.320507E-2,-2.3286114E-3],"split_indices":[200,207,35,168,188,202,39,200,0,0,124,47,45,0,0,0,0,0,0,168,147,0,0,0,0,0,0],"split_type":[0,0,0,0,0,0,0,0,0,0,0,0,0,0,0,0,0,0,0,0,0,0,0,0,0,0,0],"sum_hessian":[3.3119946E1,1.3190493E1,1.9929455E1,7.9596753E0,5.2308173E0,1.4201225E1,5.728229E0,6.709854E0,1.2498212E0,2.2378383E0,2.9929788E0,7.9768147E0,6.22441E0,4.229675E0,1.4985543E0,4.961332E0,1.7485222E0,1.2484614E0,1.7445174E0,2.7441738E0,5.2326407E0,2.2475822E0,3.976828E0,1.2481793E0,1.4959946E0,3.985028E0,1.2476127E0],"tree_param":{"num_deleted":"0","num_feature":"225","num_nodes":"27","size_leaf_vector":"0"}},{"base_weights":[4.1758295E-2,6.723474E-1,-3.877024E-1,1.1130629E0,-6.9192685E-2,-8.1949644E-2,-1.0208908E0,1.3546199E0,-2.0869835E-3,-1.2796151E-2,9.292963E-1,4.1155916E-1,-6.839073E-1,-1.315338E-2,3.5388068E-5,1.519007E-2,5.05556E-3,1.1998428E-2,1.8578467E-3,-6.188913E-1,9.646744E-1,4.3969364E-3,-1.2801172E-2,2.3572422E-3,-1.1408889E-2,1.3107203E-2,-2.3156586E-3],"categories":[],"categories_nodes":[],"categories_segments":[],"categories_sizes":[],"default_left":[0,0,0,0,0,0,0,0,0,0,0,0,0,0,0,0,0,0,0,0,0,0,0,0,0,0,0],"id":12,"left_children":[1,3,5,7,9,11,13,15,-1,-1,17,19,21,-1,-1,-1,-1,-1,-1,23,25,-1,-1,-1,-1,-1,-1],"loss_changes":[9.494725E0,4.711073E0,3.965997E0,3.1410408E0,8.715454E0,4.7950115E0,2.0329728E0,3.0715275E-1,0E0,0E0,5.800364E-1,5.711317E0,5.3997974E0,0E0,0E0,0E0,0E0,0E0,0E0,1.9388689E0,2.8823495E0,0E0,0E0,0E0,0E0,0E0,0E0],"parents":[2147483647,0,0,1,1,2,2,3,3,4,4,5,5,6,6,7,7,10,10,11,11,12,12,19,19,20,20],"right_children":[2,4,6,8,10,12,14,16,-1,-1,18,20,22,-1,-1,-1,-1,-1,-1,24,26,-1,-1,-1,-1,-1,-1],"split_conditions":[-5.005005E-4,1E0,7.271485E-1,8.2091314E-1,8.525308E-1,1E0,8.1206566E-1,-2.112458E-3,-2.0869835E-3,-1.2796151E-2,1E0,4.5751166E-1,4.2662E-1,-1.315338E-2,3.5388068E-5,1.519007E-2,5.05556E-3,1.1998428E-2,1.8578467E-3,3.0934444E-1,6.4666045E-1,4.3969364E-3,-1.2801172E-2,2.3572422E-3,-1.1408889E-2,1.3107203E-2,-2.3156586E-3],"split_indices":[200,207,35,168,188,202,39,200,0,0,204,47,45,0,0,0,0,0,0,147,147,0,0,0,0,0,0],"split_type":[0,0,0,0,0,0,0,0,0,0,0,0,0,0,0,0,0,0,0,0,0,0,0,0,0,0,0],"sum_hessian":[3.30975E1,1.3179747E1,1.9917753E1,7.952416E0,5.2273307E0,1.4193464E1,5.724288E0,6.7026258E0,1.2497905E0,2.2356286E0,2.991702E0,7.973099E0,6.2203655E0,4.2257333E0,1.4985545E0,4.9543734E0,1.7482524E0,1.7435235E0,1.2481787E0,2.7433448E0,5.2297544E0,2.2474334E0,3.9729319E0,1.2482033E0,1.4951416E0,3.9821162E0,1.247638E0],"tree_param":{"num_deleted":"0","num_feature":"225","num_nodes":"27","size_leaf_vector":"0"}},{"base_weights":[4.1353993E-2,6.6752654E-1,-3.850071E-1,1.1049285E0,-6.837293E-2,-8.1614845E-2,-1.0132809E0,1.345064E0,-2.0754205E-3,-1.2717123E-2,9.237967E-1,4.0782523E-1,-6.786453E-1,-1.3057748E-2,3.517623E-5,1.5082687E-2,5.023934E-3,1.8364021E-3,1.1936871E-2,-6.1526746E-1,9.572561E-1,4.3667364E-3,-1.270966E-2,2.3491993E-3,-1.1348232E-2,1.3010914E-2,-2.3027833E-3],"categories":[],"categories_nodes":[],"categories_segments":[],"categories_sizes":[],"default_left":[0,0,0,0,0,0,0,0,0,0,0,0,0,0,0,0,0,0,0,0,0,0,0,0,0,0,0],"id":13,"left_children":[1,3,5,7,9,11,13,15,-1,-1,17,19,21,-1,-1,-1,-1,-1,-1,23,25,-1,-1,-1,-1,-1,-1],"loss_changes":[9.353724E0,4.6360617E0,3.9020789E0,3.0982437E0,8.605229E0,4.7139916E0,2.0031757E0,3.0051327E-1,0E0,0E0,5.7790184E-1,5.6306148E0,5.3220844E0,0E0,0E0,0E0,0E0,0E0,0E0,1.9197106E0,2.8420138E0,0E0,0E0,0E0,0E0,0E0,0E0],"parents":[2147483647,0,0,1,1,2,2,3,3,4,4,5,5,6,6,7,7,10,10,11,11,12,12,19,19,20,20],"right_children":[2,4,6,8,10,12,14,16,-1,-1,18,20,22,-1,-1,-1,-1,-1,-1,24,26,-1,-1,-1,-1,-1,-1],"split_conditions":[-5.005005E-4,1E0,7.271485E-1,8.2091314E-1,8.525308E-1,1E0,8.1206566E-1,-2.112458E-3,-2.0754205E-3,-1.2717123E-2,1E0,4.5751166E-1,4.2662E-1,-1.3057748E-2,3.517623E-5,1.5082687E-2,5.023934E-3,1.8364021E-3,1.1936871E-2,4.7171214E-1,6.4666045E-1,4.3667364E-3,-1.270966E-2,2.3491993E-3,-1.1348232E-2,1.3010914E-2,-2.3027833E-3],"split_indices":[200,207,35,168,188,202,39,200,0,0,124,47,45,0,0,0,0,0,0,168,147,0,0,0,0,0,0],"split_type":[0,0,0,0,0,0,0,0,0,0,0,0,0,0,0,0,0,0,0,0,0,0,0,0,0,0,0],"sum_hessian":[3.3073227E1,1.3168198E1,1.9905027E1,7.9446263E0,5.2235713E0,1.4185014E1,5.7200146E0,6.6948686E0,1.2497574E0,2.2332528E0,2.9903188E0,7.969006E0,6.216007E0,4.22146E0,1.4985546E0,4.946907E0,1.7479619E0,1.24805E0,1.7422688E0,2.742459E0,5.2265472E0,2.247264E0,3.9687436E0,1.2480415E0,1.4944175E0,3.9788873E0,1.2476598E0],"tree_param":{"num_deleted":"0","num_feature":"225","num_nodes":"27","size_leaf_vector":"0"}},{"base_weights":[4.0955387E-2,6.6277903E-1,-3.823508E-1,1.0969204E0,-6.75645E-2,-8.1285335E-2,-1.0057783E0,1.3356699E0,-2.063925E-3,-1.2639256E-2,9.183549E-1,4.0414178E-1,-6.7345405E-1,-1.2963649E-2,3.496594E-5,1.49773685E-2,4.9925437E-3,1.1892979E-2,1.792992E-3,-6.1167985E-1,9.499438E-1,4.3367716E-3,-1.261956E-2,2.3616916E-3,-1.130769E-2,1.2915855E-2,-2.2948165E-3],"categories":[],"categories_nodes":[],"categories_segments":[],"categories_sizes":[],"default_left":[0,0,0,0,0,0,0,0,0,0,0,0,0,0,0,0,0,0,0,0,0,0,0,0,0,0,0],"id":14,"left_children":[1,3,5,7,9,11,13,15,-1,-1,17,19,21,-1,-1,-1,-1,-1,-1,23,25,-1,-1,-1,-1,-1,-1],"loss_changes":[9.215364E0,4.5625463E0,3.8393812E0,3.056345E0,8.496784E0,4.634544E0,1.974041E0,2.9420948E-1,0E0,0E0,5.8549094E-1,5.551325E0,5.245825E0,0E0,0E0,0E0,0E0,0E0,0E0,1.9137155E0,2.8039088E0,0E0,0E0,0E0,0E0,0E0,0E0],"parents":[2147483647,0,0,1,1,2,2,3,3,4,4,5,5,6,6,7,7,10,10,11,11,12,12,19,19,20,20],"right_children":[2,4,6,8,10,12,14,16,-1,-1,18,20,22,-1,-1,-1,-1,-1,-1,24,26,-1,-1,-1,-1,-1,-1],"split_conditions":[-5.005005E-4,1E0,7.271485E-1,8.2091314E-1,8.525308E-1,1E0,8.1206566E-1,-2.112458E-3,-2.063925E-3,-1.2639256E-2,1.5118462E-1,4.5751166E-1,4.2662E-1,-1.2963649E-2,3.496594E-5,1.49773685E-2,4.9925437E-3,1.1892979E-2,1.792992E-3,3.0934444E-1,6.8307483E-1,4.3367716E-3,-1.261956E-2,2.3616916E-3,-1.130769E-2,1.2915855E-2,-2.2948165E-3],"split_indices":[200,207,35,168,188,202,39,200,0,0,224,47,45,0,0,0,0,0,0,147,48,0,0,0,0,0,0],"split_type":[0,0,0,0,0,0,0,0,0,0,0,0,0,0,0,0,0,0,0,0,0,0,0,0,0,0,0],"sum_hessian":[3.3047142E1,1.3155865E1,1.9891277E1,7.93632E0,5.2195454E0,1.4175859E1,5.7154183E0,6.686598E0,1.2497216E0,2.2307143E0,2.9888308E0,7.9645143E0,6.211345E0,4.2168636E0,1.4985548E0,4.9389467E0,1.7476513E0,1.74126E0,1.2475709E0,2.7414865E0,5.2230277E0,2.2470741E0,3.964271E0,1.2480417E0,1.4934447E0,3.9761634E0,1.2468643E0],"tree_param":{"num_deleted":"0","num_feature":"225","num_nodes":"27","size_leaf_vector":"0"}},{"base_weights":[4.0562216E-2,6.581018E-1,-3.797319E-1,1.0890355E0,-6.676757E-2,-8.096087E-2,-9.9838036E-1,1.326433E0,-2.052495E-3,-1.2562524E-2,9.129632E-1,4.0050587E-1,-6.683317E-1,-1.2871035E-2,3.475577E-5,1.4874059E-2,4.9613887E-3,1.7831067E-3,1.1823847E-2,-6.0812265E-1,9.427336E-1,4.3070386E-3,-1.2530831E-2,2.3535583E-3,-1.124821E-2,1.2836951E-2,-2.3114025E-3],"categories":[],"categories_nodes":[],"categories_segments":[],"categories_sizes":[],"default_left":[0,0,0,0,0,0,0,0,0,0,0,0,0,0,0,0,0,0,0,0,0,0,0,0,0,0,0],"id":15,"left_children":[1,3,5,7,9,11,13,15,-1,-1,17,19,21,-1,-1,-1,-1,-1,-1,23,25,-1,-1,-1,-1,-1,-1],"loss_changes":[9.079566E0,4.490506E0,3.7778728E0,3.015316E0,8.390046E0,4.5566235E0,1.9455495E0,2.8821945E-1,0E0,0E0,5.78372E-1,5.4733973E0,5.1709824E0,0E0,0E0,0E0,0E0,0E0,0E0,1.8949151E0,2.7859254E0,0E0,0E0,0E0,0E0,0E0,0E0],"parents":[2147483647,0,0,1,1,2,2,3,3,4,4,5,5,6,6,7,7,10,10,11,11,12,12,19,19,20,20],"right_children":[2,4,6,8,10,12,14,16,-1,-1,18,20,22,-1,-1,-1,-1,-1,-1,24,26,-1,-1,-1,-1,-1,-1],"split_conditions":[-5.005005E-4,1E0,7.271485E-1,8.2091314E-1,8.525308E-1,1E0,8.1206566E-1,-2.112458E-3,-2.052495E-3,-1.2562524E-2,1E0,4.5751166E-1,4.2662E-1,-1.2871035E-2,3.475577E-5,1.4874059E-2,4.9613887E-3,1.7831067E-3,1.1823847E-2,4.7171214E-1,6.4666045E-1,4.3070386E-3,-1.2530831E-2,2.3535583E-3,-1.124821E-2,1.2836951E-2,-2.3114025E-3],"split_indices":[200,207,35,168,188,202,39,200,0,0,124,47,45,0,0,0,0,0,0,168,147,0,0,0,0,0,0],"split_type":[0,0,0,0,0,0,0,0,0,0,0,0,0,0,0,0,0,0,0,0,0,0,0,0,0,0,0],"sum_hessian":[3.3019356E1,1.3142793E1,1.9876562E1,7.9275107E0,5.215282E0,1.4166055E1,5.7105083E0,6.677827E0,1.2496836E0,2.2280176E0,2.9872644E0,7.9596677E0,6.2063866E0,4.211953E0,1.498555E0,4.930506E0,1.7473208E0,1.2474831E0,1.7397813E0,2.7404587E0,5.2192087E0,2.2468646E0,3.9595222E0,1.2478769E0,1.4925818E0,3.9719641E0,1.2472447E0],"tree_param":{"num_deleted":"0","num_feature":"225","num_nodes":"27","size_leaf_vector":"0"}},{"base_weights":[4.0174138E-2,6.534951E-1,-3.7714997E-1,1.0812707E0,-6.598132E-2,-1.02804005E-1,-1.0458388E0,1.3173491E0,-2.0411303E-3,-1.2486903E-2,9.0763074E-1,3.359292E-1,-6.1396056E-1,-2.3425152E-3,-1.3917226E-2,1.4772696E-2,4.9304655E-3,1.17811E-2,1.7402413E-3,-4.4495508E-1,1.0909276E0,4.277537E-3,-1.1217405E0,-1.1192429E-2,7.4327523E-3,1.3469973E-2,1.7895177E-3,-1.2753399E-3,-1.3835536E-2],"categories":[],"categories_nodes":[],"categories_segments":[],"categories_sizes":[],"default_left":[0,0,0,0,0,0,0,0,0,0,0,0,0,0,0,0,0,0,0,0,0,0,0,0,0,0,0,0,0],"id":16,"left_children":[1,3,5,7,9,11,13,15,-1,-1,17,19,21,-1,-1,-1,-1,-1,-1,23,25,-1,27,-1,-1,-1,-1,-1,-1],"loss_changes":[8.9463E0,4.4198766E0,3.7194622E0,2.975132E0,8.285029E0,3.7722526E0,1.3469934E0,2.8253174E-1,0E0,0E0,5.8582187E-1,5.9112444E0,4.5517883E0,0E0,0E0,0E0,0E0,0E0,0E0,5.0256605E0,9.1931486E-1,0E0,1.242527E0,0E0,0E0,0E0,0E0,0E0,0E0],"parents":[2147483647,0,0,1,1,2,2,3,3,4,4,5,5,6,6,7,7,10,10,11,11,12,12,19,19,20,20,22,22],"right_children":[2,4,6,8,10,12,14,16,-1,-1,18,20,22,-1,-1,-1,-1,-1,-1,24,26,-1,28,-1,-1,-1,-1,-1,-1],"split_conditions":[-5.005005E-4,1E0,7.371218E-1,8.2091314E-1,8.525308E-1,1E0,1E0,-2.112458E-3,-2.0411303E-3,-1.2486903E-2,1.5118462E-1,7.378727E-1,4.2662E-1,-2.3425152E-3,-1.3917226E-2,1.4772696E-2,4.9304655E-3,1.17811E-2,1.7402413E-3,1E0,6.7969346E-1,4.277537E-3,1.2104339E-4,-1.1192429E-2,7.4327523E-3,1.3469973E-2,1.7895177E-3,-1.2753399E-3,-1.3835536E-2],"split_indices":[200,207,35,168,188,202,0,200,0,0,224,170,45,0,0,0,0,0,0,142,35,0,200,0,0,0,0,0,0],"split_type":[0,0,0,0,0,0,0,0,0,0,0,0,0,0,0,0,0,0,0,0,0,0,0,0,0,0,0,0,0],"sum_hessian":[3.2989883E1,1.3128964E1,1.986092E1,7.9182134E0,5.210751E0,1.4901113E1,4.9598064E0,6.6685705E0,1.249643E0,2.2251656E0,2.9855852E0,8.203088E0,6.698025E0,1.9833345E0,2.9764717E0,4.9215994E0,1.7469709E0,1.738638E0,1.2469472E0,4.2342825E0,3.968805E0,2.2466354E0,4.45139E0,2.7383842E0,1.4958982E0,2.7262917E0,1.2425134E0,1.2378626E0,3.2135272E0],"tree_param":{"num_deleted":"0","num_feature":"225","num_nodes":"29","size_leaf_vector":"0"}},{"base_weights":[3.9898463E-2,6.48955E-1,-3.7439042E-1,1.0736225E0,-6.520638E-2,-1.0180513E-1,-1.0387576E0,1.3084139E0,-2.0298313E-3,-1.24123655E-2,9.023466E-1,3.3403188E-1,-6.096373E-1,-2.327218E-3,-1.3824754E-2,1.4673225E-2,4.899771E-3,1.1721068E-2,1.7198863E-3,-4.414277E-1,1.0838382E0,4.248263E-3,-1.1142955E0,-1.1115949E-2,7.389861E-3,1.3383422E-2,1.7796726E-3,-1.3751735E-2,-1.2547097E-3],"categories":[],"categories_nodes":[],"categories_segments":[],"categories_sizes":[],"default_left":[0,0,0,0,0,0,0,0,0,0,0,0,0,0,0,0,0,0,0,0,0,0,0,0,0,0,0,0,0],"id":17,"left_children":[1,3,5,7,9,11,13,15,-1,-1,17,19,21,-1,-1,-1,-1,-1,-1,23,25,-1,27,-1,-1,-1,-1,-1,-1],"loss_changes":[8.812116E0,4.350649E0,3.6694448E0,2.9357672E0,8.181649E0,3.7206466E0,1.3284006E0,2.7712917E-1,0E0,0E0,5.8331156E-1,5.8261423E0,4.4894705E0,0E0,0E0,0E0,0E0,0E0,0E0,4.9602633E0,9.0657854E-1,0E0,1.2324548E0,0E0,0E0,0E0,0E0,0E0,0E0],"parents":[2147483647,0,0,1,1,2,2,3,3,4,4,5,5,6,6,7,7,10,10,11,11,12,12,19,19,20,20,22,22],"right_children":[2,4,6,8,10,12,14,16,-1,-1,18,20,22,-1,-1,-1,-1,-1,-1,24,26,-1,28,-1,-1,-1,-1,-1,-1],"split_conditions":[-5.005005E-4,1E0,7.371218E-1,8.2091314E-1,8.525308E-1,1E0,1E0,-2.112458E-3,-2.0298313E-3,-1.24123655E-2,1E0,7.378727E-1,4.2662E-1,-2.327218E-3,-1.3824754E-2,1.4673225E-2,4.899771E-3,1.1721068E-2,1.7198863E-3,1E0,6.7969346E-1,4.248263E-3,1.90225E-1,-1.1115949E-2,7.389861E-3,1.3383422E-2,1.7796726E-3,-1.3751735E-2,-1.2547097E-3],"split_indices":[200,207,35,168,188,202,0,200,0,0,204,170,45,0,0,0,0,0,0,142,35,0,224,0,0,0,0,0,0],"split_type":[0,0,0,0,0,0,0,0,0,0,0,0,0,0,0,0,0,0,0,0,0,0,0,0,0,0,0,0,0],"sum_hessian":[3.296073E1,1.3114436E1,1.9846294E1,7.9084425E0,5.2059937E0,1.4890187E1,4.956106E0,6.658842E0,1.2496002E0,2.222163E0,2.9838307E0,8.197276E0,6.6929116E0,1.9829834E0,2.9731226E0,4.91224E0,1.7466019E0,1.7373102E0,1.2465206E0,4.231884E0,3.9653924E0,2.2463875E0,4.446524E0,2.7365425E0,1.4953414E0,2.722967E0,1.2424253E0,3.2091496E0,1.2373744E0],"tree_param":{"num_deleted":"0","num_feature":"225","num_nodes":"29","size_leaf_vector":"0"}},{"base_weights":[3.962719E-2,6.4448124E-1,-3.7166822E-1,1.066088E0,-6.44419E-2,-1.0081914E-1,-1.0317717E0,1.2996231E0,-2.0185972E-3,-1.2338886E-2,8.9711666E-1,3.321614E-1,-6.0536695E-1,-2.3120223E-3,-1.3733826E-2,1.4575586E-2,4.869303E-3,1.6993099E-3,1.1663225E-2,-4.380527E-1,1.0769439E0,4.219214E-3,-1.1069527E0,6.3121673E-3,-9.317526E-1,1.3299521E-2,1.769883E-3,-1.3663117E-2,-1.2478477E-3,-1.7194907E-3,-1.2129444E-2],"categories":[],"categories_nodes":[],"categories_segments":[],"categories_sizes":[],"default_left":[0,0,0,0,0,0,0,0,0,0,0,0,0,0,0,0,0,0,0,0,0,0,0,0,0,0,0,0,0,0,0],"id":18,"left_children":[1,3,5,7,9,11,13,15,-1,-1,17,19,21,-1,-1,-1,-1,-1,-1,23,25,-1,27,-1,29,-1,-1,-1,-1,-1,-1],"loss_changes":[8.680409E0,4.282765E0,3.6202729E0,2.897193E0,8.079905E0,3.6699064E0,1.3102832E0,2.720003E-1,0E0,0E0,5.813279E-1,5.7441335E0,4.4282274E0,0E0,0E0,0E0,0E0,0E0,0E0,3.3486443E0,8.944006E-1,0E0,1.2156181E0,0E0,6.420469E-1,0E0,0E0,0E0,0E0,0E0,0E0],"parents":[2147483647,0,0,1,1,2,2,3,3,4,4,5,5,6,6,7,7,10,10,11,11,12,12,19,19,20,20,22,22,24,24],"right_children":[2,4,6,8,10,12,14,16,-1,-1,18,20,22,-1,-1,-1,-1,-1,-1,24,26,-1,28,-1,30,-1,-1,-1,-1,-1,-1],"split_conditions":[-5.005005E-4,1E0,7.371218E-1,8.2091314E-1,8.525308E-1,1E0,1E0,-2.112458E-3,-2.0185972E-3,-1.2338886E-2,1E0,7.6407737E-1,4.2662E-1,-2.3120223E-3,-1.3733826E-2,1.4575586E-2,4.869303E-3,1.6993099E-3,1.1663225E-2,5.569833E-1,6.5700704E-1,4.219214E-3,1.90225E-1,6.3121673E-3,1E0,1.3299521E-2,1.769883E-3,-1.3663117E-2,-1.2478477E-3,-1.7194907E-3,-1.2129444E-2],"split_indices":[200,207,35,168,188,202,0,200,0,0,124,172,45,0,0,0,0,0,0,178,35,0,224,0,210,0,0,0,0,0,0],"split_type":[0,0,0,0,0,0,0,0,0,0,0,0,0,0,0,0,0,0,0,0,0,0,0,0,0,0,0,0,0,0,0],"sum_hessian":[3.292994E1,1.3099202E1,1.9830738E1,7.8982105E0,5.2009916E0,1.487859E1,4.9521475E0,6.648656E0,1.2495549E0,2.2190127E0,2.981979E0,8.191055E0,6.687535E0,1.9826294E0,2.9695182E0,4.902441E0,1.7462144E0,1.2464005E0,1.7355785E0,4.22924E0,3.9618149E0,2.246121E0,4.441414E0,1.2479186E0,2.9813213E0,2.719479E0,1.2423358E0,3.2041757E0,1.2372382E0,1.2406049E0,1.7407166E0],"tree_param":{"num_deleted":"0","num_feature":"225","num_nodes":"31","size_leaf_vector":"0"}},{"base_weights":[3.924532E-2,6.400724E-1,-3.6914468E-1,1.0586646E0,-6.3687794E-2,-1.0008012E-1,-1.0248792E0,1.2909734E0,-2.0074265E-3,-1.2266444E-2,8.9193994E-1,3.298525E-1,-6.0115045E-1,-2.2969302E-3,-1.3644395E-2,1.4479737E-2,4.8390594E-3,1.162206E-2,1.657247E-3,-4.3587178E-1,1.0706156E0,4.1903895E-3,-1.0997144E0,-1.0995842E-2,7.3223296E-3,1.3223072E-2,1.7601493E-3,-1.2276229E-3,-1.3582009E-2],"categories":[],"categories_nodes":[],"categories_segments":[],"categories_sizes":[],"default_left":[0,0,0,0,0,0,0,0,0,0,0,0,0,0,0,0,0,0,0,0,0,0,0,0,0,0,0,0,0],"id":19,"left_children":[1,3,5,7,9,11,13,15,-1,-1,17,19,21,-1,-1,-1,-1,-1,-1,23,25,-1,27,-1,-1,-1,-1,-1,-1],"loss_changes":[8.554097E0,4.2161965E0,3.5700202E0,2.8593912E0,7.9797635E0,3.616595E0,1.2926226E0,2.6713085E-1,0E0,0E0,5.885601E-1,5.676983E0,4.3680573E0,0E0,0E0,0E0,0E0,0E0,0E0,4.8579073E0,8.8368034E-1,0E0,1.2060237E0,0E0,0E0,0E0,0E0,0E0,0E0],"parents":[2147483647,0,0,1,1,2,2,3,3,4,4,5,5,6,6,7,7,10,10,11,11,12,12,19,19,20,20,22,22],"right_children":[2,4,6,8,10,12,14,16,-1,-1,18,20,22,-1,-1,-1,-1,-1,-1,24,26,-1,28,-1,-1,-1,-1,-1,-1],"split_conditions":[-5.005005E-4,1E0,7.371218E-1,8.2091314E-1,8.525308E-1,1E0,1E0,-2.112458E-3,-2.0074265E-3,-1.2266444E-2,1.5118462E-1,7.378727E-1,4.2662E-1,-2.2969302E-3,-1.3644395E-2,1.4479737E-2,4.8390594E-3,1.162206E-2,1.657247E-3,1E0,6.7969346E-1,4.1903895E-3,1.2104339E-4,-1.0995842E-2,7.3223296E-3,1.3223072E-2,1.7601493E-3,-1.2276229E-3,-1.3582009E-2],"split_indices":[200,207,35,168,188,202,0,200,0,0,224,170,45,0,0,0,0,0,0,142,35,0,200,0,0,0,0,0,0],"split_type":[0,0,0,0,0,0,0,0,0,0,0,0,0,0,0,0,0,0,0,0,0,0,0,0,0,0,0,0,0],"sum_hessian":[3.2898834E1,1.3083282E1,1.981555E1,7.8875313E0,5.195751E0,1.4867614E1,4.9479375E0,6.6380243E0,1.2495073E0,2.2157187E0,2.9800324E0,8.185729E0,6.6818843E0,1.9822724E0,2.965665E0,4.8922153E0,1.7458087E0,1.7342561E0,1.2457762E0,4.227435E0,3.958294E0,2.2458363E0,4.436048E0,2.7331371E0,1.494298E0,2.7160492E0,1.2422448E0,1.2367331E0,3.199315E0],"tree_param":{"num_deleted":"0","num_feature":"225","num_nodes":"29","size_leaf_vector":"0"}},{"base_weights":[3.8983047E-2,6.357254E-1,-3.6649227E-1,1.051349E0,-6.294435E-2,-9.9117085E-2,-1.0180779E0,1.2824608E0,-1.9963216E-3,-1.2195013E-2,8.8680923E-1,3.2803395E-1,-5.9698445E-1,-2.2819396E-3,-1.3556427E-2,1.438562E-2,4.8090382E-3,1.6481265E-3,1.1556466E-2,-4.3245664E-1,1.0638008E0,4.161786E-3,-1.0925733E0,-1.0921913E-2,7.280376E-3,1.3150375E-2,1.7299993E-3,-1.349617E-2,-1.2209085E-3],"categories":[],"categories_nodes":[],"categories_segments":[],"categories_sizes":[],"default_left":[0,0,0,0,0,0,0,0,0,0,0,0,0,0,0,0,0,0,0,0,0,0,0,0,0,0,0,0,0],"id":20,"left_children":[1,3,5,7,9,11,13,15,-1,-1,17,19,21,-1,-1,-1,-1,-1,-1,23,25,-1,27,-1,-1,-1,-1,-1,-1],"loss_changes":[8.427109E0,4.1509223E0,3.5225222E0,2.822338E0,7.881164E0,3.567585E0,1.275403E0,2.6250648E-1,0E0,0E0,5.8166647E-1,5.5959954E0,4.308912E0,0E0,0E0,0E0,0E0,0E0,0E0,4.795165E0,8.8127327E-1,0E0,1.1898847E0,0E0,0E0,0E0,0E0,0E0,0E0],"parents":[2147483647,0,0,1,1,2,2,3,3,4,4,5,5,6,6,7,7,10,10,11,11,12,12,19,19,20,20,22,22],"right_children":[2,4,6,8,10,12,14,16,-1,-1,18,20,22,-1,-1,-1,-1,-1,-1,24,26,-1,28,-1,-1,-1,-1,-1,-1],"split_conditions":[-5.005005E-4,1E0,7.371218E-1,8.2091314E-1,8.525308E-1,1E0,1E0,-2.112458E-3,-1.9963216E-3,-1.2195013E-2,1E0,7.378727E-1,4.2662E-1,-2.2819396E-3,-1.3556427E-2,1.438562E-2,4.8090382E-3,1.6481265E-3,1.1556466E-2,1E0,6.256322E-1,4.161786E-3,1.90225E-1,-1.0921913E-2,7.280376E-3,1.3150375E-2,1.7299993E-3,-1.349617E-2,-1.2209085E-3],"split_indices":[200,207,35,168,188,202,0,200,0,0,124,170,45,0,0,0,0,0,0,142,43,0,224,0,0,0,0,0,0],"split_type":[0,0,0,0,0,0,0,0,0,0,0,0,0,0,0,0,0,0,0,0,0,0,0,0,0,0,0,0,0],"sum_hessian":[3.2864998E1,1.3066718E1,1.9798279E1,7.876418E0,5.1903E0,1.4854797E1,4.943482E0,6.6269608E0,1.2494572E0,2.2122843E0,2.9780154E0,8.178812E0,6.6759844E0,1.9819126E0,2.9615695E0,4.8815756E0,1.745385E0,1.2456698E0,1.7323456E0,4.2245464E0,3.9542658E0,2.245534E0,4.4304504E0,2.7309008E0,1.4936458E0,2.7128937E0,1.2413721E0,3.1938546E0,1.236596E0],"tree_param":{"num_deleted":"0","num_feature":"225","num_nodes":"29","size_leaf_vector":"0"}}]},"name":"gbtree"},"learner_model_param":{"base_score":"5E-1","boost_from_average":"1","num_class":"0","num_feature":"225","num_target":"1"},"objective":{"name":"binary:logistic","reg_loss_param":{"scale_pos_weight":"1"}}},"version":[1,7,4]}