{"learner":{"attributes":{"best_iteration":"0","best_ntree_limit":"1","best_score":"0.6933732786599327","scikit_learn":"{\"use_label_encoder\": null, \"n_estimators\": 500, \"objective\": \"binary:logistic\", \"max_depth\": 7, \"max_leaves\": null, \"max_bin\": null, \"grow_policy\": null, \"learning_rate\": null, \"verbosity\": null, \"booster\": null, \"tree_method\": \"gpu_hist\", \"gamma\": null, \"min_child_weight\": null, \"max_delta_step\": null, \"subsample\": null, \"sampling_method\": null, \"colsample_bytree\": null, \"colsample_bylevel\": null, \"colsample_bynode\": null, \"reg_alpha\": null, \"reg_lambda\": null, \"scale_pos_weight\": null, \"base_score\": null, \"missing\": NaN, \"num_parallel_tree\": null, \"random_state\": null, \"n_jobs\": null, \"monotone_constraints\": null, \"interaction_constraints\": null, \"importance_type\": null, \"gpu_id\": null, \"validate_parameters\": null, \"predictor\": null, \"enable_categorical\": false, \"feature_types\": null, \"max_cat_to_onehot\": null, \"max_cat_threshold\": null, \"eval_metric\": null, \"early_stopping_rounds\": 20, \"callbacks\": null, \"kwargs\": {\"eta\": 0.01}, \"classes_\": [0.0, 1.0], \"n_classes_\": 2, \"evals_result_\": {\"validation_0\": {\"logloss\": [0.6875209064411938, 0.6823021998082784, 0.6771566285226578, 0.6720824165451795, 0.6670798659324646, 0.6621459077175399, 0.6572796411084053, 0.6524806107793536, 0.647746685752295, 0.6430763243732596, 0.6384698484176979, 0.6340598634311131, 0.62956804798958, 0.6251498281507564, 0.6209370596964556, 0.616624581186395, 0.6125146899008214, 0.6084061350141253, 0.6042703318416625, 0.6002814707003141, 0.5962425887136531]}, \"validation_1\": {\"logloss\": [0.6933732786599327, 0.6936028477023629, 0.6936929523944855, 0.6940328548936283, 0.6942308036720052, 0.6946756050867193, 0.6949766383451574, 0.6955213914899265, 0.695920491919798, 0.6965608877294204, 0.6970535990069894, 0.6977850128622616, 0.6983673397232505, 0.6986167904208688, 0.6991038725656622, 0.6996683408232296, 0.7002397863303914, 0.7007744540186489, 0.7014270845581504, 0.7019313135567833, 0.7026610391981462]}}, \"_estimator_type\": \"classifier\"}"},"feature_names":["st_stoch","st_ich","st_cut_ema5_sma10","st_macd","st_ich_close","st_dmi","st_cut_sma10_close","st_hisse","st_mfi","st_fishert","st_ema_5","st_ema_6","st_cut_ema_5_6","st_ema_7","st_ema_8","st_cut_ema_7_8","st_ema_9","st_ema_10","st_cut_ema_9_10","st_ema_11","st_ema_12","st_cut_ema_11_12","st_ema_13","st_ema_14","st_cut_ema_13_14","st_ema_15","st_ema_16","st_cut_ema_15_16","st_ema_17","st_ema_18","st_cut_ema_17_18","st_ema_19","st_ema_20","st_cut_ema_19_20","st_mfi_5","st_mfi_6","st_mfi_7","st_mfi_8","st_mfi_9","st_mfi_10","st_mfi_11","st_mfi_12","st_mfi_13","st_mfi_14","st_mfi_15","st_mfi_16","st_mfi_17","st_mfi_18","st_mfi_19","st_mfi_20","st_sma_5","st_sma_6","st_cut_sma_5_6","st_sma_7","st_sma_8","st_cut_sma_7_8","st_sma_9","st_sma_10","st_cut_sma_9_10","st_sma_11","st_sma_12","st_cut_sma_11_12","st_sma_13","st_sma_14","st_cut_sma_13_14","st_sma_15","st_sma_16","st_cut_sma_15_16","st_sma_17","st_sma_18","st_cut_sma_17_18","st_sma_19","st_sma_20","st_cut_sma_19_20","st_wma_5","st_wma_6","st_cut_wma_5_6","st_wma_7","st_wma_8","st_cut_wma_7_8","st_wma_9","st_wma_10","st_cut_wma_9_10","st_wma_11","st_wma_12","st_cut_wma_11_12","st_wma_13","st_wma_14","st_cut_wma_13_14","st_wma_15","st_wma_16","st_cut_wma_15_16","st_wma_17","st_wma_18","st_cut_wma_17_18","st_wma_19","st_wma_20","st_cut_wma_19_20","st_tema_5","st_tema_6","st_cut_tema_5_6","st_tema_7","st_tema_8","st_cut_tema_7_8","st_tema_9","st_tema_10","st_cut_tema_9_10","st_tema_11","st_tema_12","st_cut_tema_11_12","st_tema_13","st_tema_14","st_cut_tema_13_14","st_tema_15","st_tema_16","st_cut_tema_15_16","st_tema_17","st_tema_18","st_cut_tema_17_18","st_tema_19","st_tema_20","st_cut_tema_19_20","st_kama_5","st_kama_6","st_cut_kama_5_6","st_kama_7","st_kama_8","st_cut_kama_7_8","st_kama_9","st_kama_10","st_cut_kama_9_10","st_kama_11","st_kama_12","st_cut_kama_11_12","st_kama_13","st_kama_14","st_cut_kama_13_14","st_kama_15","st_kama_16","st_cut_kama_15_16","st_kama_17","st_kama_18","st_cut_kama_17_18","st_kama_19","st_kama_20","st_cut_kama_19_20","st_rsi_5","st_rsi_6","st_rsi_7","st_rsi_8","st_rsi_9","st_rsi_10","st_rsi_11","st_rsi_12","st_rsi_13","st_rsi_14","st_rsi_15","st_rsi_16","st_rsi_17","st_rsi_18","st_rsi_19","st_rsi_20","st_adx_5","st_adxdmi_5","st_adx_6","st_adxdmi_6","st_adx_7","st_adxdmi_7","st_adx_8","st_adxdmi_8","st_adx_9","st_adxdmi_9","st_adx_10","st_adxdmi_10","st_adx_11","st_adxdmi_11","st_adx_12","st_adxdmi_12","st_adx_13","st_adxdmi_13","st_adx_14","st_adxdmi_14","st_adx_15","st_adxdmi_15","st_adx_16","st_adxdmi_16","st_adx_17","st_adxdmi_17","st_adx_18","st_adxdmi_18","st_adx_19","st_adxdmi_19","st_adx_20","st_adxdmi_20","month","weekday","hour","is_quarter_end","candle_label","vol_delta","log_return","lag_2","lag_3","lag_4","lag_5","lag_6","lag_7","lag_8","lag_9","lag_10","lag_11","lag_12","lag_13","lag_14","lag_15","lag_16","lag_17","lag_18","lag_19","lag_20","lag_21","lag_22","lag_23","kz_score","twitter_sent_score"],"feature_types":["int","int","int","int","int","int","int","int","int","int","int","int","int","int","int","int","int","int","int","int","int","int","int","int","int","int","int","int","int","int","int","int","int","int","float","float","float","float","float","float","float","float","float","float","float","float","float","float","float","float","int","int","int","int","int","int","int","int","int","int","int","int","int","int","int","int","int","int","int","int","int","int","int","int","int","int","int","int","int","int","int","int","int","int","int","int","int","int","int","int","int","int","int","int","int","int","int","int","int","int","int","int","int","int","int","int","int","int","int","int","int","int","int","int","int","int","int","int","int","int","int","int","int","int","int","int","int","int","int","int","int","int","int","int","int","int","int","int","int","int","int","int","int","int","int","int","float","float","float","float","float","float","float","float","float","float","float","float","float","float","float","float","float","int","float","int","float","int","float","int","float","int","float","int","float","int","float","int","float","int","float","int","float","int","float","int","float","int","float","int","float","int","float","int","int","int","int","int","float","int","float","int","int","int","int","int","int","int","int","int","int","int","int","int","int","int","int","int","int","int","int","int","int","float","float"],"gradient_booster":{"model":{"gbtree_model_param":{"num_parallel_tree":"1","num_trees":"21","size_leaf_vector":"0"},"tree_info":[0,0,0,0,0,0,0,0,0,0,0,0,0,0,0,0,0,0,0,0,0],"trees":[{"base_weights":[7.29927E-2,1.2857143E0,-2.300885E-1,-5E-3,1.6666666E-2,4.1860464E-1,-5.945946E-1,-4E-1,9.62963E-1,-0E0,-1E0,-1.1428571E-2,8E-3,1.5E-2,1.3333334E-1,-5E-1,8.5714287E-1,-1.375E0,-0E0,8E-3,-6.666667E-3,-1.3846154E-2,4E-1,1.2E-2,-0E0,-1.6363636E-2,-5.714286E-1,1.1111111E-2,-9.090909E-3,1.2727272E-2,-1E-2,5E-3,-1.2E-2],"categories":[],"categories_nodes":[],"categories_segments":[],"categories_sizes":[],"default_left":[0,0,0,0,0,0,0,0,0,0,0,0,0,0,0,0,0,0,0,0,0,0,0,0,0,0,0,0,0,0,0,0,0],"id":0,"left_children":[1,3,5,-1,-1,7,9,11,13,15,17,-1,-1,-1,19,21,23,25,27,-1,-1,-1,29,-1,-1,-1,31,-1,-1,-1,-1,-1,-1],"loss_changes":[1.2884522E1,5.5952396E0,6.928686E0,0E0,0E0,5.1755385E0,4.4594593E0,5.3714285E0,2.8074074E0,4.071429E0,4.125E0,0E0,0E0,0E0,2.5333333E0,5.3307695E0,1.0285716E0,7.4513054E-1,5.050505E0,0E0,0E0,0E0,5.8545456E0,0E0,0E0,0E0,2.9571433E0,0E0,0E0,0E0,0E0,0E0,0E0],"parents":[2147483647,0,0,1,1,2,2,5,5,6,6,7,7,8,8,9,9,10,10,14,14,15,15,16,16,17,17,18,18,22,22,26,26],"right_children":[2,4,6,-1,-1,8,10,12,14,16,18,-1,-1,-1,20,22,24,26,28,-1,-1,-1,30,-1,-1,-1,32,-1,-1,-1,-1,-1,-1],"split_conditions":[4.4972172E-1,1.956997E-1,-6.5820426E-4,-5E-3,1.6666666E-2,2.263E-1,1E0,1E0,4E0,7.347446E-1,6.9898105E-1,-1.1428571E-2,8E-3,1.5E-2,5.641736E-1,1E0,7.1900046E-1,7.2316474E-1,7.514005E-1,8E-3,-6.666667E-3,-1.3846154E-2,6.9604576E-1,1.2E-2,-0E0,-1.6363636E-2,8.4388614E-1,1.1111111E-2,-9.090909E-3,1.2727272E-2,-1E-2,5E-3,-1.2E-2],"split_indices":[152,40,200,0,0,224,218,209,195,34,162,0,0,0,42,206,38,41,162,0,0,0,44,0,0,0,38,0,0,0,0,0,0],"split_type":[0,0,0,0,0,0,0,0,0,0,0,0,0,0,0,0,0,0,0,0,0,0,0,0,0,0,0,0,0,0,0,0,0],"sum_hessian":[3.325E1,6E0,2.725E1,1E0,5E0,9.75E0,1.75E1,4E0,5.75E0,7.5E0,1E1,2.5E0,1.5E0,3E0,2.75E0,5E0,2.5E0,7E0,3E0,1.5E0,1.25E0,2.25E0,2.75E0,1.5E0,1E0,4.5E0,2.5E0,1.25E0,1.75E0,1.75E0,1E0,1E0,1.5E0],"tree_param":{"num_deleted":"0","num_feature":"225","num_nodes":"33","size_leaf_vector":"0"}},{"base_weights":[7.238561E-2,1.2745883E0,-2.2806332E-1,-2.2185412E-3,1.6385E-2,4.1563118E-1,-5.89777E-1,-3.966942E-1,9.5578253E-1,1.0356796E-4,-9.919798E-1,-1.1347204E-2,7.952075E-3,1.4888131E-2,1.3235687E-1,-4.968702E-1,8.5201323E-1,-1.3642323E0,5.050843E-4,7.952075E-3,-6.62967E-3,-1.3750755E-2,3.967374E-1,1.1928258E-2,-0E0,-1.6230643E-2,-5.6772417E-1,1.1049572E-2,-9.033177E-3,1.1923926E-2,-6.636467E-3,2.2322442E-3,-1.106352E-2],"categories":[],"categories_nodes":[],"categories_segments":[],"categories_sizes":[],"default_left":[0,0,0,0,0,0,0,0,0,0,0,0,0,0,0,0,0,0,0,0,0,0,0,0,0,0,0,0,0,0,0,0,0],"id":1,"left_children":[1,3,5,-1,-1,7,9,11,13,15,17,-1,-1,-1,19,21,23,25,27,-1,-1,-1,29,-1,-1,-1,31,-1,-1,-1,-1,-1,-1],"loss_changes":[1.2661313E1,4.1753263E0,6.8224297E0,0E0,0E0,5.095886E0,4.389093E0,5.30052E0,2.7655044E0,4.021933E0,4.0645323E0,0E0,0E0,0E0,2.5041049E0,5.25401E0,1.0163035E0,7.27767E-1,4.990969E0,0E0,0E0,0E0,3.9551225E0,0E0,0E0,0E0,1.7380335E0,0E0,0E0,0E0,0E0,0E0,0E0],"parents":[2147483647,0,0,1,1,2,2,5,5,6,6,7,7,8,8,9,9,10,10,14,14,15,15,16,16,17,17,18,18,22,22,26,26],"right_children":[2,4,6,-1,-1,8,10,12,14,16,18,-1,-1,-1,20,22,24,26,28,-1,-1,-1,30,-1,-1,-1,32,-1,-1,-1,-1,-1,-1],"split_conditions":[4.4972172E-1,2.191389E-1,-6.5820426E-4,-2.2185412E-3,1.6385E-2,2.263E-1,1E0,1E0,4E0,7.347446E-1,6.9898105E-1,-1.1347204E-2,7.952075E-3,1.4888131E-2,5.641736E-1,1E0,7.1900046E-1,7.2316474E-1,7.514005E-1,7.952075E-3,-6.62967E-3,-1.3750755E-2,6.213285E-1,1.1928258E-2,-0E0,-1.6230643E-2,7.8634626E-1,1.1049572E-2,-9.033177E-3,1.1923926E-2,-6.636467E-3,2.2322442E-3,-1.106352E-2],"split_indices":[152,39,200,0,0,224,218,209,195,34,162,0,0,0,42,206,38,41,162,0,0,0,37,0,0,0,35,0,0,0,0,0,0],"split_type":[0,0,0,0,0,0,0,0,0,0,0,0,0,0,0,0,0,0,0,0,0,0,0,0,0,0,0,0,0,0,0,0,0],"sum_hessian":[3.3248642E1,5.9996467E0,2.7248993E1,1.2499764E0,4.74967E0,9.749687E0,1.7499306E1,3.9998941E0,5.7497935E0,7.4997425E0,9.999564E0,2.4999182E0,1.499976E0,2.9998312E0,2.749962E0,4.9997964E0,2.499946E0,6.9996386E0,2.9999251E0,1.499976E0,1.249986E0,2.2498922E0,2.7499042E0,1.499946E0,1E0,4.4996986E0,2.4999397E0,1.2499614E0,1.7499638E0,1.4999393E0,1.249965E0,1.2499774E0,1.2499624E0],"tree_param":{"num_deleted":"0","num_feature":"225","num_nodes":"33","size_leaf_vector":"0"}},{"base_weights":[7.188592E-2,1.2640426E0,-2.2604494E-1,-2.2062191E-3,1.6252395E-2,4.127029E-1,-5.84998E-1,-3.9343113E-1,9.4871306E-1,5.103109E-4,-9.842643E-1,-1.1266938E-2,7.904591E-3,1.4778329E-2,1.3139E-1,-4.9335524E-1,8.469404E-1,-1.3538914E0,1.0042192E-3,7.904591E-3,-6.592961E-3,-1.36569105E-2,3.9420176E-1,1.1857456E-2,-0E0,-1.6100477E-2,-5.645858E-1,1.09887505E-2,-8.976046E-3,1.1871573E-2,-6.620433E-3,-1.1013076E-2,2.2305222E-3],"categories":[],"categories_nodes":[],"categories_segments":[],"categories_sizes":[],"default_left":[0,0,0,0,0,0,0,0,0,0,0,0,0,0,0,0,0,0,0,0,0,0,0,0,0,0,0,0,0,0,0,0,0],"id":2,"left_children":[1,3,5,-1,-1,7,9,11,13,15,17,-1,-1,-1,19,21,23,25,27,-1,-1,-1,29,-1,-1,-1,31,-1,-1,-1,-1,-1,-1],"loss_changes":[1.2448823E1,4.1116476E0,6.717726E0,0E0,0E0,5.01775E0,4.3247104E0,5.230754E0,2.7245908E0,3.9706411E0,4.0067596E0,0E0,0E0,0E0,2.4752564E0,5.183281E0,1.0042555E0,7.082014E-1,4.932288E0,0E0,0E0,0E0,3.9265316E0,0E0,0E0,0E0,1.7251815E0,0E0,0E0,0E0,0E0,0E0,0E0],"parents":[2147483647,0,0,1,1,2,2,5,5,6,6,7,7,8,8,9,9,10,10,14,14,15,15,16,16,17,17,18,18,22,22,26,26],"right_children":[2,4,6,-1,-1,8,10,12,14,16,18,-1,-1,-1,20,22,24,26,28,-1,-1,-1,30,-1,-1,-1,32,-1,-1,-1,-1,-1,-1],"split_conditions":[4.4972172E-1,2.191389E-1,-6.5820426E-4,-2.2062191E-3,1.6252395E-2,2.263E-1,1E0,1E0,4E0,7.347446E-1,6.9898105E-1,-1.1266938E-2,7.904591E-3,1.4778329E-2,5.641736E-1,1E0,7.1900046E-1,7.2316474E-1,7.514005E-1,7.904591E-3,-6.592961E-3,-1.36569105E-2,6.617162E-1,1.1857456E-2,-0E0,-1.6100477E-2,3.6229116E-1,1.09887505E-2,-8.976046E-3,1.1871573E-2,-6.620433E-3,-1.1013076E-2,2.2305222E-3],"split_indices":[152,39,200,0,0,224,218,209,195,34,162,0,0,0,42,206,38,41,162,0,0,0,45,0,0,0,162,0,0,0,0,0,0],"split_type":[0,0,0,0,0,0,0,0,0,0,0,0,0,0,0,0,0,0,0,0,0,0,0,0,0,0,0,0,0,0,0,0,0],"sum_hessian":[3.3244846E1,5.998677E0,2.7246168E1,1.2499738E0,4.748703E0,9.74876E0,1.7497408E1,3.9995801E0,5.7491794E0,7.4990573E0,9.998351E0,2.4996755E0,1.4999046E0,2.99933E0,2.7498493E0,4.999272E0,2.4997854E0,6.9986486E0,2.9997027E0,1.4999046E0,1.2499448E0,2.2495716E0,2.7497005E0,1.4997853E0,1E0,4.4988055E0,2.4998431E0,1.2498465E0,1.7498562E0,1.4998077E0,1.2498927E0,1.2498884E0,1.2499547E0],"tree_param":{"num_deleted":"0","num_feature":"225","num_nodes":"33","size_leaf_vector":"0"}},{"base_weights":[7.139494E-2,1.2536964E0,-2.2405824E-1,-2.1939662E-3,1.6122619E-2,4.0981877E-1,-5.802953E-1,-3.9021006E-1,9.4175214E-1,9.113623E-4,-9.766797E-1,-1.1187746E-2,7.857538E-3,1.4670543E-2,1.3043243E-1,-4.8989028E-1,8.4192324E-1,-1.3437389E0,1.4975622E-3,7.857538E-3,-6.556534E-3,-1.3564584E-2,3.9169106E-1,1.1787573E-2,-0E0,-1.5973048E-2,-5.6147534E-1,1.0928632E-2,-8.919506E-3,1.18197E-2,-6.604525E-3,2.2369276E-3,-1.0971326E-2],"categories":[],"categories_nodes":[],"categories_segments":[],"categories_sizes":[],"default_left":[0,0,0,0,0,0,0,0,0,0,0,0,0,0,0,0,0,0,0,0,0,0,0,0,0,0,0,0,0,0,0,0,0],"id":3,"left_children":[1,3,5,-1,-1,7,9,11,13,15,17,-1,-1,-1,19,21,23,25,27,-1,-1,-1,29,-1,-1,-1,31,-1,-1,-1,-1,-1,-1],"loss_changes":[1.2240963E1,4.0495863E0,6.6150546E0,0E0,0E0,4.941094E0,4.2616353E0,5.162107E0,2.684636E0,3.9201574E0,3.950242E0,0E0,0E0,0E0,2.4467795E0,5.113831E0,9.9242353E-1,6.8940544E-1,4.874447E0,0E0,0E0,0E0,3.8982186E0,0E0,0E0,0E0,1.717321E0,0E0,0E0,0E0,0E0,0E0,0E0],"parents":[2147483647,0,0,1,1,2,2,5,5,6,6,7,7,8,8,9,9,10,10,14,14,15,15,16,16,17,17,18,18,22,22,26,26],"right_children":[2,4,6,-1,-1,8,10,12,14,16,18,-1,-1,-1,20,22,24,26,28,-1,-1,-1,30,-1,-1,-1,32,-1,-1,-1,-1,-1,-1],"split_conditions":[4.4972172E-1,2.191389E-1,-6.5820426E-4,-2.1939662E-3,1.6122619E-2,2.263E-1,1E0,1E0,4E0,7.347446E-1,6.9898105E-1,-1.1187746E-2,7.857538E-3,1.4670543E-2,5.641736E-1,1E0,7.1900046E-1,7.2316474E-1,7.514005E-1,7.857538E-3,-6.556534E-3,-1.3564584E-2,1E0,1.1787573E-2,-0E0,-1.5973048E-2,7.8634626E-1,1.0928632E-2,-8.919506E-3,1.18197E-2,-6.604525E-3,2.2369276E-3,-1.0971326E-2],"split_indices":[152,39,200,0,0,224,218,209,195,34,162,0,0,0,42,206,38,41,162,0,0,0,140,0,0,0,35,0,0,0,0,0,0],"split_type":[0,0,0,0,0,0,0,0,0,0,0,0,0,0,0,0,0,0,0,0,0,0,0,0,0,0,0,0,0,0,0,0,0],"sum_hessian":[3.3238636E1,5.9970827E0,2.7241552E1,1.2499684E0,4.747114E0,9.74723E0,1.7494324E1,3.9990623E0,5.748167E0,7.4979706E0,9.996352E0,2.4992757E0,1.4997866E0,2.9985042E0,2.7496629E0,4.9984503E0,2.4995198E0,6.997017E0,2.9993353E0,1.4997866E0,1.2498764E0,2.249043E0,2.7494075E0,1.4995198E0,1E0,4.4973335E0,2.4996834E0,1.2496567E0,1.7496787E0,1.499626E0,1.2497814E0,1.2499292E0,1.2497543E0],"tree_param":{"num_deleted":"0","num_feature":"225","num_nodes":"33","size_leaf_vector":"0"}},{"base_weights":[7.091233E-2,1.2435439E0,-2.2210242E-1,-2.1817875E-3,1.599558E-2,4.0697762E-1,-5.7566655E-1,-3.870302E-1,9.348969E-1,1.306916E-3,-9.6922123E-1,-1.1109609E-2,7.8109084E-3,1.45647125E-2,1.2948409E-1,-4.864742E-1,8.3696103E-1,-1.3337674E0,1.9852985E-3,7.8109084E-3,-6.5203863E-3,-1.3473741E-2,3.892051E-1,1.1718591E-2,-0E0,-1.5848266E-2,-5.5838996E-1,1.0869203E-2,-8.863547E-3,1.1750306E-2,-6.5680128E-3,-1.0921824E-2,2.2351102E-3],"categories":[],"categories_nodes":[],"categories_segments":[],"categories_sizes":[],"default_left":[0,0,0,0,0,0,0,0,0,0,0,0,0,0,0,0,0,0,0,0,0,0,0,0,0,0,0,0,0,0,0,0,0],"id":4,"left_children":[1,3,5,-1,-1,7,9,11,13,15,17,-1,-1,-1,19,21,23,25,27,-1,-1,-1,29,-1,-1,-1,31,-1,-1,-1,-1,-1,-1],"loss_changes":[1.2037591E1,3.9890833E0,6.5143595E0,0E0,0E0,4.8658834E0,4.199821E0,5.0945554E0,2.6456099E0,3.870467E0,3.894929E0,0E0,0E0,0E0,2.4186687E0,5.045631E0,9.808004E-1,6.7135715E-1,4.81743E0,0E0,0E0,0E0,3.853381E0,0E0,0E0,0E0,1.7047004E0,0E0,0E0,0E0,0E0,0E0,0E0],"parents":[2147483647,0,0,1,1,2,2,5,5,6,6,7,7,8,8,9,9,10,10,14,14,15,15,16,16,17,17,18,18,22,22,26,26],"right_children":[2,4,6,-1,-1,8,10,12,14,16,18,-1,-1,-1,20,22,24,26,28,-1,-1,-1,30,-1,-1,-1,32,-1,-1,-1,-1,-1,-1],"split_conditions":[4.4972172E-1,2.191389E-1,-6.5820426E-4,-2.1817875E-3,1.599558E-2,2.263E-1,1E0,1E0,4E0,7.347446E-1,6.9898105E-1,-1.1109609E-2,7.8109084E-3,1.45647125E-2,5.641736E-1,1E0,7.1900046E-1,7.2316474E-1,7.514005E-1,7.8109084E-3,-6.5203863E-3,-1.3473741E-2,1E0,1.1718591E-2,-0E0,-1.5848266E-2,3.6229116E-1,1.0869203E-2,-8.863547E-3,1.1750306E-2,-6.5680128E-3,-1.0921824E-2,2.2351102E-3],"split_indices":[152,39,200,0,0,224,218,209,195,34,162,0,0,0,42,206,38,41,162,0,0,0,140,0,0,0,162,0,0,0,0,0,0],"split_type":[0,0,0,0,0,0,0,0,0,0,0,0,0,0,0,0,0,0,0,0,0,0,0,0,0,0,0,0,0,0,0,0,0],"sum_hessian":[3.3230076E1,5.99488E0,2.7235197E1,1.2499601E0,4.7449203E0,9.74511E0,1.7490088E1,3.9983447E0,5.746765E0,7.496488E0,9.993599E0,2.4987218E0,1.4996228E0,2.997361E0,2.7494044E0,4.9973364E0,2.4991517E0,6.994773E0,2.9988256E0,1.4996228E0,1.2497815E0,2.2483106E0,2.749026E0,1.4991516E0,1E0,4.495299E0,2.499474E0,1.2493931E0,1.7494324E0,1.4993049E0,1.2497212E0,1.2495767E0,1.2498975E0],"tree_param":{"num_deleted":"0","num_feature":"225","num_nodes":"33","size_leaf_vector":"0"}},{"base_weights":[7.043818E-2,1.2335794E0,-2.2017704E-1,-2.169678E-3,1.5871197E-2,4.041784E-1,-5.711115E-1,-3.8389063E-1,9.281446E-1,1.6974697E-3,-9.618869E-1,-1.1032498E-2,7.7646985E-3,1.44607825E-2,1.2854472E-1,-4.8310873E-1,8.3205277E-1,-1.3239741E0,2.4675506E-3,7.7646985E-3,-6.4845174E-3,-1.3384342E-2,3.867486E-1,1.1650492E-2,-0E0,-1.5726056E-2,-5.5533177E-1,1.0810457E-2,-8.808159E-3,1.1699712E-2,-6.5522725E-3,2.2413924E-3,-1.0880927E-2],"categories":[],"categories_nodes":[],"categories_segments":[],"categories_sizes":[],"default_left":[0,0,0,0,0,0,0,0,0,0,0,0,0,0,0,0,0,0,0,0,0,0,0,0,0,0,0,0,0,0,0,0,0],"id":5,"left_children":[1,3,5,-1,-1,7,9,11,13,15,17,-1,-1,-1,19,21,23,25,27,-1,-1,-1,29,-1,-1,-1,31,-1,-1,-1,-1,-1,-1],"loss_changes":[1.1838592E1,3.9300842E0,6.4156065E0,0E0,0E0,4.79208E0,4.1392355E0,5.0280766E0,2.607479E0,3.8215609E0,3.8407936E0,0E0,0E0,0E0,2.3909209E0,4.97865E0,9.6938276E-1,6.5400696E-1,4.761225E0,0E0,0E0,0E0,3.8257575E0,0E0,0E0,0E0,1.6970043E0,0E0,0E0,0E0,0E0,0E0,0E0],"parents":[2147483647,0,0,1,1,2,2,5,5,6,6,7,7,8,8,9,9,10,10,14,14,15,15,16,16,17,17,18,18,22,22,26,26],"right_children":[2,4,6,-1,-1,8,10,12,14,16,18,-1,-1,-1,20,22,24,26,28,-1,-1,-1,30,-1,-1,-1,32,-1,-1,-1,-1,-1,-1],"split_conditions":[4.4972172E-1,2.191389E-1,-6.5820426E-4,-2.169678E-3,1.5871197E-2,2.263E-1,1E0,1E0,4E0,7.347446E-1,6.9898105E-1,-1.1032498E-2,7.7646985E-3,1.44607825E-2,5.641736E-1,1E0,7.1900046E-1,7.2316474E-1,7.514005E-1,7.7646985E-3,-6.4845174E-3,-1.3384342E-2,6.617162E-1,1.1650492E-2,-0E0,-1.5726056E-2,7.8634626E-1,1.0810457E-2,-8.808159E-3,1.1699712E-2,-6.5522725E-3,2.2413924E-3,-1.0880927E-2],"split_indices":[152,39,200,0,0,224,218,209,195,34,162,0,0,0,42,206,38,41,162,0,0,0,45,0,0,0,35,0,0,0,0,0,0],"split_type":[0,0,0,0,0,0,0,0,0,0,0,0,0,0,0,0,0,0,0,0,0,0,0,0,0,0,0,0,0,0,0,0,0],"sum_hessian":[3.321917E1,5.9920845E0,2.7227085E1,1.2499485E0,4.742136E0,9.7424135E0,1.748467E1,3.9974313E0,5.7449822E0,7.494577E0,9.990094E0,2.498017E0,1.4994143E0,2.9959078E0,2.7490747E0,4.9958944E0,2.4986825E0,6.991918E0,2.9981759E0,1.4994143E0,1.2496605E0,2.2473786E0,2.748516E0,1.4986824E0,1E0,4.4927144E0,2.4992034E0,1.2490569E0,1.7491189E0,1.498956E0,1.2495601E0,1.249855E0,1.2493484E0],"tree_param":{"num_deleted":"0","num_feature":"225","num_nodes":"33","size_leaf_vector":"0"}},{"base_weights":[6.997211E-2,1.2237973E0,-2.1828085E-1,-2.157637E-3,1.5749384E-2,4.0142053E-1,-5.666266E-1,-3.8079047E-1,9.2149335E-1,2.0826987E-3,-9.5467204E-1,-1.09563945E-2,7.718902E-3,1.4358706E-2,1.2761459E-1,-4.7979006E-1,8.2719743E-1,-1.3143516E0,2.9443796E-3,7.718902E-3,-6.4489166E-3,-1.329635E-2,3.8431603E-1,1.1583261E-2,-0E0,-1.5606329E-2,-5.5229825E-1,1.0752375E-2,-8.753331E-3,1.1649577E-2,-6.536654E-3,-1.083234E-2,2.2394808E-3],"categories":[],"categories_nodes":[],"categories_segments":[],"categories_sizes":[],"default_left":[0,0,0,0,0,0,0,0,0,0,0,0,0,0,0,0,0,0,0,0,0,0,0,0,0,0,0,0,0,0,0,0,0],"id":6,"left_children":[1,3,5,-1,-1,7,9,11,13,15,17,-1,-1,-1,19,21,23,25,27,-1,-1,-1,29,-1,-1,-1,31,-1,-1,-1,-1,-1,-1],"loss_changes":[1.1643833E1,3.872531E0,6.318736E0,0E0,0E0,4.719656E0,4.0798416E0,4.96265E0,2.5702176E0,3.7734165E0,3.7877884E0,0E0,0E0,0E0,2.3635275E0,4.912858E0,9.5816445E-1,6.3734055E-1,4.705816E0,0E0,0E0,0E0,3.798401E0,0E0,0E0,0E0,1.684608E0,0E0,0E0,0E0,0E0,0E0,0E0],"parents":[2147483647,0,0,1,1,2,2,5,5,6,6,7,7,8,8,9,9,10,10,14,14,15,15,16,16,17,17,18,18,22,22,26,26],"right_children":[2,4,6,-1,-1,8,10,12,14,16,18,-1,-1,-1,20,22,24,26,28,-1,-1,-1,30,-1,-1,-1,32,-1,-1,-1,-1,-1,-1],"split_conditions":[4.4972172E-1,2.191389E-1,-6.5820426E-4,-2.157637E-3,1.5749384E-2,2.263E-1,1E0,1E0,4E0,7.347446E-1,6.9898105E-1,-1.09563945E-2,7.718902E-3,1.4358706E-2,5.641736E-1,1E0,7.1900046E-1,7.2316474E-1,7.514005E-1,7.718902E-3,-6.4489166E-3,-1.329635E-2,6.213285E-1,1.1583261E-2,-0E0,-1.5606329E-2,3.6229116E-1,1.0752375E-2,-8.753331E-3,1.1649577E-2,-6.536654E-3,-1.083234E-2,2.2394808E-3],"split_indices":[152,39,200,0,0,224,218,209,195,34,162,0,0,0,42,206,38,41,162,0,0,0,37,0,0,0,162,0,0,0,0,0,0],"split_type":[0,0,0,0,0,0,0,0,0,0,0,0,0,0,0,0,0,0,0,0,0,0,0,0,0,0,0,0,0,0,0,0,0],"sum_hessian":[3.320602E1,5.988711E0,2.721731E1,1.2499342E0,4.7387767E0,9.739154E0,1.7478157E1,3.9963267E0,5.7428274E0,7.4922867E0,9.985869E0,2.497165E0,1.4991617E0,2.9941516E0,2.7486756E0,4.994172E0,2.4981143E0,6.9884806E0,2.9973893E0,1.4991617E0,1.2495139E0,2.2462518E0,2.7479203E0,1.4981143E0,1E0,4.489596E0,2.4988844E0,1.2486497E0,1.7487395E0,1.498559E0,1.2493613E0,1.24907E0,1.2498144E0],"tree_param":{"num_deleted":"0","num_feature":"225","num_nodes":"33","size_leaf_vector":"0"}},{"base_weights":[6.9513865E-2,1.2141924E0,-2.1641344E-1,-2.145667E-3,1.563006E-2,3.987027E-1,-5.6221086E-1,-3.7772897E-1,9.1494036E-1,2.4627675E-3,-9.47575E-1,-1.0881273E-2,7.6735117E-3,1.42584285E-2,1.2669317E-1,-4.765172E-1,8.2239425E-1,-1.3048977E0,3.415904E-3,7.6735117E-3,-6.4135883E-3,-1.3209734E-2,3.819072E-1,1.1516879E-2,-0E0,-1.5489018E-2,-5.492912E-1,1.0694949E-2,-8.699057E-3,1.1582366E-2,-6.5006725E-3,2.2456427E-3,-1.0792274E-2],"categories":[],"categories_nodes":[],"categories_segments":[],"categories_sizes":[],"default_left":[0,0,0,0,0,0,0,0,0,0,0,0,0,0,0,0,0,0,0,0,0,0,0,0,0,0,0,0,0,0,0,0,0],"id":7,"left_children":[1,3,5,-1,-1,7,9,11,13,15,17,-1,-1,-1,19,21,23,25,27,-1,-1,-1,29,-1,-1,-1,31,-1,-1,-1,-1,-1,-1],"loss_changes":[1.1453197E1,3.8163757E0,6.223706E0,0E0,0E0,4.648575E0,4.0216174E0,4.8982525E0,2.5337954E0,3.7260208E0,3.7358932E0,0E0,0E0,0E0,2.3364859E0,4.848227E0,9.4714165E-1,6.2130547E-1,4.65119E0,0E0,0E0,0E0,3.7550416E0,0E0,0E0,0E0,1.6770723E0,0E0,0E0,0E0,0E0,0E0,0E0],"parents":[2147483647,0,0,1,1,2,2,5,5,6,6,7,7,8,8,9,9,10,10,14,14,15,15,16,16,17,17,18,18,22,22,26,26],"right_children":[2,4,6,-1,-1,8,10,12,14,16,18,-1,-1,-1,20,22,24,26,28,-1,-1,-1,30,-1,-1,-1,32,-1,-1,-1,-1,-1,-1],"split_conditions":[4.4972172E-1,2.191389E-1,-6.5820426E-4,-2.145667E-3,1.563006E-2,2.263E-1,1E0,1E0,4E0,7.347446E-1,6.9898105E-1,-1.0881273E-2,7.6735117E-3,1.42584285E-2,5.641736E-1,1E0,7.1900046E-1,7.2316474E-1,7.514005E-1,7.6735117E-3,-6.4135883E-3,-1.3209734E-2,1E0,1.1516879E-2,-0E0,-1.5489018E-2,7.8634626E-1,1.0694949E-2,-8.699057E-3,1.1582366E-2,-6.5006725E-3,2.2456427E-3,-1.0792274E-2],"split_indices":[152,39,200,0,0,224,218,209,195,34,162,0,0,0,42,206,38,41,162,0,0,0,140,0,0,0,35,0,0,0,0,0,0],"split_type":[0,0,0,0,0,0,0,0,0,0,0,0,0,0,0,0,0,0,0,0,0,0,0,0,0,0,0,0,0,0,0,0,0],"sum_hessian":[3.319067E1,5.9847746E0,2.7205894E1,1.2499171E0,4.7348576E0,9.735343E0,1.7470552E1,3.995035E0,5.740308E0,7.489623E0,9.980928E0,2.496169E0,1.4988658E0,2.9921002E0,2.7482078E0,4.992174E0,2.497449E0,6.984461E0,2.9964676E0,1.4988658E0,1.249342E0,2.244934E0,2.7472398E0,1.4974489E0,1E0,4.485955E0,2.4985056E0,1.2481724E0,1.7482951E0,1.4979889E0,1.2492509E0,1.2497554E0,1.2487502E0],"tree_param":{"num_deleted":"0","num_feature":"225","num_nodes":"33","size_leaf_vector":"0"}},{"base_weights":[6.906339E-2,1.2047594E0,-2.1457417E-1,-2.1337662E-3,1.5513152E-2,3.9602396E-1,-5.5786306E-1,-3.747056E-1,9.0848327E-1,2.8380274E-3,-9.405913E-1,-1.0807117E-2,7.628523E-3,1.4159901E-2,1.2578051E-1,-4.7329184E-1,8.1764215E-1,-1.2956053E0,3.8823592E-3,7.628523E-3,-6.3785263E-3,-1.3124461E-2,3.7952638E-1,1.1451329E-2,-0E0,-1.5374043E-2,-5.4630834E-1,1.0638166E-2,-8.645323E-3,1.1533576E-2,-6.4853677E-3,-1.0744578E-2,2.2436392E-3],"categories":[],"categories_nodes":[],"categories_segments":[],"categories_sizes":[],"default_left":[0,0,0,0,0,0,0,0,0,0,0,0,0,0,0,0,0,0,0,0,0,0,0,0,0,0,0,0,0,0,0,0,0],"id":8,"left_children":[1,3,5,-1,-1,7,9,11,13,15,17,-1,-1,-1,19,21,23,25,27,-1,-1,-1,29,-1,-1,-1,31,-1,-1,-1,-1,-1,-1],"loss_changes":[1.1266569E1,3.761569E0,6.130474E0,0E0,0E0,4.5788083E0,3.9645133E0,4.8348656E0,2.4981866E0,3.6793644E0,3.6850634E0,0E0,0E0,0E0,2.3097897E0,4.784732E0,9.3630934E-1,6.058941E-1,4.597333E0,0E0,0E0,0E0,3.728463E0,0E0,0E0,0E0,1.6648936E0,0E0,0E0,0E0,0E0,0E0,0E0],"parents":[2147483647,0,0,1,1,2,2,5,5,6,6,7,7,8,8,9,9,10,10,14,14,15,15,16,16,17,17,18,18,22,22,26,26],"right_children":[2,4,6,-1,-1,8,10,12,14,16,18,-1,-1,-1,20,22,24,26,28,-1,-1,-1,30,-1,-1,-1,32,-1,-1,-1,-1,-1,-1],"split_conditions":[4.4972172E-1,2.191389E-1,-6.5820426E-4,-2.1337662E-3,1.5513152E-2,2.263E-1,1E0,1E0,4E0,7.347446E-1,6.9898105E-1,-1.0807117E-2,7.628523E-3,1.4159901E-2,5.641736E-1,1E0,7.1900046E-1,7.2316474E-1,7.514005E-1,7.628523E-3,-6.3785263E-3,-1.3124461E-2,6.617162E-1,1.1451329E-2,-0E0,-1.5374043E-2,3.6229116E-1,1.0638166E-2,-8.645323E-3,1.1533576E-2,-6.4853677E-3,-1.0744578E-2,2.2436392E-3],"split_indices":[152,39,200,0,0,224,218,209,195,34,162,0,0,0,42,206,38,41,162,0,0,0,45,0,0,0,162,0,0,0,0,0,0],"split_type":[0,0,0,0,0,0,0,0,0,0,0,0,0,0,0,0,0,0,0,0,0,0,0,0,0,0,0,0,0,0,0,0,0],"sum_hessian":[3.3173138E1,5.98029E0,2.7192848E1,1.249897E0,4.730393E0,9.730993E0,1.7461855E1,3.9935598E0,5.737433E0,7.4865546E0,9.975301E0,2.4950323E0,1.4985275E0,2.9897602E0,2.7476728E0,4.9898663E0,2.4966884E0,6.979887E0,2.995414E0,1.4985275E0,1.2491453E0,2.2434294E0,2.7464366E0,1.4966884E0,1E0,4.481807E0,2.4980798E0,1.2476265E0,1.7477875E0,1.4974328E0,1.2490038E0,1.2483739E0,1.2497059E0],"tree_param":{"num_deleted":"0","num_feature":"225","num_nodes":"33","size_leaf_vector":"0"}},{"base_weights":[6.862044E-2,1.1954936E0,-2.1276219E-1,-2.1219337E-3,1.5398583E-2,3.9338353E-1,-5.535809E-1,-3.7171927E-1,9.021199E-1,3.2084773E-3,-9.337193E-1,-1.0733899E-2,7.5839288E-3,1.4063078E-2,1.2487642E-1,-4.7011018E-1,8.1294066E-1,-1.2864723E0,4.3437546E-3,7.5839288E-3,-6.343729E-3,-1.3040494E-2,3.771688E-1,1.1386597E-2,-0E0,-1.5261335E-2,-5.4335135E-1,1.0582018E-2,-8.592122E-3,1.1485221E-2,-6.470178E-3,2.249683E-3,-1.0705322E-2],"categories":[],"categories_nodes":[],"categories_segments":[],"categories_sizes":[],"default_left":[0,0,0,0,0,0,0,0,0,0,0,0,0,0,0,0,0,0,0,0,0,0,0,0,0,0,0,0,0,0,0,0,0],"id":9,"left_children":[1,3,5,-1,-1,7,9,11,13,15,17,-1,-1,-1,19,21,23,25,27,-1,-1,-1,29,-1,-1,-1,31,-1,-1,-1,-1,-1,-1],"loss_changes":[1.1083837E1,3.708065E0,6.038993E0,0E0,0E0,4.510322E0,3.9085164E0,4.772465E0,2.4633656E0,3.6334271E0,3.6352758E0,0E0,0E0,0E0,2.2834337E0,4.7223454E0,9.256625E-1,5.9105587E-1,4.5442314E0,0E0,0E0,0E0,3.702136E0,0E0,0E0,0E0,1.657514E0,0E0,0E0,0E0,0E0,0E0,0E0],"parents":[2147483647,0,0,1,1,2,2,5,5,6,6,7,7,8,8,9,9,10,10,14,14,15,15,16,16,17,17,18,18,22,22,26,26],"right_children":[2,4,6,-1,-1,8,10,12,14,16,18,-1,-1,-1,20,22,24,26,28,-1,-1,-1,30,-1,-1,-1,32,-1,-1,-1,-1,-1,-1],"split_conditions":[4.4972172E-1,2.191389E-1,-6.5820426E-4,-2.1219337E-3,1.5398583E-2,2.263E-1,1E0,1E0,4E0,7.347446E-1,6.9898105E-1,-1.0733899E-2,7.5839288E-3,1.4063078E-2,5.641736E-1,1E0,7.1900046E-1,7.2316474E-1,7.514005E-1,7.5839288E-3,-6.343729E-3,-1.3040494E-2,6.213285E-1,1.1386597E-2,-0E0,-1.5261335E-2,7.8634626E-1,1.0582018E-2,-8.592122E-3,1.1485221E-2,-6.470178E-3,2.249683E-3,-1.0705322E-2],"split_indices":[152,39,200,0,0,224,218,209,195,34,162,0,0,0,42,206,38,41,162,0,0,0,37,0,0,0,35,0,0,0,0,0,0],"split_type":[0,0,0,0,0,0,0,0,0,0,0,0,0,0,0,0,0,0,0,0,0,0,0,0,0,0,0,0,0,0,0,0,0],"sum_hessian":[3.3153507E1,5.975272E0,2.7178236E1,1.2498745E0,4.7253976E0,9.726116E0,1.745212E1,3.991906E0,5.7342105E0,7.4831285E0,9.968992E0,2.4937584E0,1.4981477E0,2.9871387E0,2.7470717E0,4.987294E0,2.4958344E0,6.974761E0,2.9942307E0,1.4981477E0,1.2489241E0,2.2417428E0,2.7455516E0,1.4958344E0,1E0,4.477165E0,2.497596E0,1.2470131E0,1.7472177E0,1.4968319E0,1.2487196E0,1.2496308E0,1.2479652E0],"tree_param":{"num_deleted":"0","num_feature":"225","num_nodes":"33","size_leaf_vector":"0"}},{"base_weights":[6.818472E-2,1.1863896E0,-2.109768E-1,-2.1101697E-3,1.528628E-2,3.9078063E-1,-5.493625E-1,-3.6876935E-1,8.9584816E-1,3.5738351E-3,-9.26955E-1,-1.0661604E-2,7.5397245E-3,1.39679145E-2,1.2398096E-1,-4.6697167E-1,8.082886E-1,-1.2774923E0,4.8003667E-3,7.5397245E-3,-6.30919E-3,-1.29578095E-2,3.7483373E-1,1.1322662E-2,-0E0,-1.5150829E-2,-5.4041797E-1,1.0526492E-2,-8.539448E-3,1.1420078E-2,-6.434705E-3,-1.0658494E-2,2.2475917E-3],"categories":[],"categories_nodes":[],"categories_segments":[],"categories_sizes":[],"default_left":[0,0,0,0,0,0,0,0,0,0,0,0,0,0,0,0,0,0,0,0,0,0,0,0,0,0,0,0,0,0,0,0,0],"id":10,"left_children":[1,3,5,-1,-1,7,9,11,13,15,17,-1,-1,-1,19,21,23,25,27,-1,-1,-1,29,-1,-1,-1,31,-1,-1,-1,-1,-1,-1],"loss_changes":[1.0904889E1,3.6558151E0,5.9492197E0,0E0,0E0,4.4430895E0,3.853589E0,4.7110357E0,2.429309E0,3.5881958E0,3.5864954E0,0E0,0E0,0E0,2.2574134E0,4.6610394E0,9.1519785E-1,5.767889E-1,4.4918747E0,0E0,0E0,0E0,3.6601806E0,0E0,0E0,0E0,1.6455481E0,0E0,0E0,0E0,0E0,0E0,0E0],"parents":[2147483647,0,0,1,1,2,2,5,5,6,6,7,7,8,8,9,9,10,10,14,14,15,15,16,16,17,17,18,18,22,22,26,26],"right_children":[2,4,6,-1,-1,8,10,12,14,16,18,-1,-1,-1,20,22,24,26,28,-1,-1,-1,30,-1,-1,-1,32,-1,-1,-1,-1,-1,-1],"split_conditions":[4.4972172E-1,2.191389E-1,-6.5820426E-4,-2.1101697E-3,1.528628E-2,2.263E-1,1E0,1E0,4E0,7.347446E-1,6.9898105E-1,-1.0661604E-2,7.5397245E-3,1.39679145E-2,5.641736E-1,1E0,7.1900046E-1,7.2316474E-1,7.514005E-1,7.5397245E-3,-6.30919E-3,-1.29578095E-2,6.213285E-1,1.1322662E-2,-0E0,-1.5150829E-2,3.6229116E-1,1.0526492E-2,-8.539448E-3,1.1420078E-2,-6.434705E-3,-1.0658494E-2,2.2475917E-3],"split_indices":[152,39,200,0,0,224,218,209,195,34,162,0,0,0,42,206,38,41,162,0,0,0,37,0,0,0,162,0,0,0,0,0,0],"split_type":[0,0,0,0,0,0,0,0,0,0,0,0,0,0,0,0,0,0,0,0,0,0,0,0,0,0,0,0,0,0,0,0,0],"sum_hessian":[3.313184E1,5.9697347E0,2.7162106E1,1.2498492E0,4.7198853E0,9.720725E0,1.744138E1,3.9900765E0,5.7306485E0,7.479352E0,9.9620285E0,2.4923494E0,1.497727E0,2.9842424E0,2.746406E0,4.984463E0,2.4948888E0,6.9691076E0,2.9929204E0,1.497727E0,1.248679E0,2.2398777E0,2.7445858E0,1.4948888E0,1E0,4.4720416E0,2.4970663E0,1.2463334E0,1.746587E0,1.4960248E0,1.2485609E0,1.2474935E0,1.2495728E0],"tree_param":{"num_deleted":"0","num_feature":"225","num_nodes":"33","size_leaf_vector":"0"}},{"base_weights":[6.775627E-2,1.1774437E0,-2.092177E-1,-2.0984726E-3,1.5176182E-2,3.8821417E-1,-5.452077E-1,-4.337941E-1,8.451332E-1,3.9347555E-3,-9.2029667E-1,3.8348802E-3,-9.70096E-3,1.2438145E0,-4.0986626E-3,-4.6387765E-1,8.036852E-1,-1.2686632E0,5.2520973E-3,2.3038713E-3,1.473902E-2,-1.2876372E-2,3.7252563E-1,1.1259515E-2,-0E0,-1.5042456E-2,-5.375099E-1,1.0471578E-2,-8.487289E-3,1.1372886E-2,-6.419682E-3,2.2535187E-3,-1.0620024E-2],"categories":[],"categories_nodes":[],"categories_segments":[],"categories_sizes":[],"default_left":[0,0,0,0,0,0,0,0,0,0,0,0,0,0,0,0,0,0,0,0,0,0,0,0,0,0,0,0,0,0,0,0,0],"id":11,"left_children":[1,3,5,-1,-1,7,9,11,13,15,17,-1,-1,19,-1,21,23,25,27,-1,-1,-1,29,-1,-1,-1,31,-1,-1,-1,-1,-1,-1],"loss_changes":[1.0729632E1,3.6047792E0,5.861122E0,0E0,0E0,4.3910103E0,3.7997031E0,2.339538E0,4.1252666E0,3.543663E0,3.5386963E0,0E0,0E0,9.969368E-1,0E0,4.6007934E0,9.0491056E-1,5.6304264E-1,4.440247E0,0E0,0E0,0E0,3.6344895E0,0E0,0E0,0E0,1.6383191E0,0E0,0E0,0E0,0E0,0E0,0E0],"parents":[2147483647,0,0,1,1,2,2,5,5,6,6,7,7,8,8,9,9,10,10,13,13,15,15,16,16,17,17,18,18,22,22,26,26],"right_children":[2,4,6,-1,-1,8,10,12,14,16,18,-1,-1,20,-1,22,24,26,28,-1,-1,-1,30,-1,-1,-1,32,-1,-1,-1,-1,-1,-1],"split_conditions":[4.4972172E-1,2.191389E-1,-6.5820426E-4,-2.0984726E-3,1.5176182E-2,1E0,1E0,1E0,7.681745E-1,7.347446E-1,6.9898105E-1,3.8348802E-3,-9.70096E-3,1E0,-4.0986626E-3,1E0,7.1900046E-1,7.2316474E-1,7.514005E-1,2.3038713E-3,1.473902E-2,-1.2876372E-2,6.617162E-1,1.1259515E-2,-0E0,-1.5042456E-2,7.8634626E-1,1.0471578E-2,-8.487289E-3,1.1372886E-2,-6.419682E-3,2.2535187E-3,-1.0620024E-2],"split_indices":[152,39,200,0,0,201,218,92,45,34,162,0,0,59,0,206,38,41,162,0,0,0,45,0,0,0,35,0,0,0,0,0,0],"split_type":[0,0,0,0,0,0,0,0,0,0,0,0,0,0,0,0,0,0,0,0,0,0,0,0,0,0,0,0,0,0,0,0,0],"sum_hessian":[3.310813E1,5.9636917E0,2.714444E1,1.2498211E0,4.713871E0,9.714831E0,1.742961E1,3.4888737E0,6.2259574E0,7.4751945E0,9.954415E0,1.4952182E0,1.9936557E0,4.7317224E0,1.4942348E0,4.981341E0,2.4938533E0,6.9629297E0,2.9914854E0,1.2458116E0,3.485911E0,2.2378383E0,2.7435026E0,1.4938533E0,1E0,4.4664497E0,2.4964802E0,1.2455887E0,1.7458967E0,1.4952713E0,1.2482313E0,1.2494818E0,1.2469985E0],"tree_param":{"num_deleted":"0","num_feature":"225","num_nodes":"33","size_leaf_vector":"0"}},{"base_weights":[6.718489E-2,1.1686509E0,-2.0763806E-1,-2.0868445E-3,1.5068217E-2,3.8512293E-1,-5.411135E-1,-3.6714807E-1,8.8573664E-1,4.2910604E-3,-9.137408E-1,-1.0567113E-2,7.4393013E-3,1.38239795E-2,1.215566E-1,-4.608247E-1,7.9912984E-1,-1.2599791E0,5.699263E-3,7.4672378E-3,-6.2679797E-3,-1.2796151E-2,3.7023973E-1,1.11971395E-2,-0E0,-1.49361575E-2,-5.34625E-1,1.0417262E-2,-8.435635E-3,1.1326106E-2,-6.404768E-3,-1.057404E-2,2.2513408E-3],"categories":[],"categories_nodes":[],"categories_segments":[],"categories_sizes":[],"default_left":[0,0,0,0,0,0,0,0,0,0,0,0,0,0,0,0,0,0,0,0,0,0,0,0,0,0,0,0,0,0,0,0,0],"id":12,"left_children":[1,3,5,-1,-1,7,9,11,13,15,17,-1,-1,-1,19,21,23,25,27,-1,-1,-1,29,-1,-1,-1,31,-1,-1,-1,-1,-1,-1],"loss_changes":[1.0560553E1,3.5549173E0,5.768519E0,0E0,0E0,4.359026E0,3.7468314E0,4.6068325E0,2.3841362E0,3.4998093E0,3.4918451E0,0E0,0E0,0E0,2.2202435E0,4.5415797E0,8.9479685E-1,5.4981613E-1,4.389337E0,0E0,0E0,0E0,3.6090384E0,0E0,0E0,0E0,1.6265606E0,0E0,0E0,0E0,0E0,0E0,0E0],"parents":[2147483647,0,0,1,1,2,2,5,5,6,6,7,7,8,8,9,9,10,10,14,14,15,15,16,16,17,17,18,18,22,22,26,26],"right_children":[2,4,6,-1,-1,8,10,12,14,16,18,-1,-1,-1,20,22,24,26,28,-1,-1,-1,30,-1,-1,-1,32,-1,-1,-1,-1,-1,-1],"split_conditions":[4.4972172E-1,2.191389E-1,-6.5820426E-4,-2.0868445E-3,1.5068217E-2,2.263E-1,1E0,1E0,4E0,7.347446E-1,6.9898105E-1,-1.0567113E-2,7.4393013E-3,1.38239795E-2,5.641736E-1,1E0,7.1900046E-1,7.2316474E-1,7.514005E-1,7.4672378E-3,-6.2679797E-3,-1.2796151E-2,1E0,1.11971395E-2,-0E0,-1.49361575E-2,3.6229116E-1,1.0417262E-2,-8.435635E-3,1.1326106E-2,-6.404768E-3,-1.057404E-2,2.2513408E-3],"split_indices":[152,39,200,0,0,224,218,209,195,34,162,0,0,0,42,206,38,41,162,0,0,0,140,0,0,0,162,0,0,0,0,0,0],"split_type":[0,0,0,0,0,0,0,0,0,0,0,0,0,0,0,0,0,0,0,0,0,0,0,0,0,0,0,0,0,0,0,0,0],"sum_hessian":[3.3085293E1,5.957157E0,2.7128136E1,1.2497904E0,4.707367E0,9.711257E0,1.741688E1,3.9868424E0,5.7244143E0,7.4707E0,9.946179E0,2.4902573E0,1.4965851E0,2.9791734E0,2.745241E0,4.97797E0,2.49273E0,6.956251E0,2.989928E0,1.4969144E0,1.2483265E0,2.2356286E0,2.7423413E0,1.4927299E0,1E0,4.4604015E0,2.4958498E0,1.2447801E0,1.745148E0,1.4944754E0,1.247866E0,1.2464343E0,1.2494154E0],"tree_param":{"num_deleted":"0","num_feature":"225","num_nodes":"33","size_leaf_vector":"0"}},{"base_weights":[6.6770144E-2,1.160007E0,-2.0592715E-1,-2.0752822E-3,1.4962324E-2,3.8262147E-1,-5.370791E-1,-3.642703E-1,8.796912E-1,4.642644E-3,-9.072857E-1,-1.0496886E-2,7.396345E-3,1.3732848E-2,1.2068805E-1,7.1243984E-1,-5.115538E-1,-1.251438E0,6.1417767E-3,7.424042E-3,-6.234003E-3,-2.1758818E-3,1.2134814E-2,-1.2646686E-2,2.814866E-1,-1.4831869E-2,-5.317648E-1,1.0363538E-2,-8.384481E-3,-6.0908454E-3,1.0451836E-2,2.257154E-3,-1.0536336E-2],"categories":[],"categories_nodes":[],"categories_segments":[],"categories_sizes":[],"default_left":[0,0,0,0,0,0,0,0,0,0,0,0,0,0,0,0,0,0,0,0,0,0,0,0,0,0,0,0,0,0,0,0,0],"id":13,"left_children":[1,3,5,-1,-1,7,9,11,13,15,17,-1,-1,-1,19,21,23,25,27,-1,-1,-1,-1,-1,29,-1,31,-1,-1,-1,-1,-1,-1],"loss_changes":[1.0392326E1,3.5061874E0,5.6836824E0,0E0,0E0,4.29461E0,3.6949549E0,4.5479035E0,2.3518462E0,3.4575644E0,3.4459238E0,0E0,0E0,0E0,2.1950274E0,2.1225014E0,3.627494E0,5.370693E-1,4.339133E0,0E0,0E0,0E0,0E0,0E0,3.0075448E0,0E0,1.6194787E0,0E0,0E0,0E0,0E0,0E0,0E0],"parents":[2147483647,0,0,1,1,2,2,5,5,6,6,7,7,8,8,9,9,10,10,14,14,15,15,16,16,17,17,18,18,24,24,26,26],"right_children":[2,4,6,-1,-1,8,10,12,14,16,18,-1,-1,-1,20,22,24,26,28,-1,-1,-1,-1,-1,30,-1,32,-1,-1,-1,-1,-1,-1],"split_conditions":[4.4972172E-1,2.191389E-1,-6.5820426E-4,-2.0752822E-3,1.4962324E-2,2.263E-1,1E0,1E0,4E0,1E0,6.9898105E-1,-1.0496886E-2,7.396345E-3,1.3732848E-2,5.641736E-1,6.844482E-1,5.9723467E-1,7.2316474E-1,7.514005E-1,7.424042E-3,-6.234003E-3,-2.1758818E-3,1.2134814E-2,-1.2646686E-2,1E0,-1.4831869E-2,7.8634626E-1,1.0363538E-2,-8.384481E-3,-6.0908454E-3,1.0451836E-2,2.257154E-3,-1.0536336E-2],"split_indices":[152,39,200,0,0,224,218,209,195,205,162,0,0,0,42,146,162,41,162,0,0,0,0,0,206,0,35,0,0,0,0,0,0],"split_type":[0,0,0,0,0,0,0,0,0,0,0,0,0,0,0,0,0,0,0,0,0,0,0,0,0,0,0,0,0,0,0,0,0],"sum_hessian":[3.3057957E1,5.950145E0,2.7107811E1,1.2497572E0,4.7003875E0,9.70461E0,1.7403202E1,3.9845824E0,5.720027E0,7.465876E0,9.9373255E0,2.4885476E0,1.496035E0,2.9756079E0,2.744419E0,2.9882636E0,4.4776125E0,6.9490743E0,2.988251E0,1.4963888E0,1.2480303E0,1.2443125E0,1.7439511E0,1.9915849E0,2.4860275E0,4.45391E0,2.4951644E0,1.2439088E0,1.7443421E0,1.2411435E0,1.2448841E0,1.2493088E0,1.2458555E0],"tree_param":{"num_deleted":"0","num_feature":"225","num_nodes":"33","size_leaf_vector":"0"}},{"base_weights":[6.631143E-2,1.151508E0,-2.042888E-1,-2.0637868E-3,1.4858443E-2,3.8015437E-1,-5.331523E-1,-4.2918843E-1,8.305518E-1,4.7960263E-3,-9.0092796E-1,3.7848232E-3,-9.590321E-3,1.2254287E0,-4.09273E-3,-4.5619258E-1,7.920174E-1,-1.2430344E0,6.579758E-3,2.3063014E-3,1.4503856E-2,-1.2664613E-2,3.6593458E-1,1.7126527E-3,1.0599082E-2,-1.4729536E-2,-5.289272E-1,1.0310396E-2,-8.33382E-3,1.12165045E-2,-6.3517145E-3,-1.0491175E-2,2.254892E-3],"categories":[],"categories_nodes":[],"categories_segments":[],"categories_sizes":[],"default_left":[0,0,0,0,0,0,0,0,0,0,0,0,0,0,0,0,0,0,0,0,0,0,0,0,0,0,0,0,0,0,0,0,0],"id":14,"left_children":[1,3,5,-1,-1,7,9,11,13,15,17,-1,-1,19,-1,21,23,25,27,-1,-1,-1,29,-1,-1,-1,31,-1,-1,-1,-1,-1,-1],"loss_changes":[1.0228334E1,3.4585552E0,5.6011443E0,0E0,0E0,4.2559757E0,3.6426692E0,2.2818558E0,4.033102E0,3.4322016E0,3.4008942E0,0E0,0E0,9.4586563E-1,0E0,4.441247E0,3.9895463E-1,5.247927E-1,4.289624E0,0E0,0E0,0E0,3.541819E0,0E0,0E0,0E0,1.6079216E0,0E0,0E0,0E0,0E0,0E0,0E0],"parents":[2147483647,0,0,1,1,2,2,5,5,6,6,7,7,8,8,9,9,10,10,13,13,15,15,16,16,17,17,18,18,22,22,26,26],"right_children":[2,4,6,-1,-1,8,10,12,14,16,18,-1,-1,20,-1,22,24,26,28,-1,-1,-1,30,-1,-1,-1,32,-1,-1,-1,-1,-1,-1],"split_conditions":[4.4972172E-1,2.191389E-1,-6.5820426E-4,-2.0637868E-3,1.4858443E-2,1E0,1E0,1E0,7.681745E-1,7.347446E-1,6.9898105E-1,3.7848232E-3,-9.590321E-3,1E0,-4.09273E-3,1E0,1E0,7.2316474E-1,7.514005E-1,2.3063014E-3,1.4503856E-2,-1.2664613E-2,1E0,1.7126527E-3,1.0599082E-2,-1.4729536E-2,3.6229116E-1,1.0310396E-2,-8.33382E-3,1.12165045E-2,-6.3517145E-3,-1.0491175E-2,2.254892E-3],"split_indices":[152,39,200,0,0,201,218,92,45,34,162,0,0,59,0,206,217,41,162,0,0,0,140,0,0,0,162,0,0,0,0,0,0],"split_type":[0,0,0,0,0,0,0,0,0,0,0,0,0,0,0,0,0,0,0,0,0,0,0,0,0,0,0,0,0,0,0,0,0],"sum_hessian":[3.3030117E1,5.942667E0,2.7087448E1,1.2497215E0,4.6929455E0,9.697489E0,1.738996E1,3.4839985E0,6.2134905E0,7.462079E0,9.92788E0,1.4933192E0,1.9906794E0,4.7213726E0,1.492118E0,4.971389E0,2.4906905E0,6.941424E0,2.9864562E0,1.2442597E0,3.4771128E0,2.2315538E0,2.739835E0,1.2450327E0,1.2456578E0,4.4469876E0,2.494436E0,1.2429761E0,1.7434802E0,1.4926505E0,1.2471844E0,1.2452016E0,1.2492343E0],"tree_param":{"num_deleted":"0","num_feature":"225","num_nodes":"33","size_leaf_vector":"0"}},{"base_weights":[6.5796666E-2,1.1431495E0,-2.0272802E-1,-2.052359E-3,1.4756514E-2,3.7716183E-1,-5.29148E-1,-3.627128E-1,8.6996245E-1,5.283452E-3,-8.9466584E-1,-1.0405093E-2,7.2987447E-3,1.3595417E-2,1.1832776E-1,7.065255E-1,-5.0656426E-1,-1.2347661E0,7.01361E-3,7.353372E-3,-6.1935317E-3,-2.1805426E-3,1.2050403E-2,-1.2524576E-2,2.7905482E-1,-1.4629096E-2,-5.2611387E-1,1.0257824E-2,-8.283639E-3,-6.017621E-3,1.0340056E-2,2.2605937E-3,-1.0454218E-2],"categories":[],"categories_nodes":[],"categories_segments":[],"categories_sizes":[],"default_left":[0,0,0,0,0,0,0,0,0,0,0,0,0,0,0,0,0,0,0,0,0,0,0,0,0,0,0,0,0,0,0,0,0],"id":15,"left_children":[1,3,5,-1,-1,7,9,11,13,15,17,-1,-1,-1,19,21,23,25,27,-1,-1,-1,-1,-1,29,-1,31,-1,-1,-1,-1,-1,-1],"loss_changes":[1.0068605E1,3.4119816E0,5.512503E0,0E0,0E0,4.214304E0,3.594195E0,4.447824E0,2.3091702E0,3.3934512E0,3.3567429E0,0E0,0E0,0E0,2.1590474E0,2.0999818E0,3.5555823E0,5.1295567E-1,4.240796E0,0E0,0E0,0E0,0E0,0E0,2.9379623E0,0E0,1.6009822E0,0E0,0E0,0E0,0E0,0E0,0E0],"parents":[2147483647,0,0,1,1,2,2,5,5,6,6,7,7,8,8,9,9,10,10,14,14,15,15,16,16,17,17,18,18,24,24,26,26],"right_children":[2,4,6,-1,-1,8,10,12,14,16,18,-1,-1,-1,20,22,24,26,28,-1,-1,-1,-1,-1,30,-1,32,-1,-1,-1,-1,-1,-1],"split_conditions":[4.4972172E-1,2.191389E-1,-6.5820426E-4,-2.052359E-3,1.4756514E-2,2.263E-1,1E0,1E0,4E0,1E0,6.9898105E-1,-1.0405093E-2,7.2987447E-3,1.3595417E-2,5.641736E-1,1E0,5.9723467E-1,7.2316474E-1,7.514005E-1,7.353372E-3,-6.1935317E-3,-2.1805426E-3,1.2050403E-2,-1.2524576E-2,1E0,-1.4629096E-2,7.8634626E-1,1.0257824E-2,-8.283639E-3,-6.017621E-3,1.0340056E-2,2.2605937E-3,-1.0454218E-2],"split_indices":[152,39,200,0,0,224,218,209,195,205,162,0,0,0,42,115,162,41,162,0,0,0,0,0,206,0,35,0,0,0,0,0,0],"split_type":[0,0,0,0,0,0,0,0,0,0,0,0,0,0,0,0,0,0,0,0,0,0,0,0,0,0,0,0,0,0,0,0,0],"sum_hessian":[3.3002758E1,5.9347377E0,2.7068022E1,1.2496834E0,4.6850543E0,9.692934E0,1.7375088E1,3.9805875E0,5.712346E0,7.457241E0,9.917847E0,2.4860244E0,1.4945631E0,2.9694238E0,2.7429225E0,2.9860065E0,4.4712343E0,6.9333E0,2.9845464E0,1.4953568E0,1.2475657E0,1.2430861E0,1.7429204E0,1.9887849E0,2.4824495E0,4.439646E0,2.493654E0,1.2419829E0,1.7425635E0,1.2393668E0,1.2430829E0,1.2491125E0,1.2445415E0],"tree_param":{"num_deleted":"0","num_feature":"225","num_nodes":"33","size_leaf_vector":"0"}},{"base_weights":[6.535136E-2,1.1349285E0,-2.0113352E-1,-2.0409944E-3,1.4656482E-2,3.7475604E-1,-5.2533054E-1,-4.2548153E-1,8.2045674E-1,5.4306397E-3,-8.8849646E-1,3.7491077E-3,-9.505613E-3,1.2123419E0,-4.07751E-3,-4.5228773E-1,7.861894E-1,-1.2266284E0,7.443076E-3,2.301169E-3,1.43409E-2,-1.2536342E-2,3.6080506E-1,1.0516674E-2,1.7035032E-3,-1.4530501E-2,-5.233226E-1,1.0205814E-2,-8.233935E-3,1.1109847E-2,-6.3156853E-3,-1.0409857E-2,2.25825E-3],"categories":[],"categories_nodes":[],"categories_segments":[],"categories_sizes":[],"default_left":[0,0,0,0,0,0,0,0,0,0,0,0,0,0,0,0,0,0,0,0,0,0,0,0,0,0,0,0,0,0,0,0,0],"id":16,"left_children":[1,3,5,-1,-1,7,9,11,13,15,17,-1,-1,19,-1,21,23,25,27,-1,-1,-1,29,-1,-1,-1,31,-1,-1,-1,-1,-1,-1],"loss_changes":[9.911073E0,3.3664322E0,5.432967E0,0E0,0E0,4.160108E0,3.5438237E0,2.239526E0,3.9618769E0,3.3763769E0,3.3134356E0,0E0,0E0,9.143915E-1,0E0,4.3380594E0,3.9130926E-1,5.015497E-1,4.1926384E0,0E0,0E0,0E0,3.483446E0,0E0,0E0,0E0,1.5896214E0,0E0,0E0,0E0,0E0,0E0,0E0],"parents":[2147483647,0,0,1,1,2,2,5,5,6,6,7,7,8,8,9,9,10,10,13,13,15,15,16,16,17,17,18,18,22,22,26,26],"right_children":[2,4,6,-1,-1,8,10,12,14,16,18,-1,-1,20,-1,22,24,26,28,-1,-1,-1,30,-1,-1,-1,32,-1,-1,-1,-1,-1,-1],"split_conditions":[4.4972172E-1,2.191389E-1,-6.5820426E-4,-2.0409944E-3,1.4656482E-2,1E0,1E0,1E0,7.681745E-1,7.347446E-1,6.9898105E-1,3.7491077E-3,-9.505613E-3,1E0,-4.07751E-3,1E0,1E0,7.2316474E-1,7.514005E-1,2.301169E-3,1.43409E-2,-1.2536342E-2,6.617162E-1,1.0516674E-2,1.7035032E-3,-1.4530501E-2,3.6229116E-1,1.0205814E-2,-8.233935E-3,1.1109847E-2,-6.3156853E-3,-1.0409857E-2,2.25825E-3],"split_indices":[152,39,200,0,0,201,218,92,45,34,162,0,0,59,0,206,204,41,162,0,0,0,45,0,0,0,162,0,0,0,0,0,0],"split_type":[0,0,0,0,0,0,0,0,0,0,0,0,0,0,0,0,0,0,0,0,0,0,0,0,0,0,0,0,0,0,0,0,0],"sum_hessian":[3.2971626E1,5.926369E0,2.7045258E1,1.2496428E0,4.6767263E0,9.685105E0,1.7360153E1,3.4808125E0,6.204293E0,7.452902E0,9.907251E0,1.492203E0,1.9886094E0,4.7133265E0,1.4909666E0,4.9636683E0,2.489234E0,6.9247274E0,2.9825234E0,1.2434134E0,3.4699128E0,2.2270155E0,2.7366526E0,1.2448857E0,1.2443483E0,4.431897E0,2.4928303E0,1.2409307E0,1.7415929E0,1.4904398E0,1.2462128E0,1.2438004E0,1.24903E0],"tree_param":{"num_deleted":"0","num_feature":"225","num_nodes":"33","size_leaf_vector":"0"}},{"base_weights":[6.4850725E-2,1.1268406E0,-1.9961461E-1,-2.0296967E-3,1.4558295E-2,3.7183046E-1,-5.214343E-1,-3.6118722E-1,8.604741E-1,5.908956E-3,-8.824183E-1,-1.0314895E-2,7.203082E-3,1.3461979E-2,1.16010554E-1,5.694481E-1,-6.2159306E-1,-1.2186195E0,7.868315E-3,7.283897E-3,-6.1535463E-3,1.1268459E-2,-6.1428123E-3,-1.2289913E-2,3.561478E-3,-1.4433697E-2,-5.2055496E-1,1.0154354E-2,-8.184699E-3,2.263842E-3,-1.0373627E-2],"categories":[],"categories_nodes":[],"categories_segments":[],"categories_sizes":[],"default_left":[0,0,0,0,0,0,0,0,0,0,0,0,0,0,0,0,0,0,0,0,0,0,0,0,0,0,0,0,0,0,0],"id":17,"left_children":[1,3,5,-1,-1,7,9,11,13,15,17,-1,-1,-1,19,21,23,25,27,-1,-1,-1,-1,-1,-1,-1,29,-1,-1,-1,-1],"loss_changes":[9.757607E0,3.3218775E0,5.3474703E0,0E0,0E0,4.136154E0,3.4971538E0,4.3503175E0,2.2679296E0,3.3411996E0,3.270956E0,0E0,0E0,0E0,2.123798E0,3.9730897E0,3.0953355E0,4.9054337E-1,4.145141E0,0E0,0E0,0E0,0E0,0E0,0E0,0E0,1.5828204E0,0E0,0E0,0E0,0E0],"parents":[2147483647,0,0,1,1,2,2,5,5,6,6,7,7,8,8,9,9,10,10,14,14,15,15,16,16,17,17,18,18,26,26],"right_children":[2,4,6,-1,-1,8,10,12,14,16,18,-1,-1,-1,20,22,24,26,28,-1,-1,-1,-1,-1,-1,-1,30,-1,-1,-1,-1],"split_conditions":[4.4972172E-1,2.191389E-1,-6.5820426E-4,-2.0296967E-3,1.4558295E-2,2.263E-1,1E0,1E0,4E0,1E0,6.9898105E-1,-1.0314895E-2,7.203082E-3,1.3461979E-2,5.641736E-1,1.8E1,9E0,7.2316474E-1,7.514005E-1,7.283897E-3,-6.1535463E-3,1.1268459E-2,-6.1428123E-3,-1.2289913E-2,3.561478E-3,-1.4433697E-2,7.8634626E-1,1.0154354E-2,-8.184699E-3,2.263842E-3,-1.0373627E-2],"split_indices":[152,39,200,0,0,224,218,209,195,213,162,0,0,0,42,196,196,41,162,0,0,0,0,0,0,0,35,0,0,0,0],"split_type":[0,0,0,0,0,0,0,0,0,0,0,0,0,0,0,0,0,0,0,0,0,0,0,0,0,0,0,0,0,0,0],"sum_hessian":[3.2941074E1,5.917574E0,2.70235E1,1.2495998E0,4.667974E0,9.679867E0,1.7343634E1,3.9761117E0,5.703755E0,7.4475365E0,9.896097E0,2.4832506E0,1.492861E0,2.9625592E0,2.7411957E0,3.972489E0,3.4750476E0,6.9157076E0,2.98039E0,1.494176E0,1.2470195E0,2.733422E0,1.2390671E0,1.9849648E0,1.4900826E0,4.423753E0,2.4919548E0,1.2398202E0,1.7405697E0,1.2488934E0,1.2430615E0],"tree_param":{"num_deleted":"0","num_feature":"225","num_nodes":"31","size_leaf_vector":"0"}},{"base_weights":[6.426192E-2,1.1188824E0,-1.982472E-1,-2.0184622E-3,1.44618945E-2,3.6948365E-1,-5.1799625E-1,-3.584114E-1,8.5476583E-1,5.425711E-3,-8.764282E-1,-1.0247714E-2,7.1621155E-3,1.3376774E-2,1.1518545E-1,-4.4807217E-1,7.783237E-1,-1.2107341E0,8.289456E-3,7.242258E-3,-6.1204135E-3,-1.24264145E-2,3.5788944E-1,1.6721538E-3,1.0425409E-2,-1.4338634E-2,-5.17809E-1,1.0103438E-2,-8.135922E-3,1.1011333E-2,-6.2530804E-3,-1.0330044E-2,2.2614186E-3],"categories":[],"categories_nodes":[],"categories_segments":[],"categories_sizes":[],"default_left":[0,0,0,0,0,0,0,0,0,0,0,0,0,0,0,0,0,0,0,0,0,0,0,0,0,0,0,0,0,0,0,0,0],"id":18,"left_children":[1,3,5,-1,-1,7,9,11,13,15,17,-1,-1,-1,19,21,23,25,27,-1,-1,-1,29,-1,-1,-1,31,-1,-1,-1,-1,-1,-1],"loss_changes":[9.608954E0,3.2782822E0,5.2740693E0,0E0,0E0,4.075849E0,3.4432054E0,4.2951994E0,2.2381763E0,3.3081243E0,3.2292805E0,0E0,0E0,0E0,2.0998032E0,4.258687E0,3.8877535E-1,4.7993374E-1,4.0982924E0,0E0,0E0,0E0,3.4164782E0,0E0,0E0,0E0,1.571651E0,0E0,0E0,0E0,0E0,0E0,0E0],"parents":[2147483647,0,0,1,1,2,2,5,5,6,6,7,7,8,8,9,9,10,10,14,14,15,15,16,16,17,17,18,18,22,22,26,26],"right_children":[2,4,6,-1,-1,8,10,12,14,16,18,-1,-1,-1,20,22,24,26,28,-1,-1,-1,30,-1,-1,-1,32,-1,-1,-1,-1,-1,-1],"split_conditions":[4.4972172E-1,2.191389E-1,-6.5820426E-4,-2.0184622E-3,1.44618945E-2,2.263E-1,1E0,1E0,4E0,7.347446E-1,6.9898105E-1,-1.0247714E-2,7.1621155E-3,1.3376774E-2,5.641736E-1,1E0,1E0,7.2316474E-1,7.514005E-1,7.242258E-3,-6.1204135E-3,-1.24264145E-2,6.213285E-1,1.6721538E-3,1.0425409E-2,-1.4338634E-2,3.6229116E-1,1.0103438E-2,-8.135922E-3,1.1011333E-2,-6.2530804E-3,-1.0330044E-2,2.2614186E-3],"split_indices":[152,39,200,0,0,224,218,209,195,34,162,0,0,0,42,206,217,41,162,0,0,0,37,0,0,0,162,0,0,0,0,0,0],"split_type":[0,0,0,0,0,0,0,0,0,0,0,0,0,0,0,0,0,0,0,0,0,0,0,0,0,0,0,0,0,0,0,0,0],"sum_hessian":[3.2907257E1,5.9083643E0,2.6998892E1,1.2495544E0,4.6588097E0,9.671358E0,1.7327534E1,3.9732106E0,5.6981473E0,7.4431243E0,9.88441E0,2.4811008E0,1.4921097E0,2.9580076E0,2.7401397E0,4.955661E0,2.4874637E0,6.9062614E0,2.9781485E0,1.4934919E0,1.246648E0,2.222633E0,2.733028E0,1.2437239E0,1.2437398E0,4.4152226E0,2.491039E0,1.238653E0,1.7394955E0,1.4881307E0,1.2448972E0,1.2422361E0,1.2488029E0],"tree_param":{"num_deleted":"0","num_feature":"225","num_nodes":"33","size_leaf_vector":"0"}},{"base_weights":[6.392028E-2,1.1110505E0,-1.966205E-1,-2.0072928E-3,1.4367236E-2,3.6716816E-1,-5.142014E-1,-4.2108935E-1,8.067948E-1,5.8992757E-3,-8.705251E-1,3.7011674E-3,-9.400392E-3,1.1952672E0,-4.071739E-3,6.9448835E-1,-4.97416E-1,-1.2029712E0,8.706657E-3,2.3038557E-3,1.4123133E-2,-2.1670246E-3,1.186067E-2,-1.2316469E-2,2.7598435E-1,-1.4245263E-2,-5.150862E-1,1.00530535E-2,-8.0876E-3,-5.8996174E-3,1.016998E-2,2.266903E-3,-1.0294522E-2],"categories":[],"categories_nodes":[],"categories_segments":[],"categories_sizes":[],"default_left":[0,0,0,0,0,0,0,0,0,0,0,0,0,0,0,0,0,0,0,0,0,0,0,0,0,0,0,0,0,0,0,0,0],"id":19,"left_children":[1,3,5,-1,-1,7,9,11,13,15,17,-1,-1,19,-1,21,23,25,27,-1,-1,-1,-1,-1,29,-1,31,-1,-1,-1,-1,-1,-1],"loss_changes":[9.459042E0,3.2356186E0,5.1971197E0,0E0,0E0,4.0346766E0,3.3983192E0,2.1851745E0,3.8764138E0,3.2696114E0,3.188385E0,0E0,0E0,8.6821556E-1,0E0,2.0398417E0,3.4387293E0,4.6969128E-1,4.052081E0,0E0,0E0,0E0,0E0,0E0,2.829552E0,0E0,1.564985E0,0E0,0E0,0E0,0E0,0E0,0E0],"parents":[2147483647,0,0,1,1,2,2,5,5,6,6,7,7,8,8,9,9,10,10,13,13,15,15,16,16,17,17,18,18,24,24,26,26],"right_children":[2,4,6,-1,-1,8,10,12,14,16,18,-1,-1,20,-1,22,24,26,28,-1,-1,-1,-1,-1,30,-1,32,-1,-1,-1,-1,-1,-1],"split_conditions":[4.4972172E-1,2.191389E-1,-6.5820426E-4,-2.0072928E-3,1.4367236E-2,1E0,1E0,1E0,7.681745E-1,1E0,6.9898105E-1,3.7011674E-3,-9.400392E-3,1E0,-4.071739E-3,6.844482E-1,5.9723467E-1,7.2316474E-1,7.514005E-1,2.3038557E-3,1.4123133E-2,-2.1670246E-3,1.186067E-2,-1.2316469E-2,1E0,-1.4245263E-2,7.8634626E-1,1.00530535E-2,-8.0876E-3,-5.8996174E-3,1.016998E-2,2.266903E-3,-1.0294522E-2],"split_indices":[152,39,200,0,0,201,218,92,45,205,162,0,0,59,0,146,162,41,162,0,0,0,0,0,206,0,35,0,0,0,0,0,0],"split_type":[0,0,0,0,0,0,0,0,0,0,0,0,0,0,0,0,0,0,0,0,0,0,0,0,0,0,0,0,0,0,0,0,0],"sum_hessian":[3.287062E1,5.898752E0,2.6971869E1,1.2495068E0,4.6492453E0,9.66242E0,1.7309448E1,3.4745908E0,6.1878295E0,7.4372554E0,9.872193E0,1.4898772E0,1.9847134E0,4.6994133E0,1.4884163E0,2.9801981E0,4.457057E0,6.8963923E0,2.9758005E0,1.2415489E0,3.4578643E0,1.2403164E0,1.7398816E0,1.9824761E0,2.4745812E0,4.4063196E0,2.4900727E0,1.23743E0,1.7383705E0,1.2350965E0,1.2394847E0,1.2486516E0,1.241421E0],"tree_param":{"num_deleted":"0","num_feature":"225","num_nodes":"33","size_leaf_vector":"0"}},{"base_weights":[6.335655E-2,1.1033418E0,-1.9525328E-1,-1.9961877E-3,1.427427E-2,3.6433294E-1,-5.1058483E-1,-3.569442E-1,8.4562474E-1,6.039453E-3,-8.647059E-1,-1.0160014E-2,7.069041E-3,1.3249172E-2,1.1292765E-1,-4.4375744E-1,7.717693E-1,-1.195326E0,9.12E-3,7.1744747E-3,-6.0811415E-3,-1.23038925E-2,3.5383582E-1,1.6517895E-3,1.0342513E-2,-1.4153538E-2,-5.123845E-1,1.0003196E-2,-8.039721E-3,1.0918329E-2,-6.2147956E-3,-1.0251698E-2,2.264402E-3],"categories":[],"categories_nodes":[],"categories_segments":[],"categories_sizes":[],"default_left":[0,0,0,0,0,0,0,0,0,0,0,0,0,0,0,0,0,0,0,0,0,0,0,0,0,0,0,0,0,0,0,0,0],"id":20,"left_children":[1,3,5,-1,-1,7,9,11,13,15,17,-1,-1,-1,19,21,23,25,27,-1,-1,-1,29,-1,-1,-1,31,-1,-1,-1,-1,-1,-1],"loss_changes":[9.315763E0,3.1938572E0,5.1175437E0,0E0,0E0,4.001118E0,3.3515935E0,4.201493E0,2.1991358E0,3.2466364E0,3.1482506E0,0E0,0E0,0E0,2.0656717E0,4.1663847E0,3.8408327E-1,4.598112E-1,4.006497E0,0E0,0E0,0E0,3.3629174E0,0E0,0E0,0E0,1.5540023E0,0E0,0E0,0E0,0E0,0E0,0E0],"parents":[2147483647,0,0,1,1,2,2,5,5,6,6,7,7,8,8,9,9,10,10,14,14,15,15,16,16,17,17,18,18,22,22,26,26],"right_children":[2,4,6,-1,-1,8,10,12,14,16,18,-1,-1,-1,20,22,24,26,28,-1,-1,-1,30,-1,-1,-1,32,-1,-1,-1,-1,-1,-1],"split_conditions":[4.4972172E-1,2.191389E-1,-6.5820426E-4,-1.9961877E-3,1.427427E-2,2.263E-1,1E0,1E0,4E0,7.347446E-1,6.9898105E-1,-1.0160014E-2,7.069041E-3,1.3249172E-2,5.641736E-1,1E0,1E0,7.2316474E-1,7.514005E-1,7.1744747E-3,-6.0811415E-3,-1.23038925E-2,1E0,1.6517895E-3,1.0342513E-2,-1.4153538E-2,3.6229116E-1,1.0003196E-2,-8.039721E-3,1.0918329E-2,-6.2147956E-3,-1.0251698E-2,2.264402E-3],"split_indices":[152,39,200,0,0,224,218,209,195,34,162,0,0,0,42,206,217,41,162,0,0,0,140,0,0,0,162,0,0,0,0,0,0],"split_type":[0,0,0,0,0,0,0,0,0,0,0,0,0,0,0,0,0,0,0,0,0,0,0,0,0,0,0,0,0,0,0,0,0],"sum_hessian":[3.283647E1,5.8887506E0,2.694772E1,1.249457E0,4.639293E0,9.656296E0,1.7291424E1,3.9680414E0,5.6882544E0,7.431954E0,9.85947E0,2.477931E0,1.4901104E0,2.9501467E0,2.7381077E0,4.946696E0,2.485258E0,6.8861213E0,2.973349E0,1.4921106E0,1.2459971E0,2.2172706E0,2.7294254E0,1.2427003E0,1.2425576E0,4.397054E0,2.489067E0,1.2361522E0,1.7371969E0,1.4857378E0,1.2436876E0,1.2405136E0,1.2485536E0],"tree_param":{"num_deleted":"0","num_feature":"225","num_nodes":"33","size_leaf_vector":"0"}}]},"name":"gbtree"},"learner_model_param":{"base_score":"5E-1","boost_from_average":"1","num_class":"0","num_feature":"225","num_target":"1"},"objective":{"name":"binary:logistic","reg_loss_param":{"scale_pos_weight":"1"}}},"version":[1,7,4]}