{"learner":{"attributes":{"best_iteration":"59","best_ntree_limit":"60","best_score":"0.6846767807534585","scikit_learn":"{\"use_label_encoder\": null, \"n_estimators\": 500, \"objective\": \"binary:logistic\", \"max_depth\": 7, \"max_leaves\": null, \"max_bin\": null, \"grow_policy\": null, \"learning_rate\": null, \"verbosity\": null, \"booster\": null, \"tree_method\": \"gpu_hist\", \"gamma\": null, \"min_child_weight\": null, \"max_delta_step\": null, \"subsample\": null, \"sampling_method\": null, \"colsample_bytree\": null, \"colsample_bylevel\": null, \"colsample_bynode\": null, \"reg_alpha\": null, \"reg_lambda\": null, \"scale_pos_weight\": null, \"base_score\": null, \"missing\": NaN, \"num_parallel_tree\": null, \"random_state\": null, \"n_jobs\": null, \"monotone_constraints\": null, \"interaction_constraints\": null, \"importance_type\": null, \"gpu_id\": null, \"validate_parameters\": null, \"predictor\": null, \"enable_categorical\": false, \"feature_types\": null, \"max_cat_to_onehot\": null, \"max_cat_threshold\": null, \"eval_metric\": null, \"early_stopping_rounds\": 20, \"callbacks\": null, \"kwargs\": {\"eta\": 0.01}, \"classes_\": [0.0, 1.0], \"n_classes_\": 2, \"evals_result_\": {\"validation_0\": {\"logloss\": [0.6905087433473694, 0.6879805450411477, 0.6856620327667898, 0.6836563258624916, 0.6822823945437758, 0.6807880696526096, 0.6784441832069312, 0.6770024702943754, 0.6745907372104143, 0.6733323369452042, 0.6712156839600754, 0.6698514852172548, 0.6682900111087764, 0.6663846151303436, 0.6651249652658012, 0.6628514351481098, 0.6615080976812594, 0.6599207536415762, 0.6582913009797112, 0.6566981187155847, 0.6550520589329895, 0.653235389130989, 0.6513946889043631, 0.6499442054830599, 0.6484593699699586, 0.6468764256389697, 0.6454018287584088, 0.6438946076990573, 0.642243240771735, 0.640413866010452, 0.6387857968640918, 0.6372323335771299, 0.6354460453971579, 0.633667964473697, 0.632101684556169, 0.6303578029244633, 0.6289108756740215, 0.6272040665577101, 0.6257073099408031, 0.6240077661216803, 0.6223482267719825, 0.6210487124933879, 0.6193310375746723, 0.6178991593702209, 0.6166295152172115, 0.6149969191291652, 0.6133819575260018, 0.6119988332205055, 0.6107697726422836, 0.6091675328812046, 0.6079626112904356, 0.6062739445612981, 0.6050900688693608, 0.6037831710168249, 0.6025764840561533, 0.6009244424967287, 0.5997023531168971, 0.5985500707231569, 0.5969684579964567, 0.5958175384469884, 0.5941747643801504, 0.592626629083999, 0.5910184277121993, 0.5894498053593306, 0.5877933930969922, 0.5862386615793894, 0.5851485570880549, 0.5838628946336027, 0.5824878459803595, 0.5813553800522271, 0.5797616054135165, 0.5783928119452401, 0.5772594517531575, 0.5756435553401203, 0.5743766882040354, 0.5733333385441418, 0.5720416447912698, 0.5705444318335867, 0.5694194054316044, 0.5680317744476698]}, \"validation_1\": {\"logloss\": [0.6930889667322239, 0.6929739204545816, 0.6927437917329371, 0.6926319898727039, 0.6926479310107728, 0.6926715595958134, 0.6925854443882903, 0.692637589139243, 0.6924760503073534, 0.692541845763723, 0.6924634099317094, 0.692429804864029, 0.6923555859054128, 0.6924678403884172, 0.6923078548473617, 0.6921504282703003, 0.6919280632088581, 0.6917474384730061, 0.6915633499932786, 0.6913193444100519, 0.6910951938480139, 0.6908788100505868, 0.6906953908813497, 0.6904265518921117, 0.6902700355276465, 0.6900710028906664, 0.68988191569224, 0.6896765544079244, 0.6894720589431623, 0.6889834930188954, 0.6887605408361802, 0.6887807501479983, 0.6883443489205092, 0.6881217659295847, 0.6880261281815668, 0.6876162154755244, 0.6875402491229275, 0.6874403887583563, 0.6873320953454822, 0.6869795323194315, 0.6868955192621797, 0.68688834978578, 0.686599470830212, 0.6865548042114824, 0.6865717446586738, 0.6862513960028688, 0.6859933543795099, 0.686022930778563, 0.6859872492495924, 0.6856390517981102, 0.6855441886000335, 0.6854353356951227, 0.6855523968891551, 0.6856132717027018, 0.6853976145697137, 0.68535563054805, 0.6852385650078455, 0.6850990576980015, 0.6848890205534796, 0.6846767807534585, 0.684830931480974, 0.6847082459523032, 0.6848768693550179, 0.6850614047143608, 0.6851636112357179, 0.6853584982454777, 0.6852615089931836, 0.6854408370951811, 0.6854218922865888, 0.6853956337242076, 0.6853729176800698, 0.6853666213185837, 0.6854156787352016, 0.6854416128092756, 0.6854049157506475, 0.6854185911361128, 0.6853205071917424, 0.6851343251764774, 0.6851941201991091, 0.6851089226547629]}}, \"_estimator_type\": \"classifier\"}"},"feature_names":["st_stoch","st_ich","st_cut_ema5_sma10","st_macd","st_ich_close","st_dmi","st_cut_sma10_close","st_hisse","st_mfi","st_fishert","st_ema_5","st_ema_6","st_cut_ema_5_6","st_ema_7","st_ema_8","st_cut_ema_7_8","st_ema_9","st_ema_10","st_cut_ema_9_10","st_ema_11","st_ema_12","st_cut_ema_11_12","st_ema_13","st_ema_14","st_cut_ema_13_14","st_ema_15","st_ema_16","st_cut_ema_15_16","st_ema_17","st_ema_18","st_cut_ema_17_18","st_ema_19","st_ema_20","st_cut_ema_19_20","st_mfi_5","st_mfi_6","st_mfi_7","st_mfi_8","st_mfi_9","st_mfi_10","st_mfi_11","st_mfi_12","st_mfi_13","st_mfi_14","st_mfi_15","st_mfi_16","st_mfi_17","st_mfi_18","st_mfi_19","st_mfi_20","st_sma_5","st_sma_6","st_cut_sma_5_6","st_sma_7","st_sma_8","st_cut_sma_7_8","st_sma_9","st_sma_10","st_cut_sma_9_10","st_sma_11","st_sma_12","st_cut_sma_11_12","st_sma_13","st_sma_14","st_cut_sma_13_14","st_sma_15","st_sma_16","st_cut_sma_15_16","st_sma_17","st_sma_18","st_cut_sma_17_18","st_sma_19","st_sma_20","st_cut_sma_19_20","st_wma_5","st_wma_6","st_cut_wma_5_6","st_wma_7","st_wma_8","st_cut_wma_7_8","st_wma_9","st_wma_10","st_cut_wma_9_10","st_wma_11","st_wma_12","st_cut_wma_11_12","st_wma_13","st_wma_14","st_cut_wma_13_14","st_wma_15","st_wma_16","st_cut_wma_15_16","st_wma_17","st_wma_18","st_cut_wma_17_18","st_wma_19","st_wma_20","st_cut_wma_19_20","st_tema_5","st_tema_6","st_cut_tema_5_6","st_tema_7","st_tema_8","st_cut_tema_7_8","st_tema_9","st_tema_10","st_cut_tema_9_10","st_tema_11","st_tema_12","st_cut_tema_11_12","st_tema_13","st_tema_14","st_cut_tema_13_14","st_tema_15","st_tema_16","st_cut_tema_15_16","st_tema_17","st_tema_18","st_cut_tema_17_18","st_tema_19","st_tema_20","st_cut_tema_19_20","st_kama_5","st_kama_6","st_cut_kama_5_6","st_kama_7","st_kama_8","st_cut_kama_7_8","st_kama_9","st_kama_10","st_cut_kama_9_10","st_kama_11","st_kama_12","st_cut_kama_11_12","st_kama_13","st_kama_14","st_cut_kama_13_14","st_kama_15","st_kama_16","st_cut_kama_15_16","st_kama_17","st_kama_18","st_cut_kama_17_18","st_kama_19","st_kama_20","st_cut_kama_19_20","st_rsi_5","st_rsi_6","st_rsi_7","st_rsi_8","st_rsi_9","st_rsi_10","st_rsi_11","st_rsi_12","st_rsi_13","st_rsi_14","st_rsi_15","st_rsi_16","st_rsi_17","st_rsi_18","st_rsi_19","st_rsi_20","st_adx_5","st_adxdmi_5","st_adx_6","st_adxdmi_6","st_adx_7","st_adxdmi_7","st_adx_8","st_adxdmi_8","st_adx_9","st_adxdmi_9","st_adx_10","st_adxdmi_10","st_adx_11","st_adxdmi_11","st_adx_12","st_adxdmi_12","st_adx_13","st_adxdmi_13","st_adx_14","st_adxdmi_14","st_adx_15","st_adxdmi_15","st_adx_16","st_adxdmi_16","st_adx_17","st_adxdmi_17","st_adx_18","st_adxdmi_18","st_adx_19","st_adxdmi_19","st_adx_20","st_adxdmi_20","month","weekday","hour","is_quarter_end","candle_label","vol_delta","log_return","lag_2","lag_3","lag_4","lag_5","lag_6","lag_7","lag_8","lag_9","lag_10","lag_11","lag_12","lag_13","lag_14","lag_15","lag_16","lag_17","lag_18","lag_19","lag_20","lag_21","lag_22","lag_23","kz_score","twitter_sent_score"],"feature_types":["int","int","int","int","int","int","int","int","int","int","int","int","int","int","int","int","int","int","int","int","int","int","int","int","int","int","int","int","int","int","int","int","int","int","float","float","float","float","float","float","float","float","float","float","float","float","float","float","float","float","int","int","int","int","int","int","int","int","int","int","int","int","int","int","int","int","int","int","int","int","int","int","int","int","int","int","int","int","int","int","int","int","int","int","int","int","int","int","int","int","int","int","int","int","int","int","int","int","int","int","int","int","int","int","int","int","int","int","int","int","int","int","int","int","int","int","int","int","int","int","int","int","int","int","int","int","int","int","int","int","int","int","int","int","int","int","int","int","int","int","int","int","int","int","int","int","float","float","float","float","float","float","float","float","float","float","float","float","float","float","float","float","float","int","float","int","float","int","float","int","float","int","float","int","float","int","float","int","float","int","float","int","float","int","float","int","float","int","float","int","float","int","float","int","int","int","int","int","float","int","float","int","int","int","int","int","int","int","int","int","int","int","int","int","int","int","int","int","int","int","int","int","int","float","float"],"gradient_booster":{"model":{"gbtree_model_param":{"num_parallel_tree":"1","num_trees":"80","size_leaf_vector":"0"},"tree_info":[0,0,0,0,0,0,0,0,0,0,0,0,0,0,0,0,0,0,0,0,0,0,0,0,0,0,0,0,0,0,0,0,0,0,0,0,0,0,0,0,0,0,0,0,0,0,0,0,0,0,0,0,0,0,0,0,0,0,0,0,0,0,0,0,0,0,0,0,0,0,0,0,0,0,0,0,0,0,0,0],"trees":[{"base_weights":[3.1209363E-2,3.3932135E-1,-1.17195E-1,5.833333E-1,1.1320755E-1,-3.78198E-2,-6.0273975E-1,-1.8867925E-1,7.853403E-1,5.6E-1,-1.5384616E-1,2.010582E-1,-2.0952381E-1,6.666667E-1,-7.5757575E-1,-9.4736844E-1,2.1052632E-1,9.239766E-1,-3.3333334E-1,2.2222222E-1,1.25E0,-2.9677418E-1,1.1111112E0,-1.4285714E-2,2.6086956E-1,3.0927834E-1,-3.2407406E-1,1.3333334E-2,-4E-3,-1.2786885E0,-2.9333332E-1,-0E0,-1.3846154E-2,-6.666667E-1,6.666667E-1,1.4545455E0,7.1755725E-1,-1.0588236E0,9.090909E-3,1.2941177E-2,-1.0169491E-1,1.5199999E-2,1.8181818E-3,-4.923077E-1,6.2068963E-1,1.4285714E-2,-0E0,-1.3953489E-1,4.691358E-1,9E-1,-9.836066E-2,-9.285714E-1,-1.1111111E-1,-2.5E-1,-1.5102041E0,-9.189189E-1,2.857143E-1,5E-3,-1.2727272E-2,1.4666666E-2,-2.5E-1,-0E0,1.6E-2,-6.666667E-1,9.4736844E-1,-0E0,-1.3846154E-2,5.8064514E-1,-7.5E-1,-0E0,-8.888889E-1,-5.714286E-1,1.368421E-2,2.4E-1,-6.2068963E-1,6.1538464E-1,-3.5897437E-1,9.52381E-2,1.47826085E-2,-4.3137255E-1,1.1428571E-2,6.666667E-1,-1.1287129E0,-1.368421E-2,-3.236246E-2,-1.1111111E-2,5.4545454E-3,-1.7575758E-2,-8E-1,-1.1764706E-1,-1.3333334E0,8.3870965E-1,-9.3333334E-1,8E-3,-1.2E-2,5E-3,-1.0588235E-2,-1E-2,1.0545454E-2,1.0909091E-2,-4.6153846E-3,-1.2307692E-2,8E-3,-7.826087E-3,4.1860463E-3,-1.1372549E-2,-2.3999999E-3,5E-3,-1.2E-2,1.0399999E-2,-1.4814815E-3,-1.3513514E-2,5.6E-3,1.5384615E-3,8.656716E-3,-1.1111111E-2,2.3999999E-3,-7.6923077E-3,1E-2,1.25E-3,-1.1304347E-2,-5E-3,1.2727272E-2,-1.3411765E-2,-0E0,7.2000003E-3,-1.7490494E-3,6.666667E-3,-1.4666666E-2,-1.1111111E-2,6.666667E-3,-2.2222223E-3,-1.5789473E-2,1.4666666E-2,2E-3,-1.2727272E-2,-0E0],"categories":[],"categories_nodes":[],"categories_segments":[],"categories_sizes":[],"default_left":[0,0,0,0,0,0,0,0,0,0,0,0,0,0,0,0,0,0,0,0,0,0,0,0,0,0,0,0,0,0,0,0,0,0,0,0,0,0,0,0,0,0,0,0,0,0,0,0,0,0,0,0,0,0,0,0,0,0,0,0,0,0,0,0,0,0,0,0,0,0,0,0,0,0,0,0,0,0,0,0,0,0,0,0,0,0,0,0,0,0,0,0,0,0,0,0,0,0,0,0,0,0,0,0,0,0,0,0,0,0,0,0,0,0,0,0,0,0,0,0,0,0,0,0,0,0,0,0,0,0,0,0,0,0,0,0,0],"id":0,"left_children":[1,3,5,7,9,11,13,15,17,19,21,23,25,27,29,31,33,35,37,39,41,43,45,-1,47,49,51,-1,-1,53,55,-1,-1,57,59,61,63,65,-1,-1,67,-1,-1,69,71,-1,-1,73,75,77,79,81,83,85,87,89,91,-1,-1,-1,93,-1,-1,95,97,-1,-1,99,101,103,105,107,-1,109,111,113,115,117,-1,119,-1,121,123,-1,125,-1,-1,-1,127,129,131,133,135,-1,-1,-1,-1,-1,-1,-1,-1,-1,-1,-1,-1,-1,-1,-1,-1,-1,-1,-1,-1,-1,-1,-1,-1,-1,-1,-1,-1,-1,-1,-1,-1,-1,-1,-1,-1,-1,-1,-1,-1,-1,-1,-1,-1],"loss_changes":[1.7621094E1,6.8445663E0,1.0007295E1,9.505295E0,7.9909434E0,9.260542E0,7.67912E0,4.212512E0,7.713484E0,5.548889E0,7.968459E0,9.583621E0,7.900275E0,3.7333336E0,7.608366E0,1.9676118E0,4.2456145E0,3.6382484E0,6.370767E0,6.381301E0,2.0309086E0,7.2571235E0,1.5873022E0,0E0,7.737409E0,5.9279537E0,1.3800266E1,0E0,0E0,3.2543488E0,7.0546203E0,0E0,0E0,3.287879E0,5.3166676E0,2.3272724E0,1.1049686E1,1.466064E0,0E0,0E0,6.9603605E0,0E0,0E0,6.3452992E0,7.2444916E0,0E0,0E0,6.0383E0,7.578349E0,4.5128365E0,6.796437E0,9.692127E0,7.975643E0,3.3459597E0,7.4607277E-1,2.9146795E0,7.861137E0,0E0,0E0,0E0,4.9500003E0,0E0,0E0,2.931373E0,7.0028706E0,0E0,0E0,4.6248593E0,6.9461546E0,5.4054604E0,2.6279745E0,2.9571433E0,0E0,5.976296E0,1.3265684E1,5.8737087E0,4.659146E0,4.8754582E0,0E0,5.100277E0,0E0,3.287879E0,6.055214E0,0E0,8.4105015E0,0E0,0E0,0E0,5.8666677E0,4.0522876E0,1.2865486E0,2.8150544E0,1.1878788E0,0E0,0E0,0E0,0E0,0E0,0E0,0E0,0E0,0E0,0E0,0E0,0E0,0E0,0E0,0E0,0E0,0E0,0E0,0E0,0E0,0E0,0E0,0E0,0E0,0E0,0E0,0E0,0E0,0E0,0E0,0E0,0E0,0E0,0E0,0E0,0E0,0E0,0E0,0E0,0E0,0E0,0E0,0E0,0E0],"parents":[2147483647,0,0,1,1,2,2,3,3,4,4,5,5,6,6,7,7,8,8,9,9,10,10,11,11,12,12,13,13,14,14,15,15,16,16,17,17,18,18,19,19,20,20,21,21,22,22,24,24,25,25,26,26,29,29,30,30,33,33,34,34,35,35,36,36,37,37,40,40,43,43,44,44,47,47,48,48,49,49,50,50,51,51,52,52,53,53,54,54,55,55,56,56,60,60,63,63,64,64,67,67,68,68,69,69,70,70,71,71,73,73,74,74,75,75,76,76,77,77,79,79,81,81,82,82,84,84,88,88,89,89,90,90,91,91,92,92],"right_children":[2,4,6,8,10,12,14,16,18,20,22,24,26,28,30,32,34,36,38,40,42,44,46,-1,48,50,52,-1,-1,54,56,-1,-1,58,60,62,64,66,-1,-1,68,-1,-1,70,72,-1,-1,74,76,78,80,82,84,86,88,90,92,-1,-1,-1,94,-1,-1,96,98,-1,-1,100,102,104,106,108,-1,110,112,114,116,118,-1,120,-1,122,124,-1,126,-1,-1,-1,128,130,132,134,136,-1,-1,-1,-1,-1,-1,-1,-1,-1,-1,-1,-1,-1,-1,-1,-1,-1,-1,-1,-1,-1,-1,-1,-1,-1,-1,-1,-1,-1,-1,-1,-1,-1,-1,-1,-1,-1,-1,-1,-1,-1,-1,-1,-1],"split_conditions":[-8.436533E-4,1E0,7.9857844E-1,5E0,3.4762612E-1,6.6573994E-4,3.5732168E-1,5.991186E-1,1E0,1E0,6.6550523E-1,-7.9372094E-4,3.6089543E-1,3.5824606E-1,1.6315038E-4,5.345079E-1,4.5005333E-1,2.924557E-1,1E0,2.6359463E-1,4.4138607E-1,7.777612E-1,8.355668E-1,-1.4285714E-2,8E0,1E0,4.532032E-1,1.3333334E-2,-4E-3,1E0,5.1401794E-1,-0E0,-1.3846154E-2,3.802098E-1,5.052935E-1,2E0,2.2639571E-1,4.8607466E-1,9.090909E-3,1.2941177E-2,1E0,1.5199999E-2,1.8181818E-3,1E0,4.3743473E-1,1.4285714E-2,-0E0,1E0,6.6274196E-1,1E0,4.0588912E-1,3.5897487E-1,4.0019208E-1,1E0,8.31714E-1,1E0,6.0422695E-1,5E-3,-1.2727272E-2,1.4666666E-2,1E0,-0E0,1.6E-2,1.6194806E-1,2.9900602E-1,-0E0,-1.3846154E-2,1E0,1E0,4.2659035E-1,1E0,3.7230256E-1,1.368421E-2,5.0432324E-1,1E0,3.888022E-1,6.882644E-1,1E0,1.47826085E-2,1E0,1.1428571E-2,1E0,7.177036E-1,-1.368421E-2,5.0911355E-1,-1.1111111E-2,5.4545454E-3,-1.7575758E-2,8.455612E-1,5.1344097E-1,2E0,1E0,7.909262E-1,8E-3,-1.2E-2,5E-3,-1.0588235E-2,-1E-2,1.0545454E-2,1.0909091E-2,-4.6153846E-3,-1.2307692E-2,8E-3,-7.826087E-3,4.1860463E-3,-1.1372549E-2,-2.3999999E-3,5E-3,-1.2E-2,1.0399999E-2,-1.4814815E-3,-1.3513514E-2,5.6E-3,1.5384615E-3,8.656716E-3,-1.1111111E-2,2.3999999E-3,-7.6923077E-3,1E-2,1.25E-3,-1.1304347E-2,-5E-3,1.2727272E-2,-1.3411765E-2,-0E0,7.2000003E-3,-1.7490494E-3,6.666667E-3,-1.4666666E-2,-1.1111111E-2,6.666667E-3,-2.2222223E-3,-1.5789473E-2,1.4666666E-2,2E-3,-1.2727272E-2,-0E0],"split_indices":[200,222,166,196,147,200,41,172,102,67,151,200,42,36,200,172,153,39,206,45,152,164,40,0,196,198,40,0,0,136,49,0,0,154,46,9,34,162,0,0,220,0,0,58,37,0,0,219,40,210,47,43,45,212,164,54,41,0,0,0,12,0,0,34,151,0,0,201,109,47,103,40,0,160,139,34,146,211,0,213,0,10,162,0,42,0,0,0,164,157,171,211,34,0,0,0,0,0,0,0,0,0,0,0,0,0,0,0,0,0,0,0,0,0,0,0,0,0,0,0,0,0,0,0,0,0,0,0,0,0,0,0,0,0,0,0,0],"split_type":[0,0,0,0,0,0,0,0,0,0,0,0,0,0,0,0,0,0,0,0,0,0,0,0,0,0,0,0,0,0,0,0,0,0,0,0,0,0,0,0,0,0,0,0,0,0,0,0,0,0,0,0,0,0,0,0,0,0,0,0,0,0,0,0,0,0,0,0,0,0,0,0,0,0,0,0,0,0,0,0,0,0,0,0,0,0,0,0,0,0,0,0,0,0,0,0,0,0,0,0,0,0,0,0,0,0,0,0,0,0,0,0,0,0,0,0,0,0,0,0,0,0,0,0,0,0,0,0,0,0,0,0,0,0,0,0,0],"sum_hessian":[3.835E2,1.2425E2,2.5925E2,5.9E1,6.525E1,2.2375E2,3.55E1,1.225E1,4.675E1,2.4E1,4.125E1,9.35E1,1.3025E2,3.5E0,3.2E1,3.75E0,8.5E0,4.175E1,5E0,1.7E1,7E0,3.775E1,3.5E0,2.5E0,9.1E1,2.325E1,1.07E2,2E0,1.5E0,1.425E1,1.775E1,1.5E0,2.25E0,2.75E0,5.75E0,1E1,3.175E1,3.25E0,1.75E0,3.25E0,1.375E1,5.25E0,1.75E0,3.15E1,6.25E0,2.5E0,1E0,3.125E1,5.975E1,9E0,1.425E1,2.7E1,8E1,3E0,1.125E1,8.25E0,9.5E0,1E0,1.75E0,2.75E0,3E0,1E0,9E0,4.25E0,2.75E1,1E0,2.25E0,6.75E0,7E0,1.45E1,1.7E1,2.5E0,3.75E0,1.775E1,1.35E1,5.1E1,8.75E0,4.25E0,4.75E0,1.175E1,2.5E0,2.75E0,2.425E1,3.75E0,7.625E1,1.25E0,1.75E0,7.25E0,4E0,3.25E0,5E0,6.75E0,2.75E0,1.5E0,1.5E0,1E0,3.25E0,1E0,2.65E1,4.5E0,2.25E0,5.5E0,1.5E0,4.75E0,9.75E0,1.175E1,5.25E0,1E0,1.5E0,5.25E0,1.25E1,8.25E0,5.25E0,1.85E1,3.25E1,3.5E0,5.25E0,2.25E0,2E0,7E0,4.75E0,1E0,1.75E0,2.025E1,4E0,1.15E1,6.475E1,1.25E0,2.75E0,1.25E0,2E0,1.25E0,3.75E0,2.75E0,4E0,1.75E0,1E0],"tree_param":{"num_deleted":"0","num_feature":"225","num_nodes":"137","size_leaf_vector":"0"}},{"base_weights":[3.085406E-2,3.3618394E-1,-1.1620837E-1,5.774408E-1,1.12614214E-1,-3.7474453E-2,-5.978424E-1,-1.8762152E-1,7.776426E-1,5.556961E-1,-1.522267E-1,1.9892581E-1,-2.0739706E-1,6.6208816E-1,-7.515371E-1,-9.408313E-1,2.087371E-1,9.15024E-1,-3.3080065E-1,2.2083564E-1,1.2396747E0,-2.9408902E-1,1.1032059E0,-1.4184194E-2,2.582916E-1,3.0695438E-1,-3.2096633E-1,1.3244838E-2,-3.9760084E-3,-1.2680142E0,-2.9139563E-1,-0E0,-1.3750755E-2,-6.655396E-1,6.635224E-1,1.4415302E0,7.1024644E-1,-1.0515201E0,9.033177E-3,1.2842627E-2,-1.005459E-1,1.5073054E-2,1.8066126E-3,-4.8792806E-1,6.1542475E-1,1.4184191E-2,-0E0,3.7649387E-1,-4.271524E-1,8.9273983E-1,-9.7288445E-2,-9.1952133E-1,-1.1010222E-1,-2.4891742E-1,-1.4972783E0,-9.1218674E-1,2.8323844E-1,-1.19644785E-2,2.2016761E-3,-1.3129815E-1,1.2427841E-2,-0E0,1.5856916E-2,-6.610767E-1,9.379391E-1,-0E0,-1.3750755E-2,5.756618E-1,-7.430601E-1,-2.3490943E-4,-8.807843E-1,-5.6772417E-1,1.357668E-2,-3.6261752E-2,5.7390404E-1,-9.1608715E-1,4.3367615E-1,9.472675E-2,1.4661157E-2,-4.282523E-1,1.1361693E-2,6.620742E-1,-1.1179974E0,9.800421E-2,-5.7346684E-1,-1.1049573E-2,5.41986E-3,-1.7422492E-2,-7.936258E-1,-1.1751808E-1,-1.323054E0,8.324896E-1,-9.2741156E-1,6.6479286E-3,-7.952682E-3,-9.940255E-3,2.246429E-3,4.177337E-3,1.4288281E-2,1.08201E-2,-4.583449E-3,-1.2203941E-2,7.952075E-3,-7.761535E-3,4.1480954E-3,-1.126808E-2,-2.3798435E-3,2.2322442E-3,-1.106352E-2,4.8910202E-3,-6.873394E-3,1.4885484E-3,8.036784E-3,-1.3798755E-2,1.3209103E-3,-1.1754626E-3,1.197284E-2,-7.6391315E-3,9.933499E-3,-8.078625E-3,4.4723074E-3,-2.2338629E-3,1.1941613E-2,-1.328453E-2,-0E0,-1.3751865E-2,1.8405414E-3,-8.632029E-3,4.999673E-3,6.62967E-3,-1.4559686E-2,6.651922E-3,-1.1089032E-2,-2.2098788E-3,-1.5665593E-2,1.4559687E-2,1.9840028E-3,-1.2646608E-2,-0E0],"categories":[],"categories_nodes":[],"categories_segments":[],"categories_sizes":[],"default_left":[0,0,0,0,0,0,0,0,0,0,0,0,0,0,0,0,0,0,0,0,0,0,0,0,0,0,0,0,0,0,0,0,0,0,0,0,0,0,0,0,0,0,0,0,0,0,0,0,0,0,0,0,0,0,0,0,0,0,0,0,0,0,0,0,0,0,0,0,0,0,0,0,0,0,0,0,0,0,0,0,0,0,0,0,0,0,0,0,0,0,0,0,0,0,0,0,0,0,0,0,0,0,0,0,0,0,0,0,0,0,0,0,0,0,0,0,0,0,0,0,0,0,0,0,0,0,0,0,0,0,0,0,0,0,0,0,0,0,0],"id":1,"left_children":[1,3,5,7,9,11,13,15,17,19,21,23,25,27,29,31,33,35,37,39,41,43,45,-1,47,49,51,-1,-1,53,55,-1,-1,57,59,61,63,65,-1,-1,67,-1,-1,69,71,-1,-1,73,75,77,79,81,83,85,87,89,91,-1,-1,93,-1,-1,-1,95,97,-1,-1,99,101,103,105,107,-1,109,111,113,115,117,-1,119,-1,121,123,125,127,-1,-1,-1,129,131,133,135,137,-1,-1,-1,-1,-1,-1,-1,-1,-1,-1,-1,-1,-1,-1,-1,-1,-1,-1,-1,-1,-1,-1,-1,-1,-1,-1,-1,-1,-1,-1,-1,-1,-1,-1,-1,-1,-1,-1,-1,-1,-1,-1,-1,-1,-1,-1],"loss_changes":[1.730372E1,6.6904745E0,9.84634E0,9.335611E0,7.8585815E0,9.069272E0,7.565344E0,4.1519346E0,7.5737953E0,5.451984E0,7.848952E0,9.439644E0,7.765315E0,3.6852498E0,7.4727325E0,1.9405713E0,4.2187586E0,3.585167E0,6.286448E0,6.280737E0,1.9949989E0,7.13175E0,1.5648084E0,0E0,7.61465E0,5.829106E0,1.35296755E1,0E0,0E0,3.1901665E0,6.946826E0,0E0,0E0,2.0267305E0,3.2708447E0,2.2858238E0,1.084565E1,1.44592E0,0E0,0E0,6.8360643E0,0E0,0E0,6.226478E0,7.1374106E0,0E0,0E0,6.4578085E0,6.289679E0,4.4365783E0,6.711978E0,9.529335E0,7.8669276E0,3.3070166E0,7.287674E-1,2.8645763E0,7.753898E0,0E0,0E0,2.5108185E0,0E0,0E0,0E0,1.7714939E0,6.680788E0,0E0,0E0,4.553506E0,6.8444376E0,5.31355E0,2.5783682E0,1.7380335E0,0E0,9.400396E0,5.1054077E0,4.678947E0,2.561005E0,4.8096356E0,0E0,4.59861E0,0E0,2.0335064E0,5.94083E0,7.4471607E0,8.284599E0,0E0,0E0,0E0,5.788922E0,4.035448E0,1.2638998E0,2.774972E0,1.1728613E0,0E0,0E0,0E0,0E0,0E0,0E0,0E0,0E0,0E0,0E0,0E0,0E0,0E0,0E0,0E0,0E0,0E0,0E0,0E0,0E0,0E0,0E0,0E0,0E0,0E0,0E0,0E0,0E0,0E0,0E0,0E0,0E0,0E0,0E0,0E0,0E0,0E0,0E0,0E0,0E0,0E0,0E0,0E0,0E0,0E0,0E0],"parents":[2147483647,0,0,1,1,2,2,3,3,4,4,5,5,6,6,7,7,8,8,9,9,10,10,11,11,12,12,13,13,14,14,15,15,16,16,17,17,18,18,19,19,20,20,21,21,22,22,24,24,25,25,26,26,29,29,30,30,33,33,34,34,35,35,36,36,37,37,40,40,43,43,44,44,47,47,48,48,49,49,50,50,51,51,52,52,53,53,54,54,55,55,56,56,59,59,63,63,64,64,67,67,68,68,69,69,70,70,71,71,73,73,74,74,75,75,76,76,77,77,79,79,81,81,82,82,83,83,84,84,88,88,89,89,90,90,91,91,92,92],"right_children":[2,4,6,8,10,12,14,16,18,20,22,24,26,28,30,32,34,36,38,40,42,44,46,-1,48,50,52,-1,-1,54,56,-1,-1,58,60,62,64,66,-1,-1,68,-1,-1,70,72,-1,-1,74,76,78,80,82,84,86,88,90,92,-1,-1,94,-1,-1,-1,96,98,-1,-1,100,102,104,106,108,-1,110,112,114,116,118,-1,120,-1,122,124,126,128,-1,-1,-1,130,132,134,136,138,-1,-1,-1,-1,-1,-1,-1,-1,-1,-1,-1,-1,-1,-1,-1,-1,-1,-1,-1,-1,-1,-1,-1,-1,-1,-1,-1,-1,-1,-1,-1,-1,-1,-1,-1,-1,-1,-1,-1,-1,-1,-1,-1,-1,-1,-1],"split_conditions":[-8.436533E-4,1E0,7.9857844E-1,5E0,3.4762612E-1,6.6573994E-4,3.5732168E-1,5.991186E-1,1E0,1E0,6.6550523E-1,-7.9372094E-4,3.6089543E-1,3.5824606E-1,1.6315038E-4,5.345079E-1,1E0,2.924557E-1,1E0,2.6359463E-1,4.4138607E-1,7.777612E-1,8.355668E-1,-1.4184194E-2,6.9064176E-1,1E0,4.532032E-1,1.3244838E-2,-3.9760084E-3,1E0,5.1401794E-1,-0E0,-1.3750755E-2,6.74479E-1,4.7157484E-1,2E0,2.2639571E-1,4.8607466E-1,9.033177E-3,1.2842627E-2,1E0,1.5073054E-2,1.8066126E-3,1E0,4.3743473E-1,1.4184191E-2,-0E0,8E0,6.8073195E-1,1E0,4.194534E-1,3.5897487E-1,1.2E1,1E0,8.31714E-1,1E0,6.0422695E-1,-1.19644785E-2,2.2016761E-3,4.1620022E-1,1.2427841E-2,-0E0,1.5856916E-2,3.7050906E-1,1E0,-0E0,-1.3750755E-2,1E0,1E0,4.2659035E-1,1E0,3.9663666E-1,1.357668E-2,1E0,3.888022E-1,8.313715E-1,1E0,1E0,1.4661157E-2,3.1239504E-1,1.1361693E-2,3.2187614E-1,7.177036E-1,4.0019208E-1,2.2261897E-1,-1.1049573E-2,5.41986E-3,-1.7422492E-2,8.455612E-1,1E0,2E0,1E0,7.909262E-1,6.6479286E-3,-7.952682E-3,-9.940255E-3,2.246429E-3,4.177337E-3,1.4288281E-2,1.08201E-2,-4.583449E-3,-1.2203941E-2,7.952075E-3,-7.761535E-3,4.1480954E-3,-1.126808E-2,-2.3798435E-3,2.2322442E-3,-1.106352E-2,4.8910202E-3,-6.873394E-3,1.4885484E-3,8.036784E-3,-1.3798755E-2,1.3209103E-3,-1.1754626E-3,1.197284E-2,-7.6391315E-3,9.933499E-3,-8.078625E-3,4.4723074E-3,-2.2338629E-3,1.1941613E-2,-1.328453E-2,-0E0,-1.3751865E-2,1.8405414E-3,-8.632029E-3,4.999673E-3,6.62967E-3,-1.4559686E-2,6.651922E-3,-1.1089032E-2,-2.2098788E-3,-1.5665593E-2,1.4559687E-2,1.9840028E-3,-1.2646608E-2,-0E0],"split_indices":[200,222,166,196,147,200,41,172,102,67,151,200,42,36,200,172,201,39,206,45,152,164,40,0,40,198,40,0,0,136,49,0,0,164,160,9,34,162,0,0,220,0,0,58,37,0,0,196,158,210,48,43,194,212,164,54,41,0,0,160,0,0,0,38,127,0,0,201,109,47,103,41,0,219,34,34,219,211,0,42,0,34,162,45,224,0,0,0,164,214,171,211,34,0,0,0,0,0,0,0,0,0,0,0,0,0,0,0,0,0,0,0,0,0,0,0,0,0,0,0,0,0,0,0,0,0,0,0,0,0,0,0,0,0,0,0,0,0,0],"split_type":[0,0,0,0,0,0,0,0,0,0,0,0,0,0,0,0,0,0,0,0,0,0,0,0,0,0,0,0,0,0,0,0,0,0,0,0,0,0,0,0,0,0,0,0,0,0,0,0,0,0,0,0,0,0,0,0,0,0,0,0,0,0,0,0,0,0,0,0,0,0,0,0,0,0,0,0,0,0,0,0,0,0,0,0,0,0,0,0,0,0,0,0,0,0,0,0,0,0,0,0,0,0,0,0,0,0,0,0,0,0,0,0,0,0,0,0,0,0,0,0,0,0,0,0,0,0,0,0,0,0,0,0,0,0,0,0,0,0,0],"sum_hessian":[3.8349158E2,1.2424633E2,2.5924524E2,5.8998013E1,6.5248314E1,2.2374663E2,3.549861E1,1.2249589E1,4.674842E1,2.3999182E1,4.1249134E1,9.349857E1,1.3024806E2,3.499905E0,3.1998707E1,3.7498922E0,8.499697E0,4.1748566E1,4.999856E0,1.6999487E1,6.9996953E0,3.774926E1,3.4998724E0,2.4998724E0,9.0998695E1,2.3249422E1,1.0699864E2,1.9999111E0,1.499994E0,1.4249227E1,1.7749481E1,1.5E0,2.2498922E0,2.7498968E0,5.7498E0,9.999424E0,3.1749142E1,3.2498922E0,1.7499638E0,3.249864E0,1.3749622E1,5.2496967E0,1.7499986E0,3.1499496E1,6.2497644E0,2.4998724E0,1E0,7.7998825E1,1.2999875E1,8.999658E0,1.42497635E1,2.6999012E1,7.9999626E1,2.9999483E0,1.1249278E1,8.249703E0,9.499777E0,1.4999573E0,1.2499394E0,2.7499099E0,2.9998903E0,1E0,8.999424E0,4.2499027E0,2.7499239E1,1E0,2.2498922E0,6.749854E0,6.9997683E0,1.4499885E1,1.6999613E1,2.4999397E0,3.7498245E0,2.5499481E1,5.249934E1,8.249895E0,4.7499804E0,4.249917E0,4.7497406E0,1.1749829E1,2.4999344E0,2.749923E0,2.424909E1,5.574977E1,2.4249859E1,1.2499614E0,1.749987E0,7.2494397E0,3.9998384E0,3.2499392E0,4.9997644E0,6.749848E0,2.7499292E0,1.2499717E0,1.4999382E0,2.999927E0,1.2499759E0,1.4249607E1,1.3249632E1,4.499866E0,2.249988E0,5.499792E0,1.499976E0,4.749927E0,9.749957E0,1.174962E1,5.2499924E0,1.2499774E0,1.2499624E0,1.4249854E1,1.1249628E1,1.8999973E1,3.3499367E1,5.4998984E0,2.7499967E0,3.2499893E0,1.4999914E0,2.2499669E0,1.99995E0,8.249902E0,3.4999273E0,1.2499751E0,1.4999479E0,2.024909E1,4E0,2.2498946E0,5.3499878E1,1.9249874E1,4.9999843E0,1.2499862E0,2.7498524E0,1.9999679E0,1.2499713E0,1.2499983E0,3.749766E0,2.7498522E0,3.999996E0,1.7499292E0,1E0],"tree_param":{"num_deleted":"0","num_feature":"225","num_nodes":"139","size_leaf_vector":"0"}},{"base_weights":[3.0547395E-2,3.3319163E-1,-1.15216576E-1,5.718746E-1,1.1200032E-1,6.230442E-1,-1.6532081E-1,-1.8669213E-1,7.7039546E-1,5.5146134E-1,-1.5067375E-1,-3.9764422E-1,9.744533E-1,-6.853483E-2,-5.8714753E-1,-9.343813E-1,2.0680416E-1,9.0658003E-1,-3.283025E-1,2.1946974E-1,1.2295275E0,-2.9148698E-1,1.0954188E0,-9.295045E-1,6.6552917E-3,3.4269583E-1,1.5291649E-2,-2.945394E-1,1.3771935E-1,-6.9912654E-1,5.2063406E-1,-0E0,-1.36569105E-2,-6.615079E-1,6.58574E-1,1.4287795E0,7.0352036E-1,-1.0443196E0,8.976046E-3,1.27456365E-2,-9.941349E-2,1.4948602E-2,1.7951179E-3,-4.8360217E-1,6.0997754E-1,1.4084408E-2,-0E0,-1.1952062E-2,-2.2112818E-3,-3.146471E-1,1.13694E-2,-3.94205E-1,9.30735E-1,4.7249684E-1,-5.650692E-2,4.4522583E-1,-8.1548184E-1,1.3768281E-2,-8.006482E-3,-1.1919805E-2,2.2193708E-3,-1.3033652E-1,1.2335551E-2,-0E0,1.5716901E-2,-6.559553E-1,9.292735E-1,-0E0,-1.36569105E-2,5.7074195E-1,-7.3622483E-1,-4.6567986E-4,-8.727905E-1,-5.645858E-1,1.3470982E-2,9.062368E-3,-1.3288783E-2,-9.593184E-1,-2.71755E-1,1.3544962E0,-6.6010025E-3,1.2809222E0,1.3679577E-1,-2.099696E-1,8.739912E-1,1.0720232E-2,-6.580711E-3,-1.04427E0,-2.1063289E-1,6.6265594E-3,-7.918993E-3,-9.866185E-3,2.2339441E-3,4.1383947E-3,1.4157095E-2,1.073235E-2,-4.551768E-3,-1.2101835E-2,7.904591E-3,-7.697708E-3,4.110522E-3,-1.1165227E-2,-2.3598608E-3,-1.1031813E-2,2.2494413E-3,-5.4108626E-3,-1.62137E-2,2.9390857E-3,-5.019278E-3,1.5946606E-2,2.187667E-3,1.5466771E-2,1.5086577E-3,-5.404244E-3,5.320751E-3,-4.862727E-3,2.7366113E-3,1.3114534E-2,-2.8189383E-3,-3.7845462E-3,-1.5353374E-2,9.904923E-3,-7.3567317E-3],"categories":[],"categories_nodes":[],"categories_segments":[],"categories_sizes":[],"default_left":[0,0,0,0,0,0,0,0,0,0,0,0,0,0,0,0,0,0,0,0,0,0,0,0,0,0,0,0,0,0,0,0,0,0,0,0,0,0,0,0,0,0,0,0,0,0,0,0,0,0,0,0,0,0,0,0,0,0,0,0,0,0,0,0,0,0,0,0,0,0,0,0,0,0,0,0,0,0,0,0,0,0,0,0,0,0,0,0,0,0,0,0,0,0,0,0,0,0,0,0,0,0,0,0,0,0,0,0,0,0,0,0,0,0,0,0,0,0,0,0,0,0,0],"id":2,"left_children":[1,3,5,7,9,11,13,15,17,19,21,23,25,27,29,31,33,35,37,39,41,43,45,47,-1,49,-1,51,53,55,57,-1,-1,59,61,63,65,67,-1,-1,69,-1,-1,71,73,-1,-1,-1,-1,75,-1,77,79,81,83,85,87,-1,-1,-1,-1,89,-1,-1,-1,91,93,-1,-1,95,97,99,101,103,-1,-1,-1,105,107,109,-1,111,113,115,117,-1,-1,119,121,-1,-1,-1,-1,-1,-1,-1,-1,-1,-1,-1,-1,-1,-1,-1,-1,-1,-1,-1,-1,-1,-1,-1,-1,-1,-1,-1,-1,-1,-1,-1,-1,-1,-1],"loss_changes":[1.6999102E1,6.5477476E0,9.729013E0,9.178225E0,7.7298985E0,6.3948956E0,9.941294E0,4.091191E0,7.441374E0,5.3572316E0,7.732163E0,3.4457498E0,3.943757E0,9.362953E0,6.0075226E0,1.9141145E0,4.1619663E0,3.5273666E0,6.203507E0,6.182154E0,1.9601469E0,7.005415E0,1.5428324E0,4.414866E-1,0E0,4.142574E0,0E0,1.2059E1,6.8700027E0,5.921467E0,6.4756384E0,0E0,0E0,2.0218554E0,3.222366E0,2.2455978E0,1.0659792E1,1.426218E0,0E0,0E0,6.7143025E0,0E0,0E0,6.1102295E0,7.0368266E0,0E0,0E0,0E0,0E0,7.0857387E0,0E0,5.914876E0,5.9499016E0,1.0340574E1,9.821862E0,3.817159E0,5.07251E0,0E0,0E0,0E0,0E0,2.4919615E0,0E0,0E0,0E0,1.7468569E0,6.5591145E0,0E0,0E0,4.483471E0,6.7446156E0,5.223305E0,2.5300522E0,1.7364177E0,0E0,0E0,0E0,3.4141264E0,9.879505E0,1.355855E0,0E0,3.1451187E0,7.9163256E0,7.983403E0,5.2996607E0,0E0,0E0,8.409157E0,8.138006E0,0E0,0E0,0E0,0E0,0E0,0E0,0E0,0E0,0E0,0E0,0E0,0E0,0E0,0E0,0E0,0E0,0E0,0E0,0E0,0E0,0E0,0E0,0E0,0E0,0E0,0E0,0E0,0E0,0E0,0E0,0E0,0E0,0E0,0E0],"parents":[2147483647,0,0,1,1,2,2,3,3,4,4,5,5,6,6,7,7,8,8,9,9,10,10,11,11,12,12,13,13,14,14,15,15,16,16,17,17,18,18,19,19,20,20,21,21,22,22,23,23,25,25,27,27,28,28,29,29,30,30,33,33,34,34,35,35,36,36,37,37,40,40,43,43,44,44,49,49,51,51,52,52,53,53,54,54,55,55,56,56,61,61,65,65,66,66,69,69,70,70,71,71,72,72,73,73,77,77,78,78,79,79,81,81,82,82,83,83,84,84,87,87,88,88],"right_children":[2,4,6,8,10,12,14,16,18,20,22,24,26,28,30,32,34,36,38,40,42,44,46,48,-1,50,-1,52,54,56,58,-1,-1,60,62,64,66,68,-1,-1,70,-1,-1,72,74,-1,-1,-1,-1,76,-1,78,80,82,84,86,88,-1,-1,-1,-1,90,-1,-1,-1,92,94,-1,-1,96,98,100,102,104,-1,-1,-1,106,108,110,-1,112,114,116,118,-1,-1,120,122,-1,-1,-1,-1,-1,-1,-1,-1,-1,-1,-1,-1,-1,-1,-1,-1,-1,-1,-1,-1,-1,-1,-1,-1,-1,-1,-1,-1,-1,-1,-1,-1,-1,-1],"split_conditions":[-8.436533E-4,1E0,2.4084872E-1,5E0,3.4762612E-1,8.181154E-2,7.7131486E-1,5.991186E-1,1E0,1E0,6.6550523E-1,3.3704263E-1,1E0,1E0,7.4559915E-1,5.345079E-1,1E0,2.924557E-1,1E0,2.6359463E-1,4.4138607E-1,7.777612E-1,8.355668E-1,7.626464E-1,6.6552917E-3,5.978321E-1,1.5291649E-2,7.5378096E-1,4.2793457E-4,2.0675872E-1,6.440324E-1,-0E0,-1.36569105E-2,1E0,4.7157484E-1,2E0,2.2639571E-1,4.8607466E-1,8.976046E-3,1.27456365E-2,1E0,1.4948602E-2,1.7951179E-3,1E0,4.3743473E-1,1.4084408E-2,-0E0,-1.1952062E-2,-2.2112818E-3,3.7258506E-1,1.13694E-2,3.3273983E-1,1.981031E0,5.8218724E-1,8.0074793E-1,1.1E1,5.6580085E-1,1.3768281E-2,-8.006482E-3,-1.1919805E-2,2.2193708E-3,7.1596056E-1,1.2335551E-2,-0E0,1.5716901E-2,3.7050906E-1,1E0,-0E0,-1.36569105E-2,1E0,1E0,4.2659035E-1,1E0,4E0,1.3470982E-2,9.062368E-3,-1.3288783E-2,3.89373E-1,1E0,7.669196E-1,-6.6010025E-3,7.134376E-1,8E0,6.2549317E-1,6.7258066E-1,1.0720232E-2,-6.580711E-3,1.4857072E0,5.3911066E-1,6.6265594E-3,-7.918993E-3,-9.866185E-3,2.2339441E-3,4.1383947E-3,1.4157095E-2,1.073235E-2,-4.551768E-3,-1.2101835E-2,7.904591E-3,-7.697708E-3,4.110522E-3,-1.1165227E-2,-2.3598608E-3,-1.1031813E-2,2.2494413E-3,-5.4108626E-3,-1.62137E-2,2.9390857E-3,-5.019278E-3,1.5946606E-2,2.187667E-3,1.5466771E-2,1.5086577E-3,-5.404244E-3,5.320751E-3,-4.862727E-3,2.7366113E-3,1.3114534E-2,-2.8189383E-3,-3.7845462E-3,-1.5353374E-2,9.904923E-3,-7.3567317E-3],"split_indices":[200,222,39,196,147,224,164,172,102,67,151,44,217,202,37,172,201,39,206,45,152,164,40,190,0,166,0,164,200,34,146,0,0,219,160,9,34,162,0,0,220,0,0,58,37,0,0,0,0,162,0,38,223,166,172,194,147,0,0,0,0,174,0,0,0,38,127,0,0,201,109,47,103,195,0,0,0,42,105,164,0,47,196,48,38,0,0,223,153,0,0,0,0,0,0,0,0,0,0,0,0,0,0,0,0,0,0,0,0,0,0,0,0,0,0,0,0,0,0,0,0,0,0],"split_type":[0,0,0,0,0,0,0,0,0,0,0,0,0,0,0,0,0,0,0,0,0,0,0,0,0,0,0,0,0,0,0,0,0,0,0,0,0,0,0,0,0,0,0,0,0,0,0,0,0,0,0,0,0,0,0,0,0,0,0,0,0,0,0,0,0,0,0,0,0,0,0,0,0,0,0,0,0,0,0,0,0,0,0,0,0,0,0,0,0,0,0,0,0,0,0,0,0,0,0,0,0,0,0,0,0,0,0,0,0,0,0,0,0,0,0,0,0,0,0,0,0,0,0],"sum_hessian":[3.8346912E2,1.24236244E2,2.5923288E2,5.899285E1,6.52434E1,1.5748698E1,2.4348418E2,1.224876E1,4.674409E1,2.3996752E1,4.1246647E1,3.9997158E0,1.1748982E1,1.9898952E2,4.4494656E1,3.7495716E0,8.499188E0,4.1744663E1,4.999428E0,1.699796E1,6.9987917E0,3.7747154E1,3.4994936E0,2.749823E0,1.2498927E0,6.2493873E0,5.499595E0,9.474449E1,1.04245026E2,4.0744892E1,3.7497633E0,1.5E0,2.2495716E0,2.749783E0,5.7494054E0,9.997717E0,3.1746944E1,3.2495716E0,1.7498562E0,3.24946E0,1.3748499E1,5.2487974E0,1.7499943E0,3.1498007E1,6.2491465E0,2.4994936E0,1E0,1.4999614E0,1.2498618E0,3.749783E0,2.4996042E0,8.8244804E1,6.499689E0,3.7748035E1,6.6496994E1,3.4996316E0,3.724526E1,2.2498293E0,1.499934E0,1.4999081E0,1.2498748E0,2.749811E0,2.9995942E0,1E0,8.997717E0,4.249714E0,2.749723E1,1E0,2.2495716E0,6.749421E0,6.9990783E0,1.4499542E1,1.6998465E1,2.4998431E0,3.7493033E0,1.7498612E0,1.9999219E0,1.44986E1,7.37462E1,5.2498226E0,1.2498666E0,1.0249597E1,2.7498438E1,5.774734E1,8.74965E0,2.2498236E0,1.2498081E0,2.6496344E1,1.0748917E1,1.2499213E0,1.4998897E0,2.9997337E0,1.2499804E0,1.4249273E1,1.3247957E1,4.499469E0,2.2499523E0,5.4991736E0,1.4999046E0,4.749711E0,9.749831E0,1.1748494E1,5.24997E0,1.2499193E0,1.2499237E0,9.999188E0,4.499412E0,2.1248882E1,5.2497322E1,3.9999068E0,1.2499158E0,7.9996495E0,2.249947E0,9.999463E0,1.7498976E1,3.67476E1,2.0999739E1,6.2497497E0,2.4999008E0,1.1998635E1,1.4497708E1,2.9998064E0,7.74911E0],"tree_param":{"num_deleted":"0","num_feature":"225","num_nodes":"123","size_leaf_vector":"0"}},{"base_weights":[3.040971E-2,3.3024374E-1,-1.1398773E-1,6.7757714E-1,1.7977294E-1,6.177566E-1,-1.636482E-1,8.1300116E-1,-1.6884696E-1,-6.393866E-1,3.193104E-1,-3.9518172E-1,9.665628E-1,-6.778673E-2,-5.814714E-1,5.1255316E-1,1.461499E0,-8.839812E-1,1.1858434E-2,1.760112E-1,-1.0788767E0,1.35119045E-2,2.4754554E-1,-9.2401874E-1,6.6183857E-3,3.402754E-1,1.5164105E-2,-2.9172847E-1,1.3658386E-1,-6.924913E-1,5.166738E-1,1.407486E-1,9.131575E-1,1.6216941E-2,2.0674195E-3,-1.3689662E-2,2.095533E-3,-6.633073E-1,1.2565789E-2,-6.35392E-7,-1.3984908E0,-1.1895801E-2,2.9450217E-1,-2.1924379E-3,-1.188679E-2,-3.1240702E-1,1.1288845E-2,-3.905368E-1,9.2303246E-1,4.6823063E-1,-5.5821467E-2,4.4171616E-1,-8.0782944E-1,1.3686292E-2,-7.974561E-3,7.638976E-1,-9.044789E-1,1.1556376E0,-3.976517E-3,2.2860281E-3,-1.2006238E-2,-5.432725E-3,-1.5891485E-2,5.8122957E-1,3.902217E-2,9.0049375E-3,-1.3200978E-2,-9.5119315E-1,-2.6906773E-1,1.3439561E0,-6.5645156E-3,1.2697477E0,1.3542852E-1,-2.0790814E-1,8.663289E-1,1.0646514E-2,-6.54438E-3,-1.0346228E0,-2.083203E-1,1.1816478E-2,-1.3609425E-3,2.1720713E-3,-1.2854821E-2,3.7603348E-3,1.4081243E-2,7.65441E-3,-3.0173168E-3,4.9422337E-3,-3.3948403E-3,-5.361774E-3,-1.60839E-2,2.9110145E-3,-4.970088E-3,1.5820522E-2,2.1755227E-3,1.5331171E-2,1.498217E-3,-5.355224E-3,5.270574E-3,-4.8154606E-3,2.7104907E-3,1.300187E-2,-2.7988215E-3,-3.7496686E-3,-1.5212147E-2,9.831287E-3,-7.291856E-3],"categories":[],"categories_nodes":[],"categories_segments":[],"categories_sizes":[],"default_left":[0,0,0,0,0,0,0,0,0,0,0,0,0,0,0,0,0,0,0,0,0,0,0,0,0,0,0,0,0,0,0,0,0,0,0,0,0,0,0,0,0,0,0,0,0,0,0,0,0,0,0,0,0,0,0,0,0,0,0,0,0,0,0,0,0,0,0,0,0,0,0,0,0,0,0,0,0,0,0,0,0,0,0,0,0,0,0,0,0,0,0,0,0,0,0,0,0,0,0,0,0,0,0,0,0,0,0],"id":3,"left_children":[1,3,5,7,9,11,13,15,17,19,21,23,25,27,29,31,33,35,-1,37,39,-1,41,43,-1,45,-1,47,49,51,53,55,57,-1,-1,-1,-1,59,-1,-1,61,-1,63,-1,-1,65,-1,67,69,71,73,75,77,-1,-1,79,81,83,-1,-1,-1,-1,-1,85,87,-1,-1,89,91,93,-1,95,97,99,101,-1,-1,103,105,-1,-1,-1,-1,-1,-1,-1,-1,-1,-1,-1,-1,-1,-1,-1,-1,-1,-1,-1,-1,-1,-1,-1,-1,-1,-1,-1,-1],"loss_changes":[1.6682167E1,6.4226036E0,9.557264E0,4.434475E0,1.0346382E1,6.2991133E0,9.752588E0,5.5812626E0,6.859796E0,4.9373426E0,5.3292875E0,3.4062648E0,3.8738527E0,9.192553E0,5.903858E0,3.4079762E0,1.6238594E0,2.6729562E0,0E0,5.8211217E0,3.0163727E0,0E0,5.2586055E0,4.3880486E-1,0E0,4.0837812E0,0E0,1.1852256E1,6.741714E0,5.817333E0,6.408827E0,9.481694E0,4.034298E0,0E0,0E0,0E0,0E0,2.0714774E0,0E0,0E0,2.3708439E-1,0E0,5.1954417E0,0E0,0E0,6.9937577E0,0E0,5.821722E0,5.867994E0,1.0163446E1,9.646237E0,3.7690892E0,4.9840336E0,0E0,0E0,3.5436816E0,2.62927E0,1.389122E0,0E0,0E0,0E0,0E0,0E0,5.678563E0,6.842832E0,0E0,0E0,3.3644953E0,9.688603E0,1.3318472E0,0E0,3.0880947E0,7.7704067E0,7.8299236E0,5.212213E0,0E0,0E0,8.254616E0,8.007706E0,0E0,0E0,0E0,0E0,0E0,0E0,0E0,0E0,0E0,0E0,0E0,0E0,0E0,0E0,0E0,0E0,0E0,0E0,0E0,0E0,0E0,0E0,0E0,0E0,0E0,0E0,0E0,0E0],"parents":[2147483647,0,0,1,1,2,2,3,3,4,4,5,5,6,6,7,7,8,8,9,9,10,10,11,11,12,12,13,13,14,14,15,15,16,16,17,17,19,19,20,20,22,22,23,23,25,25,27,27,28,28,29,29,30,30,31,31,32,32,37,37,40,40,42,42,45,45,47,47,48,48,49,49,50,50,51,51,52,52,55,55,56,56,57,57,63,63,64,64,67,67,68,68,69,69,71,71,72,72,73,73,74,74,77,77,78,78],"right_children":[2,4,6,8,10,12,14,16,18,20,22,24,26,28,30,32,34,36,-1,38,40,-1,42,44,-1,46,-1,48,50,52,54,56,58,-1,-1,-1,-1,60,-1,-1,62,-1,64,-1,-1,66,-1,68,70,72,74,76,78,-1,-1,80,82,84,-1,-1,-1,-1,-1,86,88,-1,-1,90,92,94,-1,96,98,100,102,-1,-1,104,106,-1,-1,-1,-1,-1,-1,-1,-1,-1,-1,-1,-1,-1,-1,-1,-1,-1,-1,-1,-1,-1,-1,-1,-1,-1,-1,-1,-1],"split_conditions":[-8.436533E-4,3.45352E-1,2.4084872E-1,8.306599E-1,3.9651182E-1,8.181154E-2,7.7131486E-1,7.566564E-1,9.888451E-1,6.876022E-1,3.5248554E-1,3.3704263E-1,1E0,1E0,7.4559915E-1,3.157526E-1,-1.3676436E-3,1E0,1.1858434E-2,5.565949E-1,8.8691175E-2,1.35119045E-2,3.331327E-1,1.8415825E-1,6.6183857E-3,5.978321E-1,1.5164105E-2,7.5378096E-1,4.2793457E-4,2.0675872E-1,7.3334503E-1,3.375803E-1,4.1407162E-1,1.6216941E-2,2.0674195E-3,-1.3689662E-2,2.095533E-3,3.3862084E-1,1.2565789E-2,-6.35392E-7,3.398894E-1,-1.1895801E-2,1E0,-2.1924379E-3,-1.188679E-2,3.7258506E-1,1.1288845E-2,3.3273983E-1,1.981031E0,5.8218724E-1,8.0074793E-1,1.1E1,5.6580085E-1,1.3686292E-2,-7.974561E-3,1E0,2.8097737E-1,3.560293E-1,-3.976517E-3,2.2860281E-3,-1.2006238E-2,-5.432725E-3,-1.5891485E-2,1E0,1E0,9.0049375E-3,-1.3200978E-2,3.89373E-1,1E0,7.669196E-1,-6.5645156E-3,7.134376E-1,8E0,6.2549317E-1,6.7258066E-1,1.0646514E-2,-6.54438E-3,1.4857072E0,5.3911066E-1,1.1816478E-2,-1.3609425E-3,2.1720713E-3,-1.2854821E-2,3.7603348E-3,1.4081243E-2,7.65441E-3,-3.0173168E-3,4.9422337E-3,-3.3948403E-3,-5.361774E-3,-1.60839E-2,2.9110145E-3,-4.970088E-3,1.5820522E-2,2.1755227E-3,1.5331171E-2,1.498217E-3,-5.355224E-3,5.270574E-3,-4.8154606E-3,2.7104907E-3,1.300187E-2,-2.7988215E-3,-3.7496686E-3,-1.5212147E-2,9.831287E-3,-7.291856E-3],"split_indices":[200,38,39,178,38,224,164,174,223,170,43,44,217,202,37,44,200,219,0,166,224,0,42,42,0,166,0,164,200,34,39,157,146,0,0,0,0,34,0,0,43,0,222,0,0,162,0,38,223,166,172,194,147,0,0,201,48,45,0,0,0,0,0,102,204,0,0,42,105,164,0,47,196,48,38,0,0,223,153,0,0,0,0,0,0,0,0,0,0,0,0,0,0,0,0,0,0,0,0,0,0,0,0,0,0,0,0],"split_type":[0,0,0,0,0,0,0,0,0,0,0,0,0,0,0,0,0,0,0,0,0,0,0,0,0,0,0,0,0,0,0,0,0,0,0,0,0,0,0,0,0,0,0,0,0,0,0,0,0,0,0,0,0,0,0,0,0,0,0,0,0,0,0,0,0,0,0,0,0,0,0,0,0,0,0,0,0,0,0,0,0,0,0,0,0,0,0,0,0,0,0,0,0,0,0,0,0,0,0,0,0,0,0,0,0,0,0],"sum_hessian":[3.8344214E2,1.2421951E2,2.5922263E2,3.6488846E1,8.773066E1,1.5747308E1,2.4347531E2,3.1490067E1,4.998781E0,1.2247732E1,7.548293E1,3.9995635E0,1.1747744E1,1.9898442E2,4.4490894E1,2.2743437E1,8.746629E0,3.4990935E0,1.4996877E0,4.4993944E0,7.7483373E0,3.7490277E0,7.17339E1,2.7496934E0,1.2498702E0,6.2489367E0,5.4988074E0,9.474209E1,1.0424233E2,4.0741432E1,3.749463E0,1.2496584E1,1.0246854E1,7.4970427E0,1.249586E0,2.2495432E0,1.2495503E0,2.7497258E0,1.7496688E0,1.9995004E0,5.748837E0,1.4997547E0,7.0234146E1,1.2498401E0,1.4998534E0,3.7495332E0,2.4994032E0,8.8242935E1,6.4991484E0,3.774616E1,6.649617E1,3.499403E0,3.724203E1,2.2495801E0,1.4998829E0,7.9976573E0,4.4989266E0,8.747142E0,1.4997115E0,1.2497576E0,1.4999683E0,1.7497201E0,3.999117E0,3.2492496E1,3.7741653E1,1.7497892E0,1.999744E0,1.4497424E1,7.3745514E1,5.2493443E0,1.2498039E0,1.0248487E1,2.7497673E1,5.774676E1,8.749408E0,2.2496724E0,1.2497306E0,2.6493713E1,1.0748315E1,5.248501E0,2.7491567E0,1.249694E0,3.2492328E0,2.7488449E0,5.998297E0,2.6993883E1,5.4986134E0,1.6996048E1,2.0745604E1,9.998983E0,4.4984407E0,2.1248894E1,5.249662E1,3.9994385E0,1.2499058E0,7.9985495E0,2.2499385E0,9.99924E0,1.7498432E1,3.6747032E1,2.0999727E1,6.2495313E0,2.499877E0,1.199844E1,1.4495275E1,2.9995437E0,7.7487717E0],"tree_param":{"num_deleted":"0","num_feature":"225","num_nodes":"107","size_leaf_vector":"0"}},{"base_weights":[3.0218463E-2,3.2714254E-1,-1.1277523E-1,6.717653E-1,1.7786568E-1,6.125564E-1,-1.6199696E-1,8.059808E-1,-1.671357E-1,-6.344408E-1,3.1623694E-1,-3.9274442E-1,9.588147E-1,-1.1696591E-1,-1.0441858E0,5.080618E-1,1.449106E0,-8.778145E-1,1.1788543E-2,1.7478101E-1,-1.0706147E0,1.3407315E-2,2.4500346E-1,-9.185902E-1,6.581766E-3,3.3789095E-1,1.5039092E-2,-1.4086101E-2,-8.691169E-2,4.6621313E-5,-1.2598602E0,1.3933739E-1,9.0538174E-1,1.6078187E-2,2.0559698E-3,-1.3596818E-2,2.083922E-3,-6.5927184E-1,1.2487429E-2,-6.308215E-7,-1.3878152E0,-1.18254265E-2,2.9165757E-1,-1.1841349E-2,-2.1522872E-3,-3.10199E-1,1.1209372E-2,-1.4720036E-2,-6.207138E-2,-3.1941053E-3,-1.4612895E0,7.57494E-1,-8.9744097E-1,1.146089E0,-3.9526876E-3,2.273314E-3,-1.1934416E-2,-5.393232E-3,-1.5769314E-2,5.756017E-1,3.867252E-2,8.948103E-3,-1.3114518E-2,1.4989592E-1,-2.3308407E-1,-1.6542975E-2,-3.942657E-3,1.17188655E-2,-1.3509614E-3,2.160018E-3,-1.2757661E-2,3.732941E-3,1.3963199E-2,7.5813048E-3,-2.9918205E-3,4.8956573E-3,-3.362493E-3,2.974292E-3,-5.084225E-3,3.6240842E-3,-3.1244173E-3],"categories":[],"categories_nodes":[],"categories_segments":[],"categories_sizes":[],"default_left":[0,0,0,0,0,0,0,0,0,0,0,0,0,0,0,0,0,0,0,0,0,0,0,0,0,0,0,0,0,0,0,0,0,0,0,0,0,0,0,0,0,0,0,0,0,0,0,0,0,0,0,0,0,0,0,0,0,0,0,0,0,0,0,0,0,0,0,0,0,0,0,0,0,0,0,0,0,0,0,0,0],"id":4,"left_children":[1,3,5,7,9,11,13,15,17,19,21,23,25,27,29,31,33,35,-1,37,39,-1,41,43,-1,45,-1,-1,47,-1,49,51,53,-1,-1,-1,-1,55,-1,-1,57,-1,59,-1,-1,61,-1,-1,63,-1,65,67,69,71,-1,-1,-1,-1,-1,73,75,-1,-1,77,79,-1,-1,-1,-1,-1,-1,-1,-1,-1,-1,-1,-1,-1,-1,-1,-1],"loss_changes":[1.6358395E1,6.321759E0,9.3890705E0,4.355049E0,1.0173349E1,6.205314E0,9.589241E0,5.4878597E0,6.7723274E0,4.862671E0,5.252801E0,3.36731E0,3.8057032E0,8.95018E0,2.6629772E0,3.3518906E0,1.5925827E0,2.637951E0,0E0,5.7489533E0,2.9704237E0,0E0,5.1888084E0,4.454422E-1,0E0,4.0260034E0,0E0,0E0,7.8036227E0,0E0,1.3795643E0,9.328846E0,3.9736576E0,0E0,0E0,0E0,0E0,2.0471501E0,0E0,0E0,2.323513E-1,0E0,5.0945106E0,0E0,0E0,6.9033065E0,0E0,0E0,8.244128E0,0E0,9.433117E-1,3.4860759E0,2.5917897E0,1.363348E0,0E0,0E0,0E0,0E0,0E0,5.5742474E0,6.7137756E0,0E0,0E0,1.0031912E1,6.0549927E0,0E0,0E0,0E0,0E0,0E0,0E0,0E0,0E0,0E0,0E0,0E0,0E0,0E0,0E0,0E0,0E0],"parents":[2147483647,0,0,1,1,2,2,3,3,4,4,5,5,6,6,7,7,8,8,9,9,10,10,11,11,12,12,13,13,14,14,15,15,16,16,17,17,19,19,20,20,22,22,23,23,25,25,28,28,30,30,31,31,32,32,37,37,40,40,42,42,45,45,48,48,50,50,51,51,52,52,53,53,59,59,60,60,63,63,64,64],"right_children":[2,4,6,8,10,12,14,16,18,20,22,24,26,28,30,32,34,36,-1,38,40,-1,42,44,-1,46,-1,-1,48,-1,50,52,54,-1,-1,-1,-1,56,-1,-1,58,-1,60,-1,-1,62,-1,-1,64,-1,66,68,70,72,-1,-1,-1,-1,-1,74,76,-1,-1,78,80,-1,-1,-1,-1,-1,-1,-1,-1,-1,-1,-1,-1,-1,-1,-1,-1],"split_conditions":[-8.436533E-4,3.45352E-1,2.4084872E-1,8.306599E-1,3.9651182E-1,8.181154E-2,8.916616E-1,7.566564E-1,9.888451E-1,6.876022E-1,3.5248554E-1,3.3704263E-1,1E0,2.6069713E-1,1E0,3.157526E-1,-1.3676436E-3,1E0,1.1788543E-2,5.565949E-1,8.8691175E-2,1.3407315E-2,3.331327E-1,1E0,6.581766E-3,5.978321E-1,1.5039092E-2,-1.4086101E-2,-7.9372094E-4,4.6621313E-5,4.1625544E-1,3.375803E-1,4.1407162E-1,1.6078187E-2,2.0559698E-3,-1.3596818E-2,2.083922E-3,3.3862084E-1,1.2487429E-2,-6.308215E-7,3.6825356E-1,-1.18254265E-2,1E0,-1.1841349E-2,-2.1522872E-3,3.7258506E-1,1.1209372E-2,-1.4720036E-2,7.391958E-4,-3.1941053E-3,5.039667E-1,1E0,2.8097737E-1,3.560293E-1,-3.9526876E-3,2.273314E-3,-1.1934416E-2,-5.393232E-3,-1.5769314E-2,1E0,1E0,8.948103E-3,-1.3114518E-2,7.765789E-1,3.7013358E-1,-1.6542975E-2,-3.942657E-3,1.17188655E-2,-1.3509614E-3,2.160018E-3,-1.2757661E-2,3.732941E-3,1.3963199E-2,7.5813048E-3,-2.9918205E-3,4.8956573E-3,-3.362493E-3,2.974292E-3,-5.084225E-3,3.6240842E-3,-3.1244173E-3],"split_indices":[200,38,39,178,38,224,180,174,223,170,43,44,217,39,127,44,200,219,0,166,224,0,42,99,0,166,0,0,200,0,40,157,146,0,0,0,0,34,0,0,41,0,222,0,0,162,0,0,200,0,224,201,48,45,0,0,0,0,0,102,204,0,0,164,42,0,0,0,0,0,0,0,0,0,0,0,0,0,0,0,0],"split_type":[0,0,0,0,0,0,0,0,0,0,0,0,0,0,0,0,0,0,0,0,0,0,0,0,0,0,0,0,0,0,0,0,0,0,0,0,0,0,0,0,0,0,0,0,0,0,0,0,0,0,0,0,0,0,0,0,0,0,0,0,0,0,0,0,0,0,0,0,0,0,0,0,0,0,0,0,0,0,0,0,0],"sum_hessian":[3.8341275E2,1.24208336E2,2.592044E2,3.6483006E1,8.7725334E1,1.5744757E1,2.4345966E2,3.1484976E1,4.998028E0,1.2246628E1,7.547871E1,3.9992826E0,1.1745475E1,2.3271346E2,1.0746198E1,2.2740664E1,8.744313E0,3.4986045E0,1.499423E0,4.499014E0,7.7476134E0,3.7482953E0,7.1730415E1,2.7494621E0,1.2498202E0,6.248083E0,5.497391E0,4.2486734E0,2.2846478E2,1.9997219E0,8.746476E0,1.2495329E1,1.0245336E1,7.4947643E0,1.2495486E0,2.2490854E0,1.2495191E0,2.7496958E0,1.7493182E0,1.9995004E0,5.748113E0,1.499545E0,7.0230865E1,1.4997243E0,1.249738E0,3.7490392E0,2.499044E0,2.9987073E0,2.2546608E2,1.9990182E0,6.7474575E0,7.9967923E0,4.4985366E0,8.745642E0,1.4996938E0,1.2497723E0,1.4999233E0,1.7496978E0,3.9984152E0,3.248984E1,3.7741028E1,1.7496464E0,1.9993927E0,1.0073287E2,1.247332E2,5.247823E0,1.4996343E0,5.2476296E0,2.7491624E0,1.2496802E0,3.2488563E0,2.7486653E0,5.996976E0,2.6991299E1,5.498542E0,1.6995684E1,2.0745344E1,8.273879E1,1.7994083E1,1.4248323E1,1.1048487E2],"tree_param":{"num_deleted":"0","num_feature":"225","num_nodes":"81","size_leaf_vector":"0"}},{"base_weights":[2.9871423E-2,3.240828E-1,-1.1180388E-1,6.6604847E-1,1.7598237E-1,6.074404E-1,-1.6060343E-1,7.9907525E-1,-1.6544811E-1,-6.295696E-1,3.1319907E-1,-3.903298E-1,9.512046E-1,-1.1592952E-1,-1.0359176E0,5.0363594E-1,1.4369606E0,-8.717315E-1,1.1719555E-2,1.7356724E-1,-1.0624789E0,1.3304476E-2,2.4249075E-1,-9.132118E-1,6.5454277E-3,3.355415E-1,1.4916523E-2,-1.3974648E-2,-8.611574E-2,4.6310437E-5,-1.2499262E0,1.379464E-1,8.977207E-1,1.5942423E-2,2.044586E-3,-1.3505465E-2,2.0723776E-3,-6.5528035E-1,1.2410174E-2,-3.001536E-1,-1.5741356E-2,-2.2034141E-1,3.9308262E-1,-1.1788548E-2,-2.1212464E-3,-3.0802247E-1,1.1130957E-2,-1.4613318E-2,-6.1458938E-2,-3.172892E-3,-1.44965E0,7.5117415E-1,-8.9050066E-1,1.1366894E0,-3.9290204E-3,2.2606736E-3,-1.1863534E-2,-1.1729888E-2,4.6355487E-3,-4.5139846E-1,1.2669262E-2,9.607189E-1,1.4242364E-1,8.891853E-3,-1.3029373E-2,1.483792E-1,-2.3075314E-1,-1.640855E-2,-3.919057E-3,1.1622723E-2,-1.3410542E-3,2.148036E-3,-1.2662021E-2,3.7057656E-3,1.3847295E-2,3.6005182E-3,-1.0708661E-2,-1.2933921E-4,1.2672544E-2,-5.2392585E-3,4.0177903E-3,2.9449419E-3,-5.036323E-3,3.59022E-3,-3.093512E-3],"categories":[],"categories_nodes":[],"categories_segments":[],"categories_sizes":[],"default_left":[0,0,0,0,0,0,0,0,0,0,0,0,0,0,0,0,0,0,0,0,0,0,0,0,0,0,0,0,0,0,0,0,0,0,0,0,0,0,0,0,0,0,0,0,0,0,0,0,0,0,0,0,0,0,0,0,0,0,0,0,0,0,0,0,0,0,0,0,0,0,0,0,0,0,0,0,0,0,0,0,0,0,0,0,0],"id":5,"left_children":[1,3,5,7,9,11,13,15,17,19,21,23,25,27,29,31,33,35,-1,37,39,-1,41,43,-1,45,-1,-1,47,-1,49,51,53,-1,-1,-1,-1,55,-1,57,-1,59,61,-1,-1,63,-1,-1,65,-1,67,69,71,73,-1,-1,-1,-1,-1,75,-1,77,79,-1,-1,81,83,-1,-1,-1,-1,-1,-1,-1,-1,-1,-1,-1,-1,-1,-1,-1,-1,-1,-1],"loss_changes":[1.6058365E1,6.2231884E0,9.230014E0,4.2773304E0,1.0003609E1,6.113441E0,9.438877E0,5.396927E0,6.686278E0,4.7894235E0,5.177919E0,3.32886E0,3.7392473E0,8.80901E0,2.6210995E0,3.296918E0,1.5623455E0,2.603624E0,0E0,5.677933E0,2.9390326E0,0E0,5.1555057E0,4.4817424E-1,0E0,3.9692178E0,0E0,0E0,7.6908054E0,0E0,1.3551769E0,9.178866E0,3.9142218E0,0E0,0E0,0E0,0E0,2.0232134E0,0E0,3.7089376E0,0E0,6.9274144E0,7.7216396E0,0E0,0E0,6.814354E0,0E0,0E0,8.079159E0,0E0,9.234772E-1,3.429686E0,2.5550604E0,1.3383846E0,0E0,0E0,0E0,0E0,0E0,8.802695E0,0E0,5.013876E0,7.0346823E0,0E0,0E0,9.840076E0,5.939353E0,0E0,0E0,0E0,0E0,0E0,0E0,0E0,0E0,0E0,0E0,0E0,0E0,0E0,0E0,0E0,0E0,0E0,0E0],"parents":[2147483647,0,0,1,1,2,2,3,3,4,4,5,5,6,6,7,7,8,8,9,9,10,10,11,11,12,12,13,13,14,14,15,15,16,16,17,17,19,19,20,20,22,22,23,23,25,25,28,28,30,30,31,31,32,32,37,37,39,39,41,41,42,42,45,45,48,48,50,50,51,51,52,52,53,53,59,59,61,61,62,62,65,65,66,66],"right_children":[2,4,6,8,10,12,14,16,18,20,22,24,26,28,30,32,34,36,-1,38,40,-1,42,44,-1,46,-1,-1,48,-1,50,52,54,-1,-1,-1,-1,56,-1,58,-1,60,62,-1,-1,64,-1,-1,66,-1,68,70,72,74,-1,-1,-1,-1,-1,76,-1,78,80,-1,-1,82,84,-1,-1,-1,-1,-1,-1,-1,-1,-1,-1,-1,-1,-1,-1,-1,-1,-1,-1],"split_conditions":[-8.436533E-4,3.45352E-1,2.4084872E-1,8.306599E-1,3.9651182E-1,8.181154E-2,8.916616E-1,7.566564E-1,9.888451E-1,6.876022E-1,3.5248554E-1,3.3704263E-1,1E0,2.6069713E-1,1E0,3.157526E-1,-1.3676436E-3,1E0,1.1719555E-2,5.565949E-1,1E0,1.3304476E-2,4.5415592E-1,7.626464E-1,6.5454277E-3,5.978321E-1,1.4916523E-2,-1.3974648E-2,-7.9372094E-4,4.6310437E-5,4.1625544E-1,3.375803E-1,4.1407162E-1,1.5942423E-2,2.044586E-3,-1.3505465E-2,2.0723776E-3,3.3862084E-1,1.2410174E-2,7.13341E-1,-1.5741356E-2,3.5725468E-1,1E0,-1.1788548E-2,-2.1212464E-3,3.7258506E-1,1.1130957E-2,-1.4613318E-2,7.391958E-4,-3.172892E-3,5.039667E-1,1E0,2.8097737E-1,3.560293E-1,-3.9290204E-3,2.2606736E-3,-1.1863534E-2,-1.1729888E-2,4.6355487E-3,3.7109044E-1,1.2669262E-2,1E0,1E0,8.891853E-3,-1.3029373E-2,7.765789E-1,3.7013358E-1,-1.640855E-2,-3.919057E-3,1.1622723E-2,-1.3410542E-3,2.148036E-3,-1.2662021E-2,3.7057656E-3,1.3847295E-2,3.6005182E-3,-1.0708661E-2,-1.2933921E-4,1.2672544E-2,-5.2392585E-3,4.0177903E-3,2.9449419E-3,-5.036323E-3,3.59022E-3,-3.093512E-3],"split_indices":[200,38,39,178,38,224,180,174,223,170,43,44,217,39,127,44,200,219,0,166,203,0,160,190,0,166,0,0,200,0,40,157,146,0,0,0,0,34,0,166,0,224,66,0,0,162,0,0,200,0,224,201,48,45,0,0,0,0,0,150,0,58,127,0,0,164,42,0,0,0,0,0,0,0,0,0,0,0,0,0,0,0,0,0,0],"split_type":[0,0,0,0,0,0,0,0,0,0,0,0,0,0,0,0,0,0,0,0,0,0,0,0,0,0,0,0,0,0,0,0,0,0,0,0,0,0,0,0,0,0,0,0,0,0,0,0,0,0,0,0,0,0,0,0,0,0,0,0,0,0,0,0,0,0,0,0,0,0,0,0,0,0,0,0,0,0,0,0,0,0,0,0,0],"sum_hessian":[3.8338522E2,1.2419239E2,2.591928E2,3.647467E1,8.771772E1,1.5741097E1,2.4345172E2,3.1477707E1,4.9969635E0,1.2244766E1,7.547295E1,3.998898E0,1.1742199E1,2.3270735E2,1.0744375E1,2.2736664E1,8.741043E0,3.4979079E0,1.4990556E0,4.4983883E0,7.746378E0,3.7472305E0,7.172572E1,2.7491546E0,1.2497435E0,6.2468357E0,5.4953637E0,4.247712E0,2.2845964E2,1.9997222E0,8.744654E0,1.2493452E1,1.0243212E1,7.4915347E0,1.2495087E0,2.2484229E0,1.2494853E0,2.7495553E0,1.7488332E0,3.7483234E0,3.9980545E0,1.7494524E1,5.42312E1,1.4995182E0,1.2496365E0,3.7483058E0,2.49853E0,2.9977074E0,2.2546193E2,1.9989461E0,6.745707E0,7.99557E0,4.4978814E0,8.743547E0,1.4996642E0,1.2497838E0,1.4997716E0,1.4991021E0,2.2492213E0,1.5744934E1,1.7495902E0,1.5744289E1,3.8486908E1,1.7494344E0,1.9988713E0,1.0073082E2,1.2473111E2,5.2461076E0,1.4995998E0,5.2464046E0,2.7491653E0,1.2496636E0,3.2482178E0,2.7484682E0,5.99508E0,6.997531E0,8.747403E0,3.9992447E0,1.1745046E1,1.0497101E1,2.7989809E1,8.2737724E1,1.7993095E1,1.4248324E1,1.1048278E2],"tree_param":{"num_deleted":"0","num_feature":"225","num_nodes":"85","size_leaf_vector":"0"}},{"base_weights":[2.9582586E-2,3.21226E-1,-1.108427E-1,5.528292E-1,1.066642E-1,-3.5256233E-2,-5.734172E-1,-1.9486131E-1,7.4878496E-1,5.363644E-1,-1.5000181E-1,1.905363E-1,-1.975586E-1,6.601758E-1,-7.2428775E-1,-7.6707816E-1,3.10411E-1,8.814326E-1,-3.2072502E-1,2.0942631E-1,1.2049578E0,-2.8992507E-1,1.0881335E0,-1.3854376E-2,2.483897E-1,2.987184E-1,-3.0713323E-1,1.3088202E-2,-3.8205471E-3,-1.2301867E0,-2.7436703E-1,-1.0428034E0,2.1714221E-3,-6.4364207E-1,9.639425E-1,1.3922887E0,6.8304205E-1,-1.0320674E0,8.948705E-3,1.38351405E-2,-6.917444E-2,1.4639349E-2,1.7876695E-3,-4.795848E-1,6.0046595E-1,1.3576057E-2,2.1533223E-3,3.656167E-1,-4.3079188E-1,8.742895E-1,-9.822385E-2,-8.948552E-1,-1.0024587E-1,-2.2827801E-1,-1.4570688E0,-8.8898236E-1,2.930727E-1,-1.3773766E-2,-3.3257552E-3,2.2533166E-3,-1.1683137E-2,1.38816545E-2,-1.5355996E-4,1.6493285E-2,7.5385725E-1,-2.9335937E-1,9.974562E-1,-2.082806E-3,-1.3058297E-2,-4.3284613E-1,7.810803E-1,-4.288454E-3,-8.6223304E-1,-5.6103057E-1,1.3299515E-2,-4.046177E-2,5.5993366E-1,-9.139766E-1,4.2146906E-1,8.874589E-2,1.4395822E-2,-4.2507115E-1,1.1205365E-2,6.674337E-1,-1.0915147E0,-1.3379031E-2,-2.2864291E-2,-1.087142E-2,5.573194E-3,-1.7006557E-2,-7.637339E-1,-1.1035912E-1,-1.2924845E0,8.3550036E-1,-9.0638304E-1,-2.7677946E-4,1.2842541E-2,-7.7892505E-3,4.781229E-3,-6.671593E-3,1.1132214E-2,6.5005664E-3,-8.4754E-3,1.3557699E-2,-1.8206141E-3,-7.6131052E-3,4.009965E-3,-1.1031898E-2,-2.3285437E-3,2.177516E-3,-1.09042395E-2,4.7662333E-3,-6.808647E-3,1.3991816E-3,7.871953E-3,-1.3714509E-2,1.2271933E-3,-1.2172142E-3,1.1764801E-2,-7.5459573E-3,9.729727E-3,-7.974562E-3,4.3487106E-3,-2.143147E-3,1.1940025E-2,-1.2998574E-2,1.1930114E-4,1.1281325E-2,-1.1383373E-3,6.67378E-3,-1.4192498E-2,-1.0926013E-2,6.631339E-3,-2.152727E-3,-1.5307887E-2,1.4484932E-2,2.0867197E-3,-1.1739559E-2,-2.0611957E-3],"categories":[],"categories_nodes":[],"categories_segments":[],"categories_sizes":[],"default_left":[0,0,0,0,0,0,0,0,0,0,0,0,0,0,0,0,0,0,0,0,0,0,0,0,0,0,0,0,0,0,0,0,0,0,0,0,0,0,0,0,0,0,0,0,0,0,0,0,0,0,0,0,0,0,0,0,0,0,0,0,0,0,0,0,0,0,0,0,0,0,0,0,0,0,0,0,0,0,0,0,0,0,0,0,0,0,0,0,0,0,0,0,0,0,0,0,0,0,0,0,0,0,0,0,0,0,0,0,0,0,0,0,0,0,0,0,0,0,0,0,0,0,0,0,0,0,0,0,0,0,0,0,0,0,0,0,0,0,0],"id":6,"left_children":[1,3,5,7,9,11,13,15,17,19,21,23,25,27,29,31,33,35,37,39,41,43,45,-1,47,49,51,-1,-1,53,55,57,-1,59,61,63,65,67,-1,-1,69,-1,-1,71,73,-1,-1,75,77,79,81,83,85,87,89,91,93,-1,-1,-1,-1,-1,-1,-1,95,97,99,-1,-1,101,103,105,107,109,-1,111,113,115,117,119,-1,121,-1,123,125,-1,127,-1,-1,-1,129,131,133,135,137,-1,-1,-1,-1,-1,-1,-1,-1,-1,-1,-1,-1,-1,-1,-1,-1,-1,-1,-1,-1,-1,-1,-1,-1,-1,-1,-1,-1,-1,-1,-1,-1,-1,-1,-1,-1,-1,-1,-1,-1,-1,-1,-1,-1],"loss_changes":[1.5776343E1,6.1612864E0,9.076727E0,8.930462E0,7.383397E0,8.272157E0,7.267046E0,4.0673003E0,7.051634E0,5.207999E0,7.632632E0,8.958324E0,7.2274575E0,3.5410109E0,7.1689796E0,1.9900136E0,5.4496984E0,3.3781319E0,6.109993E0,5.979219E0,1.8625698E0,6.829584E0,7.6578474E-1,0E0,7.480951E0,5.623869E0,1.3039984E1,0E0,0E0,3.13093E0,6.7970433E0,7.8917027E-1,0E0,1.9722258E0,2.097283E0,5.593376E-1,1.0340487E1,6.8606997E-1,0E0,0E0,5.1276903E0,0E0,0E0,5.9054546E0,6.8859806E0,0E0,0E0,6.255082E0,6.149706E0,4.3105E0,6.5491133E0,9.327595E0,7.726267E0,3.3041413E0,7.679405E-1,2.7619448E0,7.5869565E0,0E0,0E0,0E0,0E0,0E0,0E0,0E0,2.1061306E0,3.648343E0,5.5573883E0,0E0,0E0,5.7119813E0,3.0127084E0,5.059636E0,2.4720745E0,1.6799184E0,0E0,9.098306E0,4.99547E0,4.5548E0,2.5010345E0,4.647835E0,0E0,4.4284725E0,0E0,1.9969202E0,5.8176994E0,0E0,8.21635E0,0E0,0E0,0E0,5.6347427E0,3.9527776E0,1.209672E0,2.6751084E0,4.603901E-1,0E0,0E0,0E0,0E0,0E0,0E0,0E0,0E0,0E0,0E0,0E0,0E0,0E0,0E0,0E0,0E0,0E0,0E0,0E0,0E0,0E0,0E0,0E0,0E0,0E0,0E0,0E0,0E0,0E0,0E0,0E0,0E0,0E0,0E0,0E0,0E0,0E0,0E0,0E0,0E0,0E0,0E0,0E0,0E0],"parents":[2147483647,0,0,1,1,2,2,3,3,4,4,5,5,6,6,7,7,8,8,9,9,10,10,11,11,12,12,13,13,14,14,15,15,16,16,17,17,18,18,19,19,20,20,21,21,22,22,24,24,25,25,26,26,29,29,30,30,31,31,33,33,34,34,35,35,36,36,37,37,40,40,43,43,44,44,47,47,48,48,49,49,50,50,51,51,52,52,53,53,54,54,55,55,56,56,64,64,65,65,66,66,69,69,70,70,71,71,72,72,73,73,75,75,76,76,77,77,78,78,79,79,81,81,83,83,84,84,86,86,90,90,91,91,92,92,93,93,94,94],"right_children":[2,4,6,8,10,12,14,16,18,20,22,24,26,28,30,32,34,36,38,40,42,44,46,-1,48,50,52,-1,-1,54,56,58,-1,60,62,64,66,68,-1,-1,70,-1,-1,72,74,-1,-1,76,78,80,82,84,86,88,90,92,94,-1,-1,-1,-1,-1,-1,-1,96,98,100,-1,-1,102,104,106,108,110,-1,112,114,116,118,120,-1,122,-1,124,126,-1,128,-1,-1,-1,130,132,134,136,138,-1,-1,-1,-1,-1,-1,-1,-1,-1,-1,-1,-1,-1,-1,-1,-1,-1,-1,-1,-1,-1,-1,-1,-1,-1,-1,-1,-1,-1,-1,-1,-1,-1,-1,-1,-1,-1,-1,-1,-1,-1,-1,-1,-1],"split_conditions":[-8.436533E-4,1E0,7.9857844E-1,5E0,3.4762612E-1,6.6573994E-4,3.5732168E-1,7.748973E-1,1E0,1E0,6.6550523E-1,-7.9372094E-4,3.6089543E-1,3.5824606E-1,1.6315038E-4,2.1378024E-1,4.5005333E-1,2.924557E-1,1E0,2.5392258E-1,4.4138607E-1,7.777612E-1,7.426485E-1,-1.3854376E-2,6.9064176E-1,1E0,4.532032E-1,1.3088202E-2,-3.8205471E-3,1E0,5.1401794E-1,1E0,2.1714221E-3,7.032436E-1,5.2120954E-1,1.8894534E-1,3.5059777E-1,7.4324226E-1,8.948705E-3,1.38351405E-2,6.559526E-1,1.4639349E-2,1.7876695E-3,1E0,4.3743473E-1,1.3576057E-2,2.1533223E-3,8E0,6.8073195E-1,1E0,4.194534E-1,3.5897487E-1,4.0019208E-1,1E0,8.31714E-1,1E0,6.0422695E-1,-1.3773766E-2,-3.3257552E-3,2.2533166E-3,-1.1683137E-2,1.38816545E-2,-1.5355996E-4,1.6493285E-2,8.4412843E-1,4.1620022E-1,2.2639571E-1,-2.082806E-3,-1.3058297E-2,7E0,4.037586E-1,4.2659035E-1,1E0,1E0,1.3299515E-2,1E0,3.888022E-1,8.313715E-1,1E0,1E0,1.4395822E-2,3.1239504E-1,1.1205365E-2,3.2187614E-1,7.177036E-1,-1.3379031E-2,4.473262E-1,-1.087142E-2,5.573194E-3,-1.7006557E-2,8.455612E-1,5.1344097E-1,2E0,1E0,8.501044E-1,-2.7677946E-4,1.2842541E-2,-7.7892505E-3,4.781229E-3,-6.671593E-3,1.1132214E-2,6.5005664E-3,-8.4754E-3,1.3557699E-2,-1.8206141E-3,-7.6131052E-3,4.009965E-3,-1.1031898E-2,-2.3285437E-3,2.177516E-3,-1.09042395E-2,4.7662333E-3,-6.808647E-3,1.3991816E-3,7.871953E-3,-1.3714509E-2,1.2271933E-3,-1.2172142E-3,1.1764801E-2,-7.5459573E-3,9.729727E-3,-7.974562E-3,4.3487106E-3,-2.143147E-3,1.1940025E-2,-1.2998574E-2,1.1930114E-4,1.1281325E-2,-1.1383373E-3,6.67378E-3,-1.4192498E-2,-1.0926013E-2,6.631339E-3,-2.152727E-3,-1.5307887E-2,1.4484932E-2,2.0867197E-3,-1.1739559E-2,-2.0611957E-3],"split_indices":[200,222,166,196,147,200,41,190,102,67,151,200,42,36,200,224,153,39,206,46,152,164,46,0,40,198,40,0,0,136,49,221,0,170,48,224,148,186,0,0,162,0,0,58,37,0,0,196,158,210,48,43,45,212,164,54,41,0,0,0,0,0,0,0,223,160,34,0,0,196,153,47,103,115,0,219,34,34,219,211,0,42,0,34,162,0,44,0,0,0,164,157,171,211,178,0,0,0,0,0,0,0,0,0,0,0,0,0,0,0,0,0,0,0,0,0,0,0,0,0,0,0,0,0,0,0,0,0,0,0,0,0,0,0,0,0,0,0,0],"split_type":[0,0,0,0,0,0,0,0,0,0,0,0,0,0,0,0,0,0,0,0,0,0,0,0,0,0,0,0,0,0,0,0,0,0,0,0,0,0,0,0,0,0,0,0,0,0,0,0,0,0,0,0,0,0,0,0,0,0,0,0,0,0,0,0,0,0,0,0,0,0,0,0,0,0,0,0,0,0,0,0,0,0,0,0,0,0,0,0,0,0,0,0,0,0,0,0,0,0,0,0,0,0,0,0,0,0,0,0,0,0,0,0,0,0,0,0,0,0,0,0,0,0,0,0,0,0,0,0,0,0,0,0,0,0,0,0,0,0,0],"sum_hessian":[3.8335068E2,1.24173134E2,2.5917752E2,5.895698E1,6.5216156E1,2.2370026E2,3.547727E1,1.2244051E1,4.6712933E1,2.3980013E1,4.1236137E1,9.3479324E1,1.3022095E2,3.498229E0,3.197904E1,5.498686E0,6.745365E0,4.1715015E1,4.997916E0,1.6986805E1,6.9932084E0,3.7737244E1,3.4988973E0,2.4975183E0,9.0981804E1,2.3239632E1,1.0698131E2,1.9985932E0,1.4996358E0,1.4236753E1,1.7742289E1,4.2488623E0,1.2498235E0,2.7483459E0,3.9970195E0,9.985198E0,3.1729818E1,3.2481444E0,1.7497716E0,2.497179E0,1.4489626E1,5.2433796E0,1.749829E0,3.149084E1,6.2464004E0,2.249056E0,1.2498412E0,7.7983505E1,1.29983015E1,8.994678E0,1.4244954E1,2.6988247E1,7.999306E1,2.9990668E0,1.1237686E1,8.245078E0,9.49721E0,2.2497215E0,1.999141E0,1.2494706E0,1.4988751E0,2.497581E0,1.4994385E0,5.9901047E0,3.9950929E0,7.744994E0,2.3984823E1,1.2493858E0,1.9987586E0,1.0492631E1,3.996995E0,1.4496101E1,1.699474E1,2.4987617E0,3.7476387E0,2.5495485E1,5.2488018E1,8.249104E0,4.749198E0,4.248231E0,4.746447E0,1.1746108E1,2.498846E0,2.7497804E0,2.4238468E1,3.7485342E0,7.624453E1,1.2493541E0,1.7497128E0,7.240903E0,3.996783E0,3.2490358E0,4.9960423E0,6.748694E0,2.7485158E0,1.9983531E0,1.9967396E0,4.747379E0,2.9976153E0,1.2498531E0,2.273497E1,2.748315E0,7.7443156E0,2.248E0,1.748995E0,4.7483373E0,9.747764E0,1.1745259E1,5.249481E0,1.2494267E0,1.2493348E0,1.4247373E1,1.1248113E1,1.8996021E1,3.3491997E1,5.499411E0,2.749692E0,3.2498705E0,1.4993274E0,2.249422E0,1.9988086E0,8.247371E0,3.498737E0,1.2498626E0,1.499918E0,2.02391E1,3.999368E0,4.749532E0,7.1494995E1,1.2499081E0,2.746875E0,1.2496179E0,1.9994179E0,1.2498176E0,3.7462246E0,2.7492738E0,3.9994202E0,1.499213E0,1.2493029E0],"tree_param":{"num_deleted":"0","num_feature":"225","num_nodes":"139","size_leaf_vector":"0"}},{"base_weights":[2.9360922E-2,3.1853938E-1,-1.09863855E-1,6.564027E-1,1.7227244E-1,6.008439E-1,-1.5807194E-1,7.877624E-1,-1.6441411E-1,-6.2399966E-1,3.0792025E-1,-3.8618115E-1,9.4100523E-1,-1.1397143E-1,-1.0224854E0,4.9665287E-1,1.4165094E0,-8.6407554E-1,1.16065405E-2,1.7243537E-1,-1.0533384E0,3.561389E-1,-9.917124E-3,-9.05557E-1,6.509222E-3,3.3192182E-1,1.4757533E-2,-1.3803886E-2,-8.452286E-2,5.9060636E-5,-1.2342281E0,1.3528906E-1,8.8619024E-1,1.962048E-3,1.5729833E-2,-1.3375236E-2,2.0357168E-3,-6.4814746E-1,1.2292492E-2,1.1666449E-5,-1.3660442E0,4.3561544E-2,6.105033E-1,-1.1696724E-2,-2.095363E-3,-3.0562836E-1,1.1024064E-2,-1.4406607E-2,-6.0224578E-2,-3.1149164E-3,-1.4321864E0,7.419455E-1,-8.819282E-1,1.1228977E0,-3.9063445E-3,2.2892007E-3,-1.1782345E-2,-5.3013586E-3,-1.5526088E-2,4.3029964E-1,-6.938763E-1,2.6175E-1,1.0874505E0,8.8299215E-3,-1.2935499E-2,1.4558041E-1,-2.262624E-1,-1.6214352E-2,-3.8650276E-3,1.149723E-2,-1.3511326E-3,2.1206075E-3,-1.2537239E-2,3.6544625E-3,1.3683506E-2,5.673752E-3,-1.1006675E-2,5.3560915E-3,-9.498349E-3,5.344235E-4,1.2660279E-2,1.3686776E-2,3.8471222E-3,-2.7247507E-3,3.6887538E-3,3.5358903E-3,-3.0354243E-3],"categories":[],"categories_nodes":[],"categories_segments":[],"categories_sizes":[],"default_left":[0,0,0,0,0,0,0,0,0,0,0,0,0,0,0,0,0,0,0,0,0,0,0,0,0,0,0,0,0,0,0,0,0,0,0,0,0,0,0,0,0,0,0,0,0,0,0,0,0,0,0,0,0,0,0,0,0,0,0,0,0,0,0,0,0,0,0,0,0,0,0,0,0,0,0,0,0,0,0,0,0,0,0,0,0,0,0],"id":7,"left_children":[1,3,5,7,9,11,13,15,17,19,21,23,25,27,29,31,33,35,-1,37,39,41,-1,43,-1,45,-1,-1,47,-1,49,51,53,-1,-1,-1,-1,55,-1,-1,57,59,61,-1,-1,63,-1,-1,65,-1,67,69,71,73,-1,-1,-1,-1,-1,75,77,79,81,-1,-1,83,85,-1,-1,-1,-1,-1,-1,-1,-1,-1,-1,-1,-1,-1,-1,-1,-1,-1,-1,-1,-1],"loss_changes":[1.5506938E1,6.071413E0,9.008091E0,4.167856E0,9.772029E0,5.9816036E0,9.200769E0,5.2376556E0,6.560234E0,4.7090063E0,5.144178E0,3.2815158E0,3.6582212E0,8.598032E0,2.563445E0,3.219998E0,1.5497684E0,2.5449932E0,0E0,5.5636153E0,2.8847275E0,5.8930426E0,0E0,4.4396615E-1,0E0,3.8954127E0,0E0,0E0,7.4733624E0,0E0,1.3328781E0,8.978211E0,3.8351793E0,0E0,0E0,0E0,0E0,2.012722E0,0E0,0E0,2.2871304E-1,1.0132362E1,6.53051E0,0E0,0E0,6.7163963E0,0E0,0E0,7.770541E0,0E0,9.0519524E-1,3.3714943E0,2.50134E0,1.3105316E0,0E0,0E0,0E0,0E0,0E0,5.500765E0,4.362164E0,5.158864E0,2.8308582E0,0E0,0E0,9.595833E0,5.7408338E0,0E0,0E0,0E0,0E0,0E0,0E0,0E0,0E0,0E0,0E0,0E0,0E0,0E0,0E0,0E0,0E0,0E0,0E0,0E0,0E0],"parents":[2147483647,0,0,1,1,2,2,3,3,4,4,5,5,6,6,7,7,8,8,9,9,10,10,11,11,12,12,13,13,14,14,15,15,16,16,17,17,19,19,20,20,21,21,23,23,25,25,28,28,30,30,31,31,32,32,37,37,40,40,41,41,42,42,45,45,48,48,50,50,51,51,52,52,53,53,59,59,60,60,61,61,62,62,65,65,66,66],"right_children":[2,4,6,8,10,12,14,16,18,20,22,24,26,28,30,32,34,36,-1,38,40,42,-1,44,-1,46,-1,-1,48,-1,50,52,54,-1,-1,-1,-1,56,-1,-1,58,60,62,-1,-1,64,-1,-1,66,-1,68,70,72,74,-1,-1,-1,-1,-1,76,78,80,82,-1,-1,84,86,-1,-1,-1,-1,-1,-1,-1,-1,-1,-1,-1,-1,-1,-1,-1,-1,-1,-1,-1,-1],"split_conditions":[-8.436533E-4,3.45352E-1,2.4084872E-1,8.306599E-1,3.9651182E-1,8.181154E-2,8.916616E-1,7.566564E-1,9.888451E-1,6.876022E-1,8.8557357E-1,3.3704263E-1,1E0,2.6069713E-1,1E0,3.157526E-1,1E1,1E0,1.16065405E-2,5.565949E-1,8.8691175E-2,1E0,-9.917124E-3,1E0,6.509222E-3,5.978321E-1,1.4757533E-2,-1.3803886E-2,-7.9372094E-4,5.9060636E-5,4.1625544E-1,3.375803E-1,4.1407162E-1,1.962048E-3,1.5729833E-2,-1.3375236E-2,2.0357168E-3,1E0,1.2292492E-2,1.1666449E-5,3.398894E-1,4.8694998E-1,-1.601613E-3,-1.1696724E-2,-2.095363E-3,3.7258506E-1,1.1024064E-2,-1.4406607E-2,7.391958E-4,-3.1149164E-3,5.039667E-1,1E0,2.8097737E-1,3.560293E-1,-3.9063445E-3,2.2892007E-3,-1.1782345E-2,-5.3013586E-3,-1.5526088E-2,6.316185E-1,5.0836235E-1,7.409052E-1,5E0,8.8299215E-3,-1.2935499E-2,8E0,3.7013358E-1,-1.6214352E-2,-3.8650276E-3,1.149723E-2,-1.3511326E-3,2.1206075E-3,-1.2537239E-2,3.6544625E-3,1.3683506E-2,5.673752E-3,-1.1006675E-2,5.3560915E-3,-9.498349E-3,5.344235E-4,1.2660279E-2,1.3686776E-2,3.8471222E-3,-2.7247507E-3,3.6887538E-3,3.5358903E-3,-3.0354243E-3],"split_indices":[200,38,39,178,38,224,180,174,223,170,34,44,217,39,127,44,194,219,0,166,224,127,0,99,0,166,0,0,200,0,40,157,146,0,0,0,0,167,0,0,43,154,200,0,0,162,0,0,200,0,224,201,48,45,0,0,0,0,0,43,166,38,195,0,0,196,42,0,0,0,0,0,0,0,0,0,0,0,0,0,0,0,0,0,0,0,0],"split_type":[0,0,0,0,0,0,0,0,0,0,0,0,0,0,0,0,0,0,0,0,0,0,0,0,0,0,0,0,0,0,0,0,0,0,0,0,0,0,0,0,0,0,0,0,0,0,0,0,0,0,0,0,0,0,0,0,0,0,0,0,0,0,0,0,0,0,0,0,0,0,0,0,0,0,0,0,0,0,0,0,0,0,0,0,0,0,0],"sum_hessian":[3.8329288E2,1.2414601E2,2.5914688E2,3.6453663E1,8.7692345E1,1.5733414E1,2.4341347E2,3.1459328E1,4.9943337E0,1.2240238E1,7.545211E1,3.9978402E0,1.1735574E1,2.3267474E2,1.0738713E1,2.2726759E1,8.732569E0,3.496183E0,1.4981507E0,4.496843E0,7.7433953E0,7.345285E1,1.9992616E0,2.748331E0,1.2495092E0,6.244141E0,5.491432E0,4.245038E0,2.284297E2,1.9995266E0,8.739187E0,1.2488658E1,1.0238101E1,1.2486389E0,7.4839296E0,2.246982E0,1.2492008E0,2.7490153E0,1.7478275E0,1.998919E0,5.7444763E0,3.348089E1,3.997196E1,1.4989992E0,1.2493317E0,3.746975E0,2.497166E0,2.9947684E0,2.2543494E2,1.9982641E0,6.740923E0,7.992586E0,4.4960723E0,8.738623E0,1.4994785E0,1.2496029E0,1.4994124E0,1.7491089E0,3.9953673E0,2.2236032E1,1.1244856E1,2.398353E1,1.5988429E1,1.7489424E0,1.9980326E0,1.0071779E2,1.24717155E2,5.2416797E0,1.499243E0,5.2437053E0,2.7488806E0,1.2494028E0,3.2466693E0,2.7478378E0,5.9907846E0,2.0986408E1,1.2496233E0,1.749354E0,9.495502E0,2.0735733E1,3.2477982E0,1.0741986E1,5.2464423E0,3.4989597E1,6.572819E1,1.4246522E1,1.10470634E2],"tree_param":{"num_deleted":"0","num_feature":"225","num_nodes":"87","size_leaf_vector":"0"}},{"base_weights":[2.9042043E-2,3.156125E-1,-1.0890997E-1,5.4424304E-1,1.03851825E-1,-2.1851003E-2,-5.0362885E-1,-1.9456568E-1,7.379641E-1,5.29411E-1,-1.502429E-1,-2.1597357E-1,1.6843088E-1,5.93501E-1,-6.4102095E-1,-9.34386E-1,1.9603078E-1,8.6911446E-1,-3.1884077E-1,2.0629078E-1,1.1904277E0,-2.8849342E-1,1.0736825E0,-2.984726E-1,9.1275525E-1,3.684393E-1,-1.4890425E-1,-4.01575E-3,1.0388067E0,-7.672987E-1,5.169066E-1,-1.2876779E-4,-1.3557801E-2,-6.5628004E-1,6.4056325E-1,5.9387004E-1,1.2146475E0,-1.0246584E0,8.873794E-3,1.2361322E-2,-1.0430673E-1,1.5530082E-2,3.6551434E-1,-4.7601733E-1,5.9230775E-1,1.3420633E-2,2.089496E-3,2.6208611E-2,-5.108234E-1,1.3294314E0,-6.502596E-3,1.5591459E-1,8.185546E-1,-3.1964818E-1,8.0902183E-1,2.1258711E-3,1.3119966E-2,-1.8671767E-1,-1.0002652E0,1.3613831E-2,-7.876664E-3,-1.1798336E-2,2.176158E-3,-5.2842135E-3,1.3378111E-2,1.31753E0,2.3949115E-1,-7.7963467E-3,1.4123236E0,-1.29616605E-2,-2.0718228E-3,5.522503E-1,-7.2740144E-1,1.0749958E-2,-4.1920245E-3,-6.164938E-3,-8.5418344E-1,-5.588001E-1,1.3159872E-2,-5.971373E-1,2.8630975E-1,9.2014875E-3,-5.6912005E-1,1.5663177E-2,2.1217647E-3,6.23324E-1,-2.2473153E-1,1.0597361E0,-4.8636106E-1,5.070665E-1,-5.124124E-1,1.4617575E-2,-5.1555554E-3,7.692417E-3,-4.7877684E-1,-1.1358312E0,1.5177134E-1,7.5297556E-3,-1.0976559E-2,1.4755509E-2,3.6386277E-3,-1.3590542E-2,5.4452186E-3,6.397479E-3,-6.5139043E-3,1.7229944E-2,7.5429305E-3,1.0432109E-2,-4.4814744E-3,-1.1897941E-2,7.6590544E-3,6.128552E-3,-4.9070967E-3,-3.7120564E-3,-1.18316775E-2,-1.0857946E-2,2.165742E-3,-8.902745E-3,1.100333E-2,1.2542083E-2,4.7675008E-4,-1.3442057E-2,-4.383397E-3,9.349854E-3,-1.4454847E-3,-6.2540774E-3,6.972015E-3,-1.4695474E-3,1.2386339E-2,-1.1827667E-2,4.0457253E-3,9.688586E-3,-2.9735004E-3,1.6168351E-3,-9.895052E-3,-5.4965513E-3,6.626424E-3,-1.0091353E-2,3.1960364E-3,-1.2482614E-2,2.0722202E-3,8.0737425E-3,-6.442505E-3],"categories":[],"categories_nodes":[],"categories_segments":[],"categories_sizes":[],"default_left":[0,0,0,0,0,0,0,0,0,0,0,0,0,0,0,0,0,0,0,0,0,0,0,0,0,0,0,0,0,0,0,0,0,0,0,0,0,0,0,0,0,0,0,0,0,0,0,0,0,0,0,0,0,0,0,0,0,0,0,0,0,0,0,0,0,0,0,0,0,0,0,0,0,0,0,0,0,0,0,0,0,0,0,0,0,0,0,0,0,0,0,0,0,0,0,0,0,0,0,0,0,0,0,0,0,0,0,0,0,0,0,0,0,0,0,0,0,0,0,0,0,0,0,0,0,0,0,0,0,0,0,0,0,0,0,0,0,0,0,0,0,0,0],"id":8,"left_children":[1,3,5,7,9,11,13,15,17,19,21,23,25,27,29,31,33,35,37,39,41,43,45,47,49,51,53,-1,55,57,59,-1,-1,61,63,65,67,69,-1,-1,71,-1,73,75,77,-1,-1,79,81,83,-1,85,87,89,91,-1,-1,93,95,-1,-1,-1,-1,97,-1,99,101,103,105,-1,-1,107,109,-1,-1,111,113,115,-1,117,119,-1,121,-1,-1,123,125,127,129,131,133,-1,135,-1,137,139,141,-1,-1,-1,-1,-1,-1,-1,-1,-1,-1,-1,-1,-1,-1,-1,-1,-1,-1,-1,-1,-1,-1,-1,-1,-1,-1,-1,-1,-1,-1,-1,-1,-1,-1,-1,-1,-1,-1,-1,-1,-1,-1,-1,-1,-1,-1],"loss_changes":[1.5224857E1,6.001216E0,8.927961E0,8.720688E0,7.237134E0,7.947268E0,7.459138E0,4.009347E0,6.8866253E0,5.08726E0,7.454578E0,1.0185107E1,6.954976E0,2.9630957E0,6.569319E0,1.8264775E0,4.0167837E0,3.3388596E0,6.0143585E0,5.880072E0,1.821557E0,6.6786547E0,7.633014E-1,6.904889E0,5.7470846E0,6.27905E0,7.2495093E0,0E0,6.799407E-1,5.0160465E0,6.3037047E0,0E0,0E0,1.9714283E0,3.0442257E0,6.2801485E0,4.3539276E0,6.7406464E-1,0E0,0E0,6.4300985E0,0E0,2.5366502E0,5.7666063E0,6.769431E0,0E0,0E0,6.7332635E0,5.5689487E0,1.3211603E0,0E0,8.453882E0,7.2015314E0,6.1550617E0,3.5943427E0,0E0,0E0,3.7869797E0,4.4237957E0,0E0,0E0,0E0,0E0,4.5516906E0,0E0,7.0372105E-1,9.754297E0,1.8737725E0,1.8641129E0,0E0,0E0,4.2708707E0,6.4298043E0,0E0,0E0,4.947846E0,2.4194183E0,1.6644876E0,0E0,7.0703797E0,6.692568E0,0E0,5.364023E0,0E0,0E0,5.217949E0,1.0221188E1,4.1206703E0,2.9599757E0,3.073133E0,9.967585E0,0E0,1.8185743E0,0E0,4.554939E0,3.9541683E0,2.4762323E0,0E0,0E0,0E0,0E0,0E0,0E0,0E0,0E0,0E0,0E0,0E0,0E0,0E0,0E0,0E0,0E0,0E0,0E0,0E0,0E0,0E0,0E0,0E0,0E0,0E0,0E0,0E0,0E0,0E0,0E0,0E0,0E0,0E0,0E0,0E0,0E0,0E0,0E0,0E0,0E0,0E0,0E0,0E0,0E0,0E0,0E0],"parents":[2147483647,0,0,1,1,2,2,3,3,4,4,5,5,6,6,7,7,8,8,9,9,10,10,11,11,12,12,13,13,14,14,15,15,16,16,17,17,18,18,19,19,20,20,21,21,22,22,23,23,24,24,25,25,26,26,28,28,29,29,30,30,33,33,34,34,35,35,36,36,37,37,40,40,42,42,43,43,44,44,47,47,48,48,49,49,51,51,52,52,53,53,54,54,57,57,58,58,63,63,65,65,66,66,67,67,68,68,71,71,72,72,75,75,76,76,77,77,79,79,80,80,82,82,85,85,86,86,87,87,88,88,89,89,90,90,92,92,94,94,95,95,96,96],"right_children":[2,4,6,8,10,12,14,16,18,20,22,24,26,28,30,32,34,36,38,40,42,44,46,48,50,52,54,-1,56,58,60,-1,-1,62,64,66,68,70,-1,-1,72,-1,74,76,78,-1,-1,80,82,84,-1,86,88,90,92,-1,-1,94,96,-1,-1,-1,-1,98,-1,100,102,104,106,-1,-1,108,110,-1,-1,112,114,116,-1,118,120,-1,122,-1,-1,124,126,128,130,132,134,-1,136,-1,138,140,142,-1,-1,-1,-1,-1,-1,-1,-1,-1,-1,-1,-1,-1,-1,-1,-1,-1,-1,-1,-1,-1,-1,-1,-1,-1,-1,-1,-1,-1,-1,-1,-1,-1,-1,-1,-1,-1,-1,-1,-1,-1,-1,-1,-1,-1,-1],"split_conditions":[-8.436533E-4,1E0,7.7131486E-1,5E0,3.4762612E-1,1E0,2.0675872E-1,5.991186E-1,1E0,1E0,6.6550523E-1,7.5378096E-1,6.58619E-1,2.4014619E-1,7.4559915E-1,5.345079E-1,1E0,1E0,1E0,2.6359463E-1,2E0,7.777612E-1,7.340934E-1,1E0,1.981031E0,5.566434E-1,9.278305E-1,-4.01575E-3,3.5863388E-1,8.061114E-1,6.440324E-1,-1.2876779E-4,-1.3557801E-2,6.74479E-1,4.883111E-1,2.8687498E-1,2.2566837E-1,1E0,8.873794E-3,1.2361322E-2,1E0,1.5530082E-2,1E0,1E0,4.3743473E-1,1.3420633E-2,2.089496E-3,1.02301426E-1,-1.9097058E-2,7.669196E-1,-6.502596E-3,3.9762366E-1,6.9064176E-1,4.1160567E-4,1E0,2.1258711E-3,1.3119966E-2,4.7254914E-1,6.4694464E-1,1.3613831E-2,-7.876664E-3,-1.1798336E-2,2.176158E-3,1E0,1.3378111E-2,2.51575E-1,3.3203724E-1,1E0,2E0,-1.29616605E-2,-2.0718228E-3,1E0,1E0,1.0749958E-2,-4.1920245E-3,9E0,1E0,1.4E1,1.3159872E-2,5.6637585E-1,2.3905346E-1,9.2014875E-3,1E0,1.5663177E-2,2.1217647E-3,1E0,5.392448E-1,6.2725604E-1,8.697326E-4,5.7901305E-1,1E0,1.4617575E-2,1E0,7.692417E-3,5.738413E-1,6.707857E-1,4.7462577E-1,7.5297556E-3,-1.0976559E-2,1.4755509E-2,3.6386277E-3,-1.3590542E-2,5.4452186E-3,6.397479E-3,-6.5139043E-3,1.7229944E-2,7.5429305E-3,1.0432109E-2,-4.4814744E-3,-1.1897941E-2,7.6590544E-3,6.128552E-3,-4.9070967E-3,-3.7120564E-3,-1.18316775E-2,-1.0857946E-2,2.165742E-3,-8.902745E-3,1.100333E-2,1.2542083E-2,4.7675008E-4,-1.3442057E-2,-4.383397E-3,9.349854E-3,-1.4454847E-3,-6.2540774E-3,6.972015E-3,-1.4695474E-3,1.2386339E-2,-1.1827667E-2,4.0457253E-3,9.688586E-3,-2.9735004E-3,1.6168351E-3,-9.895052E-3,-5.4965513E-3,6.626424E-3,-1.0091353E-2,3.1960364E-3,-1.2482614E-2,2.0722202E-3,8.0737425E-3,-6.442505E-3],"split_indices":[200,222,164,196,147,202,34,172,102,67,151,164,146,37,37,172,201,127,206,45,187,164,151,105,223,44,35,0,44,172,146,0,0,164,158,39,34,218,0,0,220,0,218,58,37,0,0,224,224,164,0,42,40,200,207,0,0,146,49,0,0,0,0,73,0,224,43,207,163,0,0,201,109,0,0,196,214,196,0,39,39,0,163,0,0,55,39,192,200,166,203,0,209,0,34,146,35,0,0,0,0,0,0,0,0,0,0,0,0,0,0,0,0,0,0,0,0,0,0,0,0,0,0,0,0,0,0,0,0,0,0,0,0,0,0,0,0,0,0,0,0,0,0],"split_type":[0,0,0,0,0,0,0,0,0,0,0,0,0,0,0,0,0,0,0,0,0,0,0,0,0,0,0,0,0,0,0,0,0,0,0,0,0,0,0,0,0,0,0,0,0,0,0,0,0,0,0,0,0,0,0,0,0,0,0,0,0,0,0,0,0,0,0,0,0,0,0,0,0,0,0,0,0,0,0,0,0,0,0,0,0,0,0,0,0,0,0,0,0,0,0,0,0,0,0,0,0,0,0,0,0,0,0,0,0,0,0,0,0,0,0,0,0,0,0,0,0,0,0,0,0,0,0,0,0,0,0,0,0,0,0,0,0,0,0,0,0,0,0],"sum_hessian":[3.8324847E2,1.241212E2,2.5912726E2,5.8928303E1,6.5192894E1,2.131667E2,4.5960564E1,1.224069E1,4.6687614E1,2.3967865E1,4.122503E1,1.05451614E2,1.0771509E2,4.7455688E0,4.1214996E1,3.7485118E0,8.492179E0,4.169129E1,4.9963226E0,1.6979818E1,6.9880476E0,3.7727722E1,3.4973094E0,9.895457E1,6.497045E0,6.5972946E1,4.174214E1,1.4974917E0,3.2480772E0,3.7466446E1,3.74855E0,1.4996401E0,2.2488716E0,2.7476733E0,5.7445054E0,2.4719202E1,1.6972088E1,3.2469165E0,1.7494061E0,3.2439785E0,1.373584E1,4.2412333E0,2.7468143E0,3.1484241E1,6.2434783E0,2.2477076E0,1.2496017E0,3.947479E1,5.9479782E1,5.247567E0,1.2494782E0,4.572839E1,2.0244553E1,3.599295E1,5.7491903E0,1.2489606E0,1.9991165E0,1.1244717E1,2.622173E1,2.2491093E0,1.4994407E0,1.4993331E0,1.24834E0,3.4973748E0,2.2471306E0,7.232404E0,1.74868E1,2.496166E0,1.4475922E1,1.9978137E0,1.2491027E0,6.743689E0,6.9921503E0,1.2482895E0,1.4985247E0,1.4493321E1,1.6990921E1,2.4979668E0,3.7455115E0,1.1240517E1,2.8234272E1,1.7495956E0,5.7730186E1,3.997964E0,1.2496033E0,2.0238836E1,2.5489555E1,1.7245108E1,2.9994445E0,6.4972906E0,2.9495659E1,2.7495022E0,2.9996881E0,2.2491171E0,8.9956E0,2.3473545E1,2.7481844E0,2.2477891E0,1.2495856E0,5.7349033E0,1.4975013E0,2.248393E0,1.5238405E1,1.2472434E0,1.2489226E0,8.733996E0,5.741925E0,4.4949346E0,2.2487545E0,5.4941664E0,1.4979842E0,6.2473464E0,8.245975E0,7.7465906E0,9.24433E0,1.248831E0,1.2491357E0,9.990738E0,1.2497784E0,4.7425995E0,2.349167E1,6.995019E0,5.073517E1,1.4241083E1,5.997753E0,1.799185E1,7.4977045E0,2.249624E0,1.4995484E1,1.4996623E0,1.4997823E0,3.9978294E0,2.4994612E0,1.2498017E1,1.6997643E1,1.7498413E0,1.2498467E0,5.246445E0,3.7491543E0,2.1725435E1,1.7481102E0,1.4991908E0,1.2489938E0],"tree_param":{"num_deleted":"0","num_feature":"225","num_nodes":"143","size_leaf_vector":"0"}},{"base_weights":[2.904251E-2,3.1300303E-1,-1.07629254E-1,6.468007E-1,1.685731E-1,5.9425235E-1,-1.5522103E-1,7.7639794E-1,-1.6277324E-1,-6.192312E-1,3.0278772E-1,-3.808495E-1,9.303664E-1,-1.1163215E-1,-1.0100719E0,4.8874894E-1,1.3981305E0,-8.563965E-1,1.1506725E-2,1.705981E-1,-1.0449318E0,1.30557865E-2,2.3319443E-1,-8.967687E-1,6.4793653E-3,3.2806966E-1,1.4592745E-2,-1.36921145E-2,-8.2405835E-2,7.505031E-5,-1.2198938E0,1.1807505E0,2.7733457E-1,1.5537982E-2,1.8951341E-3,-1.3243712E-2,1.9970157E-3,-6.417301E-1,1.2171449E-2,-2.9560095E-1,-1.547822E-2,-1.1713386E-2,2.7922165E-1,-2.0511337E-3,-1.1604092E-2,-3.0239952E-1,1.0900716E-2,-1.4278857E-2,-5.83177E-2,-3.0652483E-3,-1.4161345E0,1.4419796E-2,1.9103858E-3,-3.5585E-1,8.2596E-1,-1.1699137E-2,2.3036865E-3,-1.1560476E-2,4.570196E-3,3.2984787E-1,-9.81991E-3,8.76818E-3,-1.2829803E-2,1.4421228E-1,-2.2172174E-1,-1.6034294E-2,-3.8193946E-3,5.5210004E-3,-8.9480085E-3,1.0650396E-2,-3.878502E-3,6.3190376E-3,6.1146903E-4,-2.7039628E-3,3.6567473E-3,3.4986222E-3,-2.979156E-3],"categories":[],"categories_nodes":[],"categories_segments":[],"categories_sizes":[],"default_left":[0,0,0,0,0,0,0,0,0,0,0,0,0,0,0,0,0,0,0,0,0,0,0,0,0,0,0,0,0,0,0,0,0,0,0,0,0,0,0,0,0,0,0,0,0,0,0,0,0,0,0,0,0,0,0,0,0,0,0,0,0,0,0,0,0,0,0,0,0,0,0,0,0,0,0,0,0],"id":9,"left_children":[1,3,5,7,9,11,13,15,17,19,21,23,25,27,29,31,33,35,-1,37,39,-1,41,43,-1,45,-1,-1,47,-1,49,51,53,-1,-1,-1,-1,55,-1,57,-1,-1,59,-1,-1,61,-1,-1,63,-1,65,-1,-1,67,69,-1,-1,-1,-1,71,-1,-1,-1,73,75,-1,-1,-1,-1,-1,-1,-1,-1,-1,-1,-1,-1],"loss_changes":[1.4943743E1,5.921399E0,8.7806015E0,4.052929E0,9.562056E0,5.8354115E0,8.993235E0,5.117153E0,6.4434233E0,4.628085E0,5.02917E0,3.2330084E0,3.5756178E0,8.474668E0,2.514058E0,3.1415849E0,1.5346146E0,2.485467E0,0E0,5.452244E0,2.835906E0,0E0,5.0258675E0,4.4526577E-1,0E0,3.8082314E0,0E0,0E0,7.351699E0,0E0,1.3103838E0,1.0798068E0,7.0574303E0,0E0,0E0,0E0,0E0,1.9960515E0,0E0,3.6017785E0,0E0,0E0,4.869129E0,0E0,0E0,6.61189E0,0E0,0E0,7.524858E0,0E0,8.858614E-1,0E0,0E0,5.2588997E0,3.5276628E0,0E0,0E0,0E0,0E0,5.5767527E0,0E0,0E0,0E0,9.437659E0,5.578766E0,0E0,0E0,0E0,0E0,0E0,0E0,0E0,0E0,0E0,0E0,0E0,0E0],"parents":[2147483647,0,0,1,1,2,2,3,3,4,4,5,5,6,6,7,7,8,8,9,9,10,10,11,11,12,12,13,13,14,14,15,15,16,16,17,17,19,19,20,20,22,22,23,23,25,25,28,28,30,30,31,31,32,32,37,37,39,39,42,42,45,45,48,48,50,50,53,53,54,54,59,59,63,63,64,64],"right_children":[2,4,6,8,10,12,14,16,18,20,22,24,26,28,30,32,34,36,-1,38,40,-1,42,44,-1,46,-1,-1,48,-1,50,52,54,-1,-1,-1,-1,56,-1,58,-1,-1,60,-1,-1,62,-1,-1,64,-1,66,-1,-1,68,70,-1,-1,-1,-1,72,-1,-1,-1,74,76,-1,-1,-1,-1,-1,-1,-1,-1,-1,-1,-1,-1],"split_conditions":[-8.436533E-4,3.45352E-1,2.4084872E-1,8.306599E-1,3.9651182E-1,8.181154E-2,8.916616E-1,7.566564E-1,9.888451E-1,6.876022E-1,3.5248554E-1,3.3704263E-1,1E0,2.6069713E-1,1E0,1.5366475E-1,-1.3676436E-3,1E0,1.1506725E-2,5.565949E-1,1E0,1.30557865E-2,3.331327E-1,1.8415825E-1,6.4793653E-3,5.978321E-1,1.4592745E-2,-1.36921145E-2,-7.9372094E-4,7.505031E-5,4.1625544E-1,7.64248E-1,3.157526E-1,1.5537982E-2,1.8951341E-3,-1.3243712E-2,1.9970157E-3,1E0,1.2171449E-2,7.13341E-1,-1.547822E-2,-1.1713386E-2,8.8557357E-1,-2.0511337E-3,-1.1604092E-2,3.7258506E-1,1.0900716E-2,-1.4278857E-2,7.391958E-4,-3.0652483E-3,5.039667E-1,1.4419796E-2,1.9103858E-3,5.451911E-1,4.1407162E-1,-1.1699137E-2,2.3036865E-3,-1.1560476E-2,4.570196E-3,1E0,-9.81991E-3,8.76818E-3,-1.2829803E-2,8E0,3.7013358E-1,-1.6034294E-2,-3.8193946E-3,5.5210004E-3,-8.9480085E-3,1.0650396E-2,-3.878502E-3,6.3190376E-3,6.1146903E-4,-2.7039628E-3,3.6567473E-3,3.4986222E-3,-2.979156E-3],"split_indices":[200,38,39,178,38,224,180,174,223,170,43,44,217,39,127,146,200,219,0,166,203,0,42,42,0,166,0,0,200,0,40,180,44,0,0,0,0,206,0,166,0,0,34,0,0,162,0,0,200,0,224,0,0,172,146,0,0,0,0,222,0,0,0,196,42,0,0,0,0,0,0,0,0,0,0,0,0],"split_type":[0,0,0,0,0,0,0,0,0,0,0,0,0,0,0,0,0,0,0,0,0,0,0,0,0,0,0,0,0,0,0,0,0,0,0,0,0,0,0,0,0,0,0,0,0,0,0,0,0,0,0,0,0,0,0,0,0,0,0,0,0,0,0,0,0,0,0,0,0,0,0,0,0,0,0,0,0],"sum_hessian":[3.8318683E2,1.2408579E2,2.5910104E2,3.6424774E1,8.766102E1,1.5723599E1,2.4337744E2,3.1433804E1,4.9909687E0,1.22344265E1,7.542659E1,3.9964335E0,1.1727166E1,2.3264543E2,1.0732014E1,2.271203E1,8.721773E0,3.493859E0,1.4971098E0,4.494587E0,7.73984E0,3.7423148E0,7.168427E1,2.747121E0,1.2493124E0,6.2407537E0,5.486412E0,4.242586E0,2.2840285E2,1.9994553E0,8.732558E0,4.242026E0,1.8470005E1,7.4735885E0,1.248185E0,2.2450268E0,1.2488321E0,2.7482278E0,1.746359E0,3.7459693E0,3.9938707E0,1.4988123E0,7.018546E1,1.2488343E0,1.4982868E0,3.7451901E0,2.4955635E0,2.9921856E0,2.2541066E2,1.9975027E0,6.7350554E0,2.9946384E0,1.2473875E0,8.737351E0,9.732654E0,1.49892E0,1.249308E0,1.4976848E0,2.2482843E0,6.818685E1,1.9986142E0,1.7484152E0,1.996775E0,1.0070724E2,1.2470342E2,5.236332E0,1.4987239E0,3.2454562E0,5.491895E0,8.233498E0,1.4991564E0,3.1464659E1,3.672219E1,3.4986565E1,6.572067E1,1.4245579E1,1.1045785E2],"tree_param":{"num_deleted":"0","num_feature":"225","num_nodes":"77","size_leaf_vector":"0"}},{"base_weights":[2.870684E-2,3.1007457E-1,-1.06697954E-1,6.4161485E-1,1.6667157E-1,-2.0638796E-2,-4.9697566E-1,7.701169E-1,-1.6116379E-1,-6.147405E-1,2.9977143E-1,-2.1288943E-1,1.6778603E-1,5.8778334E-1,-6.3285196E-1,4.8483965E-1,1.3869418E0,-8.506186E-1,1.1441312E-2,-1.882411E-1,-1.4732053E-2,1.2958711E-2,2.3068033E-1,-2.9467624E-1,9.059926E-1,3.653519E-1,-1.4568703E-1,-4.0099076E-3,1.0306814E0,-7.580666E-1,5.145965E-1,1.1724966E0,2.7480796E-1,1.5413545E-2,1.884672E-3,-1.3157932E-2,1.9859723E-3,7.96684E-1,-7.806819E-1,-2.2460993E-1,3.789903E-1,-2.1283445E-1,-1.1503042E0,1.3198975E0,-6.4615416E-3,1.5480286E-1,8.11261E-1,-3.1508237E-1,8.043443E-1,2.0961203E-3,1.3027227E-2,-1.8413489E-1,-9.884434E-1,1.3531027E-2,-7.812733E-3,1.4318467E-2,1.8998403E-3,-3.526951E-1,8.1862557E-1,1.2928786E-2,-2.1918463E-3,-1.3777117E-2,-1.0493088E-1,-4.5317373E-1,1.2489314E-2,9.3531287E-1,1.3353424E-1,-4.449739E-1,8.303873E-2,-1.4034575E0,1.8661497E-4,1.5552412E-2,2.1041934E-3,6.167071E-1,-2.213516E-1,1.050223E0,-4.816686E-1,5.014897E-1,-5.054883E-1,-4.438685E-3,1.4525576E-2,7.626702E-3,-4.7351295E-1,-1.1227016E0,1.5149446E-1,5.4793837E-3,-8.873634E-3,1.0559758E-2,-3.8553365E-3,6.5570925E-3,-6.4051943E-3,3.4583216E-3,-1.0621715E-2,-2.0038159E-4,1.2368842E-2,-5.1472643E-3,3.8610047E-3,2.7810456E-3,-6.5126806E-3,1.5984845E-3,-1.1789492E-2,-3.8193965E-3,-1.6125971E-2,9.251022E-3,-1.4299682E-3,-6.184119E-3,6.9208303E-3,-1.4494198E-3,1.2273957E-2,4.054135E-3,-1.17620975E-2,9.599705E-3,-2.9647744E-3,1.6243851E-3,-9.78383E-3,1.1020772E-2,-9.080193E-3,-9.990903E-3,3.172978E-3,-1.2345014E-2,2.1016104E-3,8.035553E-3,-6.405245E-3],"categories":[],"categories_nodes":[],"categories_segments":[],"categories_sizes":[],"default_left":[0,0,0,0,0,0,0,0,0,0,0,0,0,0,0,0,0,0,0,0,0,0,0,0,0,0,0,0,0,0,0,0,0,0,0,0,0,0,0,0,0,0,0,0,0,0,0,0,0,0,0,0,0,0,0,0,0,0,0,0,0,0,0,0,0,0,0,0,0,0,0,0,0,0,0,0,0,0,0,0,0,0,0,0,0,0,0,0,0,0,0,0,0,0,0,0,0,0,0,0,0,0,0,0,0,0,0,0,0,0,0,0,0,0,0,0,0,0,0,0,0,0,0],"id":10,"left_children":[1,3,5,7,9,11,13,15,17,19,21,23,25,27,29,31,33,35,-1,37,-1,-1,39,41,43,45,47,-1,49,51,53,55,57,-1,-1,-1,-1,59,61,63,65,67,69,71,-1,73,75,77,79,-1,-1,81,83,-1,-1,-1,-1,85,87,-1,-1,-1,89,91,-1,93,95,97,99,101,-1,-1,-1,103,105,107,109,111,113,115,-1,-1,117,119,121,-1,-1,-1,-1,-1,-1,-1,-1,-1,-1,-1,-1,-1,-1,-1,-1,-1,-1,-1,-1,-1,-1,-1,-1,-1,-1,-1,-1,-1,-1,-1,-1,-1,-1,-1,-1,-1,-1],"loss_changes":[1.4668012E1,5.8387423E0,8.724936E0,3.9831123E0,9.404233E0,7.792622E0,7.291255E0,5.0323143E0,6.362707E0,4.5665917E0,4.9603167E0,1.0006448E1,6.7852798E0,2.9287963E0,6.4533215E0,3.1014714E0,1.5073261E0,2.4538996E0,0E0,6.4483953E0,0E0,0E0,4.992667E0,6.7532825E0,5.6681194E0,6.1612787E0,7.1313815E0,0E0,6.756139E-1,4.9022217E0,6.2159157E0,1.0632205E0,6.931018E0,0E0,0E0,0E0,0E0,2.423272E0,2.5746117E0,6.7919064E0,7.4118314E0,6.385965E0,2.5408134E0,1.3036242E0,0E0,8.25423E0,7.0686646E0,6.0046644E0,3.5446E0,0E0,0E0,3.71549E0,4.3344326E0,0E0,0E0,0E0,0E0,5.174464E0,3.4734902E0,0E0,0E0,0E0,2.1489463E0,8.511473E0,0E0,4.8448486E0,6.659908E0,7.9311256E0,4.2095203E0,8.791189E-1,0E0,0E0,0E0,5.1073103E0,1.0034467E1,4.040758E0,2.9407384E0,3.0271292E0,9.790566E0,4.999488E0,0E0,0E0,4.47079E0,3.9045715E0,2.450392E0,0E0,0E0,0E0,0E0,0E0,0E0,0E0,0E0,0E0,0E0,0E0,0E0,0E0,0E0,0E0,0E0,0E0,0E0,0E0,0E0,0E0,0E0,0E0,0E0,0E0,0E0,0E0,0E0,0E0,0E0,0E0,0E0,0E0,0E0,0E0,0E0,0E0,0E0],"parents":[2147483647,0,0,1,1,2,2,3,3,4,4,5,5,6,6,7,7,8,8,9,9,10,10,11,11,12,12,13,13,14,14,15,15,16,16,17,17,19,19,22,22,23,23,24,24,25,25,26,26,28,28,29,29,30,30,31,31,32,32,37,37,38,38,39,39,40,40,41,41,42,42,43,43,45,45,46,46,47,47,48,48,51,51,52,52,57,57,58,58,62,62,63,63,65,65,66,66,67,67,68,68,69,69,73,73,74,74,75,75,76,76,77,77,78,78,79,79,82,82,83,83,84,84],"right_children":[2,4,6,8,10,12,14,16,18,20,22,24,26,28,30,32,34,36,-1,38,-1,-1,40,42,44,46,48,-1,50,52,54,56,58,-1,-1,-1,-1,60,62,64,66,68,70,72,-1,74,76,78,80,-1,-1,82,84,-1,-1,-1,-1,86,88,-1,-1,-1,90,92,-1,94,96,98,100,102,-1,-1,-1,104,106,108,110,112,114,116,-1,-1,118,120,122,-1,-1,-1,-1,-1,-1,-1,-1,-1,-1,-1,-1,-1,-1,-1,-1,-1,-1,-1,-1,-1,-1,-1,-1,-1,-1,-1,-1,-1,-1,-1,-1,-1,-1,-1,-1,-1,-1],"split_conditions":[-8.436533E-4,3.45352E-1,7.7131486E-1,8.306599E-1,3.9651182E-1,1E0,2.0675872E-1,7.566564E-1,9.888451E-1,-1.2855337E-3,3.5248554E-1,7.5378096E-1,6.58619E-1,2.4014619E-1,7.4559915E-1,1.5366475E-1,-1.3676436E-3,1E0,1.1441312E-2,1E0,-1.4732053E-2,1.2958711E-2,4.5415592E-1,8.2531786E-1,1.981031E0,5.566434E-1,9.278305E-1,-4.0099076E-3,3.5863388E-1,8.061114E-1,7.3334503E-1,7.64248E-1,3.157526E-1,1.5413545E-2,1.884672E-3,-1.3157932E-2,1.9859723E-3,3.9775553E-1,3.1458107E-1,3.5725468E-1,1E0,1E0,8.159424E-1,7.669196E-1,-6.4615416E-3,3.9762366E-1,6.9064176E-1,4.1160567E-4,1E0,2.0961203E-3,1.3027227E-2,4.7254914E-1,6.4694464E-1,1.3531027E-2,-7.812733E-3,1.4318467E-2,1.8998403E-3,5.451911E-1,4.1407162E-1,1.2928786E-2,-2.1918463E-3,-1.3777117E-2,1E0,3.7109044E-1,1.2489314E-2,1E0,1E0,3.2957754E-1,7.8359836E-1,6.610779E-1,1.8661497E-4,1.5552412E-2,2.1041934E-3,1E0,5.392448E-1,6.2725604E-1,1E0,5.7901305E-1,1E0,6E0,1.4525576E-2,7.626702E-3,5.738413E-1,6.707857E-1,4.7462577E-1,5.4793837E-3,-8.873634E-3,1.0559758E-2,-3.8553365E-3,6.5570925E-3,-6.4051943E-3,3.4583216E-3,-1.0621715E-2,-2.0038159E-4,1.2368842E-2,-5.1472643E-3,3.8610047E-3,2.7810456E-3,-6.5126806E-3,1.5984845E-3,-1.1789492E-2,-3.8193965E-3,-1.6125971E-2,9.251022E-3,-1.4299682E-3,-6.184119E-3,6.9208303E-3,-1.4494198E-3,1.2273957E-2,4.054135E-3,-1.17620975E-2,9.599705E-3,-2.9647744E-3,1.6243851E-3,-9.78383E-3,1.1020772E-2,-9.080193E-3,-9.990903E-3,3.172978E-3,-1.2345014E-2,2.1016104E-3,8.035553E-3,-6.405245E-3],"split_indices":[200,38,164,178,38,202,34,174,223,200,43,164,146,37,37,146,200,219,0,209,0,0,160,36,223,44,35,0,44,172,39,180,44,0,0,0,0,36,36,224,66,1,190,164,0,42,40,200,220,0,0,146,49,0,0,0,0,172,146,0,0,0,203,150,0,58,127,48,149,186,0,0,0,55,39,192,124,166,203,196,0,0,34,146,35,0,0,0,0,0,0,0,0,0,0,0,0,0,0,0,0,0,0,0,0,0,0,0,0,0,0,0,0,0,0,0,0,0,0,0,0,0,0],"split_type":[0,0,0,0,0,0,0,0,0,0,0,0,0,0,0,0,0,0,0,0,0,0,0,0,0,0,0,0,0,0,0,0,0,0,0,0,0,0,0,0,0,0,0,0,0,0,0,0,0,0,0,0,0,0,0,0,0,0,0,0,0,0,0,0,0,0,0,0,0,0,0,0,0,0,0,0,0,0,0,0,0,0,0,0,0,0,0,0,0,0,0,0,0,0,0,0,0,0,0,0,0,0,0,0,0,0,0,0,0,0,0,0,0,0,0,0,0,0,0,0,0,0,0],"sum_hessian":[3.8313358E2,1.2405676E2,2.590768E2,3.6408344E1,8.764842E1,2.131324E2,4.5944405E1,3.1419638E1,4.988706E0,1.2229857E1,7.5418564E1,1.0543094E2,1.07701454E2,4.744126E0,4.120028E1,2.2704832E1,8.714807E0,3.4923725E0,1.4963335E0,8.985159E0,3.244698E0,3.7401476E0,7.167841E1,9.893568E1,6.495259E0,6.596294E1,4.1738518E1,1.4969009E0,3.247225E0,3.745263E1,3.7476497E0,4.2400775E0,1.8464754E1,7.466692E0,1.248114E0,2.2435923E0,1.2487801E0,3.2452404E0,5.7399187E0,1.7485619E1,5.41928E1,9.143825E1,7.4974275E0,5.2459683E0,1.2492907E0,4.5721405E1,2.0241533E1,3.598972E1,5.748801E0,1.24876E0,1.9984651E0,1.1242861E1,2.6209768E1,2.2485416E0,1.4991082E0,2.9927583E0,1.2473191E0,8.735935E0,9.72882E0,1.9970912E0,1.2481493E0,2.4959483E0,3.2439704E0,1.5737071E1,1.7485478E0,1.5730144E1,3.8462654E1,5.095527E1,4.0482983E1,5.997911E0,1.4995165E0,3.996458E0,1.2495103E0,2.023457E1,2.5486835E1,1.7242464E1,2.9990697E0,6.4962406E0,2.9493477E1,2.999475E0,2.749326E0,2.248975E0,8.993886E0,2.3461649E1,2.7481184E0,3.245002E0,5.490933E0,8.229729E0,1.4990913E0,1.2477062E0,1.9962641E0,6.9935946E0,8.743476E0,3.998094E0,1.1732049E1,1.0492811E1,2.7969843E1,1.1233346E1,3.9721924E1,3.8983616E1,1.4993653E0,1.4995888E0,4.4983225E0,1.4237336E1,5.9972343E0,1.798983E1,7.497005E0,2.2495387E0,1.4992925E1,1.4997914E0,1.4992782E0,3.9968095E0,2.4994311E0,1.2497805E1,1.6995672E1,1.2495772E0,1.7498978E0,5.2447925E0,3.7490935E0,2.171408E1,1.7475696E0,1.4992423E0,1.248876E0],"tree_param":{"num_deleted":"0","num_feature":"225","num_nodes":"123","size_leaf_vector":"0"}},{"base_weights":[2.8585754E-2,3.0744883E-1,-1.0559336E-1,6.3650775E-1,1.6516544E-1,5.8809805E-1,-1.5261497E-1,7.63931E-1,-1.5957583E-1,-6.101406E-1,2.9720056E-1,-3.792016E-1,9.217606E-1,-1.0956068E-1,-9.975068E-1,4.809825E-1,1.3759626E0,-8.449162E-1,1.1376713E-2,1.712695E-1,-1.0316384E0,3.4451675E-1,-9.761614E-3,-8.921395E-1,6.438201E-3,3.2470566E-1,1.4462305E-2,-1.3598442E-2,-8.051911E-2,1.08501445E-4,-1.2059505E0,1.1643679E0,2.7231398E-1,1.841672E-3,1.5298986E-2,-1.3073475E-2,1.9749913E-3,-6.3313323E-1,1.2069563E-2,3.150279E-5,-1.338969E0,3.7782714E-2,5.9428793E-1,-1.1560597E-2,-2.0213292E-3,-3.0123186E-1,1.0814766E-2,-1.4151249E-2,-5.6646068E-2,-3.0174407E-3,-1.4005214E0,1.4218918E-2,1.8893552E-3,-3.495771E-1,8.113892E-1,2.3267823E-3,-1.15910815E-2,-5.172959E-3,-1.5230947E-2,4.1780445E-1,-6.862092E-1,2.493733E-1,1.0666655E0,8.685225E-3,-1.2736495E-2,1.4272739E-1,-2.1751024E-1,-1.5859528E-2,-3.7745468E-3,5.4381415E-3,-8.800163E-3,1.0470383E-2,-3.8323274E-3,5.5321986E-3,-1.0908127E-2,5.3525055E-3,-9.408329E-3,4.3363383E-4,1.2449794E-2,1.3441831E-2,3.743083E-3,2.8489777E-3,-4.9179797E-3,-3.2465516E-3,1.8154056E-3],"categories":[],"categories_nodes":[],"categories_segments":[],"categories_sizes":[],"default_left":[0,0,0,0,0,0,0,0,0,0,0,0,0,0,0,0,0,0,0,0,0,0,0,0,0,0,0,0,0,0,0,0,0,0,0,0,0,0,0,0,0,0,0,0,0,0,0,0,0,0,0,0,0,0,0,0,0,0,0,0,0,0,0,0,0,0,0,0,0,0,0,0,0,0,0,0,0,0,0,0,0,0,0,0,0],"id":11,"left_children":[1,3,5,7,9,11,13,15,17,19,21,23,25,27,29,31,33,35,-1,37,39,41,-1,43,-1,45,-1,-1,47,-1,49,51,53,-1,-1,-1,-1,55,-1,-1,57,59,61,-1,-1,63,-1,-1,65,-1,67,-1,-1,69,71,-1,-1,-1,-1,73,75,77,79,-1,-1,81,83,-1,-1,-1,-1,-1,-1,-1,-1,-1,-1,-1,-1,-1,-1,-1,-1,-1,-1],"loss_changes":[1.4403347E1,5.7483606E0,8.572033E0,3.914712E0,9.254414E0,5.744041E0,8.778554E0,4.9496403E0,6.2832713E0,4.5325785E0,4.9398813E0,3.195619E0,3.5131512E0,8.372842E0,2.4772205E0,3.0620923E0,1.499094E0,2.4229217E0,0E0,5.3393693E0,2.781662E0,5.6782503E0,0E0,4.4853735E-1,0E0,3.7540543E0,0E0,0E0,7.227737E0,0E0,1.2882042E0,1.0470824E0,6.8071337E0,0E0,0E0,0E0,0E0,1.9760264E0,0E0,0E0,2.3120117E-1,9.768904E0,6.405114E0,0E0,0E0,6.5015717E0,0E0,0E0,7.291462E0,0E0,8.6737823E-1,0E0,0E0,5.0915337E0,3.4203448E0,0E0,0E0,0E0,0E0,5.347583E0,4.310879E0,5.067537E0,2.7583427E0,0E0,0E0,9.313918E0,5.4327717E0,0E0,0E0,0E0,0E0,0E0,0E0,0E0,0E0,0E0,0E0,0E0,0E0,0E0,0E0,0E0,0E0,0E0,0E0],"parents":[2147483647,0,0,1,1,2,2,3,3,4,4,5,5,6,6,7,7,8,8,9,9,10,10,11,11,12,12,13,13,14,14,15,15,16,16,17,17,19,19,20,20,21,21,23,23,25,25,28,28,30,30,31,31,32,32,37,37,40,40,41,41,42,42,45,45,48,48,50,50,53,53,54,54,59,59,60,60,61,61,62,62,65,65,66,66],"right_children":[2,4,6,8,10,12,14,16,18,20,22,24,26,28,30,32,34,36,-1,38,40,42,-1,44,-1,46,-1,-1,48,-1,50,52,54,-1,-1,-1,-1,56,-1,-1,58,60,62,-1,-1,64,-1,-1,66,-1,68,-1,-1,70,72,-1,-1,-1,-1,74,76,78,80,-1,-1,82,84,-1,-1,-1,-1,-1,-1,-1,-1,-1,-1,-1,-1,-1,-1,-1,-1,-1,-1],"split_conditions":[-8.436533E-4,3.45352E-1,2.4084872E-1,8.306599E-1,3.9651182E-1,8.181154E-2,8.916616E-1,7.566564E-1,9.888451E-1,6.876022E-1,8.8557357E-1,3.3704263E-1,1E0,2.6069713E-1,1E0,1.5366475E-1,1E1,1E0,1.1376713E-2,5.565949E-1,8.8691175E-2,1E0,-9.761614E-3,1E0,6.438201E-3,5.978321E-1,1.4462305E-2,-1.3598442E-2,-7.9372094E-4,1.08501445E-4,4.1625544E-1,7.64248E-1,3.157526E-1,1.841672E-3,1.5298986E-2,-1.3073475E-2,1.9749913E-3,3.3862084E-1,1.2069563E-2,3.150279E-5,3.398894E-1,4.8694998E-1,-1.601613E-3,-1.1560597E-2,-2.0213292E-3,3.7258506E-1,1.0814766E-2,-1.4151249E-2,7.391958E-4,-3.0174407E-3,5.039667E-1,1.4218918E-2,1.8893552E-3,5.451911E-1,4.1407162E-1,2.3267823E-3,-1.15910815E-2,-5.172959E-3,-1.5230947E-2,6.316185E-1,5.0836235E-1,7.409052E-1,5E0,8.685225E-3,-1.2736495E-2,7.765789E-1,6.6374516E-1,-1.5859528E-2,-3.7745468E-3,5.4381415E-3,-8.800163E-3,1.0470383E-2,-3.8323274E-3,5.5321986E-3,-1.0908127E-2,5.3525055E-3,-9.408329E-3,4.3363383E-4,1.2449794E-2,1.3441831E-2,3.743083E-3,2.8489777E-3,-4.9179797E-3,-3.2465516E-3,1.8154056E-3],"split_indices":[200,38,39,178,38,224,180,174,223,170,34,44,217,39,127,146,194,219,0,166,224,127,0,99,0,166,0,0,200,0,40,180,44,0,0,0,0,34,0,0,43,154,200,0,0,162,0,0,200,0,224,0,0,172,146,0,0,0,0,43,166,38,195,0,0,164,49,0,0,0,0,0,0,0,0,0,0,0,0,0,0,0,0,0,0],"split_type":[0,0,0,0,0,0,0,0,0,0,0,0,0,0,0,0,0,0,0,0,0,0,0,0,0,0,0,0,0,0,0,0,0,0,0,0,0,0,0,0,0,0,0,0,0,0,0,0,0,0,0,0,0,0,0,0,0,0,0,0,0,0,0,0,0,0,0,0,0,0,0,0,0,0,0,0,0,0,0,0,0,0,0,0,0],"sum_hessian":[3.830674E2,1.2402214E2,2.5904526E2,3.6389828E1,8.763232E1,1.5714112E1,2.4333115E2,3.1403664E1,4.986164E0,1.2225212E1,7.5407104E1,3.9952526E0,1.171886E1,2.3260753E2,1.072362E1,2.269665E1,8.707014E0,3.4906998E0,1.4954642E0,4.4917216E0,7.7334905E0,7.340879E1,1.998316E0,2.7462392E0,1.2490134E0,6.237369E0,5.48149E0,4.2401147E0,2.2836742E2,1.9993949E0,8.724225E0,4.237835E0,1.8458815E1,1.247222E0,7.4597917E0,2.2419739E0,1.2487259E0,2.7469158E0,1.744806E0,1.9975264E0,5.735964E0,3.346411E1,3.994468E1,1.4978819E0,1.2483572E0,3.7432323E0,2.494137E0,2.989059E0,2.2537836E2,1.9965785E0,6.727647E0,2.9905858E0,1.2472489E0,8.734265E0,9.724549E0,1.2488306E0,1.4980851E0,1.7474275E0,3.9885364E0,2.222249E1,1.124162E1,2.397028E1,1.5974399E1,1.7477028E0,1.9955294E0,1.00693085E2,1.2468527E2,5.229586E0,1.4980606E0,3.2445025E0,5.489763E0,8.2255335E0,1.4990155E0,2.0973202E1,1.2492883E0,1.7490585E0,9.492561E0,2.0725363E1,3.2449179E0,1.0731452E1,5.2429466E0,8.271185E1,1.7981232E1,9.8440475E1,2.624479E1],"tree_param":{"num_deleted":"0","num_feature":"225","num_nodes":"85","size_leaf_vector":"0"}},{"base_weights":[2.8279874E-2,3.0470675E-1,-1.0470169E-1,5.2802783E-1,9.798657E-2,5.8336735E-1,-1.5132135E-1,-1.9919842E-1,7.189602E-1,5.1606005E-1,-1.51315E-1,-3.7691015E-1,9.147784E-1,-1.0860551E-1,-9.899207E-1,-9.308116E-1,1.8797775E-1,8.480918E-1,-3.195374E-1,1.9768836E-1,1.168103E0,-2.878079E-1,1.0578321E0,-8.87021E-1,6.402961E-3,3.2252893E-1,1.4350666E-2,-1.3495477E-2,-7.979489E-2,1.0777883E-4,-1.1968992E0,-2.3096561E-4,-1.342697E-2,-6.5072477E-1,6.261969E-1,5.7688624E-1,1.1891056E0,-1.0179578E0,8.753548E-3,1.3495145E-2,-7.506575E-2,1.5233237E-2,3.5990363E-1,-4.728053E-1,5.819384E-1,1.3239142E-2,2.0361776E-3,-1.1494501E-2,-2.010148E-3,-2.991871E-1,1.0741477E-2,-1.4054592E-2,-5.609723E-2,-2.9974852E-3,-1.3900213E0,-1.16969785E-2,2.1609543E-3,-1.1420523E-2,1.3166016E-2,1.2870648E0,2.2985567E-1,-1.28140785E-2,1.3837719E0,-2.0324453E-3,-1.2895122E-2,-4.3137252E-1,7.594222E-1,1.0618423E-2,-4.1569513E-3,-8.456772E-3,-8.4635836E-1,-5.576299E-1,1.2992831E-2,8.631638E-3,-1.2656974E-2,1.4128567E-1,-2.1535392E-1,-1.5739644E-2,-3.7520817E-3,7.3861377E-3,-1.0886101E-2,1.4443451E-2,3.478727E-3,-1.3355375E-2,5.2880645E-3,6.2448704E-3,-6.4353053E-3,1.6900728E-2,7.365605E-3,6.293563E-3,-8.3686765E-3,1.323392E-2,-1.8282192E-3,-4.911915E-3,6.086099E-3,-1.0828896E-2,-2.2870512E-3,-1.0761965E-2,2.0880634E-3,-2.6958385E-3,3.6079187E-3,3.4834088E-3,-2.9053586E-3],"categories":[],"categories_nodes":[],"categories_segments":[],"categories_sizes":[],"default_left":[0,0,0,0,0,0,0,0,0,0,0,0,0,0,0,0,0,0,0,0,0,0,0,0,0,0,0,0,0,0,0,0,0,0,0,0,0,0,0,0,0,0,0,0,0,0,0,0,0,0,0,0,0,0,0,0,0,0,0,0,0,0,0,0,0,0,0,0,0,0,0,0,0,0,0,0,0,0,0,0,0,0,0,0,0,0,0,0,0,0,0,0,0,0,0,0,0,0,0,0,0,0,0],"id":12,"left_children":[1,3,5,7,9,11,13,15,17,19,21,23,25,27,29,31,33,35,37,39,41,43,45,47,-1,49,-1,-1,51,-1,53,-1,-1,55,57,59,61,63,-1,-1,65,-1,67,69,71,-1,-1,-1,-1,73,-1,-1,75,-1,77,-1,-1,79,-1,81,83,85,87,-1,-1,89,91,-1,-1,93,95,97,-1,-1,-1,99,101,-1,-1,-1,-1,-1,-1,-1,-1,-1,-1,-1,-1,-1,-1,-1,-1,-1,-1,-1,-1,-1,-1,-1,-1,-1,-1],"loss_changes":[1.41476965E1,5.7181883E0,8.428987E0,8.45376E0,6.970863E0,5.661209E0,8.644096E0,3.9223738E0,6.6573505E0,4.9445515E0,7.269433E0,3.1594524E0,3.453929E0,8.243825E0,2.4399977E0,1.7435017E0,3.8928661E0,3.256628E0,5.892525E0,5.7422614E0,1.7414551E0,6.503164E0,7.5199986E-1,4.4323683E-1,0E0,3.7019238E0,0E0,0E0,7.126417E0,0E0,1.26721E0,0E0,0E0,1.937412E0,2.981317E0,6.034958E0,4.2157173E0,6.7699575E-1,0E0,0E0,4.9258313E0,0E0,2.47999E0,5.625027E0,6.640777E0,0E0,0E0,0E0,0E0,6.419167E0,0E0,0E0,7.1462593E0,0E0,8.509426E-1,0E0,0E0,4.435263E0,0E0,7.1097946E-1,9.351158E0,1.8054001E0,1.8180714E0,0E0,0E0,5.4624376E0,2.89342E0,0E0,0E0,4.9118476E0,2.3797083E0,1.6140203E0,0E0,0E0,0E0,9.268418E0,5.4275255E0,0E0,0E0,0E0,0E0,0E0,0E0,0E0,0E0,0E0,0E0,0E0,0E0,0E0,0E0,0E0,0E0,0E0,0E0,0E0,0E0,0E0,0E0,0E0,0E0,0E0,0E0],"parents":[2147483647,0,0,1,1,2,2,3,3,4,4,5,5,6,6,7,7,8,8,9,9,10,10,11,11,12,12,13,13,14,14,15,15,16,16,17,17,18,18,19,19,20,20,21,21,22,22,23,23,25,25,28,28,30,30,33,33,34,34,35,35,36,36,37,37,40,40,42,42,43,43,44,44,49,49,52,52,54,54,57,57,59,59,60,60,61,61,62,62,65,65,66,66,69,69,70,70,71,71,75,75,76,76],"right_children":[2,4,6,8,10,12,14,16,18,20,22,24,26,28,30,32,34,36,38,40,42,44,46,48,-1,50,-1,-1,52,-1,54,-1,-1,56,58,60,62,64,-1,-1,66,-1,68,70,72,-1,-1,-1,-1,74,-1,-1,76,-1,78,-1,-1,80,-1,82,84,86,88,-1,-1,90,92,-1,-1,94,96,98,-1,-1,-1,100,102,-1,-1,-1,-1,-1,-1,-1,-1,-1,-1,-1,-1,-1,-1,-1,-1,-1,-1,-1,-1,-1,-1,-1,-1,-1,-1],"split_conditions":[-8.436533E-4,1E0,2.4084872E-1,5E0,3.4762612E-1,8.181154E-2,8.916616E-1,5.991186E-1,1E0,1E0,6.6550523E-1,3.3704263E-1,1E0,2.6069713E-1,1E0,5.345079E-1,1E0,1E0,1E0,2.5392258E-1,2E0,7.777612E-1,7.340934E-1,1E0,6.402961E-3,5.978321E-1,1.4350666E-2,-1.3495477E-2,-7.9372094E-4,1.0777883E-4,4.1625544E-1,-2.3096561E-4,-1.342697E-2,6.74479E-1,4.883111E-1,2.8687498E-1,2.2566837E-1,7.4324226E-1,8.753548E-3,1.3495145E-2,6.559526E-1,1.5233237E-2,1E0,1E0,4.3743473E-1,1.3239142E-2,2.0361776E-3,-1.1494501E-2,-2.010148E-3,3.7258506E-1,1.0741477E-2,-1.4054592E-2,7.391958E-4,-2.9974852E-3,5.039667E-1,-1.16969785E-2,2.1609543E-3,1E0,1.3166016E-2,2.51575E-1,3.3203724E-1,1E0,2E0,-2.0324453E-3,-1.2895122E-2,7E0,4.037586E-1,1.0618423E-2,-4.1569513E-3,1E0,1E0,1.4E1,1.2992831E-2,8.631638E-3,-1.2656974E-2,8E0,3.7013358E-1,-1.5739644E-2,-3.7520817E-3,7.3861377E-3,-1.0886101E-2,1.4443451E-2,3.478727E-3,-1.3355375E-2,5.2880645E-3,6.2448704E-3,-6.4353053E-3,1.6900728E-2,7.365605E-3,6.293563E-3,-8.3686765E-3,1.323392E-2,-1.8282192E-3,-4.911915E-3,6.086099E-3,-1.0828896E-2,-2.2870512E-3,-1.0761965E-2,2.0880634E-3,-2.6958385E-3,3.6079187E-3,3.4834088E-3,-2.9053586E-3],"split_indices":[200,222,39,196,147,224,180,172,102,67,151,44,217,39,127,172,201,127,206,46,187,164,151,99,0,166,0,0,200,0,40,0,0,164,158,39,34,186,0,0,162,0,218,58,37,0,0,0,0,162,0,0,200,0,224,0,0,73,0,224,43,207,163,0,0,196,153,0,0,127,103,196,0,0,0,196,42,0,0,0,0,0,0,0,0,0,0,0,0,0,0,0,0,0,0,0,0,0,0,0,0,0,0],"split_type":[0,0,0,0,0,0,0,0,0,0,0,0,0,0,0,0,0,0,0,0,0,0,0,0,0,0,0,0,0,0,0,0,0,0,0,0,0,0,0,0,0,0,0,0,0,0,0,0,0,0,0,0,0,0,0,0,0,0,0,0,0,0,0,0,0,0,0,0,0,0,0,0,0,0,0,0,0,0,0,0,0,0,0,0,0,0,0,0,0,0,0,0,0,0,0,0,0,0,0,0,0,0,0],"sum_hessian":[3.8300204E2,1.23984955E2,2.590171E2,5.8852222E1,6.513274E1,1.5705347E1,2.4331175E2,1.2229401E1,4.662282E1,2.3930973E1,4.120176E1,3.9943273E0,1.17110195E1,2.3259361E2,1.0718141E1,3.746279E0,8.483122E0,4.1629738E1,4.9930844E0,1.6955383E1,6.9755883E0,3.7707207E1,3.4945524E0,2.745494E0,1.2488333E0,6.2343254E0,5.4766946E0,4.2373834E0,2.2835623E2,1.9993966E0,8.718744E0,1.4989536E0,2.2473254E0,2.744852E0,5.73827E0,2.4687582E1,1.6942156E1,3.2446475E0,1.7484368E0,2.490481E0,1.4464903E1,4.231096E0,2.7444928E0,3.146987E1,6.2373385E0,2.2452958E0,1.2492565E0,1.4971839E0,1.24831E0,3.7414532E0,2.4928722E0,2.9864092E0,2.2536983E2,1.9964299E0,6.7223144E0,1.4983587E0,1.2464933E0,3.4944541E0,2.2438157E0,7.2145715E0,1.747301E1,2.4917321E0,1.4450424E1,1.2482167E0,1.9964309E0,1.0475275E1,3.9896278E0,1.2469274E0,1.4975655E0,1.4485803E1,1.6984068E1,2.4955592E0,3.7417793E0,1.7471778E0,1.9942755E0,1.00688835E2,1.2468099E2,5.2243667E0,1.4979477E0,2.2453547E0,1.2490995E0,5.7189903E0,1.4955814E0,2.245821E0,1.5227189E1,1.2443093E0,1.2474229E0,8.714746E0,5.735678E0,2.7443361E0,7.730939E0,2.2427459E0,1.7468818E0,8.242016E0,6.243786E0,1.1736373E1,5.247695E0,1.247411E0,1.2481482E0,3.4981907E1,6.5706924E1,1.4244689E1,1.104363E2],"tree_param":{"num_deleted":"0","num_feature":"225","num_nodes":"103","size_leaf_vector":"0"}},{"base_weights":[2.808621E-2,3.0230424E-1,-1.03799835E-1,6.2776077E-1,1.6166969E-1,-1.9444458E-2,-4.8649934E-1,7.536911E-1,-1.5862975E-1,-6.050178E-1,2.922361E-1,-2.0997876E-1,1.6727285E-1,5.825928E-1,-6.2050575E-1,4.7433847E-1,1.3584465E0,-8.383399E-1,1.1281378E-2,-1.830362E-1,-1.4550526E-2,1.2781356E-2,2.2395107E-1,-2.910262E-1,8.986671E-1,3.626009E-1,-1.4264315E-1,-4.017762E-3,1.0239342E0,-7.4459726E-1,5.148774E-1,1.1521071E0,2.6751837E-1,1.5111821E-2,1.7978443E-3,-1.2967392E-2,1.9498097E-3,7.884655E-1,-7.6794255E-1,-1.1620336E-2,2.6947168E-1,-2.2763343E-1,-1.3911729E-2,1.3099124E0,-6.4258277E-3,1.5432002E-1,8.0362374E-1,-3.1054127E-1,7.98721E-1,2.0710812E-3,1.295001E-2,-1.7851669E-1,-9.720503E-1,1.3486508E-2,-7.752398E-3,1.4083267E-2,1.8460513E-3,-3.4569028E-1,7.993025E-1,1.277977E-2,-2.1475719E-3,-1.3574766E-2,-1.0140384E-1,3.1928065E-1,-9.6927965E-3,-4.842693E-1,1.05096385E-1,1.5440014E-2,2.0778242E-3,6.1085445E-1,-2.1744485E-1,1.0402771E0,-4.7674543E-1,4.9356127E-1,-4.9801037E-1,1.4447742E-2,-6.5725823E-3,7.5815115E-3,-4.6521664E-1,-1.1048414E0,1.5324877E-1,5.3625964E-3,-8.6936485E-3,1.0327055E-2,-3.8158228E-3,6.5042963E-3,-6.315602E-3,6.1556534E-3,5.5920007E-4,2.7232398E-3,-6.8830103E-3,1.3011998E-2,-2.7087337E-4,9.154863E-3,-1.3961905E-3,-6.10798E-3,6.871858E-3,-1.4298542E-3,1.2156937E-2,-1.1703316E-2,4.073634E-3,9.49017E-3,-2.9762872E-3,1.6375642E-3,-9.667802E-3,6.572758E-3,-5.4727443E-3,-9.862242E-3,3.1754454E-3,-1.2163594E-2,2.190153E-3,8.01885E-3,-6.358209E-3],"categories":[],"categories_nodes":[],"categories_segments":[],"categories_sizes":[],"default_left":[0,0,0,0,0,0,0,0,0,0,0,0,0,0,0,0,0,0,0,0,0,0,0,0,0,0,0,0,0,0,0,0,0,0,0,0,0,0,0,0,0,0,0,0,0,0,0,0,0,