{"learner":{"attributes":{"best_iteration":"0","best_ntree_limit":"1","best_score":"0.6942210144856397","scikit_learn":"{\"use_label_encoder\": null, \"n_estimators\": 500, \"objective\": \"binary:logistic\", \"max_depth\": 7, \"max_leaves\": null, \"max_bin\": null, \"grow_policy\": null, \"learning_rate\": null, \"verbosity\": null, \"booster\": null, \"tree_method\": \"gpu_hist\", \"gamma\": null, \"min_child_weight\": null, \"max_delta_step\": null, \"subsample\": null, \"sampling_method\": null, \"colsample_bytree\": null, \"colsample_bylevel\": null, \"colsample_bynode\": null, \"reg_alpha\": null, \"reg_lambda\": null, \"scale_pos_weight\": null, \"base_score\": null, \"missing\": NaN, \"num_parallel_tree\": null, \"random_state\": null, \"n_jobs\": null, \"monotone_constraints\": null, \"interaction_constraints\": null, \"importance_type\": null, \"gpu_id\": null, \"validate_parameters\": null, \"predictor\": null, \"enable_categorical\": false, \"feature_types\": null, \"max_cat_to_onehot\": null, \"max_cat_threshold\": null, \"eval_metric\": null, \"early_stopping_rounds\": 20, \"callbacks\": null, \"kwargs\": {\"eta\": 0.01}, \"classes_\": [0.0, 1.0], \"n_classes_\": 2, \"evals_result_\": {\"validation_0\": {\"logloss\": [0.6879880163902626, 0.6832594293400758, 0.6786020268174938, 0.674013044152941, 0.6694921945270739, 0.6650370812057552, 0.660647433951385, 0.6563209774798917, 0.6520574644095916, 0.647854707294837, 0.6437125170141235, 0.6395485356338042, 0.6355520800540322, 0.6314924287616759, 0.6275980965535444, 0.6236391309508704, 0.6198433942364571, 0.616448636341812, 0.6126183307260499, 0.6093029917630934, 0.6056980495166061]}, \"validation_1\": {\"logloss\": [0.6942210144856397, 0.6953195193234611, 0.6964421500177944, 0.6975883385714363, 0.6987575555548948, 0.6999492785509895, 0.7011629676117617, 0.7023981669369865, 0.7036543313194724, 0.7049310487859389, 0.7062277916599723, 0.7059169096105239, 0.7072072730344885, 0.706950934494243, 0.708265912883422, 0.7080621386275572, 0.709400673122967, 0.7087983173482558, 0.708641075036105, 0.7080628468709833, 0.7080622175160576]}}, \"_estimator_type\": \"classifier\"}"},"feature_names":["st_stoch","st_ich","st_cut_ema5_sma10","st_macd","st_ich_close","st_dmi","st_cut_sma10_close","st_hisse","st_mfi","st_fishert","st_ema_5","st_ema_6","st_cut_ema_5_6","st_ema_7","st_ema_8","st_cut_ema_7_8","st_ema_9","st_ema_10","st_cut_ema_9_10","st_ema_11","st_ema_12","st_cut_ema_11_12","st_ema_13","st_ema_14","st_cut_ema_13_14","st_ema_15","st_ema_16","st_cut_ema_15_16","st_ema_17","st_ema_18","st_cut_ema_17_18","st_ema_19","st_ema_20","st_cut_ema_19_20","st_mfi_5","st_mfi_6","st_mfi_7","st_mfi_8","st_mfi_9","st_mfi_10","st_mfi_11","st_mfi_12","st_mfi_13","st_mfi_14","st_mfi_15","st_mfi_16","st_mfi_17","st_mfi_18","st_mfi_19","st_mfi_20","st_sma_5","st_sma_6","st_cut_sma_5_6","st_sma_7","st_sma_8","st_cut_sma_7_8","st_sma_9","st_sma_10","st_cut_sma_9_10","st_sma_11","st_sma_12","st_cut_sma_11_12","st_sma_13","st_sma_14","st_cut_sma_13_14","st_sma_15","st_sma_16","st_cut_sma_15_16","st_sma_17","st_sma_18","st_cut_sma_17_18","st_sma_19","st_sma_20","st_cut_sma_19_20","st_wma_5","st_wma_6","st_cut_wma_5_6","st_wma_7","st_wma_8","st_cut_wma_7_8","st_wma_9","st_wma_10","st_cut_wma_9_10","st_wma_11","st_wma_12","st_cut_wma_11_12","st_wma_13","st_wma_14","st_cut_wma_13_14","st_wma_15","st_wma_16","st_cut_wma_15_16","st_wma_17","st_wma_18","st_cut_wma_17_18","st_wma_19","st_wma_20","st_cut_wma_19_20","st_tema_5","st_tema_6","st_cut_tema_5_6","st_tema_7","st_tema_8","st_cut_tema_7_8","st_tema_9","st_tema_10","st_cut_tema_9_10","st_tema_11","st_tema_12","st_cut_tema_11_12","st_tema_13","st_tema_14","st_cut_tema_13_14","st_tema_15","st_tema_16","st_cut_tema_15_16","st_tema_17","st_tema_18","st_cut_tema_17_18","st_tema_19","st_tema_20","st_cut_tema_19_20","st_kama_5","st_kama_6","st_cut_kama_5_6","st_kama_7","st_kama_8","st_cut_kama_7_8","st_kama_9","st_kama_10","st_cut_kama_9_10","st_kama_11","st_kama_12","st_cut_kama_11_12","st_kama_13","st_kama_14","st_cut_kama_13_14","st_kama_15","st_kama_16","st_cut_kama_15_16","st_kama_17","st_kama_18","st_cut_kama_17_18","st_kama_19","st_kama_20","st_cut_kama_19_20","st_rsi_5","st_rsi_6","st_rsi_7","st_rsi_8","st_rsi_9","st_rsi_10","st_rsi_11","st_rsi_12","st_rsi_13","st_rsi_14","st_rsi_15","st_rsi_16","st_rsi_17","st_rsi_18","st_rsi_19","st_rsi_20","st_adx_5","st_adxdmi_5","st_adx_6","st_adxdmi_6","st_adx_7","st_adxdmi_7","st_adx_8","st_adxdmi_8","st_adx_9","st_adxdmi_9","st_adx_10","st_adxdmi_10","st_adx_11","st_adxdmi_11","st_adx_12","st_adxdmi_12","st_adx_13","st_adxdmi_13","st_adx_14","st_adxdmi_14","st_adx_15","st_adxdmi_15","st_adx_16","st_adxdmi_16","st_adx_17","st_adxdmi_17","st_adx_18","st_adxdmi_18","st_adx_19","st_adxdmi_19","st_adx_20","st_adxdmi_20","month","weekday","hour","is_quarter_end","candle_label","vol_delta","log_return","lag_2","lag_3","lag_4","lag_5","lag_6","lag_7","lag_8","lag_9","lag_10","lag_11","lag_12","lag_13","lag_14","lag_15","lag_16","lag_17","lag_18","lag_19","lag_20","lag_21","lag_22","lag_23","kz_score","twitter_sent_score"],"feature_types":["int","int","int","int","int","int","int","int","int","int","int","int","int","int","int","int","int","int","int","int","int","int","int","int","int","int","int","int","int","int","int","int","int","int","float","float","float","float","float","float","float","float","float","float","float","float","float","float","float","float","int","int","int","int","int","int","int","int","int","int","int","int","int","int","int","int","int","int","int","int","int","int","int","int","int","int","int","int","int","int","int","int","int","int","int","int","int","int","int","int","int","int","int","int","int","int","int","int","int","int","int","int","int","int","int","int","int","int","int","int","int","int","int","int","int","int","int","int","int","int","int","int","int","int","int","int","int","int","int","int","int","int","int","int","int","int","int","int","int","int","int","int","int","int","int","int","float","float","float","float","float","float","float","float","float","float","float","float","float","float","float","float","float","int","float","int","float","int","float","int","float","int","float","int","float","int","float","int","float","int","float","int","float","int","float","int","float","int","float","int","float","int","float","int","int","int","int","int","float","int","float","int","int","int","int","int","int","int","int","int","int","int","int","int","int","int","int","int","int","int","int","int","int","float","float"],"gradient_booster":{"model":{"gbtree_model_param":{"num_parallel_tree":"1","num_trees":"21","size_leaf_vector":"0"},"tree_info":[0,0,0,0,0,0,0,0,0,0,0,0,0,0,0,0,0,0,0,0,0],"trees":[{"base_weights":[1.459854E-2,2.962963E-1,-9.0909094E-1,4.5454547E-2,1.1666666E0,3.3333334E-1,-1.36E0,3.768116E-1,-9.5652175E-1,-5E-3,1.6E-2,-5E-3,1E-2,-1.6190477E-2,-0E0,6.031746E-1,-1.2E-2,-1.368421E-2,5E-3,9.3333334E-1,-1.8181819E-1,1.6666667E-1,1.5199999E-2,-9.3333334E-1,9.090909E-3,-9.090909E-3,8.235294E-3,-0E0,-1.2727272E-2],"categories":[],"categories_nodes":[],"categories_segments":[],"categories_sizes":[],"default_left":[0,0,0,0,0,0,0,0,0,0,0,0,0,0,0,0,0,0,0,0,0,0,0,0,0,0,0,0,0],"id":0,"left_children":[1,3,5,7,9,11,13,15,17,-1,-1,-1,-1,-1,-1,19,-1,-1,-1,21,23,25,-1,27,-1,-1,-1,-1,-1],"loss_changes":[9.1812525E0,5.8417516E0,5.0751505E0,7.6646905E0,5.133333E0,2.1666667E0,2.2019043E0,6.880884E0,4.1338677E0,0E0,0E0,0E0,0E0,0E0,0E0,4.2516594E0,0E0,0E0,0E0,4.8066664E0,5.3575764E0,4.988414E0,0E0,1.1878788E0,0E0,0E0,0E0,0E0,0E0],"parents":[2147483647,0,0,1,1,2,2,3,3,4,4,5,5,6,6,7,7,8,8,15,15,19,19,20,20,21,21,23,23],"right_children":[2,4,6,8,10,12,14,16,18,-1,-1,-1,-1,-1,-1,20,-1,-1,-1,22,24,26,-1,28,-1,-1,-1,-1,-1],"split_conditions":[5.9795207E-1,7.6114064E-1,-4.34122E-4,7.8612953E-1,3.9880106E-1,7.398323E-1,7.448292E-1,6.973318E-1,6.535676E-1,-5E-3,1.6E-2,-5E-3,1E-2,-1.6190477E-2,-0E0,1E0,-1.2E-2,-1.368421E-2,5E-3,1E0,5.958598E-1,7.0841724E-1,1.5199999E-2,1E0,9.090909E-3,-9.090909E-3,8.235294E-3,-0E0,-1.2727272E-2],"split_indices":[160,170,200,178,43,37,168,162,45,0,0,0,0,0,0,126,0,0,0,203,152,182,0,60,0,0,0,0,0],"split_type":[0,0,0,0,0,0,0,0,0,0,0,0,0,0,0,0,0,0,0,0,0,0,0,0,0,0,0,0,0],"sum_hessian":[3.325E1,2.6E1,7.25E0,2.1E1,5E0,2E0,5.25E0,1.625E1,4.75E0,1E0,4E0,1E0,1E0,4.25E0,1E0,1.475E1,1.5E0,3.75E0,1E0,1.025E1,4.5E0,5E0,5.25E0,2.75E0,1.75E0,1.75E0,3.25E0,1E0,1.75E0],"tree_param":{"num_deleted":"0","num_feature":"225","num_nodes":"29","size_leaf_vector":"0"}},{"base_weights":[1.4156232E-2,2.9338214E-1,-9.0139043E-1,4.454803E-2,1.1568841E0,3.3167014E-3,-1.3490509E0,3.7298065E-1,-9.48497E-1,-2.2411472E-3,1.5674956E-2,-1.6060265E-2,-0E0,5.9784186E-1,-1.192826E-2,-1.3237734E-2,2.2359926E-3,9.253077E-1,-1.8066475E-1,1.6485995E-1,1.5073054E-2,-9.2741156E-1,9.033177E-3,-9.033177E-3,8.1724245E-3,-0E0,-1.2646608E-2],"categories":[],"categories_nodes":[],"categories_segments":[],"categories_sizes":[],"default_left":[0,0,0,0,0,0,0,0,0,0,0,0,0,0,0,0,0,0,0,0,0,0,0,0,0,0,0],"id":1,"left_children":[1,3,5,7,9,-1,11,13,15,-1,-1,-1,-1,17,-1,-1,-1,19,21,23,-1,25,-1,-1,-1,-1,-1],"loss_changes":[9.019937E0,5.7497053E0,5.001207E0,7.5287957E0,3.7534752E0,0E0,2.1666126E0,6.7864647E0,2.8251114E0,0E0,0E0,0E0,0E0,4.1822577E0,0E0,0E0,0E0,4.730344E0,5.289693E0,4.9193287E0,0E0,1.1728613E0,0E0,0E0,0E0,0E0,0E0],"parents":[2147483647,0,0,1,1,2,2,3,3,4,4,6,6,7,7,8,8,13,13,17,17,18,18,19,19,21,21],"right_children":[2,4,6,8,10,-1,12,14,16,-1,-1,-1,-1,18,-1,-1,-1,20,22,24,-1,26,-1,-1,-1,-1,-1],"split_conditions":[5.9795207E-1,7.6114064E-1,-4.34122E-4,7.8612953E-1,3.9252236E-1,3.3167014E-3,7.448292E-1,6.973318E-1,6.3022673E-1,-2.2411472E-3,1.5674956E-2,-1.6060265E-2,-0E0,1E0,-1.192826E-2,-1.3237734E-2,2.2359926E-3,1E0,5.958598E-1,7.0841724E-1,1.5073054E-2,1E0,9.033177E-3,-9.033177E-3,8.1724245E-3,-0E0,-1.2646608E-2],"split_indices":[160,170,200,178,41,0,168,162,40,0,0,0,0,126,0,0,0,203,152,182,0,60,0,0,0,0,0],"split_type":[0,0,0,0,0,0,0,0,0,0,0,0,0,0,0,0,0,0,0,0,0,0,0,0,0,0,0],"sum_hessian":[3.324869E1,2.5999E1,7.2496905E0,2.0999262E1,4.9997377E0,1.9999688E0,5.2497215E0,1.6249445E1,4.749818E0,1.2499633E0,3.7497745E0,4.2497215E0,1E0,1.4749498E1,1.499946E0,3.4998462E0,1.2499719E0,1.0249605E1,4.499893E0,4.999909E0,5.2496967E0,2.7499292E0,1.7499638E0,1.7499638E0,3.249945E0,1E0,1.7499292E0],"tree_param":{"num_deleted":"0","num_feature":"225","num_nodes":"27","size_leaf_vector":"0"}},{"base_weights":[1.367625E-2,2.9051894E-1,-8.9401305E-1,4.354624E-2,1.1476806E0,3.2946055E-3,-1.338308E0,3.6920935E-1,-9.409975E-1,-2.228693E-3,1.5553378E-2,-1.5932774E-2,-0E0,5.925928E-1,-1.1857456E-2,-1.31427795E-2,2.2372254E-3,9.1741395E-1,-1.7952557E-1,1.6307531E-1,1.4948602E-2,-9.21562E-1,8.976046E-3,-8.976046E-3,8.110244E-3,-0E0,-1.2567098E-2],"categories":[],"categories_nodes":[],"categories_segments":[],"categories_sizes":[],"default_left":[0,0,0,0,0,0,0,0,0,0,0,0,0,0,0,0,0,0,0,0,0,0,0,0,0,0,0],"id":2,"left_children":[1,3,5,7,9,-1,11,13,15,-1,-1,-1,-1,17,-1,-1,-1,19,21,23,-1,25,-1,-1,-1,-1,-1],"loss_changes":[8.865084E0,5.6650105E0,4.9248567E0,7.4003706E0,3.698412E0,0E0,2.1322956E0,6.6937056E0,2.7936769E0,0E0,0E0,0E0,0E0,4.1143055E0,0E0,0E0,0E0,4.6559324E0,5.222843E0,4.8513303E0,0E0,1.1581366E0,0E0,0E0,0E0,0E0,0E0],"parents":[2147483647,0,0,1,1,2,2,3,3,4,4,6,6,7,7,8,8,13,13,17,17,18,18,19,19,21,21],"right_children":[2,4,6,8,10,-1,12,14,16,-1,-1,-1,-1,18,-1,-1,-1,20,22,24,-1,26,-1,-1,-1,-1,-1],"split_conditions":[5.9795207E-1,7.6114064E-1,-4.34122E-4,7.8612953E-1,3.9252236E-1,3.2946055E-3,7.448292E-1,6.973318E-1,6.116366E-1,-2.228693E-3,1.5553378E-2,-1.5932774E-2,-0E0,1E0,-1.1857456E-2,-1.31427795E-2,2.2372254E-3,1E0,5.958598E-1,7.0841724E-1,1.4948602E-2,1E0,8.976046E-3,-8.976046E-3,8.110244E-3,-0E0,-1.2567098E-2],"split_indices":[160,170,200,178,41,0,168,162,46,0,0,0,0,126,0,0,0,203,152,182,0,60,0,0,0,0,0],"split_type":[0,0,0,0,0,0,0,0,0,0,0,0,0,0,0,0,0,0,0,0,0,0,0,0,0,0,0],"sum_hessian":[3.3245106E1,2.5996258E1,7.2488503E0,2.0997175E1,4.9990816E0,1.9999549E0,5.248895E0,1.6247795E1,4.7493806E0,1.2499665E0,3.7491152E0,4.248895E0,1E0,1.474801E1,1.4997853E0,3.4994402E0,1.2499406E0,1.0248435E1,4.4995747E0,4.9996376E0,5.2487974E0,2.7497182E0,1.7498562E0,1.7498562E0,3.2497814E0,1E0,1.7497183E0],"tree_param":{"num_deleted":"0","num_feature":"225","num_nodes":"27","size_leaf_vector":"0"}},{"base_weights":[1.3203559E-2,2.8770167E-1,-8.8675517E-1,4.255978E-2,1.1386368E0,3.272669E-3,-1.3277655E0,3.6549613E-1,-9.336014E-1,-2.2326761E-3,1.54418405E-2,-1.580792E-2,-0E0,5.874252E-1,-1.1787573E-2,-1.30528305E-2,2.2453815E-3,9.096486E-1,-1.7840052E-1,1.613122E-1,1.4826567E-2,-9.1578335E-1,8.919506E-3,-8.919506E-3,8.048737E-3,-0E0,-1.2488716E-2],"categories":[],"categories_nodes":[],"categories_segments":[],"categories_sizes":[],"default_left":[0,0,0,0,0,0,0,0,0,0,0,0,0,0,0,0,0,0,0,0,0,0,0,0,0,0,0],"id":3,"left_children":[1,3,5,7,9,-1,11,13,15,-1,-1,-1,-1,17,-1,-1,-1,19,21,23,-1,25,-1,-1,-1,-1,-1],"loss_changes":[8.713465E0,5.5820074E0,4.8501954E0,7.274489E0,3.657547E0,0E0,2.0989218E0,6.6025724E0,2.7676516E0,0E0,0E0,0E0,0E0,4.0477643E0,0E0,0E0,0E0,4.5833654E0,5.157005E0,4.784395E0,0E0,1.1436956E0,0E0,0E0,0E0,0E0,0E0],"parents":[2147483647,0,0,1,1,2,2,3,3,4,4,6,6,7,7,8,8,13,13,17,17,18,18,19,19,21,21],"right_children":[2,4,6,8,10,-1,12,14,16,-1,-1,-1,-1,18,-1,-1,-1,20,22,24,-1,26,-1,-1,-1,-1,-1],"split_conditions":[5.9795207E-1,7.6114064E-1,-4.34122E-4,7.8612953E-1,3.793233E-1,3.272669E-3,7.448292E-1,6.973318E-1,6.3022673E-1,-2.2326761E-3,1.54418405E-2,-1.580792E-2,-0E0,1E0,-1.1787573E-2,-1.30528305E-2,2.2453815E-3,1E0,5.958598E-1,7.0841724E-1,1.4826567E-2,1E0,8.919506E-3,-8.919506E-3,8.048737E-3,-0E0,-1.2488716E-2],"split_indices":[160,170,200,178,49,0,168,162,40,0,0,0,0,126,0,0,0,203,152,182,0,60,0,0,0,0,0],"split_type":[0,0,0,0,0,0,0,0,0,0,0,0,0,0,0,0,0,0,0,0,0,0,0,0,0,0,0],"sum_hessian":[3.3239178E1,2.5991713E1,7.2474647E0,2.099374E1,4.9979725E0,1.9999304E0,5.2475343E0,1.6245077E1,4.748664E0,1.2499319E0,3.7480407E0,4.2475343E0,1E0,1.4745557E1,1.4995198E0,3.498756E0,1.2499076E0,1.0246508E1,4.499049E0,4.9991903E0,5.247317E0,2.7493706E0,1.7496787E0,1.7496787E0,3.2495117E0,1E0,1.7493705E0],"tree_param":{"num_deleted":"0","num_feature":"225","num_nodes":"27","size_leaf_vector":"0"}},{"base_weights":[1.2737733E-2,2.849284E-1,-8.796137E-1,4.1588224E-2,1.1297408E0,3.2508888E-3,-1.3174171E0,3.6183953E-1,-9.263043E-1,-2.2235876E-3,1.5326413E-2,-1.5685618E-2,-0E0,5.8233696E-1,-1.1718591E-2,-1.2960745E-2,2.2463934E-3,9.020081E-1,-1.7728944E-1,1.5957047E-1,1.4706876E-2,-9.100743E-1,8.863547E-3,-8.863547E-3,7.987895E-3,-0E0,-1.2411443E-2],"categories":[],"categories_nodes":[],"categories_segments":[],"categories_sizes":[],"default_left":[0,0,0,0,0,0,0,0,0,0,0,0,0,0,0,0,0,0,0,0,0,0,0,0,0,0,0],"id":4,"left_children":[1,3,5,7,9,-1,11,13,15,-1,-1,-1,-1,17,-1,-1,-1,19,21,23,-1,25,-1,-1,-1,-1,-1],"loss_changes":[8.564984E0,5.5005984E0,4.7771688E0,7.1510777E0,3.6074357E0,0E0,2.06645E0,6.5130253E0,2.737276E0,0E0,0E0,0E0,0E0,3.9825964E0,0E0,0E0,0E0,4.512574E0,5.0921626E0,4.7185073E0,0E0,1.129534E0,0E0,0E0,0E0,0E0,0E0],"parents":[2147483647,0,0,1,1,2,2,3,3,4,4,6,6,7,7,8,8,13,13,17,17,18,18,19,19,21,21],"right_children":[2,4,6,8,10,-1,12,14,16,-1,-1,-1,-1,18,-1,-1,-1,20,22,24,-1,26,-1,-1,-1,-1,-1],"split_conditions":[5.9795207E-1,7.6114064E-1,-4.34122E-4,7.8612953E-1,3.9252236E-1,3.2508888E-3,7.448292E-1,6.973318E-1,6.116366E-1,-2.2235876E-3,1.5326413E-2,-1.5685618E-2,-0E0,1E0,-1.1718591E-2,-1.2960745E-2,2.2463934E-3,1E0,5.958598E-1,7.0841724E-1,1.4706876E-2,1E0,8.863547E-3,-8.863547E-3,7.987895E-3,-0E0,-1.2411443E-2],"split_indices":[160,170,200,178,41,0,168,162,46,0,0,0,0,126,0,0,0,203,152,182,0,60,0,0,0,0,0],"split_type":[0,0,0,0,0,0,0,0,0,0,0,0,0,0,0,0,0,0,0,0,0,0,0,0,0,0,0],"sum_hessian":[3.3231E1,2.598545E1,7.245547E0,2.0988998E1,4.9964533E0,1.9998952E0,5.2456517E0,1.6241312E1,4.747685E0,1.2499235E0,3.7465298E0,4.2456517E0,1E0,1.4742162E1,1.4991516E0,3.4978223E0,1.2498626E0,1.0243841E1,4.49832E0,4.998571E0,5.2452703E0,2.7488878E0,1.7494324E0,1.7494324E0,3.2491384E0,1E0,1.7488879E0],"tree_param":{"num_deleted":"0","num_feature":"225","num_nodes":"27","size_leaf_vector":"0"}},{"base_weights":[1.2278713E-2,2.8219855E-1,-8.725856E-1,4.0631242E-2,1.1209944E0,3.2292658E-3,-1.3072577E0,3.5823807E-1,-9.191059E-1,-2.2274824E-3,1.5219187E-2,-1.5565789E-2,-0E0,5.7732606E-1,-1.16504915E-2,-1.2873556E-2,2.2543161E-3,8.944892E-1,-1.7619197E-1,1.5784965E-1,1.4589454E-2,-9.044335E-1,8.808159E-3,-8.808159E-3,7.927705E-3,-0E0,-1.233525E-2],"categories":[],"categories_nodes":[],"categories_segments":[],"categories_sizes":[],"default_left":[0,0,0,0,0,0,0,0,0,0,0,0,0,0,0,0,0,0,0,0,0,0,0,0,0,0,0],"id":5,"left_children":[1,3,5,7,9,-1,11,13,15,-1,-1,-1,-1,17,-1,-1,-1,19,21,23,-1,25,-1,-1,-1,-1,-1],"loss_changes":[8.419571E0,5.420782E0,4.705728E0,7.030087E0,3.5684824E0,0E0,2.0348501E0,6.425028E0,2.7121944E0,0E0,0E0,0E0,0E0,3.9187613E0,0E0,0E0,0E0,4.443495E0,5.0282955E0,4.653646E0,0E0,1.1156414E0,0E0,0E0,0E0,0E0,0E0],"parents":[2147483647,0,0,1,1,2,2,3,3,4,4,6,6,7,7,8,8,13,13,17,17,18,18,19,19,21,21],"right_children":[2,4,6,8,10,-1,12,14,16,-1,-1,-1,-1,18,-1,-1,-1,20,22,24,-1,26,-1,-1,-1,-1,-1],"split_conditions":[5.9795207E-1,7.6114064E-1,-4.34122E-4,7.8612953E-1,3.793233E-1,3.2292658E-3,7.448292E-1,6.973318E-1,6.3022673E-1,-2.2274824E-3,1.5219187E-2,-1.5565789E-2,-0E0,1E0,-1.16504915E-2,-1.2873556E-2,2.2543161E-3,1E0,5.958598E-1,7.0841724E-1,1.4589454E-2,1E0,8.808159E-3,-8.808159E-3,7.927705E-3,-0E0,-1.233525E-2],"split_indices":[160,170,200,178,49,0,168,162,40,0,0,0,0,126,0,0,0,203,152,182,0,60,0,0,0,0,0],"split_type":[0,0,0,0,0,0,0,0,0,0,0,0,0,0,0,0,0,0,0,0,0,0,0,0,0,0,0],"sum_hessian":[3.322059E1,2.5977478E1,7.2431116E0,2.098297E1,4.9945083E0,1.9998496E0,5.243262E0,1.623653E1,4.746439E0,1.249864E0,3.7446442E0,4.243262E0,1E0,1.4737847E1,1.4986825E0,3.4966316E0,1.2498077E0,1.0240456E1,4.497392E0,4.997783E0,5.2426724E0,2.7482734E0,1.7491189E0,1.7491189E0,3.2486641E0,1E0,1.7482734E0],"tree_param":{"num_deleted":"0","num_feature":"225","num_nodes":"27","size_leaf_vector":"0"}},{"base_weights":[1.1826293E-2,2.795106E-1,-8.6566776E-1,3.9688524E-2,1.1123883E0,3.207798E-3,-1.2972813E0,3.5469037E-1,-9.120019E-1,-2.2183133E-3,1.5108017E-2,-1.5448363E-2,-0E0,5.7239056E-1,-1.1583262E-2,-1.2784196E-2,2.2551143E-3,8.870886E-1,-1.75108E-1,1.5614921E-1,1.44742355E-2,-8.988597E-1,8.75333E-3,-8.753331E-3,7.868153E-3,-0E0,-1.2260116E-2],"categories":[],"categories_nodes":[],"categories_segments":[],"categories_sizes":[],"default_left":[0,0,0,0,0,0,0,0,0,0,0,0,0,0,0,0,0,0,0,0,0,0,0,0,0,0,0],"id":6,"left_children":[1,3,5,7,9,-1,11,13,15,-1,-1,-1,-1,17,-1,-1,-1,19,21,23,-1,25,-1,-1,-1,-1,-1],"loss_changes":[8.277136E0,5.3424788E0,4.6358237E0,6.9114447E0,3.5204086E0,0E0,2.0040874E0,6.3385496E0,2.6828184E0,0E0,0E0,0E0,0E0,3.8562236E0,0E0,0E0,0E0,4.376074E0,4.9653873E0,4.5897894E0,0E0,1.1020124E0,0E0,0E0,0E0,0E0,0E0],"parents":[2147483647,0,0,1,1,2,2,3,3,4,4,6,6,7,7,8,8,13,13,17,17,18,18,19,19,21,21],"right_children":[2,4,6,8,10,-1,12,14,16,-1,-1,-1,-1,18,-1,-1,-1,20,22,24,-1,26,-1,-1,-1,-1,-1],"split_conditions":[5.9795207E-1,7.6114064E-1,-4.34122E-4,7.8612953E-1,3.9252236E-1,3.207798E-3,7.448292E-1,6.973318E-1,6.116366E-1,-2.2183133E-3,1.5108017E-2,-1.5448363E-2,-0E0,1E0,-1.1583262E-2,-1.2784196E-2,2.2551143E-3,1E0,5.958598E-1,7.0841724E-1,1.44742355E-2,1E0,8.75333E-3,-8.753331E-3,7.868153E-3,-0E0,-1.2260116E-2],"split_indices":[160,170,200,178,41,0,168,162,46,0,0,0,0,126,0,0,0,203,152,182,0,60,0,0,0,0,0],"split_type":[0,0,0,0,0,0,0,0,0,0,0,0,0,0,0,0,0,0,0,0,0,0,0,0,0,0,0],"sum_hessian":[3.3208035E1,2.5967865E1,7.2401705E0,2.0975693E1,4.992172E0,1.999794E0,5.2403765E0,1.6230751E1,4.7449427E0,1.2498498E0,3.742322E0,4.2403765E0,1E0,1.4732636E1,1.4981142E0,3.495193E0,1.2497495E0,1.0236367E1,4.496269E0,4.9968305E0,5.2395372E0,2.7475297E0,1.7487395E0,1.7487395E0,3.248091E0,1E0,1.7475297E0],"tree_param":{"num_deleted":"0","num_feature":"225","num_nodes":"27","size_leaf_vector":"0"}},{"base_weights":[1.138032E-2,2.768639E-1,-8.588576E-1,3.8759634E-2,1.1039239E0,3.1864834E-3,-1.287483E0,3.5119516E-1,-9.0499246E-1,-2.222125E-3,1.5004863E-2,-1.5333262E-2,-0E0,5.6752855E-1,-1.1516878E-2,-1.2699635E-2,2.2628112E-3,8.798031E-1,-1.7403714E-1,1.54469E-1,1.4361152E-2,-8.933514E-1,8.699055E-3,-8.699057E-3,7.8092315E-3,-0E0,-1.2186014E-2],"categories":[],"categories_nodes":[],"categories_segments":[],"categories_sizes":[],"default_left":[0,0,0,0,0,0,0,0,0,0,0,0,0,0,0,0,0,0,0,0,0,0,0,0,0,0,0],"id":7,"left_children":[1,3,5,7,9,-1,11,13,15,-1,-1,-1,-1,17,-1,-1,-1,19,21,23,-1,25,-1,-1,-1,-1,-1],"loss_changes":[8.13761E0,5.265686E0,4.567409E0,6.795111E0,3.4832435E0,0E0,1.9741316E0,6.2535477E0,2.6586294E0,0E0,0E0,0E0,0E0,3.794949E0,0E0,0E0,0E0,4.3102503E0,4.9034185E0,4.5269237E0,0E0,1.0886395E0,0E0,0E0,0E0,0E0,0E0],"parents":[2147483647,0,0,1,1,2,2,3,3,4,4,6,6,7,7,8,8,13,13,17,17,18,18,19,19,21,21],"right_children":[2,4,6,8,10,-1,12,14,16,-1,-1,-1,-1,18,-1,-1,-1,20,22,24,-1,26,-1,-1,-1,-1,-1],"split_conditions":[5.9795207E-1,7.6114064E-1,-4.34122E-4,7.8612953E-1,3.793233E-1,3.1864834E-3,7.448292E-1,6.973318E-1,6.3022673E-1,-2.222125E-3,1.5004863E-2,-1.5333262E-2,-0E0,1E0,-1.1516878E-2,-1.2699635E-2,2.2628112E-3,1E0,5.958598E-1,7.0841724E-1,1.4361152E-2,1E0,8.699055E-3,-8.699057E-3,7.8092315E-3,-0E0,-1.2186014E-2],"split_indices":[160,170,200,178,49,0,168,162,40,0,0,0,0,126,0,0,0,203,152,182,0,60,0,0,0,0,0],"split_type":[0,0,0,0,0,0,0,0,0,0,0,0,0,0,0,0,0,0,0,0,0,0,0,0,0,0,0],"sum_hessian":[3.3193356E1,2.595662E1,7.236737E0,2.096719E1,4.98943E0,1.9997283E0,5.237008E0,1.6223999E1,4.7431912E0,1.2497661E0,3.7396638E0,4.237008E0,1E0,1.472655E1,1.4974489E0,3.4935176E0,1.2496735E0,1.0231595E1,4.4949546E0,4.9957166E0,5.2358785E0,2.7466595E0,1.7482952E0,1.7482951E0,3.2474215E0,1E0,1.7466595E0],"tree_param":{"num_deleted":"0","num_feature":"225","num_nodes":"27","size_leaf_vector":"0"}},{"base_weights":[1.0940539E-2,2.7425697E-1,-8.5215217E-1,3.7844326E-2,1.0955924E0,3.165321E-3,-1.2778578E0,3.4775102E-1,-8.9807326E-1,-2.2128792E-3,1.4897711E-2,-1.522042E-2,-0E0,5.6273824E-1,-1.1451329E-2,-1.2612871E-2,2.2634028E-3,8.7262976E-1,-1.729793E-1,1.5280838E-1,1.4250141E-2,-8.879076E-1,8.645323E-3,-8.645323E-3,7.7509247E-3,-0E0,-1.2112929E-2],"categories":[],"categories_nodes":[],"categories_segments":[],"categories_sizes":[],"default_left":[0,0,0,0,0,0,0,0,0,0,0,0,0,0,0,0,0,0,0,0,0,0,0,0,0,0,0],"id":8,"left_children":[1,3,5,7,9,-1,11,13,15,-1,-1,-1,-1,17,-1,-1,-1,19,21,23,-1,25,-1,-1,-1,-1,-1],"loss_changes":[8.000914E0,5.1903286E0,4.500439E0,6.6810145E0,3.4370823E0,0E0,1.9449539E0,6.1699977E0,2.6302E0,0E0,0E0,0E0,0E0,3.734902E0,0E0,0E0,0E0,4.24597E0,4.842375E0,4.465026E0,0E0,1.0755165E0,0E0,0E0,0E0,0E0,0E0],"parents":[2147483647,0,0,1,1,2,2,3,3,4,4,6,6,7,7,8,8,13,13,17,17,18,18,19,19,21,21],"right_children":[2,4,6,8,10,-1,12,14,16,-1,-1,-1,-1,18,-1,-1,-1,20,22,24,-1,26,-1,-1,-1,-1,-1],"split_conditions":[5.9795207E-1,7.6114064E-1,-4.34122E-4,7.8612953E-1,3.9252236E-1,3.165321E-3,7.448292E-1,6.973318E-1,6.116366E-1,-2.2128792E-3,1.4897711E-2,-1.522042E-2,-0E0,1E0,-1.1451329E-2,-1.2612871E-2,2.2634028E-3,1E0,5.958598E-1,7.0841724E-1,1.4250141E-2,1E0,8.645323E-3,-8.645323E-3,7.7509247E-3,-0E0,-1.2112929E-2],"split_indices":[160,170,200,178,41,0,168,162,46,0,0,0,0,126,0,0,0,203,152,182,0,60,0,0,0,0,0],"split_type":[0,0,0,0,0,0,0,0,0,0,0,0,0,0,0,0,0,0,0,0,0,0,0,0,0,0,0],"sum_hessian":[3.3176636E1,2.5943813E1,7.2328224E0,2.0957499E1,4.9863157E0,1.9996529E0,5.2331696E0,1.6216297E1,4.7412004E0,1.2497467E0,3.736569E0,4.2331696E0,1E0,1.4719609E1,1.4966884E0,3.4915977E0,1.2496027E0,1.0226156E1,4.493453E0,4.994445E0,5.2317114E0,2.7456653E0,1.7477875E0,1.7477875E0,3.2466576E0,1E0,1.7456653E0],"tree_param":{"num_deleted":"0","num_feature":"225","num_nodes":"27","size_leaf_vector":"0"}},{"base_weights":[1.050683E-2,2.7168915E-1,-8.4554875E-1,3.694203E-2,1.0873955E0,3.1443092E-3,-1.2684003E0,3.443566E-1,-8.9124453E-1,-2.216612E-3,1.4798404E-2,-1.5109765E-2,-0E0,5.580176E-1,-1.1386597E-2,-1.2530814E-2,2.2708802E-3,8.655655E-1,-1.7193434E-1,1.511672E-1,1.4141139E-2,-8.8252705E-1,8.592121E-3,-8.592122E-3,7.6932255E-3,-0E0,-1.2040833E-2],"categories":[],"categories_nodes":[],"categories_segments":[],"categories_sizes":[],"default_left":[0,0,0,0,0,0,0,0,0,0,0,0,0,0,0,0,0,0,0,0,0,0,0,0,0,0,0],"id":9,"left_children":[1,3,5,7,9,-1,11,13,15,-1,-1,-1,-1,17,-1,-1,-1,19,21,23,-1,25,-1,-1,-1,-1,-1],"loss_changes":[7.8669724E0,5.116408E0,4.4348683E0,6.569116E0,3.401589E0,0E0,1.9165239E0,6.0878615E0,2.606855E0,0E0,0E0,0E0,0E0,3.6760511E0,0E0,0E0,0E0,4.183175E0,4.7822347E0,4.4040813E0,0E0,1.0626364E0,0E0,0E0,0E0,0E0,0E0],"parents":[2147483647,0,0,1,1,2,2,3,3,4,4,6,6,7,7,8,8,13,13,17,17,18,18,19,19,21,21],"right_children":[2,4,6,8,10,-1,12,14,16,-1,-1,-1,-1,18,-1,-1,-1,20,22,24,-1,26,-1,-1,-1,-1,-1],"split_conditions":[5.9795207E-1,7.6114064E-1,-4.34122E-4,7.8612953E-1,3.793233E-1,3.1443092E-3,7.448292E-1,6.973318E-1,6.3022673E-1,-2.216612E-3,1.4798404E-2,-1.5109765E-2,-0E0,1E0,-1.1386597E-2,-1.2530814E-2,2.2708802E-3,1E0,5.958598E-1,7.0841724E-1,1.4141139E-2,1E0,8.592121E-3,-8.592122E-3,7.6932255E-3,-0E0,-1.2040833E-2],"split_indices":[160,170,200,178,49,0,168,162,40,0,0,0,0,126,0,0,0,203,152,182,0,60,0,0,0,0,0],"split_type":[0,0,0,0,0,0,0,0,0,0,0,0,0,0,0,0,0,0,0,0,0,0,0,0,0,0,0],"sum_hessian":[3.315789E1,2.592945E1,7.228441E0,2.0946634E1,4.982815E0,1.999568E0,5.2288733E0,1.620767E1,4.738965E0,1.2496394E0,3.7331753E0,4.2288733E0,1E0,1.4711836E1,1.4958344E0,3.4894588E0,1.2495064E0,1.0220069E1,4.491767E0,4.9930196E0,5.227049E0,2.7445493E0,1.7472177E0,1.7472177E0,3.245802E0,1E0,1.7445494E0],"tree_param":{"num_deleted":"0","num_feature":"225","num_nodes":"27","size_leaf_vector":"0"}},{"base_weights":[1.0079065E-2,2.6915926E-1,-8.390449E-1,3.605282E-2,1.0793247E0,3.1234473E-3,-1.2591065E0,3.4101096E-1,-8.8450205E-1,-2.207296E-3,1.4695048E-2,-1.5001238E-2,-0E0,5.5336523E-1,-1.1322662E-2,-1.2446524E-2,2.271272E-3,8.5860765E-1,-1.7090182E-1,1.4954504E-1,1.4034089E-2,-8.772087E-1,8.539448E-3,-8.539448E-3,7.636122E-3,-0E0,-1.1969711E-2],"categories":[],"categories_nodes":[],"categories_segments":[],"categories_sizes":[],"default_left":[0,0,0,0,0,0,0,0,0,0,0,0,0,0,0,0,0,0,0,0,0,0,0,0,0,0,0],"id":10,"left_children":[1,3,5,7,9,-1,11,13,15,-1,-1,-1,-1,17,-1,-1,-1,19,21,23,-1,25,-1,-1,-1,-1,-1],"loss_changes":[7.735721E0,5.043849E0,4.370659E0,6.459352E0,3.3572235E0,0E0,1.8888159E0,6.0071096E0,2.5793247E0,0E0,0E0,0E0,0E0,3.6183653E0,0E0,0E0,0E0,4.1218233E0,4.722987E0,4.3440714E0,0E0,1.0499935E0,0E0,0E0,0E0,0E0,0E0],"parents":[2147483647,0,0,1,1,2,2,3,3,4,4,6,6,7,7,8,8,13,13,17,17,18,18,19,19,21,21],"right_children":[2,4,6,8,10,-1,12,14,16,-1,-1,-1,-1,18,-1,-1,-1,20,22,24,-1,26,-1,-1,-1,-1,-1],"split_conditions":[5.9795207E-1,7.6114064E-1,-4.34122E-4,7.8612953E-1,3.9252236E-1,3.1234473E-3,7.448292E-1,6.973318E-1,6.116366E-1,-2.207296E-3,1.4695048E-2,-1.5001238E-2,-0E0,1E0,-1.1322662E-2,-1.2446524E-2,2.271272E-3,1E0,5.958598E-1,7.0841724E-1,1.4034089E-2,1E0,8.539448E-3,-8.539448E-3,7.636122E-3,-0E0,-1.1969711E-2],"split_indices":[160,170,200,178,41,0,168,162,46,0,0,0,0,126,0,0,0,203,152,182,0,60,0,0,0,0,0],"split_type":[0,0,0,0,0,0,0,0,0,0,0,0,0,0,0,0,0,0,0,0,0,0,0,0,0,0,0],"sum_hessian":[3.3137203E1,2.59136E1,7.2236047E0,2.093464E1,4.97896E0,1.9994738E0,5.2241306E0,1.6198137E1,4.736502E0,1.249615E0,3.729345E0,4.2241306E0,1E0,1.4703249E1,1.4948888E0,3.4870787E0,1.2494236E0,1.0213348E1,4.4899015E0,4.991444E0,5.2219043E0,2.7433143E0,1.746587E0,1.746587E0,3.2448568E0,1E0,1.7433144E0],"tree_param":{"num_deleted":"0","num_feature":"225","num_nodes":"27","size_leaf_vector":"0"}},{"base_weights":[9.657033E-3,2.6666656E-1,-8.32638E-1,3.5175946E-2,1.0713818E0,3.1027342E-3,-1.2499714E0,3.3771265E-1,-8.7784636E-1,-2.21095E-3,1.4599378E-2,-1.4894773E-2,-0E0,5.487792E-1,-1.1259516E-2,-1.2366854E-2,2.2785366E-3,9.8941857E-1,2.8155064E-2,2.6420292E-1,1.5056115E-2,7.531348E-1,-5.9387785E-1,9.297276E-3,-5.5720974E-3,1.2528092E-2,-2.4733185E-3,-1.2555043E-2,1.4972423E-3],"categories":[],"categories_nodes":[],"categories_segments":[],"categories_sizes":[],"default_left":[0,0,0,0,0,0,0,0,0,0,0,0,0,0,0,0,0,0,0,0,0,0,0,0,0,0,0,0,0],"id":11,"left_children":[1,3,5,7,9,-1,11,13,15,-1,-1,-1,-1,17,-1,-1,-1,19,21,23,-1,25,27,-1,-1,-1,-1,-1,-1],"loss_changes":[7.6070905E0,4.972658E0,4.307769E0,6.3516855E0,3.323296E0,0E0,1.861805E0,5.9277134E0,2.556776E0,0E0,0E0,0E0,0E0,3.5724344E0,0E0,0E0,0E0,2.773182E0,4.1556582E0,3.106534E0,0E0,2.4286158E0,2.640534E0,0E0,0E0,0E0,0E0,0E0,0E0],"parents":[2147483647,0,0,1,1,2,2,3,3,4,4,6,6,7,7,8,8,13,13,17,17,18,18,19,19,21,21,22,22],"right_children":[2,4,6,8,10,-1,12,14,16,-1,-1,-1,-1,18,-1,-1,-1,20,22,24,-1,26,28,-1,-1,-1,-1,-1,-1],"split_conditions":[5.9795207E-1,7.6114064E-1,-4.34122E-4,7.8612953E-1,3.793233E-1,3.1027342E-3,7.448292E-1,6.973318E-1,6.3022673E-1,-2.21095E-3,1.4599378E-2,-1.4894773E-2,-0E0,1E0,-1.1259516E-2,-1.2366854E-2,2.2785366E-3,2.625143E-1,1E0,1E0,1.5056115E-2,4.1832254E-4,1E0,9.297276E-3,-5.5720974E-3,1.2528092E-2,-2.4733185E-3,-1.2555043E-2,1.4972423E-3],"split_indices":[160,170,200,178,49,0,168,162,40,0,0,0,0,64,0,0,0,41,216,214,0,200,58,0,0,0,0,0,0],"split_type":[0,0,0,0,0,0,0,0,0,0,0,0,0,0,0,0,0,0,0,0,0,0,0,0,0,0,0,0,0],"sum_hessian":[3.3114594E1,2.5896267E1,7.2183247E0,2.092153E1,4.974737E0,1.9993703E0,5.218954E0,1.6187723E1,4.733806E0,1.2494849E0,3.7252522E0,4.218954E0,1E0,1.4693871E1,1.4938534E0,3.4844987E0,1.2493076E0,7.470573E0,7.2232976E0,3.7349935E0,3.7355797E0,3.238297E0,3.9850006E0,1.9904375E0,1.744556E0,1.9914565E0,1.2468405E0,1.744451E0,2.2405496E0],"tree_param":{"num_deleted":"0","num_feature":"225","num_nodes":"29","size_leaf_vector":"0"}},{"base_weights":[9.479128E-3,2.6447278E-1,-8.263257E-1,3.467776E-2,1.0635587E0,3.0821674E-3,-1.2409906E0,3.3485478E-1,-8.71273E-1,-2.2015676E-3,1.4499619E-2,-1.4790313E-2,-0E0,5.446338E-1,-1.11971395E-2,-1.22849215E-2,2.278734E-3,8.4704953E-1,-1.7201497E-1,1.4599694E-1,1.3864978E-2,-8.714153E-1,8.438937E-3,-8.472221E-3,7.542942E-3,-1.7918829E-3,-1.1453464E-2],"categories":[],"categories_nodes":[],"categories_segments":[],"categories_sizes":[],"default_left":[0,0,0,0,0,0,0,0,0,0,0,0,0,0,0,0,0,0,0,0,0,0,0,0,0,0,0],"id":12,"left_children":[1,3,5,7,9,-1,11,13,15,-1,-1,-1,-1,17,-1,-1,-1,19,21,23,-1,25,-1,-1,-1,-1,-1],"loss_changes":[7.4848876E0,4.899296E0,4.246158E0,6.250491E0,3.2806168E0,0E0,1.8354635E0,5.8522973E0,2.5300965E0,0E0,0E0,0E0,0E0,3.5456777E0,0E0,0E0,0E0,4.033657E0,4.63384E0,4.2572474E0,0E0,5.042474E-1,0E0,0E0,0E0,0E0,0E0],"parents":[2147483647,0,0,1,1,2,2,3,3,4,4,6,6,7,7,8,8,13,13,17,17,18,18,19,19,21,21],"right_children":[2,4,6,8,10,-1,12,14,16,-1,-1,-1,-1,18,-1,-1,-1,20,22,24,-1,26,-1,-1,-1,-1,-1],"split_conditions":[5.9795207E-1,7.6114064E-1,-4.34122E-4,7.8612953E-1,3.9252236E-1,3.0821674E-3,7.448292E-1,6.973318E-1,6.116366E-1,-2.2015676E-3,1.4499619E-2,-1.4790313E-2,-0E0,1E0,-1.11971395E-2,-1.22849215E-2,2.278734E-3,1E0,5.958598E-1,7.0841724E-1,1.3864978E-2,1E0,8.438937E-3,-8.472221E-3,7.542942E-3,-1.7918829E-3,-1.1453464E-2],"split_indices":[160,170,200,178,41,0,168,162,46,0,0,0,0,126,0,0,0,203,152,182,0,211,0,0,0,0,0],"split_type":[0,0,0,0,0,0,0,0,0,0,0,0,0,0,0,0,0,0,0,0,0,0,0,0,0,0,0],"sum_hessian":[3.309431E1,2.5881699E1,7.212612E0,2.091152E1,4.970178E0,1.9992578E0,5.2133546E0,1.6180626E1,4.7308936E0,1.2494558E0,3.7207227E0,4.2133546E0,1E0,1.4687897E1,1.4927298E0,3.48168E0,1.2492135E0,1.0201182E1,4.4867144E0,4.988675E0,5.2125072E0,2.7415383E0,1.7451761E0,1.7456411E0,3.2430341E0,1.2462888E0,1.4952495E0],"tree_param":{"num_deleted":"0","num_feature":"225","num_nodes":"27","size_leaf_vector":"0"}},{"base_weights":[9.025106E-3,2.6198906E-1,-8.201058E-1,3.375727E-2,1.0558567E0,3.0617472E-3,-1.2321602E0,3.3154675E-1,-8.6478275E-1,-2.2051493E-3,1.4407388E-2,-1.4687799E-2,-0E0,5.4005384E-1,-1.1135519E-2,-1.2207525E-2,2.2857918E-3,9.770283E-1,2.4372093E-2,2.5866643E-1,1.4890377E-2,7.417662E-1,-5.902734E-1,9.1811735E-3,-5.536974E-3,1.23858545E-2,-2.4924574E-3,-1.2462601E-2,1.4753048E-3],"categories":[],"categories_nodes":[],"categories_segments":[],"categories_sizes":[],"default_left":[0,0,0,0,0,0,0,0,0,0,0,0,0,0,0,0,0,0,0,0,0,0,0,0,0,0,0,0,0],"id":13,"left_children":[1,3,5,7,9,-1,11,13,15,-1,-1,-1,-1,17,-1,-1,-1,19,21,23,-1,25,27,-1,-1,-1,-1,-1,-1],"loss_changes":[7.360476E0,4.8314457E0,4.185793E0,6.145861E0,3.248158E0,0E0,1.8097725E0,5.7747416E0,2.5083036E0,0E0,0E0,0E0,0E0,3.5090346E0,0E0,0E0,0E0,2.7268562E0,4.0610175E0,3.0429354E0,0E0,2.3936644E0,2.5951996E0,0E0,0E0,0E0,0E0,0E0,0E0],"parents":[2147483647,0,0,1,1,2,2,3,3,4,4,6,6,7,7,8,8,13,13,17,17,18,18,19,19,21,21,22,22],"right_children":[2,4,6,8,10,-1,12,14,16,-1,-1,-1,-1,18,-1,-1,-1,20,22,24,-1,26,28,-1,-1,-1,-1,-1,-1],"split_conditions":[5.9795207E-1,7.6114064E-1,-4.34122E-4,7.8612953E-1,3.793233E-1,3.0617472E-3,7.448292E-1,6.973318E-1,6.3022673E-1,-2.2051493E-3,1.4407388E-2,-1.4687799E-2,-0E0,1E0,-1.1135519E-2,-1.2207525E-2,2.2857918E-3,2.625143E-1,1E0,1E0,1.4890377E-2,4.1832254E-4,1E0,9.1811735E-3,-5.536974E-3,1.23858545E-2,-2.4924574E-3,-1.2462601E-2,1.4753048E-3],"split_indices":[160,170,200,178,49,0,168,162,40,0,0,0,0,64,0,0,0,41,216,214,0,200,58,0,0,0,0,0,0],"split_type":[0,0,0,0,0,0,0,0,0,0,0,0,0,0,0,0,0,0,0,0,0,0,0,0,0,0,0,0,0],"sum_hessian":[3.3068893E1,2.5862411E1,7.206481E0,2.0897142E1,4.9652696E0,1.9991367E0,5.207344E0,1.6169384E1,4.727758E0,1.2493036E0,3.715966E0,4.207344E0,1E0,1.4677864E1,1.4915202E0,3.4786792E0,1.2490785E0,7.4609914E0,7.2168727E0,3.73121E0,3.7297814E0,3.2346618E0,3.982211E0,1.9875779E0,1.7436322E0,1.9881388E0,1.2465229E0,1.7431844E0,2.2390268E0],"tree_param":{"num_deleted":"0","num_feature":"225","num_nodes":"29","size_leaf_vector":"0"}},{"base_weights":[8.851857E-3,2.5985557E-1,-8.139758E-1,3.327304E-2,1.0482688E0,3.0414707E-3,-1.2234758E0,3.2876277E-1,-8.583717E-1,-2.195704E-3,1.4311029E-2,-1.4587173E-2,-0E0,5.360139E-1,-1.1074637E-2,-1.2127845E-2,2.2858018E-3,8.357953E-1,-1.7333135E-1,1.4253213E-1,1.3700998E-2,-8.6595374E-1,8.340464E-3,-8.406012E-3,7.4516777E-3,-1.8005116E-3,-1.1363821E-2],"categories":[],"categories_nodes":[],"categories_segments":[],"categories_sizes":[],"default_left":[0,0,0,0,0,0,0,0,0,0,0,0,0,0,0,0,0,0,0,0,0,0,0,0,0,0,0],"id":14,"left_children":[1,3,5,7,9,-1,11,13,15,-1,-1,-1,-1,17,-1,-1,-1,19,21,23,-1,25,-1,-1,-1,-1,-1],"loss_changes":[7.2429876E0,4.760794E0,4.126635E0,6.048367E0,3.207065E0,0E0,1.7847061E0,5.7017236E0,2.4824328E0,0E0,0E0,0E0,0E0,3.4772162E0,0E0,0E0,0E0,3.9485912E0,4.5482802E0,4.1725483E0,0E0,4.8911953E-1,0E0,0E0,0E0,0E0,0E0],"parents":[2147483647,0,0,1,1,2,2,3,3,4,4,6,6,7,7,8,8,13,13,17,17,18,18,19,19,21,21],"right_children":[2,4,6,8,10,-1,12,14,16,-1,-1,-1,-1,18,-1,-1,-1,20,22,24,-1,26,-1,-1,-1,-1,-1],"split_conditions":[5.9795207E-1,7.6114064E-1,-4.34122E-4,7.8612953E-1,3.9252236E-1,3.0414707E-3,7.448292E-1,6.973318E-1,6.116366E-1,-2.195704E-3,1.4311029E-2,-1.4587173E-2,-0E0,1E0,-1.1074637E-2,-1.2127845E-2,2.2858018E-3,1E0,5.958598E-1,7.0841724E-1,1.3700998E-2,1E0,8.340464E-3,-8.406012E-3,7.4516777E-3,-1.8005116E-3,-1.1363821E-2],"split_indices":[160,170,200,178,41,0,168,162,46,0,0,0,0,126,0,0,0,203,152,182,0,211,0,0,0,0,0],"split_type":[0,0,0,0,0,0,0,0,0,0,0,0,0,0,0,0,0,0,0,0,0,0,0,0,0,0,0],"sum_hessian":[3.3045303E1,2.5845364E1,7.19994E0,2.088532E1,4.960042E0,1.999007E0,5.2009335E0,1.6160906E1,4.724415E0,1.2492701E0,3.7107718E0,4.2009335E0,1E0,1.467068E1,1.4902259E0,3.475442E0,1.2489731E0,1.0187153E1,4.483527E0,4.98537E0,5.2017827E0,2.7400172E0,1.7435101E0,1.7445141E0,3.240856E0,1.2458634E0,1.4941537E0],"tree_param":{"num_deleted":"0","num_feature":"225","num_nodes":"27","size_leaf_vector":"0"}},{"base_weights":[8.405714E-3,2.5743413E-1,-8.0793357E-1,3.237123E-2,1.0407963E0,3.0213376E-3,-1.2149336E0,3.255318E-1,-8.520401E-1,-2.1992153E-3,1.422206E-2,-1.4488384E-2,-0E0,5.315412E-1,-1.1014485E-2,-1.2052619E-2,2.292659E-3,9.6497524E-1,2.0669408E-2,2.532507E-1,1.4729837E-2,7.3064214E-1,-5.8672065E-1,9.067696E-3,-5.5021862E-3,1.2247436E-2,-2.5110792E-3,-1.2372014E-2,1.4538463E-3],"categories":[],"categories_nodes":[],"categories_segments":[],"categories_sizes":[],"default_left":[0,0,0,0,0,0,0,0,0,0,0,0,0,0,0,0,0,0,0,0,0,0,0,0,0,0,0,0,0],"id":15,"left_children":[1,3,5,7,9,-1,11,13,15,-1,-1,-1,-1,17,-1,-1,-1,19,21,23,-1,25,27,-1,-1,-1,-1,-1,-1],"loss_changes":[7.123303E0,4.695482E0,4.068651E0,5.9474983E0,3.1759872E0,0E0,1.7602425E0,5.6265926E0,2.4613566E0,0E0,0E0,0E0,0E0,3.447528E0,0E0,0E0,0E0,2.6821456E0,3.9688966E0,2.9809647E0,0E0,2.3597002E0,2.550993E0,0E0,0E0,0E0,0E0,0E0,0E0],"parents":[2147483647,0,0,1,1,2,2,3,3,4,4,6,6,7,7,8,8,13,13,17,17,18,18,19,19,21,21,22,22],"right_children":[2,4,6,8,10,-1,12,14,16,-1,-1,-1,-1,18,-1,-1,-1,20,22,24,-1,26,28,-1,-1,-1,-1,-1,-1],"split_conditions":[5.9795207E-1,7.6114064E-1,-4.34122E-4,7.8612953E-1,3.793233E-1,3.0213376E-3,7.448292E-1,6.973318E-1,6.3022673E-1,-2.1992153E-3,1.422206E-2,-1.4488384E-2,-0E0,1E0,-1.1014485E-2,-1.2052619E-2,2.292659E-3,2.625143E-1,1E0,1E0,1.4729837E-2,4.1832254E-4,1E0,9.067696E-3,-5.5021862E-3,1.2247436E-2,-2.5110792E-3,-1.2372014E-2,1.4538463E-3],"split_indices":[160,170,200,178,49,0,168,162,40,0,0,0,0,64,0,0,0,41,216,214,0,200,58,0,0,0,0,0,0],"split_type":[0,0,0,0,0,0,0,0,0,0,0,0,0,0,0,0,0,0,0,0,0,0,0,0,0,0,0,0,0],"sum_hessian":[3.3016705E1,2.5823702E1,7.1930027E0,2.0869219E1,4.9544816E0,1.9988687E0,5.1941338E0,1.614836E1,4.720861E0,1.2490964E0,3.7053854E0,4.1941338E0,1E0,1.465951E1,1.4888489E0,3.472041E0,1.2488201E0,7.449946E0,7.209564E0,3.7269588E0,3.722987E0,3.230519E0,3.9790452E0,1.9843652E0,1.7425935E0,1.9843246E0,1.2461944E0,1.741652E0,2.2373931E0],"tree_param":{"num_deleted":"0","num_feature":"225","num_nodes":"29","size_leaf_vector":"0"}},{"base_weights":[8.237009E-3,2.5535852E-1,-8.0197704E-1,3.1900577E-2,1.033432E0,3.0013467E-3,-1.2065299E0,3.228189E-1,-8.4578425E-1,-2.1897121E-3,1.4128921E-2,-1.4391382E-2,-0E0,5.276028E-1,-1.0955044E-2,-1.1975085E-2,2.2924873E-3,8.248324E-1,-1.746194E-1,1.3914792E-1,1.3541914E-2,-8.605814E-1,8.243959E-3,-8.340796E-3,7.362267E-3,-1.8088627E-3,-1.127579E-2],"categories":[],"categories_nodes":[],"categories_segments":[],"categories_sizes":[],"default_left":[0,0,0,0,0,0,0,0,0,0,0,0,0,0,0,0,0,0,0,0,0,0,0,0,0,0,0],"id":16,"left_children":[1,3,5,7,9,-1,11,13,15,-1,-1,-1,-1,17,-1,-1,-1,19,21,23,-1,25,-1,-1,-1,-1,-1],"loss_changes":[7.010307E0,4.6274047E0,4.011808E0,5.8535423E0,3.1363869E0,0E0,1.7363644E0,5.55588E0,2.4362535E0,0E0,0E0,0E0,0E0,3.4107614E0,0E0,0E0,0E0,3.8664641E0,4.4647098E0,4.089911E0,0E0,4.744382E-1,0E0,0E0,0E0,0E0,0E0],"parents":[2147483647,0,0,1,1,2,2,3,3,4,4,6,6,7,7,8,8,13,13,17,17,18,18,19,19,21,21],"right_children":[2,4,6,8,10,-1,12,14,16,-1,-1,-1,-1,18,-1,-1,-1,20,22,24,-1,26,-1,-1,-1,-1,-1],"split_conditions":[5.9795207E-1,7.6114064E-1,-4.34122E-4,7.8612953E-1,3.9252236E-1,3.0013467E-3,7.448292E-1,6.973318E-1,6.116366E-1,-2.1897121E-3,1.4128921E-2,-1.4391382E-2,-0E0,1E0,-1.0955044E-2,-1.1975085E-2,2.2924873E-3,1E0,5.958598E-1,7.0841724E-1,1.3541914E-2,1E0,8.243959E-3,-8.340796E-3,7.362267E-3,-1.8088627E-3,-1.127579E-2],"split_indices":[160,170,200,178,41,0,168,162,46,0,0,0,0,126,0,0,0,203,152,182,0,211,0,0,0,0,0],"split_type":[0,0,0,0,0,0,0,0,0,0,0,0,0,0,0,0,0,0,0,0,0,0,0,0,0,0,0],"sum_hessian":[3.298996E1,2.5804283E1,7.185678E0,2.0855663E1,4.9486194E0,1.9987224E0,5.1869555E0,1.6138554E1,4.717109E0,1.2490586E0,3.6995606E0,4.1869555E0,1E0,1.4651163E1,1.4873911E0,3.4684052E0,1.2487041E0,1.0171338E1,4.479825E0,4.9815474E0,5.1897902E0,2.7382255E0,1.7415994E0,1.7432112E0,3.2383363E0,1.2453706E0,1.4928548E0],"tree_param":{"num_deleted":"0","num_feature":"225","num_nodes":"27","size_leaf_vector":"0"}},{"base_weights":[7.798358E-3,2.529967E-1,-7.9610413E-1,-1.6505054E-1,6.5306354E-1,2.9814956E-3,-1.1982607E0,-7.334258E-1,5.084609E-1,1.0767543E0,3.8127106E-2,-1.4296114E-2,-0E0,1.0112439E-3,-1.0769507E0,9.521931E-1,-5.237771E-3,1.3326108E0,-1.9744928E-3,-8.9818776E-1,9.078862E-1,-1.2663055E-2,-2.1771677E-3,1.891836E-3,1.1427761E-2,1.54524E-2,1.945536E-3,-2.0129478E-3,-1.1632793E-2,1.6906897E-3,1.1797332E-2],"categories":[],"categories_nodes":[],"categories_segments":[],"categories_sizes":[],"default_left":[0,0,0,0,0,0,0,0,0,0,0,0,0,0,0,0,0,0,0,0,0,0,0,0,0,0,0,0,0,0,0],"id":17,"left_children":[1,3,5,7,9,-1,11,13,15,17,19,-1,-1,-1,21,23,-1,25,-1,27,29,-1,-1,-1,-1,-1,-1,-1,-1,-1,-1],"loss_changes":[6.8951273E0,4.5867186E0,3.9560714E0,5.6916966E0,3.5769005E0,0E0,1.713047E0,2.3865418E0,3.681875E0,2.9314928E0,6.2728267E0,0E0,0E0,0E0,6.53944E-1,5.4216766E-1,0E0,1.3800039E0,0E0,4.5489907E-1,5.981946E-1,0E0,0E0,0E0,0E0,0E0,0E0,0E0,0E0,0E0,0E0],"parents":[2147483647,0,0,1,1,2,2,3,3,4,4,6,6,7,7,8,8,9,9,10,10,14,14,15,15,17,17,19,19,20,20],"right_children":[2,4,6,8,10,-1,12,14,16,18,20,-1,-1,-1,22,24,-1,26,-1,28,30,-1,-1,-1,-1,-1,-1,-1,-1,-1,-1],"split_conditions":[5.9795207E-1,1E0,-4.34122E-4,4.745308E-1,4.4277468E-1,2.9814956E-3,7.448292E-1,2.9740053E-1,5E0,4.8127848E-1,6.8767047E-1,-1.4296114E-2,-0E0,1.0112439E-3,4.2361763E-1,1E0,-5.237771E-3,1E0,-1.9744928E-3,5.017557E-1,5.848686E-1,-1.2663055E-2,-2.1771677E-3,1.891836E-3,1.1427761E-2,1.54524E-2,1.945536E-3,-2.0129478E-3,-1.1632793E-2,1.6906897E-3,1.1797332E-2],"split_indices":[160,217,200,43,39,0,168,43,195,147,168,0,0,0,45,73,0,68,0,37,36,0,0,0,0,0,0,0,0,0,0],"split_type":[0,0,0,0,0,0,0,0,0,0,0,0,0,0,0,0,0,0,0,0,0,0,0,0,0,0,0,0,0,0,0],"sum_hessian":[3.2958332E1,2.5780355E1,7.1779785E0,1.2894145E1,1.28862095E1,1.998568E0,5.1794105E0,6.944627E0,5.949518E0,7.1848516E0,5.7013583E0,4.1794105E0,1E0,2.2308025E0,4.7138243E0,4.2151012E0,1.7344172E0,5.945228E0,1.2396233E0,2.729888E0,2.9714704E0,3.47439E0,1.2394342E0,1.2406696E0,2.9744315E0,4.7078485E0,1.2373798E0,1.2370849E0,1.4928032E0,1.2355256E0,1.7359447E0],"tree_param":{"num_deleted":"0","num_feature":"225","num_nodes":"31","size_leaf_vector":"0"}},{"base_weights":[7.6720766E-3,2.5094852E-1,-7.903129E-1,2.9470118E-2,1.0225741E0,2.9617846E-3,-1.1901226E0,3.177571E-1,-8.395569E-1,-2.2131205E-3,1.4008106E-2,-1.4202532E-2,-0E0,5.2075934E-1,-1.0869215E-2,-1.1884255E-2,2.2646007E-3,9.484485E-1,1.7255487E-2,2.4428634E-1,1.4524189E-2,7.169654E-1,-5.805983E-1,8.8985255E-3,-5.463694E-3,1.2075826E-2,-2.5309632E-3,-1.2228195E-2,1.427993E-3],"categories":[],"categories_nodes":[],"categories_segments":[],"categories_sizes":[],"default_left":[0,0,0,0,0,0,0,0,0,0,0,0,0,0,0,0,0,0,0,0,0,0,0,0,0,0,0,0,0],"id":18,"left_children":[1,3,5,7,9,-1,11,13,15,-1,-1,-1,-1,17,-1,-1,-1,19,21,23,-1,25,27,-1,-1,-1,-1,-1,-1],"loss_changes":[6.786545E0,4.5443125E0,3.9014158E0,5.735137E0,3.104601E0,0E0,1.6902752E0,5.4465637E0,2.393324E0,0E0,0E0,0E0,0E0,3.349537E0,0E0,0E0,0E0,2.6378584E0,3.8454602E0,2.8953726E0,0E0,2.3161657E0,2.4849873E0,0E0,0E0,0E0,0E0,0E0,0E0],"parents":[2147483647,0,0,1,1,2,2,3,3,4,4,6,6,7,7,8,8,13,13,17,17,18,18,19,19,21,21,22,22],"right_children":[2,4,6,8,10,-1,12,14,16,-1,-1,-1,-1,18,-1,-1,-1,20,22,24,-1,26,28,-1,-1,-1,-1,-1,-1],"split_conditions":[5.9795207E-1,7.6114064E-1,-4.34122E-4,7.8612953E-1,3.793233E-1,2.9617846E-3,7.448292E-1,6.973318E-1,6.3022673E-1,-2.2131205E-3,1.4008106E-2,-1.4202532E-2,-0E0,1E0,-1.0869215E-2,-1.1884255E-2,2.2646007E-3,2.625143E-1,1E0,1E0,1.4524189E-2,4.1832254E-4,1E0,8.8985255E-3,-5.463694E-3,1.2075826E-2,-2.5309632E-3,-1.2228195E-2,1.427993E-3],"split_indices":[160,170,200,178,49,0,168,162,40,0,0,0,0,64,0,0,0,41,216,214,0,200,58,0,0,0,0,0,0],"split_type":[0,0,0,0,0,0,0,0,0,0,0,0,0,0,0,0,0,0,0,0,0,0,0,0,0,0,0,0,0],"sum_hessian":[3.2936977E1,2.5767065E1,7.1699133E0,2.0827248E1,4.9398174E0,1.9984057E0,5.171508E0,1.6115515E1,4.7117324E0,1.2485764E0,3.6912413E0,4.171508E0,1E0,1.4630414E1,1.4850997E0,3.4634447E0,1.2482878E0,7.4329653E0,7.197449E0,3.7199984E0,3.7129672E0,3.2244358E0,3.9730134E0,1.9788316E0,1.7411667E0,1.9787927E0,1.245643E0,1.7388796E0,2.2341337E0],"tree_param":{"num_deleted":"0","num_feature":"225","num_nodes":"29","size_leaf_vector":"0"}},{"base_weights":[7.507053E-3,2.4894789E-1,-7.8460133E-1,-1.6452546E-1,6.4481044E-1,2.942212E-3,-1.1821123E0,-7.255135E-1,5.006902E-1,1.0651176E0,3.525776E-2,-1.4110592E-2,-0E0,1.0090759E-3,-1.0660602E0,9.4000185E-1,-5.1986557E-3,1.3192512E0,-1.9798542E-3,-8.9060324E-1,8.9648193E-1,-1.25266295E-2,-2.1709239E-3,1.8332503E-3,1.130165E-2,1.5299591E-2,1.9222357E-3,-1.9954722E-3,-1.1531507E-2,1.6541098E-3,1.1660708E-2],"categories":[],"categories_nodes":[],"categories_segments":[],"categories_sizes":[],"default_left":[0,0,0,0,0,0,0,0,0,0,0,0,0,0,0,0,0,0,0,0,0,0,0,0,0,0,0,0,0,0,0],"id":19,"left_children":[1,3,5,7,9,-1,11,13,15,17,19,-1,-1,-1,21,23,-1,25,-1,27,29,-1,-1,-1,-1,-1,-1,-1,-1,-1,-1],"loss_changes":[6.679807E0,4.4836345E0,3.847808E0,5.5422688E0,3.5150728E0,0E0,1.6680298E0,2.341381E0,3.6005783E0,2.8847446E0,6.1356344E0,0E0,0E0,0E0,6.3222647E-1,5.4224825E-1,0E0,1.352704E0,0E0,4.4616318E-1,5.888033E-1,0E0,0E0,0E0,0E0,0E0,0E0,0E0,0E0,0E0,0E0],"parents":[2147483647,0,0,1,1,2,2,3,3,4,4,6,6,7,7,8,8,9,9,10,10,14,14,15,15,17,17,19,19,20,20],"right_children":[2,4,6,8,10,-1,12,14,16,18,20,-1,-1,-1,22,24,-1,26,-1,28,30,-1,-1,-1,-1,-1,-1,-1,-1,-1,-1],"split_conditions":[5.9795207E-1,1E0,-4.34122E-4,4.745308E-1,4.4277468E-1,2.942212E-3,7.448292E-1,2.9740053E-1,5E0,4.8127848E-1,6.8767047E-1,-1.4110592E-2,-0E0,1.0090759E-3,4.2361763E-1,1E0,-5.1986557E-3,1E0,-1.9798542E-3,5.017557E-1,5.848686E-1,-1.25266295E-2,-2.1709239E-3,1.8332503E-3,1.130165E-2,1.5299591E-2,1.9222357E-3,-1.9954722E-3,-1.1531507E-2,1.6541098E-3,1.1660708E-2],"split_indices":[160,217,200,43,39,0,168,43,195,147,168,0,0,0,45,73,0,68,0,37,36,0,0,0,0,0,0,0,0,0,0],"split_type":[0,0,0,0,0,0,0,0,0,0,0,0,0,0,0,0,0,0,0,0,0,0,0,0,0,0,0,0,0,0,0],"sum_hessian":[3.2906265E1,2.5744774E1,7.161494E0,1.2878124E1,1.2866649E1,1.9982357E0,5.163258E0,6.9372096E0,5.9409146E0,7.173146E0,5.693503E0,4.163258E0,1E0,2.2297812E0,4.707429E0,4.2083197E0,1.7325951E0,5.934654E0,1.2384918E0,2.727348E0,2.966155E0,3.469353E0,1.2380759E0,1.2396554E0,2.9686644E0,4.6986766E0,1.2359774E0,1.2354746E0,1.4918735E0,1.2338283E0,1.7323266E0],"tree_param":{"num_deleted":"0","num_feature":"225","num_nodes":"31","size_leaf_vector":"0"}},{"base_weights":[7.3812115E-3,2.4694629E-1,-7.7896756E-1,2.7501704E-2,1.0119693E0,2.9227769E-3,-1.1742264E0,3.1328043E-1,-8.334461E-1,-2.220646E-3,1.3883827E-2,-1.4020248E-2,-0E0,5.1454955E-1,-1.0785026E-2,-1.1786168E-2,2.2179866E-3,9.3873525E-1,1.5446679E-2,1.2535367E0,-1.7286845E-3,4.8697314E-1,-6.785361E-1,1.5224078E-3,1.4761042E-2,-3.1642152E-3,1.0365905E-2,1.5571567E-3,-1.1555459E-2],"categories":[],"categories_nodes":[],"categories_segments":[],"categories_sizes":[],"default_left":[0,0,0,0,0,0,0,0,0,0,0,0,0,0,0,0,0,0,0,0,0,0,0,0,0,0,0,0,0],"id":20,"left_children":[1,3,5,7,9,-1,11,13,15,-1,-1,-1,-1,17,-1,-1,-1,19,21,23,-1,25,27,-1,-1,-1,-1,-1,-1],"loss_changes":[6.575197E0,4.459559E0,3.7952228E0,5.6246433E0,3.0629778E0,0E0,1.6462946E0,5.343233E0,2.3397253E0,0E0,0E0,0E0,0E0,3.290522E0,0E0,0E0,0E0,3.1638708E0,3.010072E0,1.4137449E0,0E0,2.7380693E0,1.6645757E0,0E0,0E0,0E0,0E0,0E0,0E0],"parents":[2147483647,0,0,1,1,2,2,3,3,4,4,6,6,7,7,8,8,13,13,17,17,18,18,19,19,21,21,22,22],"right_children":[2,4,6,8,10,-1,12,14,16,-1,-1,-1,-1,18,-1,-1,-1,20,22,24,-1,26,28,-1,-1,-1,-1,-1,-1],"split_conditions":[5.9795207E-1,7.6114064E-1,-4.34122E-4,7.8612953E-1,3.793233E-1,2.9227769E-3,7.448292E-1,6.973318E-1,6.3022673E-1,-2.220646E-3,1.3883827E-2,-1.4020248E-2,-0E0,1E0,-1.0785026E-2,-1.1786168E-2,2.2179866E-3,4.9957854E-1,1E0,2.2870602E-1,-1.7286845E-3,1E0,1E0,1.5224078E-3,1.4761042E-2,-3.1642152E-3,1.0365905E-2,1.5571567E-3,-1.1555459E-2],"split_indices":[160,170,200,178,49,0,168,162,40,0,0,0,0,202,0,0,0,44,209,40,0,210,64,0,0,0,0,0,0],"split_type":[0,0,0,0,0,0,0,0,0,0,0,0,0,0,0,0,0,0,0,0,0,0,0,0,0,0,0,0,0],"sum_hessian":[3.288245E1,2.572972E1,7.1527295E0,2.0799417E1,4.9303026E0,1.9980581E0,5.154671E0,1.609353E1,4.7058854E0,1.248213E0,3.6820893E0,4.154671E0,1E0,1.4610908E1,1.482624E0,3.457894E0,1.2479914E0,7.422071E0,7.1888366E0,5.6845484E0,1.7375227E0,4.458084E0,2.7307522E0,1.2388017E0,4.4457464E0,1.9833057E0,2.4747787E0,1.2384179E0,1.4923344E0],"tree_param":{"num_deleted":"0","num_feature":"225","num_nodes":"29","size_leaf_vector":"0"}}]},"name":"gbtree"},"learner_model_param":{"base_score":"5E-1","boost_from_average":"1","num_class":"0","num_feature":"225","num_target":"1"},"objective":{"name":"binary:logistic","reg_loss_param":{"scale_pos_weight":"1"}}},"version":[1,7,4]}