{"learner":{"attributes":{"best_iteration":"0","best_ntree_limit":"1","best_score":"0.6934025971977799","scikit_learn":"{\"use_label_encoder\": null, \"n_estimators\": 500, \"objective\": \"binary:logistic\", \"max_depth\": 7, \"max_leaves\": null, \"max_bin\": null, \"grow_policy\": null, \"learning_rate\": null, \"verbosity\": null, \"booster\": null, \"tree_method\": \"gpu_hist\", \"gamma\": null, \"min_child_weight\": null, \"max_delta_step\": null, \"subsample\": null, \"sampling_method\": null, \"colsample_bytree\": null, \"colsample_bylevel\": null, \"colsample_bynode\": null, \"reg_alpha\": null, \"reg_lambda\": null, \"scale_pos_weight\": null, \"base_score\": null, \"missing\": NaN, \"num_parallel_tree\": null, \"random_state\": null, \"n_jobs\": null, \"monotone_constraints\": null, \"interaction_constraints\": null, \"importance_type\": null, \"gpu_id\": null, \"validate_parameters\": null, \"predictor\": null, \"enable_categorical\": false, \"feature_types\": null, \"max_cat_to_onehot\": null, \"max_cat_threshold\": null, \"eval_metric\": null, \"early_stopping_rounds\": 20, \"callbacks\": null, \"kwargs\": {\"eta\": 0.01}, \"classes_\": [0.0, 1.0], \"n_classes_\": 2, \"evals_result_\": {\"validation_0\": {\"logloss\": [0.6882625322946361, 0.6839287065564187, 0.6795924367479316, 0.6753393005877034, 0.6711916545747032, 0.6670596787067646, 0.6628905789393215, 0.658781197988931, 0.6544188524076077, 0.65003016968848, 0.6460962530592798, 0.6417312899105986, 0.6375914162873102, 0.6334263631995295, 0.6292574733075961, 0.6252847672068457, 0.6211075626068832, 0.6175511437402644, 0.6134059518715586, 0.6096459610361449, 0.6056825353506026]}, \"validation_1\": {\"logloss\": [0.6934025971977799, 0.6940282859184124, 0.6944577749128695, 0.6951322080912413, 0.6953634233386429, 0.6960946144881072, 0.696887559360928, 0.6980918954919886, 0.6986753830203304, 0.6998894435388071, 0.7010120330033479, 0.7016933792167239, 0.7023683698089035, 0.7035631934801737, 0.7043745109328517, 0.7051210315139206, 0.7063746871771636, 0.7070146192003179, 0.7080963011141177, 0.7088264050307097, 0.7102611495388879]}}, \"_estimator_type\": \"classifier\"}"},"feature_names":["st_stoch","st_ich","st_cut_ema5_sma10","st_macd","st_ich_close","st_dmi","st_cut_sma10_close","st_hisse","st_mfi","st_fishert","st_ema_5","st_ema_6","st_cut_ema_5_6","st_ema_7","st_ema_8","st_cut_ema_7_8","st_ema_9","st_ema_10","st_cut_ema_9_10","st_ema_11","st_ema_12","st_cut_ema_11_12","st_ema_13","st_ema_14","st_cut_ema_13_14","st_ema_15","st_ema_16","st_cut_ema_15_16","st_ema_17","st_ema_18","st_cut_ema_17_18","st_ema_19","st_ema_20","st_cut_ema_19_20","st_mfi_5","st_mfi_6","st_mfi_7","st_mfi_8","st_mfi_9","st_mfi_10","st_mfi_11","st_mfi_12","st_mfi_13","st_mfi_14","st_mfi_15","st_mfi_16","st_mfi_17","st_mfi_18","st_mfi_19","st_mfi_20","st_sma_5","st_sma_6","st_cut_sma_5_6","st_sma_7","st_sma_8","st_cut_sma_7_8","st_sma_9","st_sma_10","st_cut_sma_9_10","st_sma_11","st_sma_12","st_cut_sma_11_12","st_sma_13","st_sma_14","st_cut_sma_13_14","st_sma_15","st_sma_16","st_cut_sma_15_16","st_sma_17","st_sma_18","st_cut_sma_17_18","st_sma_19","st_sma_20","st_cut_sma_19_20","st_wma_5","st_wma_6","st_cut_wma_5_6","st_wma_7","st_wma_8","st_cut_wma_7_8","st_wma_9","st_wma_10","st_cut_wma_9_10","st_wma_11","st_wma_12","st_cut_wma_11_12","st_wma_13","st_wma_14","st_cut_wma_13_14","st_wma_15","st_wma_16","st_cut_wma_15_16","st_wma_17","st_wma_18","st_cut_wma_17_18","st_wma_19","st_wma_20","st_cut_wma_19_20","st_tema_5","st_tema_6","st_cut_tema_5_6","st_tema_7","st_tema_8","st_cut_tema_7_8","st_tema_9","st_tema_10","st_cut_tema_9_10","st_tema_11","st_tema_12","st_cut_tema_11_12","st_tema_13","st_tema_14","st_cut_tema_13_14","st_tema_15","st_tema_16","st_cut_tema_15_16","st_tema_17","st_tema_18","st_cut_tema_17_18","st_tema_19","st_tema_20","st_cut_tema_19_20","st_kama_5","st_kama_6","st_cut_kama_5_6","st_kama_7","st_kama_8","st_cut_kama_7_8","st_kama_9","st_kama_10","st_cut_kama_9_10","st_kama_11","st_kama_12","st_cut_kama_11_12","st_kama_13","st_kama_14","st_cut_kama_13_14","st_kama_15","st_kama_16","st_cut_kama_15_16","st_kama_17","st_kama_18","st_cut_kama_17_18","st_kama_19","st_kama_20","st_cut_kama_19_20","st_rsi_5","st_rsi_6","st_rsi_7","st_rsi_8","st_rsi_9","st_rsi_10","st_rsi_11","st_rsi_12","st_rsi_13","st_rsi_14","st_rsi_15","st_rsi_16","st_rsi_17","st_rsi_18","st_rsi_19","st_rsi_20","st_adx_5","st_adxdmi_5","st_adx_6","st_adxdmi_6","st_adx_7","st_adxdmi_7","st_adx_8","st_adxdmi_8","st_adx_9","st_adxdmi_9","st_adx_10","st_adxdmi_10","st_adx_11","st_adxdmi_11","st_adx_12","st_adxdmi_12","st_adx_13","st_adxdmi_13","st_adx_14","st_adxdmi_14","st_adx_15","st_adxdmi_15","st_adx_16","st_adxdmi_16","st_adx_17","st_adxdmi_17","st_adx_18","st_adxdmi_18","st_adx_19","st_adxdmi_19","st_adx_20","st_adxdmi_20","month","weekday","hour","is_quarter_end","candle_label","vol_delta","log_return","lag_2","lag_3","lag_4","lag_5","lag_6","lag_7","lag_8","lag_9","lag_10","lag_11","lag_12","lag_13","lag_14","lag_15","lag_16","lag_17","lag_18","lag_19","lag_20","lag_21","lag_22","lag_23","kz_score","twitter_sent_score"],"feature_types":["int","int","int","int","int","int","int","int","int","int","int","int","int","int","int","int","int","int","int","int","int","int","int","int","int","int","int","int","int","int","int","int","int","int","float","float","float","float","float","float","float","float","float","float","float","float","float","float","float","float","int","int","int","int","int","int","int","int","int","int","int","int","int","int","int","int","int","int","int","int","int","int","int","int","int","int","int","int","int","int","int","int","int","int","int","int","int","int","int","int","int","int","int","int","int","int","int","int","int","int","int","int","int","int","int","int","int","int","int","int","int","int","int","int","int","int","int","int","int","int","int","int","int","int","int","int","int","int","int","int","int","int","int","int","int","int","int","int","int","int","int","int","int","int","int","int","float","float","float","float","float","float","float","float","float","float","float","float","float","float","float","float","float","int","float","int","float","int","float","int","float","int","float","int","float","int","float","int","float","int","float","int","float","int","float","int","float","int","float","int","float","int","float","int","int","int","int","int","float","int","float","int","int","int","int","int","int","int","int","int","int","int","int","int","int","int","int","int","int","int","int","int","int","float","float"],"gradient_booster":{"model":{"gbtree_model_param":{"num_parallel_tree":"1","num_trees":"21","size_leaf_vector":"0"},"tree_info":[0,0,0,0,0,0,0,0,0,0,0,0,0,0,0,0,0,0,0,0,0],"trees":[{"base_weights":[-4.608295E-2,6.440678E-1,-2.962963E-1,8.8E-1,-4.6153846E-1,-5.0359714E-1,8.148148E-1,1.5384616E-1,1.4285715E0,5E-3,-1.1111111E-2,1.1764706E-1,-8.2608694E-1,-6.666667E-3,1.2727273E0,7.692308E-1,-3.529412E-1,1.6190477E-2,5.4545454E-3,-1.0769231E-2,4.7619048E-1,-1.6E-1,-1.4782609E0,2.2222223E-3,1.5294118E-2,-0E0,1.1111111E-2,4E-3,-9.090909E-3,1.2307693E0,-6E-1,-1.1111112E0,3.3333334E-1,-1.6842105E0,-3.3333334E-1,1.39999995E-2,4E-3,-1E0,5E-3,-0E0,-1.4285714E-2,9.5652175E-1,-5.882353E-1,-5E-3,-1.7647058E-2,5E-3,-1E-2,-0E0,-1.3333334E-2,1.368421E-2,-5E-3,-1.0769231E-2,5E-3],"categories":[],"categories_nodes":[],"categories_segments":[],"categories_sizes":[],"default_left":[0,0,0,0,0,0,0,0,0,0,0,0,0,0,0,0,0,0,0,0,0,0,0,0,0,0,0,0,0,0,0,0,0,0,0,0,0,0,0,0,0,0,0,0,0,0,0,0,0,0,0,0,0],"id":0,"left_children":[1,3,5,7,9,11,13,15,17,-1,-1,19,21,-1,23,25,27,-1,-1,-1,29,31,33,-1,-1,-1,-1,-1,-1,35,37,39,41,43,45,-1,-1,47,-1,-1,-1,49,51,-1,-1,-1,-1,-1,-1,-1,-1,-1,-1],"loss_changes":[9.558992E0,4.2536626E0,9.738875E0,4.7595606E0,2.5854702E0,7.0591736E0,5.4276094E0,2.2986426E0,2.9437256E-1,0E0,0E0,5.9737124E0,9.754784E0,0E0,1.1431961E0,8.5470104E-1,2.1433156E0,0E0,0E0,0E0,9.265202E0,6.2355556E0,2.1502686E0,0E0,0E0,0E0,0E0,0E0,0E0,3.538456E-1,2.7E0,1.5873022E0,5.7314577E0,2.3220062E-2,2.1666667E0,0E0,0E0,1.3333335E0,0E0,0E0,0E0,4.1338677E0,2.7986426E0,0E0,0E0,0E0,0E0,0E0,0E0,0E0,0E0,0E0,0E0],"parents":[2147483647,0,0,1,1,2,2,3,3,4,4,5,5,6,6,7,7,8,8,11,11,12,12,14,14,15,15,16,16,20,20,21,21,22,22,29,29,30,30,31,31,32,32,33,33,34,34,37,37,41,41,42,42],"right_children":[2,4,6,8,10,12,14,16,18,-1,-1,20,22,-1,24,26,28,-1,-1,-1,30,32,34,-1,-1,-1,-1,-1,-1,36,38,40,42,44,46,-1,-1,48,-1,-1,-1,50,52,-1,-1,-1,-1,-1,-1,-1,-1,-1,-1],"split_conditions":[4.107452E-1,4.5326814E-1,7.9087996E-1,7.5109416E-1,4.0112945E-1,-6.475985E-4,4.1272295E-1,1.641528E-1,4.1555685E-1,5E-3,-1.1111111E-2,4.6689788E-1,1E0,-6.666667E-3,3E0,1.6625313E-1,3.5008523E-1,1.6190477E-2,5.4545454E-3,-1.0769231E-2,1E0,4.234606E-1,7.088953E-1,2.2222223E-3,1.5294118E-2,-0E0,1.1111111E-2,4E-3,-9.090909E-3,6.6808164E-1,6.224602E-1,1E0,5.0780576E-1,3.7284335E-1,7.054451E-1,1.39999995E-2,4E-3,1E0,5E-3,-0E0,-1.4285714E-2,7.136919E-1,5.4433465E-1,-5E-3,-1.7647058E-2,5E-3,-1E-2,-0E0,-1.3333334E-2,1.368421E-2,-5E-3,-1.0769231E-2,5E-3],"split_indices":[150,40,174,223,38,200,42,35,155,0,0,161,67,0,195,38,154,0,0,0,216,49,46,0,0,0,0,0,0,43,150,11,46,40,49,0,0,15,0,0,0,170,44,0,0,0,0,0,0,0,0,0,0],"split_type":[0,0,0,0,0,0,0,0,0,0,0,0,0,0,0,0,0,0,0,0,0,0,0,0,0,0,0,0,0,0,0,0,0,0,0,0,0,0,0,0,0,0,0,0,0,0,0,0,0,0,0,0,0],"sum_hessian":[5.325E1,1.375E1,3.95E1,1.15E1,2.25E0,3.375E1,5.75E0,5.5E0,6E0,1E0,1.25E0,1.175E1,2.2E1,1.25E0,4.5E0,2.25E0,3.25E0,4.25E0,1.75E0,2.25E0,9.5E0,1.15E1,1.05E1,1.25E0,3.25E0,1E0,1.25E0,1.5E0,1.75E0,5.5E0,4E0,3.5E0,8E0,8.5E0,2E0,4E0,1.5E0,3E0,1E0,1E0,2.5E0,4.75E0,3.25E0,1E0,7.5E0,1E0,1E0,1E0,2E0,3.75E0,1E0,2.25E0,1E0],"tree_param":{"num_deleted":"0","num_feature":"225","num_nodes":"53","size_leaf_vector":"0"}},{"base_weights":[-4.5766037E-2,6.3910663E-1,-2.940675E-1,8.734394E-1,-4.588098E-3,-4.997354E-1,8.082988E-1,1.5323581E-1,1.4174371E0,1.1638748E-1,-8.195584E-1,-6.62967E-3,1.263229E0,7.680037E-3,-3.5293835E-1,1.607547E-2,5.3906664E-3,-1.0694888E-2,4.7236264E-1,-1.5931451E-1,-1.4659618E0,2.209879E-3,1.5177843E-2,-8.002935E-3,1.8209658E-3,1.2212689E0,-5.9567815E-1,-1.103206E0,3.3033326E-1,-3.29127E-3,-1.670652E-2,1.391339E-2,3.9260993E-3,-1.0707913E-2,1.824261E-3,-0E0,-1.4184194E-2,9.484969E-1,-5.8372015E-1,1.3227383E-2,-2.215222E-3,1.8437293E-3,-1.1951333E-2],"categories":[],"categories_nodes":[],"categories_segments":[],"categories_sizes":[],"default_left":[0,0,0,0,0,0,0,0,0,0,0,0,0,0,0,0,0,0,0,0,0,0,0,0,0,0,0,0,0,0,0,0,0,0,0,0,0,0,0,0,0,0,0],"id":1,"left_children":[1,3,5,7,-1,9,11,13,15,17,19,-1,21,-1,23,-1,-1,-1,25,27,29,-1,-1,-1,-1,31,33,35,37,-1,-1,-1,-1,-1,-1,-1,-1,39,41,-1,-1,-1,-1],"loss_changes":[9.41308E0,4.1954823E0,9.585794E0,4.6800175E0,0E0,6.9426136E0,5.3552732E0,2.2937007E0,3.022852E-1,5.8873515E0,9.582055E0,0E0,1.1237326E0,0E0,1.1629586E0,0E0,0E0,0E0,9.125801E0,6.1414304E0,2.1260338E0,0E0,0E0,0E0,0E0,3.6976433E-1,2.0437436E0,1.5648088E0,5.6388254E0,0E0,0E0,0E0,0E0,0E0,0E0,0E0,0E0,2.8106856E0,2.2162113E0,0E0,0E0,0E0,0E0],"parents":[2147483647,0,0,1,1,2,2,3,3,5,5,6,6,7,7,8,8,9,9,10,10,12,12,14,14,18,18,19,19,20,20,25,25,26,26,27,27,28,28,37,37,38,38],"right_children":[2,4,6,8,-1,10,12,14,16,18,20,-1,22,-1,24,-1,-1,-1,26,28,30,-1,-1,-1,-1,32,34,36,38,-1,-1,-1,-1,-1,-1,-1,-1,40,42,-1,-1,-1,-1],"split_conditions":[4.107452E-1,4.5326814E-1,7.9087996E-1,7.5109416E-1,-4.588098E-3,-6.475985E-4,4.1272295E-1,1E0,1E0,4.6689788E-1,1E0,-6.62967E-3,3E0,7.680037E-3,3.2947674E-1,1.607547E-2,5.3906664E-3,-1.0694888E-2,1E0,4.234606E-1,5E0,2.209879E-3,1.5177843E-2,-8.002935E-3,1.8209658E-3,1E0,5.480478E-1,1E0,5.0780576E-1,-3.29127E-3,-1.670652E-2,1.391339E-2,3.9260993E-3,-1.0707913E-2,1.824261E-3,-0E0,-1.4184194E-2,7.109277E-1,1E0,1.3227383E-2,-2.215222E-3,1.8437293E-3,-1.1951333E-2],"split_indices":[150,40,174,223,0,200,42,215,202,161,67,0,195,0,47,0,0,0,216,49,196,0,0,0,0,198,40,11,46,0,0,0,0,0,0,0,0,168,215,0,0,0,0],"split_type":[0,0,0,0,0,0,0,0,0,0,0,0,0,0,0,0,0,0,0,0,0,0,0,0,0,0,0,0,0,0,0,0,0,0,0,0,0,0,0,0,0,0,0],"sum_hessian":[5.3248013E1,1.3749583E1,3.9498432E1,1.1499628E1,2.2499552E0,3.3748634E1,5.7497945E0,5.4999194E0,5.9997087E0,1.1749638E1,2.1998999E1,1.249986E0,4.4998083E0,2.2499712E0,3.249948E0,4.249765E0,1.7499434E0,2.249935E0,9.499702E0,1.14996195E1,1.0499379E1,1.2499985E0,3.24981E0,1.4999919E0,1.7499561E0,5.499798E0,3.9999046E0,3.4998724E0,7.9997473E0,1.9999158E0,8.499463E0,3.9998603E0,1.4999378E0,2.2499332E0,1.7499715E0,1E0,2.4998724E0,4.7498183E0,3.2499287E0,3.4998362E0,1.2499821E0,1.7499664E0,1.4999623E0],"tree_param":{"num_deleted":"0","num_feature":"225","num_nodes":"43","size_leaf_vector":"0"}},{"base_weights":[-4.5421135E-2,6.340016E-1,-2.9175624E-1,8.666046E-1,-4.5563793E-3,-4.957972E-1,8.018826E-1,1.5193564E-1,1.4064957E0,1.15095414E-1,-8.1290483E-1,-6.592961E-3,1.2538886E0,-3.5205904E-1,7.6425844E-3,1.5947664E-2,5.3564818E-3,-1.0621485E-2,4.6852383E-1,-1.5879609E-1,-1.4532577E0,2.197606E-3,1.5063788E-2,3.3226933E-3,-1.1080105E-2,1.2119015E0,-5.9151846E-1,-1.0954188E0,3.2715234E-1,-1.6565932E-2,-3.2502068E-3,1.3818231E-2,3.8727748E-3,-1.0653443E-2,1.8354735E-3,-0E0,-1.4084408E-2,9.410052E-1,-5.802781E-1,1.3125882E-2,-2.202919E-3,-1.1905596E-2,1.8553144E-3],"categories":[],"categories_nodes":[],"categories_segments":[],"categories_sizes":[],"default_left":[0,0,0,0,0,0,0,0,0,0,0,0,0,0,0,0,0,0,0,0,0,0,0,0,0,0,0,0,0,0,0,0,0,0,0,0,0,0,0,0,0,0,0],"id":2,"left_children":[1,3,5,7,-1,9,11,13,15,17,19,-1,21,23,-1,-1,-1,-1,25,27,29,-1,-1,-1,-1,31,33,35,37,-1,-1,-1,-1,-1,-1,-1,-1,39,41,-1,-1,-1,-1],"loss_changes":[9.263373E0,4.1329556E0,9.433744E0,4.608857E0,0E0,6.8243303E0,5.2842603E0,2.274966E0,2.932682E-1,5.8020263E0,9.401476E0,0E0,1.1048479E0,2.5667243E0,0E0,0E0,0E0,0E0,8.990194E0,6.047131E0,2.0992603E0,0E0,0E0,0E0,0E0,3.7553787E-1,2.0316746E0,1.5428324E0,5.5588307E0,0E0,0E0,0E0,0E0,0E0,0E0,0E0,0E0,2.7701006E0,2.2070742E0,0E0,0E0,0E0,0E0],"parents":[2147483647,0,0,1,1,2,2,3,3,5,5,6,6,7,7,8,8,9,9,10,10,12,12,13,13,18,18,19,19,20,20,25,25,26,26,27,27,28,28,37,37,38,38],"right_children":[2,4,6,8,-1,10,12,14,16,18,20,-1,22,24,-1,-1,-1,-1,26,28,30,-1,-1,-1,-1,32,34,36,38,-1,-1,-1,-1,-1,-1,-1,-1,40,42,-1,-1,-1,-1],"split_conditions":[4.107452E-1,4.5326814E-1,7.9087996E-1,7.5109416E-1,-4.5563793E-3,-6.475985E-4,4.1272295E-1,1E0,1E0,4.6689788E-1,1E0,-6.592961E-3,3E0,1E0,7.6425844E-3,1.5947664E-2,5.3564818E-3,-1.0621485E-2,1E0,4.234606E-1,7.088953E-1,2.197606E-3,1.5063788E-2,3.3226933E-3,-1.1080105E-2,-1.4609207E-3,5.683188E-1,1E0,5.0780576E-1,-1.6565932E-2,-3.2502068E-3,1.3818231E-2,3.8727748E-3,-1.0653443E-2,1.8354735E-3,-0E0,-1.4084408E-2,7.109277E-1,5.282668E-1,1.3125882E-2,-2.202919E-3,-1.1905596E-2,1.8553144E-3],"split_indices":[150,40,174,223,0,200,42,217,202,161,67,0,195,221,0,0,0,0,216,49,46,0,0,0,0,200,160,11,46,0,0,0,0,0,0,0,0,168,46,0,0,0,0],"split_type":[0,0,0,0,0,0,0,0,0,0,0,0,0,0,0,0,0,0,0,0,0,0,0,0,0,0,0,0,0,0,0,0,0,0,0,0,0,0,0,0,0,0,0],"sum_hessian":[5.3242897E1,1.3748657E1,3.949424E1,1.1498734E1,2.249923E0,3.3745056E1,5.749184E0,5.499849E0,5.9988856E0,1.1748734E1,2.199632E1,1.2499448E0,4.4992394E0,3.2499237E0,2.2499251E0,4.2490025E0,1.7498833E0,2.249741E0,9.498993E0,1.1498646E1,1.0497676E1,1.2499939E0,3.2492456E0,1.9999355E0,1.2499882E0,5.4992595E0,3.9997334E0,3.4994936E0,7.999152E0,8.497855E0,1.999821E0,3.9994373E0,1.4998224E0,2.2498174E0,1.749916E0,1E0,2.4994936E0,4.7493453E0,3.249807E0,3.4993665E0,1.2499788E0,1.4998883E0,1.7499187E0],"tree_param":{"num_deleted":"0","num_feature":"225","num_nodes":"43","size_leaf_vector":"0"}},{"base_weights":[-4.5111883E-2,6.2885916E-1,-2.894836E-1,8.5974234E-1,-4.524913E-3,-4.9192405E-1,7.95564E-1,1.5040275E-1,1.395752E0,1.1382065E-1,-8.063678E-1,-6.556534E-3,1.2447019E0,7.605984E-3,-3.5159338E-1,1.5837178E-2,5.2940655E-3,-1.0548998E-2,4.6473518E-1,-1.5828536E-1,-1.440805E0,2.1854038E-3,1.4951888E-2,3.962902E-3,-9.036308E-3,1.2026703E0,-5.873981E-1,-1.0877469E0,3.2401276E-1,-3.2035713E-3,-1.6430276E-2,1.3719628E-2,3.8299975E-3,-1.0589985E-2,1.8351326E-3,-0E0,-1.3986321E-2,9.336216E-1,-5.768658E-1,1.3026031E-2,-2.1906856E-3,1.8577614E-3,-1.1850638E-2],"categories":[],"categories_nodes":[],"categories_segments":[],"categories_sizes":[],"default_left":[0,0,0,0,0,0,0,0,0,0,0,0,0,0,0,0,0,0,0,0,0,0,0,0,0,0,0,0,0,0,0,0,0,0,0,0,0,0,0,0,0,0,0],"id":3,"left_children":[1,3,5,7,-1,9,11,13,15,17,19,-1,21,-1,23,-1,-1,-1,25,27,29,-1,-1,-1,-1,31,33,35,37,-1,-1,-1,-1,-1,-1,-1,-1,39,41,-1,-1,-1,-1],"loss_changes":[9.114419E0,4.070856E0,9.284706E0,4.5416594E0,0E0,6.708643E0,5.214535E0,2.258372E0,3.010645E-1,5.718168E0,9.22547E0,0E0,1.086525E0,0E0,2.1126986E0,0E0,0E0,0E0,8.857033E0,5.9545946E0,2.078144E0,0E0,0E0,0E0,0E0,3.7627888E-1,2.011959E0,1.521358E0,5.4802327E0,0E0,0E0,0E0,0E0,0E0,0E0,0E0,0E0,2.730349E0,2.1912894E0,0E0,0E0,0E0,0E0],"parents":[2147483647,0,0,1,1,2,2,3,3,5,5,6,6,7,7,8,8,9,9,10,10,12,12,14,14,18,18,19,19,20,20,25,25,26,26,27,27,28,28,37,37,38,38],"right_children":[2,4,6,8,-1,10,12,14,16,18,20,-1,22,-1,24,-1,-1,-1,26,28,30,-1,-1,-1,-1,32,34,36,38,-1,-1,-1,-1,-1,-1,-1,-1,40,42,-1,-1,-1,-1],"split_conditions":[4.107452E-1,4.5326814E-1,7.9087996E-1,7.5109416E-1,-4.524913E-3,-6.475985E-4,4.1272295E-1,1.641528E-1,4.1555685E-1,4.6689788E-1,1E0,-6.556534E-3,3E0,7.605984E-3,3.5008523E-1,1.5837178E-2,5.2940655E-3,-1.0548998E-2,1E0,4.234606E-1,5E0,2.1854038E-3,1.4951888E-2,3.962902E-3,-9.036308E-3,5.9271747E-1,5.839736E-1,1E0,5.0780576E-1,-3.2035713E-3,-1.6430276E-2,1.3719628E-2,3.8299975E-3,-1.0589985E-2,1.8351326E-3,-0E0,-1.3986321E-2,7.109277E-1,1E0,1.3026031E-2,-2.1906856E-3,1.8577614E-3,-1.1850638E-2],"split_indices":[150,40,174,223,0,200,42,35,155,161,67,0,195,0,154,0,0,0,216,49,196,0,0,0,0,151,43,11,46,0,0,0,0,0,0,0,0,168,215,0,0,0,0],"split_type":[0,0,0,0,0,0,0,0,0,0,0,0,0,0,0,0,0,0,0,0,0,0,0,0,0,0,0,0,0,0,0,0,0,0,0,0,0,0,0,0,0,0,0],"sum_hessian":[5.323438E1,1.3747035E1,3.9487343E1,1.1497168E1,2.2498674E0,3.3739166E1,5.7481785E0,5.499666E0,5.997502E0,1.174726E1,2.1991905E1,1.2498764E0,4.498302E0,2.2497997E0,3.2498665E0,4.247831E0,1.7496711E0,2.2494211E0,9.497839E0,1.1497059E1,1.0494846E1,1.2499863E0,3.2483158E0,1.4999335E0,1.7499329E0,5.4983683E0,3.999471E0,3.4988685E0,7.998191E0,1.9996479E0,8.495198E0,3.998692E0,1.4996765E0,2.2495964E0,1.7498745E0,1E0,2.4988685E0,4.74857E0,3.2496204E0,3.4985976E0,1.2499725E0,1.7499013E0,1.4997191E0],"tree_param":{"num_deleted":"0","num_feature":"225","num_nodes":"43","size_leaf_vector":"0"}},{"base_weights":[-4.4759337E-2,6.239639E-1,-2.8724873E-1,8.531869E-1,-4.4936957E-3,-4.881146E-1,7.8934056E-1,1.4929457E-1,1.3851904E0,1.12563394E-1,-7.9994404E-1,-6.5203863E-3,1.2356651E0,7.5770426E-3,-3.510757E-1,1.5714286E-2,5.260619E-3,-1.0477407E-2,4.609973E-1,-1.577822E-1,-1.4285945E0,2.1732731E-3,1.4842082E-2,-7.968577E-3,1.8188047E-3,1.1935748E0,-5.833189E-1,-1.0801873E0,3.2091442E-1,-1.629568E-2,-3.1634942E-3,1.3632338E-2,3.7679123E-3,-1.05273E-2,1.8347566E-3,-0E0,-1.3889884E-2,9.263436E-1,-5.7348496E-1,1.2927787E-2,-2.1785258E-3,-1.1805906E-2,1.8691319E-3],"categories":[],"categories_nodes":[],"categories_segments":[],"categories_sizes":[],"default_left":[0,0,0,0,0,0,0,0,0,0,0,0,0,0,0,0,0,0,0,0,0,0,0,0,0,0,0,0,0,0,0,0,0,0,0,0,0,0,0,0,0,0,0],"id":4,"left_children":[1,3,5,7,-1,9,11,13,15,17,19,-1,21,-1,23,-1,-1,-1,25,27,29,-1,-1,-1,-1,31,33,35,37,-1,-1,-1,-1,-1,-1,-1,-1,39,41,-1,-1,-1,-1],"loss_changes":[8.971872E0,4.0111E0,9.138608E0,4.4722433E0,0E0,6.5954742E0,5.146064E0,2.2446241E0,2.9264832E-1,5.635753E0,9.053845E0,0E0,1.068737E0,0E0,1.1545905E0,0E0,0E0,0E0,8.72629E0,5.8637795E0,2.0530758E0,0E0,0E0,0E0,0E0,3.8668156E-1,1.9925361E0,1.5003676E0,5.4030004E0,0E0,0E0,0E0,0E0,0E0,0E0,0E0,0E0,2.691411E0,2.182348E0,0E0,0E0,0E0,0E0],"parents":[2147483647,0,0,1,1,2,2,3,3,5,5,6,6,7,7,8,8,9,9,10,10,12,12,14,14,18,18,19,19,20,20,25,25,26,26,27,27,28,28,37,37,38,38],"right_children":[2,4,6,8,-1,10,12,14,16,18,20,-1,22,-1,24,-1,-1,-1,26,28,30,-1,-1,-1,-1,32,34,36,38,-1,-1,-1,-1,-1,-1,-1,-1,40,42,-1,-1,-1,-1],"split_conditions":[4.107452E-1,4.5326814E-1,7.9087996E-1,7.5109416E-1,-4.4936957E-3,-6.475985E-4,4.1272295E-1,1E0,1E0,4.6689788E-1,1E0,-6.5203863E-3,3E0,7.5770426E-3,3.2947674E-1,1.5714286E-2,5.260619E-3,-1.0477407E-2,1E0,4.234606E-1,7.088953E-1,2.1732731E-3,1.4842082E-2,-7.968577E-3,1.8188047E-3,1E0,5.683188E-1,1E0,5.0780576E-1,-1.629568E-2,-3.1634942E-3,1.3632338E-2,3.7679123E-3,-1.05273E-2,1.8347566E-3,-0E0,-1.3889884E-2,7.109277E-1,5.282668E-1,1.2927787E-2,-2.1785258E-3,-1.1805906E-2,1.8691319E-3],"split_indices":[150,40,174,223,0,200,42,215,202,161,67,0,195,0,47,0,0,0,216,49,46,0,0,0,0,198,160,11,46,0,0,0,0,0,0,0,0,168,46,0,0,0,0],"split_type":[0,0,0,0,0,0,0,0,0,0,0,0,0,0,0,0,0,0,0,0,0,0,0,0,0,0,0,0,0,0,0,0,0,0,0,0,0,0,0,0,0,0,0],"sum_hessian":[5.322257E1,1.3744799E1,3.947777E1,1.1495009E1,2.2497895E0,3.3730984E1,5.746786E0,5.499398E0,5.9956117E0,1.1745197E1,2.1985786E1,1.2497815E0,4.4970045E0,2.2496812E0,3.249717E0,4.24607E0,1.7495415E0,2.248978E0,9.49622E0,1.1494857E1,1.0490929E1,1.2499757E0,3.247029E0,1.4999467E0,1.7497703E0,5.49712E0,3.9991002E0,3.4980032E0,7.996854E0,8.491472E0,1.9994566E0,3.997706E0,1.499414E0,2.249264E0,1.7498362E0,1E0,2.4980032E0,4.7475004E0,3.2493534E0,3.4975374E0,1.2499633E0,1.4995276E0,1.7498257E0],"tree_param":{"num_deleted":"0","num_feature":"225","num_nodes":"43","size_leaf_vector":"0"}},{"base_weights":[-4.443291E-2,6.190558E-1,-2.850507E-1,8.4662944E-1,-4.4627255E-3,-4.843671E-1,7.832098E-1,1.4802657E-1,1.374816E0,1.1132204E-1,-7.936302E-1,-6.4845174E-3,1.2267739E0,7.538772E-3,-3.5006946E-1,1.5608202E-2,5.199344E-3,-1.0406696E-2,4.5730695E-1,-1.5728615E-1,-1.4166198E0,2.1612127E-3,1.4734308E-2,3.9404687E-3,-8.992273E-3,1.1846056E0,-5.792804E-1,-1.0727377E0,3.1785598E-1,-3.1178717E-3,-1.6165785E-2,1.3536799E-2,3.7259338E-3,-1.046527E-2,1.8343134E-3,-0E0,-1.3795057E-2,9.1916907E-1,-5.701333E-1,1.28311105E-2,-2.1664354E-3,1.8714108E-3,-1.1752053E-2],"categories":[],"categories_nodes":[],"categories_segments":[],"categories_sizes":[],"default_left":[0,0,0,0,0,0,0,0,0,0,0,0,0,0,0,0,0,0,0,0,0,0,0,0,0,0,0,0,0,0,0,0,0,0,0,0,0,0,0,0,0,0,0],"id":5,"left_children":[1,3,5,7,-1,9,11,13,15,17,19,-1,21,-1,23,-1,-1,-1,25,27,29,-1,-1,-1,-1,31,33,35,37,-1,-1,-1,-1,-1,-1,-1,-1,39,41,-1,-1,-1,-1],"loss_changes":[8.830561E0,3.9518976E0,8.995373E0,4.4060764E0,0E0,6.4847383E0,5.078816E0,2.2251744E0,3.004732E-1,5.5547395E0,8.886489E0,0E0,1.051467E0,0E0,2.0909092E0,0E0,0E0,0E0,8.597863E0,5.7746468E0,2.0334587E0,0E0,0E0,0E0,0E0,3.874035E-1,1.9733474E0,1.4798479E0,5.327104E0,0E0,0E0,0E0,0E0,0E0,0E0,0E0,0E0,2.6532612E0,2.1668549E0,0E0,0E0,0E0,0E0],"parents":[2147483647,0,0,1,1,2,2,3,3,5,5,6,6,7,7,8,8,9,9,10,10,12,12,14,14,18,18,19,19,20,20,25,25,26,26,27,27,28,28,37,37,38,38],"right_children":[2,4,6,8,-1,10,12,14,16,18,20,-1,22,-1,24,-1,-1,-1,26,28,30,-1,-1,-1,-1,32,34,36,38,-1,-1,-1,-1,-1,-1,-1,-1,40,42,-1,-1,-1,-1],"split_conditions":[4.107452E-1,4.5326814E-1,7.9087996E-1,7.5109416E-1,-4.4627255E-3,-6.475985E-4,4.1272295E-1,1.641528E-1,4.1555685E-1,4.6689788E-1,1E0,-6.4845174E-3,3E0,7.538772E-3,3.5008523E-1,1.5608202E-2,5.199344E-3,-1.0406696E-2,1E0,4.234606E-1,5E0,2.1612127E-3,1.4734308E-2,3.9404687E-3,-8.992273E-3,-1.4609207E-3,5.839736E-1,1E0,5.0780576E-1,-3.1178717E-3,-1.6165785E-2,1.3536799E-2,3.7259338E-3,-1.046527E-2,1.8343134E-3,-0E0,-1.3795057E-2,7.109277E-1,1E0,1.28311105E-2,-2.1664354E-3,1.8714108E-3,-1.1752053E-2],"split_indices":[150,40,174,223,0,200,42,35,155,161,67,0,195,0,154,0,0,0,216,49,196,0,0,0,0,200,43,11,46,0,0,0,0,0,0,0,0,168,215,0,0,0,0],"split_type":[0,0,0,0,0,0,0,0,0,0,0,0,0,0,0,0,0,0,0,0,0,0,0,0,0,0,0,0,0,0,0,0,0,0,0,0,0,0,0,0,0,0,0],"sum_hessian":[5.3207653E1,1.3742042E1,3.946561E1,1.14923525E1,2.2496889E0,3.3720596E1,5.7450166E0,5.4991665E0,5.9931865E0,1.1742583E1,2.1978012E1,1.2496605E0,4.495356E0,2.2495034E0,3.249663E0,4.244006E0,1.7491801E0,2.248414E0,9.494168E0,1.1492068E1,1.0485944E1,1.2499623E0,3.2453938E0,1.4998283E0,1.7498349E0,5.495546E0,3.998623E0,3.4969022E0,7.9951663E0,1.9991724E0,8.486771E0,3.9963682E0,1.4991777E0,2.2488413E0,1.7497815E0,1E0,2.4969022E0,4.7461433E0,3.249023E0,3.4961925E0,1.2499509E0,1.7497928E0,1.4992303E0],"tree_param":{"num_deleted":"0","num_feature":"225","num_nodes":"43","size_leaf_vector":"0"}},{"base_weights":[-4.409256E-2,6.1428756E-1,-2.8288838E-1,1.0888833E0,4.5205917E-2,-4.8067993E-1,7.7716964E-1,1.3350723E0,1.3798103E-4,-3.424496E-1,8.746531E-3,1.1009745E-1,-7.8742325E-1,-6.4489166E-3,1.2180246E0,1.5477153E-2,3.7573203E-3,-8.8977313E-1,7.8007267E-3,-1.0336847E-2,4.5366526E-1,-1.5679726E-1,-1.4048723E0,2.1492222E-3,1.4628511E-2,-1.2635382E-2,-1.92237E-3,1.1757658E0,-5.752818E-1,-1.0653951E0,3.148371E-1,-1.6036801E-2,-3.078742E-3,1.344743E-2,3.6747893E-3,-1.0403984E-2,1.8338364E-3,-0E0,-1.3701793E-2,9.120951E-1,-5.668125E-1,1.2735958E-2,-2.1544127E-3,-1.17083015E-2,1.8825694E-3],"categories":[],"categories_nodes":[],"categories_segments":[],"categories_sizes":[],"default_left":[0,0,0,0,0,0,0,0,0,0,0,0,0,0,0,0,0,0,0,0,0,0,0,0,0,0,0,0,0,0,0,0,0,0,0,0,0,0,0,0,0,0,0,0,0],"id":6,"left_children":[1,3,5,7,9,11,13,15,-1,17,-1,19,21,-1,23,-1,-1,25,-1,-1,27,29,31,-1,-1,-1,-1,33,35,37,39,-1,-1,-1,-1,-1,-1,-1,-1,41,43,-1,-1,-1,-1],"loss_changes":[8.693362E0,3.9314313E0,8.854933E0,2.0971556E0,2.7899976E0,6.376378E0,5.0127587E0,7.430992E-1,0E0,4.3786106E0,0E0,5.4751086E0,8.723228E0,0E0,1.0346947E0,0E0,0E0,9.2995214E-1,0E0,0E0,8.471743E0,5.6871543E0,2.0099487E0,0E0,0E0,0E0,0E0,3.9274883E-1,1.9544408E0,1.4597826E0,5.252515E0,0E0,0E0,0E0,0E0,0E0,0E0,0E0,0E0,2.6158748E0,2.158105E0,0E0,0E0,0E0,0E0],"parents":[2147483647,0,0,1,1,2,2,3,3,4,4,5,5,6,6,7,7,9,9,11,11,12,12,14,14,17,17,20,20,21,21,22,22,27,27,28,28,29,29,30,30,39,39,40,40],"right_children":[2,4,6,8,10,12,14,16,-1,18,-1,20,22,-1,24,-1,-1,26,-1,-1,28,30,32,-1,-1,-1,-1,34,36,38,40,-1,-1,-1,-1,-1,-1,-1,-1,42,44,-1,-1,-1,-1],"split_conditions":[4.107452E-1,1E0,7.9087996E-1,4.5326814E-1,5.5602854E-1,-6.475985E-4,4.1272295E-1,1E0,1.3798103E-4,2.923368E-1,8.746531E-3,4.6689788E-1,1E0,-6.4489166E-3,3E0,1.5477153E-2,3.7573203E-3,1E0,7.8007267E-3,-1.0336847E-2,1E0,4.234606E-1,7.088953E-1,2.1492222E-3,1.4628511E-2,-1.2635382E-2,-1.92237E-3,5.9271747E-1,5.683188E-1,1E0,5.0780576E-1,-1.6036801E-2,-3.078742E-3,1.344743E-2,3.6747893E-3,-1.0403984E-2,1.8338364E-3,-0E0,-1.3701793E-2,7.109277E-1,5.282668E-1,1.2735958E-2,-2.1544127E-3,-1.17083015E-2,1.8825694E-3],"split_indices":[150,215,174,40,162,200,42,127,0,35,0,161,67,0,195,0,0,214,0,0,216,49,46,0,0,0,0,151,160,11,46,0,0,0,0,0,0,0,0,168,46,0,0,0,0],"split_type":[0,0,0,0,0,0,0,0,0,0,0,0,0,0,0,0,0,0,0,0,0,0,0,0,0,0,0,0,0,0,0,0,0,0,0,0,0,0,0,0,0,0,0,0,0],"sum_hessian":[5.31895E1,1.3738598E1,3.94509E1,6.9931393E0,6.745458E0,3.3708023E1,5.742878E0,5.493359E0,1.49978E0,4.9971123E0,1.7483459E0,1.1739404E1,2.196862E1,1.2495139E0,4.4933643E0,3.994618E0,1.4987411E0,3.4985979E0,1.4985144E0,2.2477322E0,9.491672E0,1.1488691E1,1.0479929E1,1.249946E0,3.2434182E0,1.7496443E0,1.7489536E0,5.493631E0,3.998041E0,3.4955716E0,7.9931192E0,8.481038E0,1.9988906E0,3.9947984E0,1.4988325E0,2.2483106E0,1.7497301E0,1E0,2.4955716E0,4.7445054E0,3.2486143E0,3.4945693E0,1.2499359E0,1.4989245E0,1.7496898E0],"tree_param":{"num_deleted":"0","num_feature":"225","num_nodes":"45","size_leaf_vector":"0"}},{"base_weights":[-4.3708228E-2,6.0973275E-1,-2.80761E-1,1.0807502E0,4.501607E-2,-4.770516E-1,7.712178E-1,1.3251848E0,1.3715244E-4,-3.4017614E-1,8.692332E-3,1.0888861E-1,-7.813204E-1,-6.4135883E-3,1.2094138E0,1.5360545E-2,3.7349644E-3,-8.8415235E-1,7.7546304E-3,-1.0267842E-2,4.5007002E-1,-1.563153E-1,-1.3933463E0,2.1372994E-3,1.4524637E-2,-1.2556047E-2,-1.9101213E-3,1.1670489E0,-5.7132256E-1,-1.0581574E0,3.1185636E-1,-3.0340946E-3,-1.5912302E-2,1.3364204E-2,3.6143716E-3,-1.0352425E-2,1.8444298E-3,-0E0,-1.3610058E-2,9.051195E-1,-5.6352E-1,1.2642288E-2,-2.1424608E-3,1.8846843E-3,-1.16555225E-2],"categories":[],"categories_nodes":[],"categories_segments":[],"categories_sizes":[],"default_left":[0,0,0,0,0,0,0,0,0,0,0,0,0,0,0,0,0,0,0,0,0,0,0,0,0,0,0,0,0,0,0,0,0,0,0,0,0,0,0,0,0,0,0,0,0],"id":7,"left_children":[1,3,5,7,9,11,13,15,-1,17,-1,19,21,-1,23,-1,-1,25,-1,-1,27,29,31,-1,-1,-1,-1,33,35,37,39,-1,-1,-1,-1,-1,-1,-1,-1,41,43,-1,-1,-1,-1],"loss_changes":[8.561966E0,3.8708048E0,8.717213E0,2.0659618E0,2.7544563E0,6.2703204E0,4.947864E0,7.289009E-1,0E0,4.3249025E0,0E0,5.3968267E0,8.563946E0,0E0,1.0184011E0,0E0,0E0,9.1835904E-1,0E0,0E0,8.347852E0,5.6012673E0,1.9916916E0,0E0,0E0,0E0,0E0,4.0270233E-1,1.9430901E0,1.4401588E0,5.179199E0,0E0,0E0,0E0,0E0,0E0,0E0,0E0,0E0,2.5792327E0,2.1428952E0,0E0,0E0,0E0,0E0],"parents":[2147483647,0,0,1,1,2,2,3,3,4,4,5,5,6,6,7,7,9,9,11,11,12,12,14,14,17,17,20,20,21,21,22,22,27,27,28,28,29,29,30,30,39,39,40,40],"right_children":[2,4,6,8,10,12,14,16,-1,18,-1,20,22,-1,24,-1,-1,26,-1,-1,28,30,32,-1,-1,-1,-1,34,36,38,40,-1,-1,-1,-1,-1,-1,-1,-1,42,44,-1,-1,-1,-1],"split_conditions":[4.107452E-1,1E0,7.9087996E-1,4.5326814E-1,5.5602854E-1,-6.475985E-4,4.1272295E-1,1E0,1.3715244E-4,2.923368E-1,8.692332E-3,4.6689788E-1,1E0,-6.4135883E-3,3E0,1.5360545E-2,3.7349644E-3,1E0,7.7546304E-3,-1.0267842E-2,1E0,4.234606E-1,5E0,2.1372994E-3,1.4524637E-2,-1.2556047E-2,-1.9101213E-3,1E0,5.480478E-1,1E0,5.0780576E-1,-3.0340946E-3,-1.5912302E-2,1.3364204E-2,3.6143716E-3,-1.0352425E-2,1.8444298E-3,-0E0,-1.3610058E-2,7.109277E-1,1E0,1.2642288E-2,-2.1424608E-3,1.8846843E-3,-1.16555225E-2],"split_indices":[150,215,174,40,162,200,42,127,0,35,0,161,67,0,195,0,0,214,0,0,216,49,196,0,0,0,0,198,40,11,46,0,0,0,0,0,0,0,0,168,215,0,0,0,0],"split_type":[0,0,0,0,0,0,0,0,0,0,0,0,0,0,0,0,0,0,0,0,0,0,0,0,0,0,0,0,0,0,0,0,0,0,0,0,0,0,0,0,0,0,0,0,0],"sum_hessian":[5.3168995E1,1.3735277E1,3.943372E1,6.9907E0,6.7445774E0,3.369334E1,5.74038E0,5.490917E0,1.4997824E0,4.9966846E0,1.7478926E0,1.1735685E1,2.1957655E1,1.249342E0,4.491038E0,3.992296E0,1.4986211E0,3.4983914E0,1.4982933E0,2.2469344E0,9.48875E0,1.1484754E1,1.0472901E1,1.2499268E0,3.2411108E0,1.7494121E0,1.7489793E0,5.491394E0,3.9973564E0,3.494016E0,7.9907374E0,1.9985015E0,8.4744E0,3.9930158E0,1.4983783E0,2.2477822E0,1.7495743E0,1E0,2.494016E0,4.7425933E0,3.2481441E0,3.492675E0,1.249918E0,1.7496418E0,1.4985024E0],"tree_param":{"num_deleted":"0","num_feature":"225","num_nodes":"45","size_leaf_vector":"0"}},{"base_weights":[-4.333024E-2,6.052421E-1,-2.7866733E-1,8.290305E-1,-4.406814E-3,-4.7348005E-1,7.6535237E-1,1.4107499E-1,1.3502306E0,1.0365571E-2,-8.415679E-1,-6.3785263E-3,1.2009376E0,7.4107554E-3,-3.5087848E-1,1.5343437E-2,5.0806818E-3,7.653337E-1,-8.4025246E-1,1.5592347E-2,-1.2634783E0,2.1254465E-3,1.442263E-2,3.838835E-3,-8.9115E-3,-9.543709E-2,1.2683562E0,-1.2110659E0,6.4473865E-3,6.4911216E-1,-1.013448E-2,-2.7403346E-1,-1.4680939E0,-9.404153E-3,1.0729523E-2,2.1204518E-3,1.5141208E-2,1.8775885E-4,-1.5655983E-2,1.3001723E-2,-1.5188208E-3,-1.067248E-2,6.4115864E-3,-3.8377685E-3,-1.6022831E-2],"categories":[],"categories_nodes":[],"categories_segments":[],"categories_sizes":[],"default_left":[0,0,0,0,0,0,0,0,0,0,0,0,0,0,0,0,0,0,0,0,0,0,0,0,0,0,0,0,0,0,0,0,0,0,0,0,0,0,0,0,0,0,0,0,0],"id":8,"left_children":[1,3,5,7,-1,9,11,13,15,17,19,-1,21,-1,23,-1,-1,25,27,29,31,-1,-1,-1,-1,33,35,37,-1,39,-1,41,43,-1,-1,-1,-1,-1,-1,-1,-1,-1,-1,-1,-1],"loss_changes":[8.433043E0,3.8134155E0,8.582144E0,4.2850637E0,0E0,6.1845484E0,4.8841047E0,2.1777434E0,3.0349255E-1,1.0899014E1,7.1463995E0,0E0,1.0025673E0,0E0,2.028656E0,0E0,0E0,4.0110765E0,5.178408E0,5.5394564E0,2.2738075E0,0E0,0E0,0E0,0E0,5.1987185E0,1.1691732E0,2.9672022E0,0E0,2.9323606E0,0E0,3.221153E0,9.454136E-1,0E0,0E0,0E0,0E0,0E0,0E0,0E0,0E0,0E0,0E0,0E0,0E0],"parents":[2147483647,0,0,1,1,2,2,3,3,5,5,6,6,7,7,8,8,9,9,10,10,12,12,14,14,17,17,18,18,19,19,20,20,25,25,26,26,27,27,29,29,31,31,32,32],"right_children":[2,4,6,8,-1,10,12,14,16,18,20,-1,22,-1,24,-1,-1,26,28,30,32,-1,-1,-1,-1,34,36,38,-1,40,-1,42,44,-1,-1,-1,-1,-1,-1,-1,-1,-1,-1,-1,-1],"split_conditions":[4.107452E-1,4.5326814E-1,7.9087996E-1,7.5109416E-1,-4.406814E-3,1E0,4.1272295E-1,1.641528E-1,4.1555685E-1,1E0,5.72075E-1,-6.3785263E-3,3E0,7.4107554E-3,3.5008523E-1,1.5343437E-2,5.0806818E-3,1E0,6.680766E-1,6.073147E-1,4.5906612E-1,2.1254465E-3,1.442263E-2,3.838835E-3,-8.9115E-3,6.087812E-1,1E0,3.9871573E-1,6.4473865E-3,3E0,-1.013448E-2,4.1503924E-1,4.6722463E-1,-9.404153E-3,1.0729523E-2,2.1204518E-3,1.5141208E-2,1.8775885E-4,-1.5655983E-2,1.3001723E-2,-1.5188208E-3,-1.067248E-2,6.4115864E-3,-3.8377685E-3,-1.6022831E-2],"split_indices":[150,40,174,223,0,198,42,35,155,211,162,0,195,0,154,0,0,103,48,161,147,0,0,0,0,40,195,41,0,195,0,47,158,0,0,0,0,0,0,0,0,0,0,0,0],"split_type":[0,0,0,0,0,0,0,0,0,0,0,0,0,0,0,0,0,0,0,0,0,0,0,0,0,0,0,0,0,0,0,0,0,0,0,0,0,0,0,0,0,0,0,0,0],"sum_hessian":[5.3145397E1,1.3731247E1,3.941415E1,1.1481917E1,2.2493303E0,3.367662E1,5.7375298E0,5.496936E0,5.984981E0,1.4970272E1,1.8706348E1,1.2491453E0,4.4883842E0,2.248368E0,3.2485678E0,4.2368197E0,1.7481612E0,7.9841666E0,6.9861054E0,6.488087E0,1.2218261E1,1.249905E0,3.2384794E0,1.4991738E0,1.7493942E0,3.2437472E0,4.7404194E0,5.737797E0,1.2483087E0,4.244317E0,2.2437704E0,2.4945931E0,9.723667E0,1.9956287E0,1.2481185E0,1.2463465E0,3.494073E0,1.4958532E0,4.2419434E0,1.9975113E0,2.2468054E0,1.2473471E0,1.247246E0,1.4959114E0,8.227756E0],"tree_param":{"num_deleted":"0","num_feature":"225","num_nodes":"45","size_leaf_vector":"0"}},{"base_weights":[-4.263227E-2,6.006395E-1,-2.7607974E-1,1.067985E0,4.1021876E-2,-4.693282E-1,7.595712E-1,1.3086872E0,1.6277426E-4,-3.4040108E-1,8.585641E-3,1.0864359E-2,-8.346907E-1,-6.343729E-3,1.192593E0,1.5170473E-2,3.68819E-3,-8.7989026E-1,7.6745003E-3,7.600134E-1,-8.3326536E-1,1.5620367E-2,-1.2533447E0,2.113662E-3,1.432244E-2,-1.9205501E-3,-1.24755865E-2,-9.420203E-2,1.2590548E0,-1.2017074E0,6.412091E-3,6.449046E-1,-1.0067903E-2,-2.7257374E-1,-1.4561268E0,-9.344331E-3,1.067237E-2,2.1087115E-3,1.5029114E-2,1.8663325E-4,-1.5536875E-2,1.291833E-2,-1.5083128E-3,-1.06159765E-2,6.3765775E-3,-3.814899E-3,-1.5890742E-2],"categories":[],"categories_nodes":[],"categories_segments":[],"categories_sizes":[],"default_left":[0,0,0,0,0,0,0,0,0,0,0,0,0,0,0,0,0,0,0,0,0,0,0,0,0,0,0,0,0,0,0,0,0,0,0,0,0,0,0,0,0,0,0,0,0,0,0],"id":9,"left_children":[1,3,5,7,9,11,13,15,-1,17,-1,19,21,-1,23,-1,-1,25,-1,27,29,31,33,-1,-1,-1,-1,35,37,39,-1,41,-1,43,45,-1,-1,-1,-1,-1,-1,-1,-1,-1,-1,-1,-1],"loss_changes":[8.293402E0,3.807629E0,8.441292E0,2.0000305E0,2.7062888E0,6.0902877E0,4.8214498E0,7.104635E-1,0E0,4.2582192E0,0E0,1.0728872E1,7.0315676E0,0E0,9.871783E-1,0E0,0E0,8.977828E-1,0E0,3.9471297E0,5.1075873E0,5.4658074E0,2.2305756E0,0E0,0E0,0E0,0E0,5.1372633E0,1.1499319E0,2.922102E0,0E0,2.8941507E0,0E0,3.1861749E0,9.2497635E-1,0E0,0E0,0E0,0E0,0E0,0E0,0E0,0E0,0E0,0E0,0E0,0E0],"parents":[2147483647,0,0,1,1,2,2,3,3,4,4,5,5,6,6,7,7,9,9,11,11,12,12,14,14,17,17,19,19,20,20,21,21,22,22,27,27,28,28,29,29,31,31,33,33,34,34],"right_children":[2,4,6,8,10,12,14,16,-1,18,-1,20,22,-1,24,-1,-1,26,-1,28,30,32,34,-1,-1,-1,-1,36,38,40,-1,42,-1,44,46,-1,-1,-1,-1,-1,-1,-1,-1,-1,-1,-1,-1],"split_conditions":[4.107452E-1,1E0,7.9087996E-1,4.5326814E-1,5.5602854E-1,1E0,4.1272295E-1,1E0,1.6277426E-4,2.923368E-1,8.585641E-3,1E0,5.72075E-1,-6.343729E-3,3E0,1.5170473E-2,3.68819E-3,1E0,7.6745003E-3,1E0,6.680766E-1,6.073147E-1,4.5906612E-1,2.113662E-3,1.432244E-2,-1.9205501E-3,-1.24755865E-2,6.087812E-1,1E0,3.9871573E-1,6.412091E-3,3E0,-1.0067903E-2,4.1503924E-1,4.6722463E-1,-9.344331E-3,1.067237E-2,2.1087115E-3,1.5029114E-2,1.8663325E-4,-1.5536875E-2,1.291833E-2,-1.5083128E-3,-1.06159765E-2,6.3765775E-3,-3.814899E-3,-1.5890742E-2],"split_indices":[150,215,174,40,162,198,42,127,0,35,0,211,162,0,195,0,0,216,0,103,48,161,147,0,0,0,0,40,195,41,0,195,0,47,158,0,0,0,0,0,0,0,0,0,0,0,0],"split_type":[0,0,0,0,0,0,0,0,0,0,0,0,0,0,0,0,0,0,0,0,0,0,0,0,0,0,0,0,0,0,0,0,0,0,0,0,0,0,0,0,0,0,0,0,0,0,0],"sum_hessian":[5.3122448E1,1.3726296E1,3.9396152E1,6.984778E0,6.741518E0,3.3661816E1,5.734337E0,5.4850755E0,1.4997025E0,4.994821E0,1.7466967E0,1.4964445E1,1.8697369E1,1.2489241E0,4.4854126E0,3.9870722E0,1.4980034E0,3.4974432E0,1.4973781E0,7.9810576E0,6.983388E0,6.4862003E0,1.2211169E1,1.2498804E0,3.2355323E0,1.7485708E0,1.7488723E0,3.2423394E0,4.7387185E0,5.7352543E0,1.2481335E0,4.2435603E0,2.24264E0,2.4938157E0,9.717353E0,1.994727E0,1.2476122E0,1.24632E0,3.4923985E0,1.4958576E0,4.2393966E0,1.9967611E0,2.2467992E0,1.2467716E0,1.247044E0,1.4958254E0,8.221528E0],"tree_param":{"num_deleted":"0","num_feature":"225","num_nodes":"47","size_leaf_vector":"0"}},{"base_weights":[-4.1895535E-2,5.962604E-1,-2.735343E-1,1.0601761E0,4.0860243E-2,-4.65245E-1,7.5387233E-1,1.2992455E0,1.6179784E-4,-3.381651E-1,8.533037E-3,1.08230926E-1,-7.632639E-1,-6.30919E-3,1.1843764E0,1.5059835E-2,3.6662936E-3,-8.7438697E-1,7.6295314E-3,-1.0082346E-2,4.4354278E-1,-1.513218E-1,-1.36325E0,2.101946E-3,1.4224018E-2,-1.8834288E-3,-1.2422534E-2,1.1490779E0,-5.614393E-1,-1.0427209E0,3.1103563E-1,-1.5595625E-2,-2.8899997E-3,1.3167894E-2,3.5404896E-3,-1.0181972E-2,1.8211077E-3,-1.8058027E-3,-1.31843705E-2,8.9248323E-1,-5.480878E-1,1.2472286E-2,-2.1201398E-3,1.9410084E-3,-1.1457735E-2],"categories":[],"categories_nodes":[],"categories_segments":[],"categories_sizes":[],"default_left":[0,0,0,0,0,0,0,0,0,0,0,0,0,0,0,0,0,0,0,0,0,0,0,0,0,0,0,0,0,0,0,0,0,0,0,0,0,0,0,0,0,0,0,0,0],"id":10,"left_children":[1,3,5,7,9,11,13,15,-1,17,-1,19,21,-1,23,-1,-1,25,-1,-1,27,29,31,-1,-1,-1,-1,33,35,37,39,-1,-1,-1,-1,-1,-1,-1,-1,41,43,-1,-1,-1,-1],"loss_changes":[8.159747E0,3.7497225E0,8.303275E0,1.9709673E0,2.6720047E0,6.0036025E0,4.759873E0,6.9752693E-1,0E0,4.2062345E0,0E0,5.210223E0,8.209541E0,0E0,9.722152E-1,0E0,0E0,9.009409E-1,0E0,0E0,8.075191E0,5.464847E0,1.9637566E0,0E0,0E0,0E0,0E0,3.9845943E-1,1.8814937E0,8.29124E-1,4.976484E0,0E0,0E0,0E0,0E0,0E0,0E0,0E0,0E0,2.512556E0,2.1055827E0,0E0,0E0,0E0,0E0],"parents":[2147483647,0,0,1,1,2,2,3,3,4,4,5,5,6,6,7,7,9,9,11,11,12,12,14,14,17,17,20,20,21,21,22,22,27,27,28,28,29,29,30,30,39,39,40,40],"right_children":[2,4,6,8,10,12,14,16,-1,18,-1,20,22,-1,24,-1,-1,26,-1,-1,28,30,32,-1,-1,-1,-1,34,36,38,40,-1,-1,-1,-1,-1,-1,-1,-1,42,44,-1,-1,-1,-1],"split_conditions":[4.107452E-1,1E0,7.9087996E-1,4.5326814E-1,5.5602854E-1,-6.475985E-4,4.1272295E-1,1E0,1.6179784E-4,2.923368E-1,8.533037E-3,4.6689788E-1,1E0,-6.30919E-3,3E0,1.5059835E-2,3.6662936E-3,1E0,7.6295314E-3,-1.0082346E-2,1E0,4.234606E-1,7.088953E-1,2.101946E-3,1.4224018E-2,-1.8834288E-3,-1.2422534E-2,6.6808164E-1,5.480478E-1,6.3809705E-1,5.0780576E-1,-1.5595625E-2,-2.8899997E-3,1.3167894E-2,3.5404896E-3,-1.0181972E-2,1.8211077E-3,-1.8058027E-3,-1.31843705E-2,7.109277E-1,1E0,1.2472286E-2,-2.1201398E-3,1.9410084E-3,-1.1457735E-2],"split_indices":[150,215,174,40,162,200,42,127,0,35,0,161,67,0,195,0,0,212,0,0,216,49,46,0,0,0,0,43,40,166,46,0,0,0,0,0,0,0,0,168,215,0,0,0,0],"split_type":[0,0,0,0,0,0,0,0,0,0,0,0,0,0,0,0,0,0,0,0,0,0,0,0,0,0,0,0,0,0,0,0,0,0,0,0,0,0,0,0,0,0,0,0,0],"sum_hessian":[5.30966E1,1.3721177E1,3.937542E1,6.9811225E0,6.740055E0,3.364461E1,5.730809E0,5.4814167E0,1.4997058E0,4.9939976E0,1.7460576E0,1.1722981E1,2.192163E1,1.248679E0,4.48213E0,3.983563E0,1.4978535E0,3.4969602E0,1.4970374E0,2.2440987E0,9.478883E0,1.1472611E1,1.04490185E1,1.2498533E0,3.232277E0,1.7483684E0,1.7485919E0,5.484897E0,3.9939852E0,3.4896111E0,7.9830003E0,8.452591E0,1.9964273E0,3.9874623E0,1.4974349E0,2.2453246E0,1.7486607E0,1.2465882E0,2.243023E0,4.7377205E0,3.2452798E0,3.488157E0,1.2495635E0,1.7488523E0,1.4964275E0],"tree_param":{"num_deleted":"0","num_feature":"225","num_nodes":"45","size_leaf_vector":"0"}},{"base_weights":[-4.156722E-2,5.919403E-1,-2.7157095E-1,1.0524837E0,4.0700372E-2,-4.618676E-1,7.482539E-1,1.2899609E0,1.608255E-4,-3.3595175E-1,8.480949E-3,1.3003479E-2,-8.2334477E-1,-6.274908E-3,1.1762846E0,1.496265E-2,3.621067E-3,-8.711515E-1,7.6222937E-3,7.5373477E-1,-8.218955E-1,1.8249523E-2,-1.2380955E0,2.0902972E-3,1.4127315E-2,-1.3566645E-2,2.182352E-3,-8.982923E-2,1.2459188E0,-1.1870693E0,6.3700657E-3,6.391815E-1,-9.919986E-3,-2.6938033E-1,-1.4384066E0,-9.2147095E-3,1.0579178E-2,2.084879E-3,1.4873144E-2,2.1059263E-4,-1.5361246E-2,1.2798476E-2,-1.4884294E-3,-1.0496433E-2,6.306038E-3,-3.7740462E-3,-1.5696447E-2],"categories":[],"categories_nodes":[],"categories_segments":[],"categories_sizes":[],"default_left":[0,0,0,0,0,0,0,0,0,0,0,0,0,0,0,0,0,0,0,0,0,0,0,0,0,0,0,0,0,0,0,0,0,0,0,0,0,0,0,0,0,0,0,0,0,0,0],"id":11,"left_children":[1,3,5,7,9,11,13,15,-1,17,-1,19,21,-1,23,-1,-1,25,-1,27,29,31,33,-1,-1,-1,-1,35,37,39,-1,41,-1,43,45,-1,-1,-1,-1,-1,-1,-1,-1,-1,-1,-1,-1],"loss_changes":[8.038651E0,3.6929665E0,8.176385E0,1.9425764E0,2.638217E0,5.9540143E0,4.6993494E0,6.980829E-1,0E0,4.1864E0,0E0,1.0482958E1,6.89001E0,0E0,9.57664E-1,0E0,0E0,2.6740532E0,0E0,3.8373065E0,5.005569E0,5.3265576E0,2.172741E0,0E0,0E0,0E0,0E0,5.020977E0,1.1258383E0,2.8698635E0,0E0,2.8365188E0,0E0,3.1135156E0,8.9790535E-1,0E0,0E0,0E0,0E0,0E0,0E0,0E0,0E0,0E0,0E0,0E0,0E0],"parents":[2147483647,0,0,1,1,2,2,3,3,4,4,5,5,6,6,7,7,9,9,11,11,12,12,14,14,17,17,19,19,20,20,21,21,22,22,27,27,28,28,29,29,31,31,33,33,34,34],"right_children":[2,4,6,8,10,12,14,16,-1,18,-1,20,22,-1,24,-1,-1,26,-1,28,30,32,34,-1,-1,-1,-1,36,38,40,-1,42,-1,44,46,-1,-1,-1,-1,-1,-1,-1,-1,-1,-1,-1,-1],"split_conditions":[4.107452E-1,1E0,7.9087996E-1,4.5326814E-1,5.5602854E-1,1E0,4.1272295E-1,1E0,1.608255E-4,1E0,8.480949E-3,1E0,5.72075E-1,-6.274908E-3,3E0,1.496265E-2,3.621067E-3,3.8365522E-1,7.6222937E-3,1E0,6.680766E-1,6.073147E-1,4.5906612E-1,2.0902972E-3,1.4127315E-2,-1.3566645E-2,2.182352E-3,6.087812E-1,1E0,3.9871573E-1,6.3700657E-3,3E0,-9.919986E-3,3.3932865E-1,4.6722463E-1,-9.2147095E-3,1.0579178E-2,2.084879E-3,1.4873144E-2,2.1059263E-4,-1.5361246E-2,1.2798476E-2,-1.4884294E-3,-1.0496433E-2,6.306038E-3,-3.7740462E-3,-1.5696447E-2],"split_indices":[150,215,174,40,162,198,42,202,0,217,0,211,162,0,195,0,0,42,0,103,48,161,147,0,0,0,0,40,195,41,0,195,0,42,158,0,0,0,0,0,0,0,0,0,0,0,0],"split_type":[0,0,0,0,0,0,0,0,0,0,0,0,0,0,0,0,0,0,0,0,0,0,0,0,0,0,0,0,0,0,0,0,0,0,0,0,0,0,0,0,0,0,0,0,0,0,0],"sum_hessian":[5.3065926E1,1.3715426E1,3.9350502E1,6.977035E0,6.7383914E0,3.3623547E1,5.726955E0,5.477326E0,1.4997089E0,4.9930325E0,1.745359E0,1.4949058E1,1.8674488E1,1.2484107E0,4.478544E0,3.9798224E0,1.4975035E0,3.4959903E0,1.4970423E0,7.9727564E0,6.9763007E0,6.4805117E0,1.2193977E1,1.2498233E0,3.228721E0,2.2485287E0,1.2474614E0,3.2389476E0,4.733809E0,5.7286935E0,1.2476071E0,4.241096E0,2.2394156E0,2.4912016E0,9.702775E0,1.9924175E0,1.2465303E0,1.2453642E0,3.4884448E0,1.4947665E0,4.233927E0,1.9950186E0,2.2460773E0,1.2452829E0,1.2459189E0,1.4946799E0,8.208096E0],"tree_param":{"num_deleted":"0","num_feature":"225","num_nodes":"47","size_leaf_vector":"0"}},{"base_weights":[-4.079324E-2,5.878719E-1,-2.6909292E-1,8.0727357E-1,-4.345742E-3,-4.578954E-1,7.4271387E-1,1.3300213E-1,1.3194749E0,1.3478206E-2,-8.16764E-1,-6.2408806E-3,1.1683145E0,7.2456794E-3,-3.5055307E-1,1.501548E-2,4.925844E-3,7.486138E-1,-8.1518805E-1,1.8259285E-2,-1.2284285E0,2.0787152E-3,1.4032283E-2,3.7273108E-3,-8.802748E-3,-8.864796E-2,1.2369865E0,-1.1781121E0,6.3353553E-3,6.3508934E-1,-9.855894E-3,-2.679689E-1,-1.4270178E0,-9.156909E-3,1.0523703E-2,2.0733469E-3,1.4766112E-2,2.0933058E-4,-1.5247994E-2,1.2718107E-2,-1.4781366E-3,-1.0455685E-2,6.287054E-3,-3.751608E-3,-1.5571245E-2],"categories":[],"categories_nodes":[],"categories_segments":[],"categories_sizes":[],"default_left":[0,0,0,0,0,0,0,0,0,0,0,0,0,0,0,0,0,0,0,0,0,0,0,0,0,0,0,0,0,0,0,0,0,0,0,0,0,0,0,0,0,0,0,0,0],"id":12,"left_children":[1,3,5,7,-1,9,11,13,15,17,19,-1,21,-1,23,-1,-1,25,27,29,31,-1,-1,-1,-1,33,35,37,-1,39,-1,41,43,-1,-1,-1,-1,-1,-1,-1,-1,-1,-1,-1,-1],"loss_changes":[7.9134398E0,3.6504507E0,8.043516E0,4.1278305E0,0E0,5.8644323E0,4.6398516E0,2.1108441E0,3.0958748E-1,1.0320993E1,6.7812433E0,0E0,9.435091E-1,0E0,1.9547691E0,0E0,0E0,3.7767534E0,4.938033E0,5.256275E0,2.132307E0,0E0,0E0,0E0,0E0,4.9620824E0,1.1079025E0,2.8274336E0,0E0,2.8000531E0,0E0,3.09087E0,8.7934303E-1,0E0,0E0,0E0,0E0,0E0,0E0,0E0,0E0,0E0,0E0,0E0,0E0],"parents":[2147483647,0,0,1,1,2,2,3,3,5,5,6,6,7,7,8,8,9,9,10,10,12,12,14,14,17,17,18,18,19,19,20,20,25,25,26,26,27,27,29,29,31,31,32,32],"right_children":[2,4,6,8,-1,10,12,14,16,18,20,-1,22,-1,24,-1,-1,26,28,30,32,-1,-1,-1,-1,34,36,38,-1,40,-1,42,44,-1,-1,-1,-1,-1,-1,-1,-1,-1,-1,-1,-1],"split_conditions":[4.107452E-1,4.5326814E-1,7.9087996E-1,7.5109416E-1,-4.345742E-3,1E0,4.1272295E-1,1.641528E-1,4.1555685E-1,1E0,5.72075E-1,-6.2408806E-3,3E0,7.2456794E-3,3.5008523E-1,1.501548E-2,4.925844E-3,1E0,6.680766E-1,6.073147E-1,4.5906612E-1,2.0787152E-3,1.4032283E-2,3.7273108E-3,-8.802748E-3,6.087812E-1,1E0,3.9871573E-1,6.3353553E-3,3E0,-9.855894E-3,4.1503924E-1,4.6722463E-1,-9.156909E-3,1.0523703E-2,2.0733469E-3,1.4766112E-2,2.0933058E-4,-1.5247994E-2,1.2718107E-2,-1.4781366E-3,-1.0455685E-2,6.287054E-3,-3.751608E-3,-1.5571245E-2],"split_indices":[150,40,174,223,0,198,42,35,155,211,162,0,195,0,154,0,0,103,48,161,147,0,0,0,0,40,195,41,0,195,0,47,158,0,0,0,0,0,0,0,0,0,0,0,0],"split_type":[0,0,0,0,0,0,0,0,0,0,0,0,0,0,0,0,0,0,0,0,0,0,0,0,0,0,0,0,0,0,0,0,0,0,0,0,0,0,0,0,0,0,0,0,0],"sum_hessian":[5.303448E1,1.3709061E1,3.932542E1,1.14602995E1,2.2487607E0,3.360264E1,5.7227826E0,5.491221E0,5.969079E0,1.4940607E1,1.8662031E1,1.2481191E0,4.4746633E0,2.2456036E0,3.2456174E0,4.2232614E0,1.7458177E0,7.968292E0,6.9723153E0,6.477886E0,1.2184146E1,1.2497909E0,3.2248724E0,1.497411E0,1.7482063E0,3.237108E0,4.7311845E0,5.7249374E0,1.247378E0,4.239938E0,2.2379487E0,2.4901443E0,9.694001E0,1.9912626E0,1.2458454E0,1.2453297E0,3.4858546E0,1.494772E0,4.230165E0,1.9938742E0,2.2460635E0,1.2446914E0,1.2454528E0,1.494565E0,8.199436E0],"tree_param":{"num_deleted":"0","num_feature":"225","num_nodes":"45","size_leaf_vector":"0"}},{"base_weights":[-4.0133048E-2,5.8347315E-1,-2.666538E-1,1.0404372E0,3.7219767E-2,-4.539866E-1,7.372506E-1,1.2744539E0,1.8593979E-4,-3.3569482E-1,8.378422E-3,1.3947148E-2,-8.102888E-1,-6.2071034E-3,1.160463E0,1.4789676E-2,3.566164E-3,-8.659667E-1,7.5395135E-3,7.4357164E-1,-8.08585E-1,1.8268876E-2,-1.2189316E0,2.0672001E-3,1.3938879E-2,-1.2343221E-2,-1.8225568E-3,-8.7480135E-2,1.2281984E0,-1.169305E0,6.3009053E-3,6.3104326E-1,-9.79253E-3,-2.6656997E-1,-1.4158448E0,-9.099713E-3,1.0468836E-2,2.0618823E-3,1.4661052E-2,2.0807578E-4,-1.5136946E-2,1.2638911E-2,-1.4679163E-3,-1.0405218E-2,6.257018E-3,-3.729318E-3,-1.5448608E-2],"categories":[],"categories_nodes":[],"categories_segments":[],"categories_sizes":[],"default_left":[0,0,0,0,0,0,0,0,0,0,0,0,0,0,0,0,0,0,0,0,0,0,0,0,0,0,0,0,0,0,0,0,0,0,0,0,0,0,0,0,0,0,0,0,0,0,0],"id":13,"left_children":[1,3,5,7,9,11,13,15,-1,17,-1,19,21,-1,23,-1,-1,25,-1,27,29,31,33,-1,-1,-1,-1,35,37,39,-1,41,-1,43,45,-1,-1,-1,-1,-1,-1,-1,-1,-1,-1,-1,-1],"loss_changes":[7.7836237E0,3.631227E0,7.9132786E0,1.8817511E0,2.5903397E0,5.776601E0,4.581356E0,6.8681526E-1,0E0,4.1141367E0,0E0,1.0162168E1,6.674883E0,0E0,9.297371E-1,0E0,0E0,9.070535E-1,0E0,3.7174234E0,4.871754E0,5.1870937E0,2.09301E0,0E0,0E0,0E0,0E0,4.904025E0,1.0904789E0,2.786068E0,0E0,2.7642481E0,0E0,3.060492E0,8.6146927E-1,0E0,0E0,0E0,0E0,0E0,0E0,0E0,0E0,0E0,0E0,0E0,0E0],"parents":[2147483647,0,0,1,1,2,2,3,3,4,4,5,5,6,6,7,7,9,9,11,11,12,12,14,14,17,17,19,19,20,20,21,21,22,22,27,27,28,28,29,29,31,31,33,33,34,34],"right_children":[2,4,6,8,10,12,14,16,-1,18,-1,20,22,-1,24,-1,-1,26,-1,28,30,32,34,-1,-1,-1,-1,36,38,40,-1,42,-1,44,46,-1,-1,-1,-1,-1,-1,-1,-1,-1,-1,-1,-1],"split_conditions":[4.107452E-1,1E0,7.9087996E-1,4.5326814E-1,5.5602854E-1,1E0,4.1272295E-1,1E0,1.8593979E-4,2.923368E-1,8.378422E-3,1E0,5.72075E-1,-6.2071034E-3,3E0,1.4789676E-2,3.566164E-3,1.1E1,7.5395135E-3,1E0,6.680766E-1,6.073147E-1,4.5906612E-1,2.0672001E-3,1.3938879E-2,-1.2343221E-2,-1.8225568E-3,6.087812E-1,1E0,3.9871573E-1,6.3009053E-3,3E0,-9.79253E-3,3.3932865E-1,4.6722463E-1,-9.099713E-3,1.0468836E-2,2.0618823E-3,1.4661052E-2,2.0807578E-4,-1.5136946E-2,1.2638911E-2,-1.4679163E-3,-1.0405218E-2,6.257018E-3,-3.729318E-3,-1.5448608E-2],"split_indices":[150,215,174,40,162,198,42,127,0,35,0,211,162,0,195,0,0,196,0,103,48,161,147,0,0,0,0,40,195,41,0,195,0,42,158,0,0,0,0,0,0,0,0,0,0,0,0],"split_type":[0,0,0,0,0,0,0,0,0,0,0,0,0,0,0,0,0,0,0,0,0,0,0,0,0,0,0,0,0,0,0,0,0,0,0,0,0,0,0,0,0,0,0,0,0,0,0],"sum_hessian":[5.300008E1,1.3702267E1,3.9297813E1,6.9683056E0,6.733961E0,3.3579514E1,5.7182994E0,5.468687E0,1.4996183E0,4.9902883E0,1.7436728E0,1.4931174E1,1.864834E1,1.2478049E0,4.4704947E0,3.972229E0,1.4964582E0,3.4948237E0,1.4954644E0,7.963327E0,6.967847E0,6.475008E0,1.2173333E1,1.249756E0,3.2207386E0,1.7478346E0,1.7469891E0,3.235128E0,4.728199E0,5.7207217E0,1.247125E0,4.238624E0,2.2363837E0,2.489026E0,9.684307E0,1.9900322E0,1.2450956E0,1.2452929E0,3.4829063E0,1.4947774E0,4.2259445E0,1.9925767E0,2.2460475E0,1.2439134E0,1.2451128E0,1.4944404E0,8.189867E0],"tree_param":{"num_deleted":"0","num_feature":"225","num_nodes":"47","size_leaf_vector":"0"}},{"base_weights":[-3.943338E-2,5.793057E-1,-2.642528E-1,1.033032E0,3.7084147E-2,-4.5013988E-1,7.318624E-1,1.265561E0,1.8482457E-4,-3.3351126E-1,8.327827E-3,1.4410362E-2,-8.0391717E-1,-6.173575E-3,1.1527274E0,1.4692174E-2,3.5330025E-3,-8.625362E-1,7.5278496E-3,7.386062E-1,-8.020834E-1,1.8278318E-2,-1.2096013E0,2.0557507E-3,1.3847061E-2,-1.3430125E-2,2.1582323E-3,-8.6325645E-2,1.2195504E0,-1.1606436E0,6.2667094E-3,7.080774E-1,-8.6035126E-1,-2.6518512E-1,-1.404881E0,-9.043112E-3,1.0414569E-2,2.0504815E-3,1.4557906E-2,2.1293951E-4,-1.5030737E-2,1.0796264E-2,-1.8496818E-3,-1.1405167E-2,-1.6586354E-3,-1.03653595E-2,6.2383288E-3,-3.7071758E-3,-1.5328456E-2],"categories":[],"categories_nodes":[],"categories_segments":[],"categories_sizes":[],"default_left":[0,0,0,0,0,0,0,0,0,0,0,0,0,0,0,0,0,0,0,0,0,0,0,0,0,0,0,0,0,0,0,0,0,0,0,0,0,0,0,0,0,0,0,0,0,0,0,0,0],"id":14,"left_children":[1,3,5,7,9,11,13,15,-1,17,-1,19,21,-1,23,-1,-1,25,-1,27,29,31,33,-1,-1,-1,-1,35,37,39,-1,41,43,45,47,-1,-1,-1,-1,-1,-1,-1,-1,-1,-1,-1,-1,-1,-1],"loss_changes":[7.659552E0,3.5769691E0,7.785611E0,1.8552151E0,2.5577397E0,5.6904783E0,4.5238423E0,6.817703E-1,0E0,4.0911007E0,0E0,1.0006403E1,6.5708733E0,0E0,9.163351E-1,0E0,0E0,2.6181386E0,0E0,3.6592803E0,4.8066955E0,5.1377378E0,2.0547714E0,0E0,0E0,0E0,0E0,4.846795E0,1.0735502E0,2.7502031E0,0E0,1.7705762E0,5.3806233E-1,3.0383866E0,8.44265E-1,0E0,0E0,0E0,0E0,0E0,0E0,0E0,0E0,0E0,0E0,0E0,0E0,0E0,0E0],"parents":[2147483647,0,0,1,1,2,2,3,3,4,4,5,5,6,6,7,7,9,9,11,11,12,12,14,14,17,17,19,19,20,20,21,21,22,22,27,27,28,28,29,29,31,31,32,32,33,33,34,34],"right_children":[2,4,6,8,10,12,14,16,-1,18,-1,20,22,-1,24,-1,-1,26,-1,28,30,32,34,-1,-1,-1,-1,36,38,40,-1,42,44,46,48,-1,-1,-1,-1,-1,-1,-1,-1,-1,-1,-1,-1,-1,-1],"split_conditions":[4.107452E-1,1E0,7.9087996E-1,4.5326814E-1,5.5602854E-1,1E0,4.1272295E-1,1E0,1.8482457E-4,1E0,8.327827E-3,1E0,5.72075E-1,-6.173575E-3,3E0,1.4692174E-2,3.5330025E-3,3.8365522E-1,7.5278496E-3,1E0,6.680766E-1,5.941081E-1,4.5906612E-1,2.0557507E-3,1.3847061E-2,-1.3430125E-2,2.1582323E-3,6.087812E-1,1E0,3.7284335E-1,6.2667094E-3,7.9514015E-1,1E0,4.1503924E-1,4.6722463E-1,-9.043112E-3,1.0414569E-2,2.0504815E-3,1.4557906E-2,2.1293951E-4,-1.5030737E-2,1.0796264E-2,-1.8496818E-3,-1.1405167E-2,-1.6586354E-3,-1.03653595E-2,6.2383288E-3,-3.7071758E-3,-1.5328456E-2],"split_indices":[150,215,174,40,162,198,42,202,0,217,0,211,162,0,195,0,0,42,0,103,48,45,147,0,0,0,0,40,195,40,0,184,0,47,158,0,0,0,0,0,0,0,0,0,0,0,0,0,0],"split_type":[0,0,0,0,0,0,0,0,0,0,0,0,0,0,0,0,0,0,0,0,0,0,0,0,0,0,0,0,0,0,0,0,0,0,0,0,0,0,0,0,0,0,0,0,0,0,0,0,0],"sum_hessian":[5.2962772E1,1.3695048E1,3.9267727E1,6.963156E0,6.7318916E0,3.355421E1,5.713514E0,5.4635334E0,1.4996227E0,4.9890885E0,1.7428033E0,1.4920781E1,1.863343E1,1.2474684E0,4.4660454E0,3.9673288E0,1.4962047E0,3.493663E0,1.4954255E0,7.957873E0,6.9629083E0,6.471882E0,1.2161549E1,1.2497185E0,3.216327E0,2.2470431E0,1.2466199E0,3.2330105E0,4.724862E0,5.716059E0,1.2468488E0,3.734272E0,2.7376099E0,2.48783E0,9.673718E0,1.9887283E0,1.2442822E0,1.2452536E0,3.4796088E0,1.4947096E0,4.2213497E0,2.489568E0,1.2447041E0,1.4930514E0,1.2445585E0,1.2432224E0,1.2446077E0,1.4943062E0,8.179413E0],"tree_param":{"num_deleted":"0","num_feature":"225","num_nodes":"49","size_leaf_vector":"0"}},{"base_weights":[-3.8792457E-2,5.753923E-1,-2.6201898E-1,7.9184777E-1,-4.30572E-3,-4.4649997E-1,7.265474E-1,1.288071E-1,1.2963705E0,1.4868288E-2,-7.978876E-1,-6.140292E-3,1.1451045E0,7.138279E-3,-3.487047E-1,1.4770981E-2,4.806895E-3,7.337159E-1,-7.956792E-1,1.7550446E-2,-1.2004312E0,2.0443678E-3,1.3756786E-2,3.6563927E-3,-8.707848E-3,-8.518409E-2,1.2110388E0,-1.1521217E0,6.2327674E-3,6.2406975E-1,-9.698345E-3,-2.6381257E-1,-1.39412E0,-8.987097E-3,1.0360892E-2,2.0391478E-3,1.4456623E-2,2.2080528E-4,-1.4927873E-2,1.2514763E-2,-1.4620067E-3,-1.0315808E-2,6.2085954E-3,-3.6851796E-3,-1.5210708E-2],"categories":[],"categories_nodes":[],"categories_segments":[],"categories_sizes":[],"default_left":[0,0,0,0,0,0,0,0,0,0,0,0,0,0,0,0,0,0,0,0,0,0,0,0,0,0,0,0,0,0,0,0,0,0,0,0,0,0,0,0,0,0,0,0,0],"id":15,"left_children":[1,3,5,7,-1,9,11,13,15,17,19,-1,21,-1,23,-1,-1,25,27,29,31,-1,-1,-1,-1,33,35,37,-1,39,-1,41,43,-1,-1,-1,-1,-1,-1,-1,-1,-1,-1,-1,-1],"loss_changes":[7.5437675E0,3.5390043E0,7.662344E0,3.993981E0,0E0,5.6094704E0,4.4672832E0,2.0606E0,3.150158E-1,9.853612E0,6.4607553E0,0E0,9.03286E-1,0E0,1.9006269E0,0E0,0E0,3.6022935E0,4.7428164E0,5.0784554E0,2.0175762E0,0E0,0E0,0E0,0E0,4.7903757E0,1.0570955E0,2.7174187E0,0E0,2.713191E0,0E0,3.0086296E0,8.2769394E-1,0E0,0E0,0E0,0E0,0E0,0E0,0E0,0E0,0E0,0E0,0E0,0E0],"parents":[2147483647,0,0,1,1,2,2,3,3,5,5,6,6,7,7,8,8,9,9,10,10,12,12,14,14,17,17,18,18,19,19,20,20,25,25,26,26,27,27,29,29,31,31,32,32],"right_children":[2,4,6,8,-1,10,12,14,16,18,20,-1,22,-1,24,-1,-1,26,28,30,32,-1,-1,-1,-1,34,36,38,-1,40,-1,42,44,-1,-1,-1,-1,-1,-1,-1,-1,-1,-1,-1,-1],"split_conditions":[4.107452E-1,4.5326814E-1,7.9087996E-1,7.5109416E-1,-4.30572E-3,1E0,4.1272295E-1,1.641528E-1,4.1555685E-1,1E0,5.72075E-1,-6.140292E-3,3E0,7.138279E-3,3.5008523E-1,1.4770981E-2,4.806895E-3,1E0,6.680766E-1,6.073147E-1,4.5906612E-1,2.0443678E-3,1.3756786E-2,3.6563927E-3,-8.707848E-3,6.087812E-1,1E0,3.9871573E-1,6.2327674E-3,3E0,-9.698345E-3,3.3932865E-1,4.6722463E-1,-8.987097E-3,1.0360892E-2,2.0391478E-3,1.4456623E-2,2.2080528E-4,-1.4927873E-2,1.2514763E-2,-1.4620067E-3,-1.0315808E-2,6.2085954E-3,-3.6851796E-3,-1.5210708E-2],"split_indices":[150,40,174,223,0,198,42,35,155,211,162,0,195,0,154,0,0,103,48,161,147,0,0,0,0,40,195,41,0,195,0,42,158,0,0,0,0,0,0,0,0,0,0,0,0],"split_type":[0,0,0,0,0,0,0,0,0,0,0,0,0,0,0,0,0,0,0,0,0,0,0,0,0,0,0,0,0,0,0,0,0,0,0,0,0,0,0,0,0,0,0,0,0],"sum_hessian":[5.292325E1,1.3687071E1,3.923618E1,1.1438642E1,2.248429E0,3.3527744E1,5.708433E0,5.4852567E0,5.953385E0,1.4909464E1,1.8618282E1,1.2471101E0,4.4613233E0,2.2427158E0,3.2425408E0,4.209765E0,1.7436199E0,7.951941E0,6.9575224E0,6.469444E0,1.2148838E1,1.2496786E0,3.2116446E0,1.49569E0,1.746851E0,3.2307584E0,4.721183E0,5.710973E0,1.2465498E0,4.235604E0,2.23384E0,2.4865754E0,9.662263E0,1.9873521E0,1.2434063E0,1.2452118E0,3.475971E0,1.4945972E0,4.2163754E0,1.9899834E0,2.2456203E0,1.2423415E0,1.2442338E0,1.4941626E0,8.1681E0],"tree_param":{"num_deleted":"0","num_feature":"225","num_nodes":"45","size_leaf_vector":"0"}},{"base_weights":[-3.816153E-2,5.7113945E-1,-2.596891E-1,1.0214778E0,3.370399E-2,-4.4276926E-1,7.213041E-1,3.5457563E-1,1.4600045E-2,-3.332579E-1,8.228268E-3,1.5321096E-2,-7.9170835E-1,-6.1072526E-3,1.1375921E0,-5.779965E-3,1.1604211E-2,-8.5771966E-1,7.4519506E-3,7.2889876E-1,-7.893693E-1,8.200237E-2,-1.157697E0,2.033049E-3,1.3668012E-2,-1.2208357E-2,-1.8218607E-3,-8.405535E-2,1.2026604E0,-1.1437345E0,6.199075E-3,7.0028013E-1,-9.237409E-3,-2.6245376E-1,-1.3299117E0,-8.931657E-3,1.0307794E-2,2.0278783E-3,1.4357151E-2,2.254963E-4,-1.4825561E-2,1.067847E-2,-1.8292791E-3,-1.0276815E-2,6.1901934E-3,-1.4601494E0,-1.4583762E-3,-3.6633287E-3,-1.6065313E-2],"categories":[],"categories_nodes":[],"categories_segments":[],"categories_sizes":[],"default_left":[0,0,0,0,0,0,0,0,0,0,0,0,0,0,0,0,0,0,0,0,0,0,0,0,0,0,0,0,0,0,0,0,0,0,0,0,0,0,0,0,0,0,0,0,0,0,0,0,0],"id":16,"left_children":[1,3,5,7,9,11,13,15,-1,17,-1,19,21,-1,23,-1,-1,25,-1,27,29,31,33,-1,-1,-1,-1,35,37,39,-1,41,-1,43,45,-1,-1,-1,-1,-1,-1,-1,-1,-1,-1,47,-1,-1,-1],"loss_changes":[7.4209337E0,3.5182848E0,7.5395694E0,1.8080645E0,2.5116189E0,5.5265493E0,4.4116583E0,4.034129E0,0E0,4.0247025E0,0E0,9.703714E0,6.3627577E0,0E0,8.9058113E-1,0E0,0E0,8.794794E-1,0E0,3.5464349E0,4.6800804E0,4.825925E0,1.790987E0,0E0,0E0,0E0,0E0,4.734754E0,1.0410986E0,2.6831818E0,0E0,1.7311358E0,0E0,2.9870489E0,1.544344E0,0E0,0E0,0E0,0E0,0E0,0E0,0E0,0E0,0E0,0E0,1.0374718E0,0E0,0E0,0E0],"parents":[2147483647,0,0,1,1,2,2,3,3,4,4,5,5,6,6,7,7,9,9,11,11,12,12,14,14,17,17,19,19,20,20,21,21,22,22,27,27,28,28,29,29,31,31,33,33,34,34,45,45],"right_children":[2,4,6,8,10,12,14,16,-1,18,-1,20,22,-1,24,-1,-1,26,-1,28,30,32,34,-1,-1,-1,-1,36,38,40,-1,42,-1,44,46,-1,-1,-1,-1,-1,-1,-1,-1,-1,-1,48,-1,-1,-1],"split_conditions":[4.107452E-1,1E0,7.9087996E-1,1E0,5.5602854E-1,1E0,4.1272295E-1,3.3340868E-1,1.4600045E-2,2.923368E-1,8.228268E-3,1E0,5.645735E-1,-6.1072526E-3,3E0,-5.779965E-3,1.1604211E-2,1.1E1,7.4519506E-3,1E0,6.680766E-1,5.941081E-1,4.5906612E-1,2.033049E-3,1.3668012E-2,-1.2208357E-2,-1.8218607E-3,6.087812E-1,1E0,3.7284335E-1,6.199075E-3,7.9514015E-1,-9.237409E-3,4.1503924E-1,7.513846E-1,-8.931657E-3,1.0307794E-2,2.0278783E-3,1.4357151E-2,2.254963E-4,-1.4825561E-2,1.067847E-2,-1.8292791E-3,-1.0276815E-2,6.1901934E-3,4.6722463E-1,-1.4583762E-3,-3.6633287E-3,-1.6065313E-2],"split_indices":[150,215,174,211,162,198,42,148,0,35,0,211,162,0,195,0,0,196,0,103,48,45,147,0,0,0,0,40,195,40,0,184,0,47,40,0,0,0,0,0,0,0,0,0,0,158,0,0,0],"split_type":[0,0,0,0,0,0,0,0,0,0,0,0,0,0,0,0,0,0,0,0,0,0,0,0,0,0,0,0,0,0,0,0,0,0,0,0,0,0,0,0,0,0,0,0,0,0,0,0,0],"sum_hessian":[5.288041E1,1.3678944E1,3.9201466E1,6.9525094E0,6.7264338E0,3.34984E1,5.7030654E0,3.475541E0,3.4769685E0,4.9856615E0,1.7407722E0,1.489725E1,1.860115E1,1.2467301E0,4.456335E0,1.742158E0,1.7333832E0,3.4920976E0,1.4935638E0,7.945544E0,6.951706E0,5.7205772E0,1.2880574E1,1.2496364E0,3.2066987E0,1.7462355E0,1.7458622E0,3.2283745E0,4.7171693E0,5.7054777E0,1.2462283E0,3.7307982E0,1.9897788E0,2.485245E0,1.0395329E1,1.9859055E0,1.242469E0,1.2451679E0,3.4720013E0,1.4945202E0,4.2109575E0,2.4868042E0,1.2439942E0,1.2415541E0,1.2436908E0,9.155183E0,1.240146E0,1.4940097E0,7.6611733E0],"tree_param":{"num_deleted":"0","num_feature":"225","num_nodes":"49","size_leaf_vector":"0"}},{"base_weights":[-3.7526224E-2,5.6723523E-1,-2.5749314E-1,7.820905E-1,-4.291729E-3,-4.392067E-1,7.1613085E-1,1.2627834E-1,1.2816508E0,1.08820096E-1,-7.246297E-1,-6.0744523E-3,1.130187E0,7.0565776E-3,-3.4627223E-1,1.46190375E-2,4.7240416E-3,-9.698993E-3,4.3264505E-1,-1.3865544E-1,-1.3012589E0,2.0217968E-3,1.3580702E-2,3.5990947E-3,-8.617293E-3,1.1147113E0,-5.3989273E-1,-1.011425E0,3.1318852E-1,-1.49542205E-2,-2.5603643E-3,1.277207E-2,3.4409442E-3,-9.83603E-3,1.8038555E-3,-1.6834779E-3,-1.2831944E-2,8.682572E-1,-5.113683E-1,1.2163142E-2,-2.1140852E-3,2.099337E-3,-1.1010852E-2],"categories":[],"categories_nodes":[],"categories_segments":[],"categories_sizes":[],"default_left":[0,0,0,0,0,0,0,0,0,0,0,0,0,0,0,0,0,0,0,0,0,0,0,0,0,0,0,0,0,0,0,0,0,0,0,0,0,0,0,0,0,0,0],"id":17,"left_children":[1,3,5,7,-1,9,11,13,15,17,19,-1,21,-1,23,-1,-1,-1,25,27,29,-1,-1,-1,-1,31,33,35,37,-1,-1,-1,-1,-1,-1,-1,-1,39,41,-1,-1,-1,-1],"loss_changes":[7.307784E0,3.4765062E0,7.4205933E0,3.9081793E0,0E0,5.4702945E0,4.356945E0,2.0187018E0,3.2205582E-1,4.8466053E0,7.5216227E0,0E0,8.782072E-1,0E0,1.8536404E0,0E0,0E0,0E0,7.526216E0,5.2166076E0,1.924511E0,0E0,0E0,0E0,0E0,3.6969852E-1,1.7679875E0,8.0924463E-1,4.540367E0,0E0,0E0,0E0,0E0,0E0,0E0,0E0,0E0,2.4065866E0,2.030569E0,0E0,0E0,0E0,0E0],"parents":[2147483647,0,0,1,1,2,2,3,3,5,5,6,6,7,7,8,8,9,9,10,10,12,12,14,14,18,18,19,19,20,20,25,25,26,26,27,27,28,28,37,37,38,38],"right_children":[2,4,6,8,-1,10,12,14,16,18,20,-1,22,-1,24,-1,-1,-1,26,28,30,-1,-1,-1,-1,32,34,36,38,-1,-1,-1,-1,-1,-1,-1,-1,40,42,-1,-1,-1,-1],"split_conditions":[4.107452E-1,4.5326814E-1,7.9087996E-1,7.5109416E-1,-4.291729E-3,-6.475985E-4,4.1272295E-1,1.641528E-1,4.1555685E-1,4.6689788E-1,1E0,-6.0744523E-3,3E0,7.0565776E-3,3.5008523E-1,1.46190375E-2,4.7240416E-3,-9.698993E-3,1E0,4.234606E-1,7.088953E-1,2.0217968E-3,1.3580702E-2,3.5990947E-3,-8.617293E-3,6.6808164E-1,5.480478E-1,6.3809705E-1,5.0780576E-1,-1.49542205E-2,-2.5603643E-3,1.277207E-2,3.4409442E-3,-9.83603E-3,1.8038555E-3,-1.6834779E-3,-1.2831944E-2,7.109277E-1,1E0,1.2163142E-2,-2.1140852E-3,2.099337E-3,-1.1010852E-2],"split_indices":[150,40,174,223,0,200,42,35,155,161,67,0,195,0,154,0,0,0,216,49,46,0,0,0,0,43,40,166,46,0,0,0,0,0,0,0,0,168,215,0,0,0,0],"split_type":[0,0,0,0,0,0,0,0,0,0,0,0,0,0,0,0,0,0,0,0,0,0,0,0,0,0,0,0,0,0,0,0,0,0,0,0,0,0,0,0,0,0,0],"sum_hessian":[5.2836414E1,1.367116E1,3.9165253E1,1.1423092E1,2.2480683E0,3.3467834E1,5.6974173E0,5.4807973E0,5.942295E0,1.1673281E1,2.1794556E1,1.2463292E0,4.451088E0,2.2404976E0,3.2402995E0,4.200229E0,1.7420658E0,2.2345285E0,9.438752E0,1.142493E1,1.0369625E1,1.2495918E0,3.2014961E0,1.4945358E0,1.7457637E0,5.461953E0,3.9767988E0,3.4747527E0,7.9501767E0,8.381867E0,1.9877582E0,3.9678848E0,1.4940684E0,2.2346241E0,1.7421746E0,1.241829E0,2.2329235E0,4.719884E0,3.230293E0,3.4735372E0,1.2463465E0,1.742722E0,1.487571E0],"tree_param":{"num_deleted":"0","num_feature":"225","num_nodes":"43","size_leaf_vector":"0"}},{"base_weights":[-3.729038E-2,5.630762E-1,-2.5572178E-1,1.0103828E0,3.0028023E-2,-4.3614447E-1,7.110261E-1,3.4824124E-1,1.4464699E-2,-3.334594E-1,8.130649E-3,1.7324017E-2,-7.817129E-1,-6.0418895E-3,1.122887E0,-5.743708E-3,1.1473662E-2,-8.5473925E-1,7.3936936E-3,7.2329885E-1,-7.7904075E-1,1.9835217E-2,-1.1781257E0,2.0106086E-3,1.3494819E-2,-1.3295351E-2,2.1221973E-3,-7.993134E-2,1.1907877E0,-1.1305655E0,6.1587384E-3,6.157832E-1,-9.51795E-3,-2.595158E-1,-1.3682035E0,-8.810862E-3,1.0221074E-2,2.0049622E-3,1.4218274E-2,2.5702338E-4,-1.4674545E-2,1.235848E-2,-1.447145E-3,-1.0162384E-2,6.1193514E-3,-3.6248274E-3,-1.4928772E-2],"categories":[],"categories_nodes":[],"categories_segments":[],"categories_sizes":[],"default_left":[0,0,0,0,0,0,0,0,0,0,0,0,0,0,0,0,0,0,0,0,0,0,0,0,0,0,0,0,0,0,0,0,0,0,0,0,0,0,0,0,0,0,0,0,0,0,0],"id":18,"left_children":[1,3,5,7,9,11,13,15,-1,17,-1,19,21,-1,23,-1,-1,25,-1,27,29,31,33,-1,-1,-1,-1,35,37,39,-1,41,-1,43,45,-1,-1,-1,-1,-1,-1,-1,-1,-1,-1,-1,-1],"loss_changes":[7.1980777E0,3.4656487E0,7.3095016E0,1.7894354E0,2.4685757E0,5.410016E0,4.3031235E0,3.9550886E0,0E0,3.9773772E0,0E0,9.486817E0,6.240184E0,0E0,8.6615324E-1,0E0,0E0,2.556575E0,0E0,3.4491286E0,4.58958E0,4.9044642E0,1.9336319E0,0E0,0E0,0E0,0E0,4.6291475E0,1.0210905E0,2.6454048E0,0E0,2.6449642E0,0E0,2.9176111E0,7.912712E-1,0E0,0E0,0E0,0E0,0E0,0E0,0E0,0E0,0E0,0E0,0E0,0E0],"parents":[2147483647,0,0,1,1,2,2,3,3,4,4,5,5,6,6,7,7,9,9,11,11,12,12,14,14,17,17,19,19,20,20,21,21,22,22,27,27,28,28,29,29,31,31,33,33,34,34],"right_children":[2,4,6,8,10,12,14,16,-1,18,-1,20,22,-1,24,-1,-1,26,-1,28,30,32,34,-1,-1,-1,-1,36,38,40,-1,42,-1,44,46,-1,-1,-1,-1,-1,-1,-1,-1,-1,-1,-1,-1],"split_conditions":[4.107452E-1,1E0,7.9087996E-1,1E0,5.5602854E-1,1E0,4.1272295E-1,3.3340868E-1,1.4464699E-2,1E0,8.130649E-3,1E0,5.72075E-1,-6.0418895E-3,3E0,-5.743708E-3,1.1473662E-2,3.8365522E-1,7.3936936E-3,1E0,6.680766E-1,6.073147E-1,4.5906612E-1,2.0106086E-3,1.3494819E-2,-1.3295351E-2,2.1221973E-3,6.087812E-1,1E0,3.9871573E-1,6.1587384E-3,3E0,-9.51795E-3,3.3932865E-1,4.6722463E-1,-8.810862E-3,1.0221074E-2,2.0049622E-3,1.4218274E-2,2.5702338E-4,-1.4674545E-2,1.235848E-2,-1.447145E-3,-1.0162384E-2,6.1193514E-3,-3.6248274E-3,-1.4928772E-2],"split_indices":[150,215,174,211,162,198,42,148,0,217,0,211,162,0,195,0,0,42,0,103,48,161,147,0,0,0,0,40,195,41,0,195,0,42,158,0,0,0,0,0,0,0,0,0,0,0,0],"split_type":[0,0,0,0,0,0,0,0,0,0,0,0,0,0,0,0,0,0,0,0,0,0,0,0,0,0,0,0,0,0,0,0,0,0,0,0,0,0,0,0,0,0,0,0,0,0,0],"sum_hessian":[5.279095E1,1.36621685E1,3.912878E1,6.9416294E0,6.720539E0,3.3437286E1,5.6914964E0,3.4705734E0,3.471056E0,4.9820204E0,1.7385187E0,1.4871797E1,1.8565489E1,1.2459075E0,4.4455886E0,1.7413671E0,1.7292062E0,3.4896898E0,1.4923308E0,7.931922E0,6.939874E0,6.4577866E0,1.2107702E1,1.2495449E0,3.1960437E0,2.2447019E0,1.244988E0,3.223091E0,4.7088313E0,5.694375E0,1.245499E0,4.2297263E0,2.2280598E0,2.4813113E0,9.626391E0,1.9824172E0,1.2406735E0,1.2441039E0,3.4647274E0,1.493185E0,4.20119E0,1.9856738E0,2.2440526E0,1.2391514E0,1.2421598E0,1.4926776E0,8.133714E0],"tree_param":{"num_deleted":"0","num_feature":"225","num_nodes":"47","size_leaf_vector":"0"}},{"base_weights":[-3.6539625E-2,5.594662E-1,-2.534816E-1,7.727743E-1,-4.275586E-3,-4.325613E-1,7.0598817E-1,1.24017015E-1,1.2674719E0,1.7756676E-2,-7.7577484E-1,-6.0095615E-3,1.1156893E0,6.9714105E-3,-3.4317318E-1,1.4468075E-2,4.653151E-3,7.186515E-1,-7.729641E-1,1.9834774E-2,-1.1694922E0,1.9994841E-3,1.3410323E-2,3.5555465E-3,-8.528867E-3,-7.884997E-2,1.1827214E0,-1.1225088E0,6.1255926E-3,6.9133914E-1,-8.360701E-1,-2.58199E-1,-1.3581055E0,-8.757201E-3,1.0169474E-2,1.993893E-3,1.4123024E-2,2.5548387E-4,-1.4574313E-2,1.0515447E-2,-1.7629364E-3,-1.1175472E-2,-1.5051739E-3,-1.0127976E-2,6.105087E-3,-3.6033797E-3,-1.4818864E-2],"categories":[],"categories_nodes":[],"categories_segments":[],"categories_sizes":[],"default_left":[0,0,0,0,0,0,0,0,0,0,0,0,0,0,0,0,0,0,0,0,0,0,0,0,0,0,0,0,0,0,0,0,0,0,0,0,0,0,0,0,0,0,0,0,0,0,0],"id":19,"left_children":[1,3,5,7,-1,9,11,13,15,17,19,-1,21,-1,23,-1,-1,25,27,29,31,-1,-1,-1,-1,33,35,37,-1,39,41,43,45,-1,-1,-1,-1,-1,-1,-1,-1,-1,-1,-1,-1,-1,-1],"loss_changes":[7.0905075E0,3.4154873E0,7.193411E0,3.8241792E0,0E0,5.330932E0,4.250173E0,1.973093E0,3.2368565E-1,9.343843E0,6.145754E0,0E0,8.544059E-1,0E0,1.8124533E0,0E0,0E0,3.3961349E0,4.5295796E0,4.8619933E0,1.8995895E0,0E0,0E0,0E0,0E0,4.5757914E0,1.0061135E0,2.6087952E0,0E0,1.6618102E0,5.5147195E-1,2.8993871E0,7.766628E-1,0E0,0E0,0E0,0E0,0E0,0E0,0E0,0E0,0E0,0E0,0E0,0E0,0E0,0E0],"parents":[2147483647,0,0,1,1,2,2,3,3,5,5,6,6,7,7,8,8,9,9,10,10,12,12,14,14,17,17,18,18,19,19,20,20,25,25,26,26,27,27,29,29,30,30,31,31,32,32],"right_children":[2,4,6,8,-1,10,12,14,16,18,20,-1,22,-1,24,-1,-1,26,28,30,32,-1,-1,-1,-1,34,36,38,-1,40,42,44,46,-1,-1,-1,-1,-1,-1,-1,-1,-1,-1,-1,-1,-1,-1],"split_conditions":[4.107452E-1,4.5326814E-1,7.9087996E-1,7.5109416E-1,-4.275586E-3,1E0,4.1272295E-1,1.641528E-1,4.1555685E-1,1E0,5.72075E-1,-6.0095615E-3,3E0,6.9714105E-3,3.5008523E-1,1.4468075E-2,4.653151E-3,1E0,6.680766E-1,5.941081E-1,4.5906612E-1,1.9994841E-3,1.3410323E-2,3.5555465E-3,-8.528867E-3,6.087812E-1,1E0,3.9871573E-1,6.1255926E-3,7.9514015E-1,1E0,4.1503924E-1,4.6722463E-1,-8.757201E-3,1.0169474E-2,1.993893E-3,1.4123024E-2,2.5548387E-4,-1.4574313E-2,1.0515447E-2,-1.7629364E-3,-1.1175472E-2,-1.5051739E-3,-1.0127976E-2,6.105087E-3,-3.6033797E-3,-1.4818864E-2],"split_indices":[150,40,174,223,0,198,42,35,155,211,162,0,195,0,154,0,0,103,48,45,147,0,0,0,0,40,195,41,0,184,0,47,158,0,0,0,0,0,0,0,0,0,0,0,0,0,0],"split_type":[0,0,0,0,0,0,0,0,0,0,0,0,0,0,0,0,0,0,0,0,0,0,0,0,0,0,0,0,0,0,0,0,0,0,0,0,0,0,0,0,0,0,0,0,0,0,0],"sum_hessian":[5.2741413E1,1.3653154E1,3.908826E1,1.1405379E1,2.2477748E0,3.340295E1,5.68531E0,5.475449E0,5.92993E0,1.4857382E1,1.8545567E1,1.2454655E0,4.439844E0,2.237906E0,3.2375433E0,4.1896234E0,1.7403069E0,7.9243674E0,6.9330144E0,6.453729E0,1.2091838E1,1.2494956E0,3.1903486E0,1.4931451E0,1.7443982E0,3.2203336E0,4.704034E0,5.6878853E0,1.245129E0,3.7241783E0,2.729551E0,2.4797506E0,9.612087E0,1.9807549E0,1.2395786E0,1.2440529E0,3.4599812E0,1.4931933E0,4.194692E0,2.4818473E0,1.242331E0,1.4883271E0,1.241224E0,1.2382684E0,1.2414824E0,1.4924997E0,8.119587E0],"tree_param":{"num_deleted":"0","num_feature":"225","num_nodes":"47","size_leaf_vector":"0"}},{"base_weights":[-3.6038097E-2,5.553971E-1,-2.514007E-1,9.995777E-1,2.6787946E-2,-4.2917392E-1,7.01016E-1,3.4204668E-1,1.43330265E-2,-3.3319744E-1,8.034897E-3,1.8184377E-2,-7.7015895E-1,-5.9774644E-3,1.1085918E0,-5.7077943E-3,1.1346486E-2,-8.509359E-1,7.3364973E-3,7.140714E-1,-7.669759E-1,1.9118227E-2,-1.1609987E0,1.9884235E-3,1.3327182E-2,-1.2073143E-2,-1.8441369E-3,-7.778033E-2,1.1747766E0,-1.1145779E0,6.0926876E-3,6.0913396E-1,-9.428561E-3,-2.5689322E-1,-1.3481842E0,-8.704075E-3,1.0118418E-2,1.982886E-3,1.4029422E-2,2.6708635E-4,-1.4481571E-2,1.2241132E-2,-1.4413198E-3,-1.0077578E-2,6.0726237E-3,-3.582072E-3,-1.4711039E-2],"categories":[],"categories_nodes":[],"categories_segments":[],"categories_sizes":[],"default_left":[0,0,0,0,0,0,0,0,0,0,0,0,0,0,0,0,0,0,0,0,0,0,0,0,0,0,0,0,0,0,0,0,0,0,0,0,0,0,0,0,0,0,0,0,0,0,0],"id":20,"left_children":[1,3,5,7,9,11,13,15,-1,17,-1,19,21,-1,23,-1,-1,25,-1,27,29,31,33,-1,-1,-1,-1,35,37,39,-1,41,-1,43,45,-1,-1,-1,-1,-1,-1,-1,-1,-1,-1,-1,-1],"loss_changes":[6.9782767E0,3.4114466E0,7.081314E0,1.7711587E0,2.4244962E0,5.2565446E0,4.1980753E0,3.878162E0,0E0,3.9260588E0,0E0,9.203547E0,6.045471E0,0E0,8.429575E-1,0E0,0E0,8.4330654E-1,0E0,3.344164E0,4.4706388E0,4.803042E0,1.8664398E0,0E0,0E0,0E0,0E0,4.52318E0,9.915395E-1,2.582202E0,0E0,2.597126E0,0E0,2.868814E0,7.625675E-1,0E0,0E0,0E0,0E0,0E0,0E0,0E0,0E0,0E0,0E0,0E0,0E0],"parents":[2147483647,0,0,1,1,2,2,3,3,4,4,5,5,6,6,7,7,9,9,11,11,12,12,14,14,17,17,19,19,20,20,21,21,22,22,27,27,28,28,29,29,31,31,33,33,34,34],"right_children":[2,4,6,8,10,12,14,16,-1,18,-1,20,22,-1,24,-1,-1,26,-1,28,30,32,34,-1,-1,-1,-1,36,38,40,-1,42,-1,44,46,-1,-1,-1,-1,-1,-1,-1,-1,-1,-1,-1,-1],"split_conditions":[4.107452E-1,1E0,7.9087996E-1,1E0,5.5602854E-1,1E0,4.1272295E-1,3.3340868E-1,1.43330265E-2,2.923368E-1,8.034897E-3,1E0,5.72075E-1,-5.9774644E-3,3E0,-5.7077943E-3,1.1346486E-2,1E0,7.3364973E-3,1E0,6.680766E-1,6.073147E-1,4.5906612E-1,1.9884235E-3,1.3327182E-2,-1.2073143E-2,-1.8441369E-3,6.087812E-1,1E0,3.7284335E-1,6.0926876E-3,3E0,-9.428561E-3,3.3932865E-1,4.6722463E-1,-8.704075E-3,1.0118418E-2,1.982886E-3,1.4029422E-2,2.6708635E-4,-1.4481571E-2,1.2241132E-2,-1.4413198E-3,-1.0077578E-2,6.0726237E-3,-3.582072E-3,-1.4711039E-2],"split_indices":[150,215,174,211,162,198,42,148,0,35,0,211,162,0,195,0,0,214,0,103,48,161,147,0,0,0,0,40,195,40,0,195,0,42,158,0,0,0,0,0,0,0,0,0,0,0,0],"split_type":[0,0,0,0,0,0,0,0,0,0,0,0,0,0,0,0,0,0,0,0,0,0,0,0,0,0,0,0,0,0,0,0,0,0,0,0,0,0,0,0,0,0,0,0,0,0,0],"sum_hessian":[5.2689926E1,1.3643327E1,3.90466E1,6.929574E0,6.713753E0,3.3367733E1,5.678865E0,3.4650905E0,3.4644835E0,4.9777007E0,1.7360525E0,1.4842135E1,1.8525599E1,1.2450037E0,4.4338613E0,1.7404782E0,1.7246124E0,3.4875724E0,1.4901283E0,7.916387E0,6.9257483E0,6.4504313E0,1.2075169E1,1.2494442E0,3.1844172E0,1.7438178E0,1.7437546E0,3.2174551E0,4.698932E0,5.6810107E0,1.2447377E0,4.225536E0,2.2248955E0,2.4781425E0,9.597026E0,1.9790287E0,1.2384266E0,1.2439997E0,3.4549322E0,1.4929752E0,4.1880355E0,1.9821777E0,2.2433581E0,1.2370734E0,1.2410691E0,1.4923133E0,8.1047125E0],"tree_param":{"num_deleted":"0","num_feature":"225","num_nodes":"47","size_leaf_vector":"0"}}]},"name":"gbtree"},"learner_model_param":{"base_score":"5E-1","boost_from_average":"1","num_class":"0","num_feature":"225","num_target":"1"},"objective":{"name":"binary:logistic","reg_loss_param":{"scale_pos_weight":"1"}}},"version":[1,7,4]}