{"learner":{"attributes":{"best_iteration":"89","best_ntree_limit":"90","best_score":"0.6622137132040952","scikit_learn":"{\"use_label_encoder\": null, \"n_estimators\": 500, \"objective\": \"binary:logistic\", \"max_depth\": 7, \"max_leaves\": null, \"max_bin\": null, \"grow_policy\": null, \"learning_rate\": null, \"verbosity\": null, \"booster\": null, \"tree_method\": \"gpu_hist\", \"gamma\": null, \"min_child_weight\": null, \"max_delta_step\": null, \"subsample\": null, \"sampling_method\": null, \"colsample_bytree\": null, \"colsample_bylevel\": null, \"colsample_bynode\": null, \"reg_alpha\": null, \"reg_lambda\": null, \"scale_pos_weight\": null, \"base_score\": null, \"missing\": NaN, \"num_parallel_tree\": null, \"random_state\": null, \"n_jobs\": null, \"monotone_constraints\": null, \"interaction_constraints\": null, \"importance_type\": null, \"gpu_id\": null, \"validate_parameters\": null, \"predictor\": null, \"enable_categorical\": false, \"feature_types\": null, \"max_cat_to_onehot\": null, \"max_cat_threshold\": null, \"eval_metric\": null, \"early_stopping_rounds\": 20, \"callbacks\": null, \"kwargs\": {\"eta\": 0.01}, \"classes_\": [0.0, 1.0], \"n_classes_\": 2, \"evals_result_\": {\"validation_0\": {\"logloss\": [0.690604034305989, 0.6881171220335467, 0.6857295053443689, 0.6833272988083718, 0.6808065219857227, 0.6785152947080546, 0.676079313919462, 0.6740522279136483, 0.6717057024610453, 0.6697327623422118, 0.6674356023470561, 0.6650381269126103, 0.6630446529936517, 0.6607531462592641, 0.658435714655909, 0.6562317804358472, 0.6536223199175692, 0.6512461386877915, 0.6490723655826744, 0.6473661954375519, 0.6451187987437194, 0.6430872211511107, 0.6406186121633684, 0.6388954853874513, 0.6369635772431034, 0.6347824619419273, 0.632434903890237, 0.6305477613005145, 0.6285428491817123, 0.6266472215282506, 0.6246131182059474, 0.6227244040404243, 0.6207454908510734, 0.6184968227970189, 0.616548838081031, 0.6142173547511813, 0.6127223463579156, 0.6108235848703604, 0.6084632107581215, 0.606369870661319, 0.6046563252977941, 0.6026010011119404, 0.600496302219643, 0.5987506343030381, 0.5967601784686932, 0.5946899093430618, 0.5931387897195487, 0.5911069169469263, 0.5894353480517179, 0.5874985678100038, 0.5857247341638324, 0.5838953022984252, 0.5821757070292002, 0.5804334997445687, 0.5784846794331211, 0.5768798151920582, 0.57535508083201, 0.5735991835251621, 0.5717866871891351, 0.5703182278008296, 0.5689155010656378, 0.5671489778948926, 0.5657088417773959, 0.5642969041035093, 0.5625730832760362, 0.5611620802646395, 0.5593442678451538, 0.5579774919597582, 0.5561922921531501, 0.5544753340811565, 0.5531353671660368, 0.5518136322498322, 0.5502800624946068, 0.5486830323591999, 0.5473105384358045, 0.5460578725598324, 0.544615984168546, 0.5430072188034825, 0.541733171885041, 0.5403700893637777, 0.5387848944499575, 0.5373553614506776, 0.5356976471070586, 0.5343795617421468, 0.5325504733570691, 0.5312466593309381, 0.5300358540367807, 0.5284237193650213, 0.5264450847760014, 0.5251044077434759, 0.5239506852352757, 0.5226229640601695, 0.5214892716585905, 0.5203790630417309, 0.5184617140512356, 0.5172728426497558, 0.5162855097959782, 0.5144072329518439, 0.513082792532855, 0.5112369549000401, 0.5100652156547568, 0.5088844058842494, 0.5074332926465177, 0.5058815984205268, 0.5040789069457986, 0.5034169334789802, 0.50160911055817, 0.5004568905152124, 0.49871046844570116, 0.49741218280175636]}, \"validation_1\": {\"logloss\": [0.6925995360820665, 0.6913782935076898, 0.6906316660412954, 0.6894295907348668, 0.6884395939494492, 0.6879469785121602, 0.6869244416919323, 0.6866839831575341, 0.6857146782065751, 0.6854378077961983, 0.6851367283304897, 0.6844453838987088, 0.6841390247738689, 0.6837257767489197, 0.6828167271723441, 0.6826282671285332, 0.6815578111814796, 0.6808106735211994, 0.6805679305977778, 0.680274701719984, 0.679794138451235, 0.6796413211647524, 0.67929053279238, 0.6789695355323476, 0.6787334325116708, 0.6782052068535341, 0.6779065184090116, 0.6778613525793094, 0.677279982818376, 0.6773117198309767, 0.6770000783128476, 0.6767320634301649, 0.6767136148356516, 0.6761976268586762, 0.6759743136823724, 0.6752814064058689, 0.6751866760330463, 0.6750239550793936, 0.67450956713169, 0.6738073415712479, 0.6734745140195987, 0.6728335247127288, 0.6721727426992644, 0.6715442963422985, 0.6708504318370732, 0.6708710263355062, 0.6707351590515277, 0.6701905240706347, 0.6695379133618206, 0.6690322696615797, 0.6686238415470911, 0.6681637766711209, 0.6679177995121807, 0.6675786683592227, 0.6671020694828909, 0.6667069869303922, 0.6666355655280822, 0.6664747666875157, 0.6659871728048412, 0.6659249998287323, 0.6658800530050872, 0.6656111232731321, 0.6653640964709291, 0.6652901109752305, 0.6649051013342832, 0.6648878777792694, 0.6646476908834702, 0.6644168683421721, 0.6641852144801289, 0.6638284571673891, 0.6637110767561362, 0.663604813568089, 0.6634463352074317, 0.6633325858947334, 0.6632216861215207, 0.6630849712485567, 0.6629668933535935, 0.6630030643502507, 0.6627994752531752, 0.6626945852959921, 0.6626466082050166, 0.6625466270184298, 0.6625932440024997, 0.6625145645043172, 0.6624734904787956, 0.662382870639136, 0.6624186669194371, 0.6623749104114848, 0.6623813140829768, 0.6622137132040952, 0.6623300201849106, 0.6625367556143245, 0.6626569552159091, 0.66304030522294, 0.6630697255834527, 0.6630224160371571, 0.6627464444812284, 0.66264082286336, 0.6627093654023398, 0.6628095530862108, 0.662760384927649, 0.6627513217406535, 0.6626850743906214, 0.6627354918543352, 0.6627428603418376, 0.662819946030958, 0.662799991188793, 0.6629345516819473, 0.6628916925930102, 0.6631258401438731]}}, \"_estimator_type\": \"classifier\"}"},"feature_names":["st_stoch","st_ich","st_cut_ema5_sma10","st_macd","st_ich_close","st_dmi","st_cut_sma10_close","st_hisse","st_mfi","st_fishert","st_ema_5","st_ema_6","st_cut_ema_5_6","st_ema_7","st_ema_8","st_cut_ema_7_8","st_ema_9","st_ema_10","st_cut_ema_9_10","st_ema_11","st_ema_12","st_cut_ema_11_12","st_ema_13","st_ema_14","st_cut_ema_13_14","st_ema_15","st_ema_16","st_cut_ema_15_16","st_ema_17","st_ema_18","st_cut_ema_17_18","st_ema_19","st_ema_20","st_cut_ema_19_20","st_mfi_5","st_mfi_6","st_mfi_7","st_mfi_8","st_mfi_9","st_mfi_10","st_mfi_11","st_mfi_12","st_mfi_13","st_mfi_14","st_mfi_15","st_mfi_16","st_mfi_17","st_mfi_18","st_mfi_19","st_mfi_20","st_sma_5","st_sma_6","st_cut_sma_5_6","st_sma_7","st_sma_8","st_cut_sma_7_8","st_sma_9","st_sma_10","st_cut_sma_9_10","st_sma_11","st_sma_12","st_cut_sma_11_12","st_sma_13","st_sma_14","st_cut_sma_13_14","st_sma_15","st_sma_16","st_cut_sma_15_16","st_sma_17","st_sma_18","st_cut_sma_17_18","st_sma_19","st_sma_20","st_cut_sma_19_20","st_wma_5","st_wma_6","st_cut_wma_5_6","st_wma_7","st_wma_8","st_cut_wma_7_8","st_wma_9","st_wma_10","st_cut_wma_9_10","st_wma_11","st_wma_12","st_cut_wma_11_12","st_wma_13","st_wma_14","st_cut_wma_13_14","st_wma_15","st_wma_16","st_cut_wma_15_16","st_wma_17","st_wma_18","st_cut_wma_17_18","st_wma_19","st_wma_20","st_cut_wma_19_20","st_tema_5","st_tema_6","st_cut_tema_5_6","st_tema_7","st_tema_8","st_cut_tema_7_8","st_tema_9","st_tema_10","st_cut_tema_9_10","st_tema_11","st_tema_12","st_cut_tema_11_12","st_tema_13","st_tema_14","st_cut_tema_13_14","st_tema_15","st_tema_16","st_cut_tema_15_16","st_tema_17","st_tema_18","st_cut_tema_17_18","st_tema_19","st_tema_20","st_cut_tema_19_20","st_kama_5","st_kama_6","st_cut_kama_5_6","st_kama_7","st_kama_8","st_cut_kama_7_8","st_kama_9","st_kama_10","st_cut_kama_9_10","st_kama_11","st_kama_12","st_cut_kama_11_12","st_kama_13","st_kama_14","st_cut_kama_13_14","st_kama_15","st_kama_16","st_cut_kama_15_16","st_kama_17","st_kama_18","st_cut_kama_17_18","st_kama_19","st_kama_20","st_cut_kama_19_20","st_rsi_5","st_rsi_6","st_rsi_7","st_rsi_8","st_rsi_9","st_rsi_10","st_rsi_11","st_rsi_12","st_rsi_13","st_rsi_14","st_rsi_15","st_rsi_16","st_rsi_17","st_rsi_18","st_rsi_19","st_rsi_20","st_adx_5","st_adxdmi_5","st_adx_6","st_adxdmi_6","st_adx_7","st_adxdmi_7","st_adx_8","st_adxdmi_8","st_adx_9","st_adxdmi_9","st_adx_10","st_adxdmi_10","st_adx_11","st_adxdmi_11","st_adx_12","st_adxdmi_12","st_adx_13","st_adxdmi_13","st_adx_14","st_adxdmi_14","st_adx_15","st_adxdmi_15","st_adx_16","st_adxdmi_16","st_adx_17","st_adxdmi_17","st_adx_18","st_adxdmi_18","st_adx_19","st_adxdmi_19","st_adx_20","st_adxdmi_20","month","weekday","hour","is_quarter_end","candle_label","vol_delta","log_return","lag_2","lag_3","lag_4","lag_5","lag_6","lag_7","lag_8","lag_9","lag_10","lag_11","lag_12","lag_13","lag_14","lag_15","lag_16","lag_17","lag_18","lag_19","lag_20","lag_21","lag_22","lag_23","kz_score","twitter_sent_score"],"feature_types":["int","int","int","int","int","int","int","int","int","int","int","int","int","int","int","int","int","int","int","int","int","int","int","int","int","int","int","int","int","int","int","int","int","int","float","float","float","float","float","float","float","float","float","float","float","float","float","float","float","float","int","int","int","int","int","int","int","int","int","int","int","int","int","int","int","int","int","int","int","int","int","int","int","int","int","int","int","int","int","int","int","int","int","int","int","int","int","int","int","int","int","int","int","int","int","int","int","int","int","int","int","int","int","int","int","int","int","int","int","int","int","int","int","int","int","int","int","int","int","int","int","int","int","int","int","int","int","int","int","int","int","int","int","int","int","int","int","int","int","int","int","int","int","int","int","int","float","float","float","float","float","float","float","float","float","float","float","float","float","float","float","float","float","int","float","int","float","int","float","int","float","int","float","int","float","int","float","int","float","int","float","int","float","int","float","int","float","int","float","int","float","int","float","int","int","int","int","int","float","int","float","int","int","int","int","int","int","int","int","int","int","int","int","int","int","int","int","int","int","int","int","int","int","float","float"],"gradient_booster":{"model":{"gbtree_model_param":{"num_parallel_tree":"1","num_trees":"110","size_leaf_vector":"0"},"tree_info":[0,0,0,0,0,0,0,0,0,0,0,0,0,0,0,0,0,0,0,0,0,0,0,0,0,0,0,0,0,0,0,0,0,0,0,0,0,0,0,0,0,0,0,0,0,0,0,0,0,0,0,0,0,0,0,0,0,0,0,0,0,0,0,0,0,0,0,0,0,0,0,0,0,0,0,0,0,0,0,0,0,0,0,0,0,0,0,0,0,0,0,0,0,0,0,0,0,0,0,0,0,0,0,0,0,0,0,0,0,0],"trees":[{"base_weights":[-4.118993E-2,4E-2,-8.717949E-1,-5.8064514E-1,1.209564E-1,1.25E-1,-1.44E0,5.4545456E-1,-8.8E-1,3.7078652E-1,-1.281337E-1,-3.6363637E-1,8.5714287E-1,-1.6756756E0,-5.882353E-1,1.3846154E-2,-4.6153846E-1,3.3333334E-1,-1.0447761E0,-1.2E-2,4.1142857E-1,2.4793388E-1,-3.140496E-1,6.666667E-1,-1.1428571E-2,1.2E-2,-0E0,-5E-3,-1.7575758E-2,1E-2,-1.3846154E-2,-1.1111111E-2,5E-3,-5E-3,1E-2,-3.2258064E-1,-1.5E0,7.480916E-1,2.0627803E-1,-8.333333E-1,4.950495E-1,-4.2857143E-1,9.0909094E-1,1E-2,-0E0,-1.2499999E-2,5.263158E-1,-1.6470589E-2,-4E-3,-1.1111111E-2,8.5714287E-1,-8.75E-1,3.794872E-1,2.2222223E-3,-1.1578947E0,7.619048E-1,-6.666667E-1,7.2E-1,-5.6157637E-1,-5E-3,1.3333334E-2,-6.666667E-3,1.1428571E-2,3.4482758E-3,1.2222222E-2,4.6153846E-3,-1.47826085E-2,6.153846E-3,-8.6956524E-4,-0E0,-1.4666666E-2,-8E-3,9.230769E-3,2.2222223E-3,-1E-2,1.4666666E-2,-2.8571428E-3,-8.52459E-3,-1.1764705E-3],"categories":[],"categories_nodes":[],"categories_segments":[],"categories_sizes":[],"default_left":[0,0,0,0,0,0,0,0,0,0,0,0,0,0,0,0,0,0,0,0,0,0,0,0,0,0,0,0,0,0,0,0,0,0,0,0,0,0,0,0,0,0,0,0,0,0,0,0,0,0,0,0,0,0,0,0,0,0,0,0,0,0,0,0,0,0,0,0,0,0,0,0,0,0,0,0,0,0,0],"id":0,"left_children":[1,3,5,7,9,11,13,15,17,19,21,23,25,27,29,-1,31,33,35,-1,37,39,41,43,-1,-1,-1,-1,-1,-1,-1,-1,-1,-1,-1,45,47,49,51,53,55,57,59,-1,-1,-1,61,-1,-1,-1,63,65,67,-1,69,71,73,75,77,-1,-1,-1,-1,-1,-1,-1,-1,-1,-1,-1,-1,-1,-1,-1,-1,-1,-1,-1,-1],"loss_changes":[1.4769803E1,1.0119272E1,1.1224487E1,8.317653E0,1.1108931E1,3.1737015E0,1.5235596E0,5.286714E0,4.096916E0,6.175473E0,6.3529086E0,5.1774893E0,1.0285716E0,1.1875153E-2,6.760182E0,0E0,2.5854702E0,2.1666667E0,5.022869E0,0E0,5.8890142E0,8.495282E0,8.864227E0,6.666666E-1,0E0,0E0,0E0,0E0,0E0,0E0,0E0,0E0,0E0,0E0,0E0,6.7593374E0,9.5882416E-1,7.592392E0,1.0773316E1,2.3128657E0,8.3356905E0,8.959212E0,3.9545455E0,0E0,0E0,0E0,4.255639E0,0E0,0E0,0E0,5.470171E0,7.1325254E0,5.4176145E0,0E0,1.6982465E0,6.024909E0,1.7777779E0,5.112382E0,6.453127E0,0E0,0E0,0E0,0E0,0E0,0E0,0E0,0E0,0E0,0E0,0E0,0E0,0E0,0E0,0E0,0E0,0E0,0E0,0E0,0E0],"parents":[2147483647,0,0,1,1,2,2,3,3,4,4,5,5,6,6,7,7,8,8,9,9,10,10,11,11,12,12,13,13,14,14,16,16,17,17,18,18,20,20,21,21,22,22,23,23,35,35,36,36,37,37,38,38,39,39,40,40,41,41,42,42,46,46,50,50,51,51,52,52,54,54,55,55,56,56,57,57,58,58],"right_children":[2,4,6,8,10,12,14,16,18,20,22,24,26,28,30,-1,32,34,36,-1,38,40,42,44,-1,-1,-1,-1,-1,-1,-1,-1,-1,-1,-1,46,48,50,52,54,56,58,60,-1,-1,-1,62,-1,-1,-1,64,66,68,-1,70,72,74,76,78,-1,-1,-1,-1,-1,-1,-1,-1,-1,-1,-1,-1,-1,-1,-1,-1,-1,-1,-1,-1],"split_conditions":[2.2E1,2.6827288E-1,4.082403E-1,1.5790464E-1,1E0,3.495388E-1,6.743972E-1,-4.1120593E-3,1.01419136E-1,1.770643E-1,-8.946545E-4,2.4913415E-1,1E0,3.518461E-1,6.2742907E-1,1.3846154E-2,1E0,2.0021927E-1,2.5525197E-1,-1.2E-2,4.1927305E-1,5.819468E-1,8.535716E-1,2.0879337E-1,-1.1428571E-2,1.2E-2,-0E0,-5E-3,-1.7575758E-2,1E-2,-1.3846154E-2,-1.1111111E-2,5E-3,-5E-3,1E-2,3.0189314E-1,3.2446262E-1,1.9586226E-1,4.4547483E-1,2E0,7.4162304E-1,4.377851E-1,1E0,1E-2,-0E0,-1.2499999E-2,1.8989423E-1,-1.6470589E-2,-4E-3,-1.1111111E-2,6.9782704E-1,3.087296E-1,7.343363E-1,2.2222223E-3,1E0,3.3018252E-1,4.294986E-1,1E0,2.073788E0,-5E-3,1.3333334E-2,-6.666667E-3,1.1428571E-2,3.4482758E-3,1.2222222E-2,4.6153846E-3,-1.47826085E-2,6.153846E-3,-8.6956524E-4,-0E0,-1.4666666E-2,-8E-3,9.230769E-3,2.2222223E-3,-1E-2,1.4666666E-2,-2.8571428E-3,-8.52459E-3,-1.1764705E-3],"split_indices":[196,42,148,147,50,148,148,200,36,39,200,38,127,41,42,0,215,45,46,0,49,170,172,35,0,0,0,0,0,0,0,0,0,0,0,153,38,38,49,195,164,164,1,0,0,0,43,0,0,0,178,146,166,0,209,49,49,204,223,0,0,0,0,0,0,0,0,0,0,0,0,0,0,0,0,0,0,0,0],"split_type":[0,0,0,0,0,0,0,0,0,0,0,0,0,0,0,0,0,0,0,0,0,0,0,0,0,0,0,0,0,0,0,0,0,0,0,0,0,0,0,0,0,0,0,0,0,0,0,0,0,0,0,0,0,0,0,0,0,0,0,0,0,0,0,0,0,0,0,0,0,0,0,0,0,0,0,0,0,0,0],"sum_hessian":[2.175E2,1.99E2,1.85E1,2.225E1,1.7675E2,7E0,1.15E1,4.5E0,1.775E1,8.8E1,8.875E1,4.5E0,2.5E0,8.25E0,3.25E0,2.25E0,2.25E0,2E0,1.575E1,1.5E0,8.65E1,2.925E1,5.95E1,2E0,2.5E0,1.5E0,1E0,1E0,7.25E0,1E0,2.25E0,1.25E0,1E0,1E0,1E0,6.75E0,9E0,3.175E1,5.475E1,5E0,2.425E1,5.5E1,4.5E0,1E0,1E0,3E0,3.75E0,7.5E0,1.5E0,1.25E0,3.05E1,7E0,4.775E1,1.25E0,3.75E0,2E1,4.25E0,5.25E0,4.975E1,1E0,3.5E0,1.25E0,2.5E0,1.35E1,1.7E1,2.25E0,4.75E0,3.15E1,1.625E1,1E0,2.75E0,1.5E0,1.85E1,1.25E0,3E0,2.75E0,2.5E0,2.95E1,2.025E1],"tree_param":{"num_deleted":"0","num_feature":"225","num_nodes":"79","size_leaf_vector":"0"}},{"base_weights":[-4.1017756E-2,3.941906E-2,-8.639281E-1,-5.7552695E-1,1.19631395E-1,1.2507394E-1,-1.427794E0,5.414215E-1,-8.724733E-1,3.6694577E-1,-1.2694965E-1,-3.6026677E-1,8.5201323E-1,-1.6614616E-2,-5.832764E-1,1.3750753E-2,-4.588098E-3,3.3167014E-3,-1.0360577E0,-1.192826E-2,4.0731663E-1,1.2883E-1,-3.988282E-1,6.6333883E-3,-1.1347204E-2,1.1928258E-2,-0E0,6.637715E-3,-1.3241451E-2,-3.2036206E-1,-1.4871241E0,7.4076617E-1,2.041298E-1,6.6870165E-1,-1.5804881E-1,-1.2126316E0,-1.0536751E-1,-1.2421565E-2,5.233254E-1,-3.913784E-3,-1.6344428E-2,-1.1049573E-2,8.4908724E-1,-8.675505E-1,3.7580308E-1,-6.606522E-3,8.976232E-1,-1.1962337E0,9.5158555E-2,-1.8016617E-3,-1.3794655E0,-2.4353017E-1,1.138602E-2,-7.954242E-3,1.3767346E-2,3.4161808E-3,1.2107219E-2,4.5834472E-3,-1.4661155E-2,6.094257E-3,-8.6137257E-4,-5.4270807E-3,1.1378813E-2,-2.2289318E-3,-1.3949886E-2,3.2945545E-3,-1.1104878E-2,-1.6189924E-2,-1.8103275E-3,-8.054452E-3,2.2794523E-3],"categories":[],"categories_nodes":[],"categories_segments":[],"categories_sizes":[],"default_left":[0,0,0,0,0,0,0,0,0,0,0,0,0,0,0,0,0,0,0,0,0,0,0,0,0,0,0,0,0,0,0,0,0,0,0,0,0,0,0,0,0,0,0,0,0,0,0,0,0,0,0,0,0,0,0,0,0,0,0,0,0,0,0,0,0,0,0,0,0,0,0],"id":1,"left_children":[1,3,5,7,9,11,13,15,17,19,21,23,25,-1,27,-1,-1,-1,29,-1,31,33,35,-1,-1,-1,-1,-1,-1,37,39,41,43,45,47,49,51,-1,53,-1,-1,-1,55,57,59,-1,61,63,65,-1,67,69,-1,-1,-1,-1,-1,-1,-1,-1,-1,-1,-1,-1,-1,-1,-1,-1,-1,-1,-1],"loss_changes":[1.4496763E1,9.933917E0,1.1052557E1,8.183488E0,1.0886147E1,3.1294012E0,1.4974766E0,5.2169275E0,4.0368376E0,6.090045E0,6.2925825E0,5.1126637E0,1.0163035E0,0E0,4.805378E0,0E0,0E0,0E0,4.930685E0,0E0,5.777049E0,7.384819E0,1.0320403E1,0E0,0E0,0E0,0E0,0E0,0E0,6.677111E0,9.7446823E-1,7.485792E0,1.0582745E1,5.614166E0,8.394302E0,1.7323112E0,5.991875E0,0E0,6.4407854E0,0E0,0E0,0E0,5.3671017E0,7.020846E0,5.3135476E0,0E0,5.63519E0,8.9814854E-1,7.78083E0,0E0,2.5056705E0,8.330048E0,0E0,0E0,0E0,0E0,0E0,0E0,0E0,0E0,0E0,0E0,0E0,0E0,0E0,0E0,0E0,0E0,0E0,0E0,0E0],"parents":[2147483647,0,0,1,1,2,2,3,3,4,4,5,5,6,6,7,7,8,8,9,9,10,10,11,11,12,12,14,14,18,18,20,20,21,21,22,22,29,29,30,30,31,31,32,32,33,33,34,34,35,35,36,36,38,38,42,42,43,43,44,44,46,46,47,47,48,48,50,50,51,51],"right_children":[2,4,6,8,10,12,14,16,18,20,22,24,26,-1,28,-1,-1,-1,30,-1,32,34,36,-1,-1,-1,-1,-1,-1,38,40,42,44,46,48,50,52,-1,54,-1,-1,-1,56,58,60,-1,62,64,66,-1,68,70,-1,-1,-1,-1,-1,-1,-1,-1,-1,-1,-1,-1,-1,-1,-1,-1,-1,-1,-1],"split_conditions":[2.2E1,2.6827288E-1,4.082403E-1,1.5790464E-1,1E0,3.495388E-1,6.743972E-1,-4.1120593E-3,1.01419136E-1,1.770643E-1,1E0,2.4913415E-1,1E0,-1.6614616E-2,6.3122475E-1,1.3750753E-2,-4.588098E-3,3.3167014E-3,2.5525197E-1,-1.192826E-2,4.1927305E-1,4.4053277E-1,4.7965539E-1,6.6333883E-3,-1.1347204E-2,1.1928258E-2,-0E0,6.637715E-3,-1.3241451E-2,3.3145618E-1,-7.5696497E-3,1.9586226E-1,4.4547483E-1,1E0,6.403406E-1,3.777118E-1,8.62286E-1,-1.2421565E-2,1.9214442E-1,-3.913784E-3,-1.6344428E-2,-1.1049573E-2,6.9782704E-1,3.087296E-1,7.343363E-1,-6.606522E-3,3.0004755E-1,-1.5219048E-3,2.0274E-1,-1.8016617E-3,4.9061403E-1,1E0,1.138602E-2,-7.954242E-3,1.3767346E-2,3.4161808E-3,1.2107219E-2,4.5834472E-3,-1.4661155E-2,6.094257E-3,-8.6137257E-4,-5.4270807E-3,1.1378813E-2,-2.2289318E-3,-1.3949886E-2,3.2945545E-3,-1.1104878E-2,-1.6189924E-2,-1.8103275E-3,-8.054452E-3,2.2794523E-3],"split_indices":[196,42,148,147,50,148,148,200,36,39,208,38,127,0,44,0,0,0,46,0,49,47,39,0,0,0,0,0,0,156,200,38,49,76,180,40,182,0,43,0,0,0,178,146,166,0,48,200,224,0,40,205,0,0,0,0,0,0,0,0,0,0,0,0,0,0,0,0,0,0,0],"split_type":[0,0,0,0,0,0,0,0,0,0,0,0,0,0,0,0,0,0,0,0,0,0,0,0,0,0,0,0,0,0,0,0,0,0,0,0,0,0,0,0,0,0,0,0,0,0,0,0,0,0,0,0,0,0,0,0,0,0,0,0,0,0,0,0,0,0,0,0,0,0,0],"sum_hessian":[2.1749539E2,1.9899625E2,1.849914E1,2.2249088E1,1.7674716E2,6.9998393E0,1.1499301E1,4.4998474E0,1.774924E1,8.799866E1,8.87485E1,4.499893E0,2.499946E0,8.2494335E0,3.2498672E0,2.2498922E0,2.2499552E0,1.9999688E0,1.5749272E1,1.499946E0,8.649871E1,4.5999214E1,4.2749283E1,1.999975E0,2.4999182E0,1.499946E0,1E0,1.249963E0,1.9999042E0,6.7497873E0,8.999485E0,3.1749287E1,5.4749428E1,1.5499691E1,3.0499523E1,1.0499812E1,3.2249474E1,2.9998844E0,3.7499027E0,1.4999142E0,7.499571E0,1.2499614E0,3.0499325E1,6.999728E0,4.77497E1,1.999956E0,1.3499735E1,5.2498975E0,2.5249626E1,1.7499591E0,8.749853E0,2.9749542E1,2.4999297E0,1.4999763E0,2.2499266E0,1.349996E1,1.6999365E1,2.249988E0,4.74974E0,3.14997E1,1.6249998E1,1.7499639E0,1.174977E1,1.2499757E0,3.999922E0,2.1749683E1,3.4999425E0,6.9998837E0,1.7499689E0,1.3249791E1,1.6499752E1],"tree_param":{"num_deleted":"0","num_feature":"225","num_nodes":"71","size_leaf_vector":"0"}},{"base_weights":[-4.098299E-2,3.869883E-2,-8.5621715E-1,-5.704512E-1,1.18151516E-1,1.2473218E-1,-1.4155985E0,5.3770804E-1,-8.651024E-1,3.6315432E-1,-1.2611641E-1,-3.5754073E-1,8.469404E-1,-1.6469419E-2,-5.790395E-1,1.365691E-2,-4.5563793E-3,-4.7977012E-1,-1.5175088E-2,-1.1857456E-2,4.032568E-1,2.4497753E-1,-3.095769E-1,6.589288E-3,-1.1266938E-2,1.1857456E-2,-0E0,6.600945E-3,-1.3154369E-2,-9.3847847E-1,9.324925E-1,7.335428E-1,2.0200756E-1,-8.268098E-1,4.8995697E-1,-4.2265102E-1,8.980442E-1,6.6649076E-3,-1.2274449E0,1.2009119E-2,2.1975092E-3,-1.0988751E-2,8.411429E-1,-8.6022204E-1,3.7215912E-1,2.2024827E-3,-1.1487342E0,7.1952903E-1,-8.137242E-1,7.1528506E-1,-5.544615E-1,1.2829219E-2,-2.2806635E-3,-4.3780715E-3,-1.6319398E-2,3.384404E-3,1.1994132E-2,4.5517664E-3,-1.45419985E-2,7.819363E-3,1.0686084E-3,-1.4192818E-2,-2.1732256E-3,-7.92227E-3,8.687896E-3,-1.32058095E-2,2.2371085E-3,1.4557441E-2,-2.824065E-3,-7.3228525E-3,1.3496813E-3],"categories":[],"categories_nodes":[],"categories_segments":[],"categories_sizes":[],"default_left":[0,0,0,0,0,0,0,0,0,0,0,0,0,0,0,0,0,0,0,0,0,0,0,0,0,0,0,0,0,0,0,0,0,0,0,0,0,0,0,0,0,0,0,0,0,0,0,0,0,0,0,0,0,0,0,0,0,0,0,0,0,0,0,0,0,0,0,0,0,0,0],"id":2,"left_children":[1,3,5,7,9,11,13,15,17,19,21,23,25,-1,27,-1,-1,29,-1,-1,31,33,35,-1,-1,-1,-1,-1,-1,37,39,41,43,45,47,49,51,-1,53,-1,-1,-1,55,57,59,-1,61,63,65,67,69,-1,-1,-1,-1,-1,-1,-1,-1,-1,-1,-1,-1,-1,-1,-1,-1,-1,-1,-1,-1],"loss_changes":[1.4225722E1,9.746513E0,1.0874896E1,8.055672E0,1.0682934E1,3.0890114E0,1.4649944E0,5.1454496E0,3.984847E0,6.0060406E0,6.1858525E0,5.0421085E0,1.0042555E0,0E0,4.746016E0,0E0,0E0,9.457584E0,0E0,0E0,5.6675873E0,8.347326E0,8.640549E0,0E0,0E0,0E0,0E0,0E0,0E0,5.6871386E0,4.5346737E-1,7.3810177E0,1.0395987E1,2.2753506E0,8.14218E0,8.795838E0,2.6762223E0,0E0,2.2395935E0,0E0,0E0,0E0,5.2668476E0,6.911618E0,5.2160797E0,0E0,8.8844776E-1,5.6522646E0,2.5300796E0,5.028102E0,6.3204117E0,0E0,0E0,0E0,0E0,0E0,0E0,0E0,0E0,0E0,0E0,0E0,0E0,0E0,0E0,0E0,0E0,0E0,0E0,0E0,0E0],"parents":[2147483647,0,0,1,1,2,2,3,3,4,4,5,5,6,6,7,7,8,8,9,9,10,10,11,11,12,12,14,14,17,17,20,20,21,21,22,22,29,29,30,30,31,31,32,32,33,33,34,34,35,35,36,36,38,38,42,42,43,43,44,44,46,46,47,47,48,48,49,49,50,50],"right_children":[2,4,6,8,10,12,14,16,18,20,22,24,26,-1,28,-1,-1,30,-1,-1,32,34,36,-1,-1,-1,-1,-1,-1,38,40,42,44,46,48,50,52,-1,54,-1,-1,-1,56,58,60,-1,62,64,66,68,70,-1,-1,-1,-1,-1,-1,-1,-1,-1,-1,-1,-1,-1,-1,-1,-1,-1,-1,-1,-1],"split_conditions":[2.2E1,2.6827288E-1,4.082403E-1,1.5790464E-1,1E0,3.495388E-1,6.743972E-1,-4.1120593E-3,4.1818106E-1,1.770643E-1,-8.946545E-4,2.4913415E-1,1E0,-1.6469419E-2,6.3122475E-1,1.365691E-2,-4.5563793E-3,3.4028584E-1,-1.5175088E-2,-1.1857456E-2,4.1927305E-1,5.819468E-1,8.535716E-1,6.589288E-3,-1.1266938E-2,1.1857456E-2,-0E0,6.600945E-3,-1.3154369E-2,9.818228E-2,2.8177887E-1,1.9586226E-1,4.4547483E-1,2E0,7.723732E-1,4.377851E-1,5.746863E-1,6.6649076E-3,2.085089E-1,1.2009119E-2,2.1975092E-3,-1.0988751E-2,6.9782704E-1,3.087296E-1,1E0,2.2024827E-3,1.5777567E-1,3.3018252E-1,4.412168E-1,1E0,2.2211528E0,1.2829219E-2,-2.2806635E-3,-4.3780715E-3,-1.6319398E-2,3.384404E-3,1.1994132E-2,4.5517664E-3,-1.45419985E-2,7.819363E-3,1.0686084E-3,-1.4192818E-2,-2.1732256E-3,-7.92227E-3,8.687896E-3,-1.32058095E-2,2.2371085E-3,1.4557441E-2,-2.824065E-3,-7.3228525E-3,1.3496813E-3],"split_indices":[196,42,148,147,50,148,148,200,155,39,200,38,127,0,44,0,0,151,0,0,49,170,172,0,0,0,0,0,0,34,146,38,49,195,164,164,39,0,40,0,0,0,178,146,21,0,224,49,42,204,223,0,0,0,0,0,0,0,0,0,0,0,0,0,0,0,0,0,0,0,0],"split_type":[0,0,0,0,0,0,0,0,0,0,0,0,0,0,0,0,0,0,0,0,0,0,0,0,0,0,0,0,0,0,0,0,0,0,0,0,0,0,0,0,0,0,0,0,0,0,0,0,0,0,0,0,0,0,0,0,0,0,0,0,0,0,0,0,0,0,0,0,0,0,0],"sum_hessian":[2.1748415E2,1.9898744E2,1.8496706E1,2.2246626E1,1.7674081E2,6.9993806E0,1.1497325E1,4.4994946E0,1.7747131E1,8.799469E1,8.8746124E1,4.4995956E0,2.4997854E0,8.247765E0,3.2495606E0,2.2495716E0,2.249923E0,1.2248285E1,5.498847E0,1.4997853E0,8.64949E1,2.9248508E1,5.9497612E1,1.9999199E0,2.4996755E0,1.4997853E0,1E0,1.2499275E0,1.9996331E0,9.498587E0,2.7496989E0,3.1747171E1,5.474773E1,4.9997106E0,2.4248798E1,5.499796E1,4.4996524E0,1.2499098E0,8.248677E0,1.499911E0,1.2497878E0,1.2498465E0,3.0497326E1,6.998923E0,4.7748806E1,1.2499831E0,3.7497272E0,2.0999046E1,3.2497528E0,5.2497344E0,4.9748226E1,3.249724E0,1.2499286E0,3.4994857E0,4.7491913E0,1.3499841E1,1.6997484E1,2.2499523E0,4.7489705E0,1.7999527E1,2.9749279E1,2.49981E0,1.2499175E0,1.4999028E0,1.9499144E1,1.9997916E0,1.2499611E0,2.7497978E0,2.4999363E0,3.9498314E1,1.0249913E1],"tree_param":{"num_deleted":"0","num_feature":"225","num_nodes":"71","size_leaf_vector":"0"}},{"base_weights":[-4.075226E-2,3.8201902E-2,-8.486448E-1,-5.65083E-1,1.168836E-1,1.2439422E-1,-1.403655E0,-1.8910135E-1,-1.5049856E-2,3.59451E-1,-1.2495153E-1,-3.5484833E-1,8.4192324E-1,-1.6327458E-2,-5.7486004E-1,1.0163827E-1,-1.4019344E-2,-1.1787573E-2,3.992883E-1,1.2801148E-1,-3.938543E-1,6.5455753E-3,-1.1187746E-2,1.1787573E-2,-0E0,6.564458E-3,-1.30686145E-2,-4.6736014E-1,1.1229016E0,7.26419E-1,1.9997597E-1,6.6372746E-1,-1.5665986E-1,-1.1979086E0,-1.039406E-1,-8.1165385E-1,6.638201E-3,1.81641E-3,1.4892491E-2,-1.0928632E-2,8.3330715E-1,-8.5301113E-1,3.686273E-1,-6.5203723E-3,8.901747E-1,-1.183282E0,9.3721025E-2,-1.7775757E-3,-1.362795E0,-2.4070616E-1,1.1274249E-2,-9.6671644E-4,-1.503879E-2,3.3529394E-3,1.1882903E-2,4.520338E-3,-1.4425067E-2,5.9992042E-3,-8.848529E-4,-5.369674E-3,1.1281727E-2,-2.2068478E-3,-1.379805E-2,3.2615145E-3,-1.1021932E-2,-1.5989631E-2,-1.802917E-3,-7.963714E-3,2.2550721E-3],"categories":[],"categories_nodes":[],"categories_segments":[],"categories_sizes":[],"default_left":[0,0,0,0,0,0,0,0,0,0,0,0,0,0,0,0,0,0,0,0,0,0,0,0,0,0,0,0,0,0,0,0,0,0,0,0,0,0,0,0,0,0,0,0,0,0,0,0,0,0,0,0,0,0,0,0,0,0,0,0,0,0,0,0,0,0,0,0,0],"id":3,"left_children":[1,3,5,7,9,11,13,15,-1,17,19,21,23,-1,25,27,-1,-1,29,31,33,-1,-1,-1,-1,-1,-1,35,37,39,41,43,45,47,49,51,-1,-1,-1,-1,53,55,57,-1,59,61,63,-1,65,67,-1,-1,-1,-1,-1,-1,-1,-1,-1,-1,-1,-1,-1,-1,-1,-1,-1,-1,-1],"loss_changes":[1.3967598E1,9.558281E0,1.0701551E1,7.9292517E0,1.0470797E1,3.0492432E0,1.4336319E0,6.3999805E0,0E0,5.9237175E0,6.15485E0,4.972722E0,9.9242353E-1,0E0,4.687633E0,9.384642E0,0E0,0E0,5.5591297E0,7.271002E0,1.0072841E1,0E0,0E0,0E0,0E0,0E0,0E0,4.6271486E0,1.7119794E0,7.2780247E0,1.02141485E1,5.4961386E0,8.207239E0,1.6918259E0,5.87053E0,4.060474E0,0E0,0E0,0E0,0E0,5.1692886E0,6.804759E0,5.207049E0,0E0,5.530367E0,8.77655E-1,7.6556897E0,0E0,2.4340954E0,8.145103E0,0E0,0E0,0E0,0E0,0E0,0E0,0E0,0E0,0E0,0E0,0E0,0E0,0E0,0E0,0E0,0E0,0E0,0E0,0E0],"parents":[2147483647,0,0,1,1,2,2,3,3,4,4,5,5,6,6,7,7,9,9,10,10,11,11,12,12,14,14,15,15,18,18,19,19,20,20,27,27,28,28,29,29,30,30,31,31,32,32,33,33,34,34,35,35,40,40,41,41,42,42,44,44,45,45,46,46,48,48,49,49],"right_children":[2,4,6,8,10,12,14,16,-1,18,20,22,24,-1,26,28,-1,-1,30,32,34,-1,-1,-1,-1,-1,-1,36,38,40,42,44,46,48,50,52,-1,-1,-1,-1,54,56,58,-1,60,62,64,-1,66,68,-1,-1,-1,-1,-1,-1,-1,-1,-1,-1,-1,-1,-1,-1,-1,-1,-1,-1,-1],"split_conditions":[2.2E1,2.6827288E-1,4.082403E-1,4.1818106E-1,1E0,3.495388E-1,6.743972E-1,2.917556E-1,-1.5049856E-2,1.770643E-1,1E0,2.4913415E-1,1E0,-1.6327458E-2,6.3122475E-1,4.1597718E-1,-1.4019344E-2,-1.1787573E-2,4.1927305E-1,4.4053277E-1,4.7965539E-1,6.5455753E-3,-1.1187746E-2,1.1787573E-2,-0E0,6.564458E-3,-1.30686145E-2,1E0,1E0,1.9586226E-1,4.4547483E-1,1E0,6.403406E-1,3.777118E-1,8.62286E-1,1.551438E-1,6.638201E-3,1.81641E-3,1.4892491E-2,-1.0928632E-2,6.9782704E-1,3.087296E-1,7.343363E-1,-6.5203723E-3,3.0004755E-1,-1.5219048E-3,2.0274E-1,-1.7775757E-3,4.9061403E-1,1E0,1.1274249E-2,-9.6671644E-4,-1.503879E-2,3.3529394E-3,1.1882903E-2,4.520338E-3,-1.4425067E-2,5.9992042E-3,-8.848529E-4,-5.369674E-3,1.1281727E-2,-2.2068478E-3,-1.379805E-2,3.2615145E-3,-1.1021932E-2,-1.5989631E-2,-1.802917E-3,-7.963714E-3,2.2550721E-3],"split_indices":[196,42,148,155,50,148,148,35,0,39,208,38,127,0,44,162,0,0,49,47,39,0,0,0,0,0,0,106,207,38,49,76,180,40,182,146,0,0,0,0,178,146,166,0,48,200,224,0,40,205,0,0,0,0,0,0,0,0,0,0,0,0,0,0,0,0,0,0,0],"split_type":[0,0,0,0,0,0,0,0,0,0,0,0,0,0,0,0,0,0,0,0,0,0,0,0,0,0,0,0,0,0,0,0,0,0,0,0,0,0,0,0,0,0,0,0,0,0,0,0,0,0,0,0,0,0,0,0,0,0,0,0,0,0,0,0,0,0,0,0,0],"sum_hessian":[2.17466E2,1.9897334E2,1.849266E1,2.2243258E1,1.7673009E2,6.998617E0,1.1494043E1,1.6745773E1,5.4974847E0,8.7988655E1,8.874143E1,4.4990973E0,2.4995198E0,8.244988E0,3.2490554E0,1.4246749E1,2.4990246E0,1.4995198E0,8.6489136E1,4.5995945E1,4.274549E1,1.9998214E0,2.4992757E0,1.4995198E0,1E0,1.2498649E0,1.9991904E0,9.497547E0,4.7492023E0,3.1743696E1,5.4745445E1,1.5498375E1,3.0497568E1,1.0498029E1,3.224746E1,7.497905E0,1.9996419E0,1.7496426E0,2.9995594E0,1.2496567E0,3.049404E1,6.9975967E0,4.774785E1,1.9997082E0,1.3498667E1,5.249092E0,2.5248476E1,1.7498393E0,8.748189E0,2.9747932E1,2.4995284E0,4.2489367E0,3.2489681E0,1.3499645E1,1.6994394E1,2.2498937E0,4.747703E0,3.1497898E1,1.6249949E1,1.7498152E0,1.1748852E1,1.2498918E0,3.9992006E0,2.1748795E1,3.4996817E0,6.99831E0,1.7498791E0,1.3248858E1,1.6499075E1],"tree_param":{"num_deleted":"0","num_feature":"225","num_nodes":"69","size_leaf_vector":"0"}},{"base_weights":[-4.075276E-2,3.7461407E-2,-8.412073E-1,-5.604721E-1,1.1543945E-1,1.2406004E-1,-1.3919561E0,5.3128916E-1,-8.5089874E-1,3.557539E-1,-1.2413837E-1,-3.5218897E-1,8.3696103E-1,-1.6188627E-2,-5.707372E-1,1.3530022E-2,-4.5362976E-3,3.2693828E-3,-1.0111068E0,-1.1718591E-2,3.9532813E-1,1.2621988E-1,-3.9026693E-1,6.502246E-3,-1.1109609E-2,1.1718591E-2,-0E0,6.52825E-3,-1.2984161E-2,-3.0765143E-1,-1.4553128E0,7.1939254E-1,1.9790296E-1,6.571044E-1,-1.5585506E-1,-1.02604E0,-3.1591725E-2,-1.2192982E-2,5.247061E-1,-1.5991498E-2,-3.8425797E-3,-1.0869203E-2,8.255776E-1,-8.459149E-1,3.650594E-1,-6.4772624E-3,8.8174856E-1,-1.1741803E0,9.248988E-2,-1.2587694E0,5.318316E-3,-4.7734213E-1,5.155553E-1,-7.818415E-3,1.3681894E-2,3.3217838E-3,1.1773485E-2,4.489156E-3,-1.4310298E-2,7.709069E-3,1.024333E-3,-5.3356513E-3,1.117867E-2,-2.1945934E-3,-1.3690129E-2,3.2303594E-3,-1.0937011E-2,2.2659625E-3,-1.4221885E-2,-1.0172309E-2,1.8583128E-3,7.707412E-3,-1.1028671E-2],"categories":[],"categories_nodes":[],"categories_segments":[],"categories_sizes":[],"default_left":[0,0,0,0,0,0,0,0,0,0,0,0,0,0,0,0,0,0,0,0,0,0,0,0,0,0,0,0,0,0,0,0,0,0,0,0,0,0,0,0,0,0,0,0,0,0,0,0,0,0,0,0,0,0,0,0,0,0,0,0,0,0,0,0,0,0,0,0,0,0,0,0,0],"id":4,"left_children":[1,3,5,7,9,11,13,15,17,19,21,23,25,-1,27,-1,-1,-1,29,-1,31,33,35,-1,-1,-1,-1,-1,-1,37,39,41,43,45,47,49,51,-1,53,-1,-1,-1,55,57,59,-1,61,63,65,67,-1,69,71,-1,-1,-1,-1,-1,-1,-1,-1,-1,-1,-1,-1,-1,-1,-1,-1,-1,-1,-1,-1],"loss_changes":[1.3707434E1,9.387697E0,1.0532383E1,7.8205986E0,1.0275938E1,3.0100853E0,1.4033489E0,5.0639E0,3.8668518E0,5.8424683E0,6.028097E0,4.9044776E0,9.808004E-1,0E0,4.630206E0,0E0,0E0,0E0,4.783434E0,0E0,5.4545126E0,7.139616E0,9.94235E0,0E0,0E0,0E0,0E0,0E0,0E0,6.518825E0,9.2503357E-1,7.176773E0,1.0034691E1,5.4068036E0,8.073847E0,6.378004E0,7.318214E0,0E0,6.303446E0,0E0,0E0,0E0,5.074341E0,6.700199E0,5.1166883E0,0E0,5.4412746E0,8.6179066E-1,7.5313783E0,3.7195148E0,0E0,6.0961123E0,6.424952E0,0E0,0E0,0E0,0E0,0E0,0E0,0E0,0E0,0E0,0E0,0E0,0E0,0E0,0E0,0E0,0E0,0E0,0E0,0E0,0E0],"parents":[2147483647,0,0,1,1,2,2,3,3,4,4,5,5,6,6,7,7,8,8,9,9,10,10,11,11,12,12,14,14,18,18,20,20,21,21,22,22,29,29,30,30,31,31,32,32,33,33,34,34,35,35,36,36,38,38,42,42,43,43,44,44,46,46,47,47,48,48,49,49,51,51,52,52],"right_children":[2,4,6,8,10,12,14,16,18,20,22,24,26,-1,28,-1,-1,-1,30,-1,32,34,36,-1,-1,-1,-1,-1,-1,38,40,42,44,46,48,50,52,-1,54,-1,-1,-1,56,58,60,-1,62,64,66,68,-1,70,72,-1,-1,-1,-1,-1,-1,-1,-1,-1,-1,-1,-1,-1,-1,-1,-1,-1,-1,-1,-1],"split_conditions":[2.2E1,2.6827288E-1,4.082403E-1,1.5790464E-1,1E0,3.495388E-1,6.743972E-1,-4.1120593E-3,1.01419136E-1,1.770643E-1,1E0,2.4913415E-1,1E0,-1.6188627E-2,6.3122475E-1,1.3530022E-2,-4.5362976E-3,3.2693828E-3,2.5525197E-1,-1.1718591E-2,4.1927305E-1,4.4053277E-1,5.252037E-1,6.502246E-3,-1.1109609E-2,1.1718591E-2,-0E0,6.52825E-3,-1.2984161E-2,3.3145618E-1,3.2446262E-1,1.9586226E-1,4.4547483E-1,1E0,6.403406E-1,8.35329E-1,8.188913E-1,-1.2192982E-2,1.9214442E-1,-1.5991498E-2,-3.8425797E-3,-1.0869203E-2,6.9782704E-1,3.087296E-1,1E0,-6.4772624E-3,3.0004755E-1,-1.5219048E-3,2.0274E-1,5.8138627E-1,5.318316E-3,1E0,7.02008E-1,-7.818415E-3,1.3681894E-2,3.3217838E-3,1.1773485E-2,4.489156E-3,-1.4310298E-2,7.709069E-3,1.024333E-3,-5.3356513E-3,1.117867E-2,-2.1945934E-3,-1.3690129E-2,3.2303594E-3,-1.0937011E-2,2.2659625E-3,-1.4221885E-2,-1.0172309E-2,1.8583128E-3,7.707412E-3,-1.1028671E-2],"split_indices":[196,42,148,147,50,148,148,200,36,39,208,38,127,0,44,0,0,0,46,0,49,47,41,0,0,0,0,0,0,156,38,38,49,76,180,174,192,0,43,0,0,0,178,146,21,0,48,200,224,176,0,214,47,0,0,0,0,0,0,0,0,0,0,0,0,0,0,0,0,0,0,0,0],"split_type":[0,0,0,0,0,0,0,0,0,0,0,0,0,0,0,0,0,0,0,0,0,0,0,0,0,0,0,0,0,0,0,0,0,0,0,0,0,0,0,0,0,0,0,0,0,0,0,0,0,0,0,0,0,0,0,0,0,0,0,0,0,0,0,0,0,0,0,0,0,0,0,0,0],"sum_hessian":[2.1744116E2,1.9895412E2,1.8487043E1,2.2238945E1,1.7671518E2,6.9975543E0,1.1489489E1,4.498607E0,1.7740337E1,8.797987E1,8.8735306E1,4.4984026E0,2.4991517E0,8.241133E0,3.2483554E0,2.2487588E0,2.2498484E0,1.9994961E0,1.5740841E1,1.4991516E0,8.648072E1,4.599325E1,4.2742054E1,1.9996808E0,2.4987218E0,1.4991516E0,1E0,1.2497758E0,1.9985797E0,6.747663E0,8.993178E0,3.1738895E1,5.4741825E1,1.5497101E1,3.0496151E1,1.474501E1,2.7997044E1,2.998575E0,3.749088E0,7.493747E0,1.4994308E0,1.2493931E0,3.0489504E1,6.995763E0,4.774606E1,1.9995433E0,1.3497558E1,5.248193E0,2.5247957E1,1.2995601E1,1.7494097E0,1.5498383E1,1.2498661E1,1.4994831E0,2.249605E0,1.3499375E1,1.6990128E1,2.2498121E0,4.7459507E0,1.7997839E1,2.974822E1,1.7497398E0,1.1747818E1,1.2498864E0,3.9983065E0,2.1748606E1,3.4993525E0,1.2497402E0,1.1745861E1,8.248998E0,7.249385E0,1.1248773E1,1.2498882E0],"tree_param":{"num_deleted":"0","num_feature":"225","num_nodes":"73","size_leaf_vector":"0"}},{"base_weights":[-4.072033E-2,3.6766365E-2,-8.339006E-1,-5.556186E-1,1.1401002E-1,1.2372953E-1,-1.3804935E0,-1.845764E-1,-1.4837325E-2,3.5214245E-1,-1.2338288E-1,-3.49562E-1,8.3205277E-1,-1.6052816E-2,-5.6666934E-1,1.0260648E-1,-1.3834286E-2,-1.16504915E-2,3.9145672E-1,2.4168803E-1,-3.0387178E-1,6.4592944E-3,-1.1032498E-2,1.1650492E-2,-0E0,6.4923195E-3,-1.2900974E-2,-4.6116835E-1,1.1140465E0,7.1246094E-1,1.9591886E-1,-8.204022E-1,4.845079E-1,-4.1527387E-1,8.856956E-1,-8.0201334E-1,6.580078E-3,1.8049678E-3,1.4772962E-2,-1.0810456E-2,8.179515E-1,-8.389304E-1,3.6160162E-1,2.1920346E-3,-1.1401814E0,7.1022373E-1,-7.981468E-1,7.1079916E-1,-5.45765E-1,-2.3289823E-3,1.2695197E-2,-9.6993457E-4,-1.4844057E-2,3.2909345E-3,1.1665817E-2,4.4582207E-3,-1.4197626E-2,5.9060487E-3,-9.074882E-4,-2.1509612E-3,-1.4091028E-2,-7.81774E-3,8.575169E-3,-1.2973322E-2,2.2188711E-3,1.4438026E-2,-2.7757548E-3,-8.303552E-3,-1.117007E-3],"categories":[],"categories_nodes":[],"categories_segments":[],"categories_sizes":[],"default_left":[0,0,0,0,0,0,0,0,0,0,0,0,0,0,0,0,0,0,0,0,0,0,0,0,0,0,0,0,0,0,0,0,0,0,0,0,0,0,0,0,0,0,0,0,0,0,0,0,0,0,0,0,0,0,0,0,0,0,0,0,0,0,0,0,0,0,0,0,0],"id":5,"left_children":[1,3,5,7,9,11,13,15,-1,17,19,21,23,-1,25,27,-1,-1,29,31,33,-1,-1,-1,-1,-1,-1,35,37,39,41,43,45,47,49,51,-1,-1,-1,-1,53,55,57,-1,59,61,63,65,67,-1,-1,-1,-1,-1,-1,-1,-1,-1,-1,-1,-1,-1,-1,-1,-1,-1,-1,-1,-1],"loss_changes":[1.345423E1,9.211664E0,1.0367244E1,7.7267313E0,1.0088758E1,2.9715264E0,1.3740768E0,6.2494373E0,0E0,5.7628336E0,5.9856386E0,4.837352E0,9.6938276E-1,0E0,4.5737143E0,9.205192E0,0E0,0E0,5.3508053E0,8.196661E0,8.383314E0,0E0,0E0,0E0,0E0,0E0,0E0,4.5308867E0,1.6825576E0,7.077223E0,9.859957E0,2.2441573E0,7.87504E0,8.614737E0,2.656434E0,3.942945E0,0E0,0E0,0E0,0E0,4.981882E0,6.597868E0,5.1029997E0,0E0,8.78294E-1,5.503928E0,2.4510055E0,4.927618E0,6.17496E0,0E0,0E0,0E0,0E0,0E0,0E0,0E0,0E0,0E0,0E0,0E0,0E0,0E0,0E0,0E0,0E0,0E0,0E0,0E0,0E0],"parents":[2147483647,0,0,1,1,2,2,3,3,4,4,5,5,6,6,7,7,9,9,10,10,11,11,12,12,14,14,15,15,18,18,19,19,20,20,27,27,28,28,29,29,30,30,31,31,32,32,33,33,34,34,35,35,40,40,41,41,42,42,44,44,45,45,46,46,47,47,48,48],"right_children":[2,4,6,8,10,12,14,16,-1,18,20,22,24,-1,26,28,-1,-1,30,32,34,-1,-1,-1,-1,-1,-1,36,38,40,42,44,46,48,50,52,-1,-1,-1,-1,54,56,58,-1,60,62,64,66,68,-1,-1,-1,-1,-1,-1,-1,-1,-1,-1,-1,-1,-1,-1,-1,-1,-1,-1,-1,-1],"split_conditions":[2.2E1,2.6827288E-1,4.082403E-1,4.1818106E-1,1E0,3.495388E-1,6.743972E-1,2.917556E-1,-1.4837325E-2,1.770643E-1,-8.946545E-4,2.4913415E-1,1E0,-1.6052816E-2,6.3122475E-1,4.1597718E-1,-1.3834286E-2,-1.16504915E-2,4.1927305E-1,5.819468E-1,8.535716E-1,6.4592944E-3,-1.1032498E-2,1.1650492E-2,-0E0,6.4923195E-3,-1.2900974E-2,1E0,1E0,1.9586226E-1,4.4547483E-1,2E0,7.723732E-1,4.377851E-1,4.6404874E-1,1.551438E-1,6.580078E-3,1.8049678E-3,1.4772962E-2,-1.0810456E-2,6.9782704E-1,3.087296E-1,7.343363E-1,2.1920346E-3,1E0,3.3018252E-1,4.412168E-1,1E0,2.073788E0,-2.3289823E-3,1.2695197E-2,-9.6993457E-4,-1.4844057E-2,3.2909345E-3,1.1665817E-2,4.4582207E-3,-1.4197626E-2,5.9060487E-3,-9.074882E-4,-2.1509612E-3,-1.4091028E-2,-7.81774E-3,8.575169E-3,-1.2973322E-2,2.2188711E-3,1.4438026E-2,-2.7757548E-3,-8.303552E-3,-1.117007E-3],"split_indices":[196,42,148,155,50,148,148,35,0,39,200,38,127,0,44,162,0,0,49,170,172,0,0,0,0,0,0,106,207,38,49,195,164,164,49,146,0,0,0,0,178,146,166,0,16,49,42,204,223,0,0,0,0,0,0,0,0,0,0,0,0,0,0,0,0,0,0,0,0],"split_type":[0,0,0,0,0,0,0,0,0,0,0,0,0,0,0,0,0,0,0,0,0,0,0,0,0,0,0,0,0,0,0,0,0,0,0,0,0,0,0,0,0,0,0,0,0,0,0,0,0,0,0,0,0,0,0,0,0,0,0,0,0,0,0,0,0,0,0,0,0],"sum_hessian":[2.1740825E2,1.9892834E2,1.8479893E1,2.223259E1,1.7669576E2,6.996198E0,1.1483695E1,1.673938E1,5.4932113E0,8.796917E1,8.872659E1,4.4975157E0,2.4986825E0,8.236231E0,3.2474644E0,1.4242118E1,2.497261E0,1.4986825E0,8.647049E1,2.9241459E1,5.948513E1,1.9994986E0,2.498017E0,1.4986824E0,1E0,1.2496604E0,1.9978042E0,9.494146E0,4.747972E0,3.1732811E1,5.4737675E1,4.9986777E0,2.4242783E1,5.498658E1,4.498549E0,7.4949493E0,1.9991966E0,1.7492652E0,2.9987068E0,1.249057E0,3.0483753E1,6.9934344E0,4.774424E1,1.2498659E0,3.7488117E0,2.0994543E1,3.24824E0,5.2484E0,4.9738182E1,1.2497038E0,3.248845E0,4.2481117E0,3.2468376E0,1.3499034E1,1.698472E1,2.2497087E0,4.743726E0,3.149447E1,1.6249771E1,1.2497023E0,2.4991093E0,1.4993508E0,1.9495192E1,1.9984058E0,1.2498341E0,2.7489355E0,2.4994645E0,2.9490215E1,2.0247965E1],"tree_param":{"num_deleted":"0","num_feature":"225","num_nodes":"69","size_leaf_vector":"0"}},{"base_weights":[-4.0596977E-2,3.6178723E-2,-8.2672083E-1,-5.511441E-1,1.1275081E-1,1.2340259E-1,-1.3692598E0,-1.831368E-1,-1.4718658E-2,3.4853595E-1,-1.22288615E-1,-3.4696674E-1,8.2719743E-1,-1.5919928E-2,-5.626555E-1,1.0207919E-1,-1.3740383E-2,-1.1583262E-2,3.875923E-1,1.2550896E-1,-3.8571814E-1,6.4167148E-3,-1.09563945E-2,1.1583261E-2,-0E0,6.4566624E-3,-1.2819024E-2,-4.5751336E-1,1.1059551E0,7.0562226E-1,1.9389337E-1,6.527524E-1,-1.546202E-1,-1.0129645E0,-3.191764E-2,-7.960087E-1,6.5364544E-3,1.793486E-3,1.4665299E-2,-1.0752375E-2,8.1042653E-1,-8.3205444E-1,3.5810766E-1,-6.3860402E-3,8.7490916E-1,-1.161622E0,9.091903E-2,-1.2433188E0,5.2778497E-3,-4.726316E-1,5.09099E-1,-9.620827E-4,-1.47362575E-2,-5.7255793E-3,9.110495E-3,4.4275294E-3,-1.4086988E-2,7.601004E-3,9.811531E-4,-5.2756416E-3,1.1088066E-2,-2.185972E-3,-1.3537612E-2,3.1957654E-3,-1.0854927E-2,2.2488341E-3,-1.4049511E-2,-1.0079018E-2,1.8474947E-3,7.6225917E-3,-1.0954205E-2],"categories":[],"categories_nodes":[],"categories_segments":[],"categories_sizes":[],"default_left":[0,0,0,0,0,0,0,0,0,0,0,0,0,0,0,0,0,0,0,0,0,0,0,0,0,0,0,0,0,0,0,0,0,0,0,0,0,0,0,0,0,0,0,0,0,0,0,0,0,0,0,0,0,0,0,0,0,0,0,0,0,0,0,0,0,0,0,0,0,0,0],"id":6,"left_children":[1,3,5,7,9,11,13,15,-1,17,19,21,23,-1,25,27,-1,-1,29,31,33,-1,-1,-1,-1,-1,-1,35,37,39,41,43,45,47,49,51,-1,-1,-1,-1,53,55,57,-1,59,61,63,65,-1,67,69,-1,-1,-1,-1,-1,-1,-1,-1,-1,-1,-1,-1,-1,-1,-1,-1,-1,-1,-1,-1],"loss_changes":[1.3209711E1,9.052122E0,1.0205989E1,7.6000853E0,9.889078E0,2.9335556E0,1.3457851E0,6.1643925E0,0E0,5.6842318E0,5.904935E0,4.7713223E0,9.5816445E-1,0E0,4.5181384E0,9.066971E0,0E0,0E0,5.250759E0,7.0404434E0,9.672837E0,0E0,0E0,0E0,0E0,0E0,0E0,4.4667344E0,1.657155E0,6.9793434E0,9.687469E0,5.2904706E0,7.892132E0,6.242281E0,7.1536827E0,3.8857303E0,0E0,0E0,0E0,0E0,4.901943E0,6.497697E0,5.0196533E0,0E0,5.339699E0,8.3578587E-1,7.406809E0,3.6358967E0,0E0,5.9909554E0,6.317536E0,0E0,0E0,0E0,0E0,0E0,0E0,0E0,0E0,0E0,0E0,0E0,0E0,0E0,0E0,0E0,0E0,0E0,0E0,0E0,0E0],"parents":[2147483647,0,0,1,1,2,2,3,3,4,4,5,5,6,6,7,7,9,9,10,10,11,11,12,12,14,14,15,15,18,18,19,19,20,20,27,27,28,28,29,29,30,30,31,31,32,32,33,33,34,34,35,35,40,40,41,41,42,42,44,44,45,45,46,46,47,47,49,49,50,50],"right_children":[2,4,6,8,10,12,14,16,-1,18,20,22,24,-1,26,28,-1,-1,30,32,34,-1,-1,-1,-1,-1,-1,36,38,40,42,44,46,48,50,52,-1,-1,-1,-1,54,56,58,-1,60,62,64,66,-1,68,70,-1,-1,-1,-1,-1,-1,-1,-1,-1,-1,-1,-1,-1,-1,-1,-1,-1,-1,-1,-1],"split_conditions":[2.2E1,2.6827288E-1,4.082403E-1,4.1818106E-1,1E0,3.495388E-1,6.743972E-1,2.917556E-1,-1.4718658E-2,1.770643E-1,1E0,2.4913415E-1,1E0,-1.5919928E-2,6.3122475E-1,4.1597718E-1,-1.3740383E-2,-1.1583262E-2,4.1927305E-1,4.4053277E-1,5.252037E-1,6.4167148E-3,-1.09563945E-2,1.1583261E-2,-0E0,6.4566624E-3,-1.2819024E-2,1E0,1E0,1.9586226E-1,4.4547483E-1,1E0,6.403406E-1,8.35329E-1,8.188913E-1,1.551438E-1,6.5364544E-3,1.793486E-3,1.4665299E-2,-1.0752375E-2,1.2040317E-1,3.087296E-1,1E0,-6.3860402E-3,3.0004755E-1,-1.5219048E-3,2.0274E-1,5.8920336E-1,5.2778497E-3,1E0,7.02008E-1,-9.620827E-4,-1.47362575E-2,-5.7255793E-3,9.110495E-3,4.4275294E-3,-1.4086988E-2,7.601004E-3,9.811531E-4,-5.2756416E-3,1.1088066E-2,-2.185972E-3,-1.3537612E-2,3.1957654E-3,-1.0854927E-2,2.2488341E-3,-1.4049511E-2,-1.0079018E-2,1.8474947E-3,7.6225917E-3,-1.0954205E-2],"split_indices":[196,42,148,155,50,148,148,35,0,39,208,38,127,0,44,162,0,0,49,47,41,0,0,0,0,0,0,106,207,38,49,76,180,174,192,146,0,0,0,0,35,146,21,0,48,200,224,178,0,214,47,0,0,0,0,0,0,0,0,0,0,0,0,0,0,0,0,0,0,0,0],"split_type":[0,0,0,0,0,0,0,0,0,0,0,0,0,0,0,0,0,0,0,0,0,0,0,0,0,0,0,0,0,0,0,0,0,0,0,0,0,0,0,0,0,0,0,0,0,0,0,0,0,0,0,0,0,0,0,0,0,0,0,0,0,0,0,0,0,0,0,0,0,0,0],"sum_hessian":[2.1737057E2,1.9889932E2,1.847125E1,2.2225754E1,1.7667357E2,6.9945555E0,1.1476695E1,1.6735554E1,5.4902005E0,8.795582E1,8.871776E1,4.496441E0,2.4981143E0,8.230309E0,3.2463865E0,1.4239529E1,2.4960244E0,1.4981142E0,8.64577E1,4.5985035E1,4.273272E1,1.9992759E0,2.497165E0,1.4981143E0,1E0,1.2495192E0,1.9968673E0,9.49241E0,4.7471194E0,3.1725473E1,5.4732227E1,1.5493624E1,3.0491413E1,1.4739045E1,2.7993675E1,7.4933214E0,1.9990879E0,1.7492603E0,2.9978592E0,1.2486496E0,3.0476824E1,6.990623E0,4.7741604E1,1.999035E0,1.3494589E1,5.2459407E0,2.5245472E1,1.2989982E1,1.7490634E0,1.5496541E1,1.2497133E1,4.248115E0,3.2452066E0,1.7489362E0,2.8727888E1,2.2495832E0,4.7410393E0,1.7994883E1,2.9746723E1,1.7494099E0,1.1745178E1,1.2497641E0,3.9961762E0,2.1746904E1,3.498569E0,1.2494212E0,1.1740561E1,8.247685E0,7.2488556E0,1.1247448E1,1.2496859E0],"tree_param":{"num_deleted":"0","num_feature":"225","num_nodes":"71","size_leaf_vector":"0"}},{"base_weights":[-4.065092E-2,3.5406455E-2,-8.1966436E-1,-5.467419E-1,1.11290574E-1,1.23079196E-1,-1.3582478E0,5.22316E-1,-8.31424E-1,3.448795E-1,-1.2155213E-1,1.0966963E-2,-2.1979813E-1,-1.5789859E-2,-5.5869466E-1,1.3373245E-2,-4.5274915E-3,3.221754E-3,-9.88538E-1,-1.1516878E-2,3.836781E-1,-1.7645238E-1,1.024454E0,-7.994645E-1,5.468085E-1,6.4212754E-3,-1.2738284E-2,-2.9816002E-1,-1.4251353E0,6.9849813E-1,1.9195522E-1,-9.231087E-2,-1.1980288E0,1.9772486E-3,1.3029311E-2,1.9941372E-3,-1.28245065E-2,-2.319792E-3,1.0824175E-2,-1.20028E-2,5.2401847E-1,-3.7526058E-3,-1.566326E-2,-1.0694949E-2,8.0260545E-1,-8.2528406E-1,3.54722E-1,2.761642E-1,-3.203075E-1,-2.021097E-3,-1.39662465E-2,-7.699626E-3,1.3577638E-2,3.186102E-3,1.1483517E-2,4.397079E-3,-1.3978321E-2,5.8147362E-3,-9.2930486E-4,-4.9199588E-3,6.0534417E-3,1.4729782E-3,-7.936909E-3],"categories":[],"categories_nodes":[],"categories_segments":[],"categories_sizes":[],"default_left":[0,0,0,0,0,0,0,0,0,0,0,0,0,0,0,0,0,0,0,0,0,0,0,0,0,0,0,0,0,0,0,0,0,0,0,0,0,0,0,0,0,0,0,0,0,0,0,0,0,0,0,0,0,0,0,0,0,0,0,0,0,0,0],"id":7,"left_children":[1,3,5,7,9,11,13,15,17,19,21,-1,23,-1,25,-1,-1,-1,27,-1,29,31,33,35,37,-1,-1,39,41,43,45,47,49,-1,-1,-1,-1,-1,-1,-1,51,-1,-1,-1,53,55,57,59,61,-1,-1,-1,-1,-1,-1,-1,-1,-1,-1,-1,-1,-1,-1],"loss_changes":[1.2964741E1,8.890013E0,1.0048493E1,7.5002933E0,9.704041E0,2.9092417E0,1.3184223E0,4.97357E0,3.711564E0,5.6062603E0,5.824645E0,0E0,3.4340334E0,0E0,4.463455E0,0E0,0E0,0E0,4.6155415E0,0E0,5.1439104E0,7.321E0,7.203407E-1,2.3043902E0,1.7100434E0,0E0,0E0,6.371968E0,8.9151764E-1,6.880518E0,9.519503E0,6.890116E0,1.0024662E0,0E0,0E0,0E0,0E0,0E0,0E0,0E0,6.1668167E0,0E0,0E0,0E0,4.9002934E0,6.3996196E0,5.0013313E0,8.258933E0,1.1290453E1,0E0,0E0,0E0,0E0,0E0,0E0,0E0,0E0,0E0,0E0,0E0,0E0,0E0,0E0],"parents":[2147483647,0,0,1,1,2,2,3,3,4,4,5,5,6,6,7,7,8,8,9,9,10,10,12,12,14,14,18,18,20,20,21,21,22,22,23,23,24,24,27,27,28,28,29,29,30,30,31,31,32,32,40,40,44,44,45,45,46,46,47,47,48,48],"right_children":[2,4,6,8,10,12,14,16,18,20,22,-1,24,-1,26,-1,-1,-1,28,-1,30,32,34,36,38,-1,-1,40,42,44,46,48,50,-1,-1,-1,-1,-1,-1,-1,52,-1,-1,-1,54,56,58,60,62,-1,-1,-1,-1,-1,-1,-1,-1,-1,-1,-1,-1,-1,-1],"split_conditions":[2.2E1,2.6827288E-1,4.082403E-1,1.5790464E-1,1E0,5.8343375E-1,6.743972E-1,-4.1120593E-3,1.01419136E-1,1.770643E-1,8.8556015E-1,1.0966963E-2,3.8524842E-1,-1.5789859E-2,6.3122475E-1,1.3373245E-2,-4.5274915E-3,3.221754E-3,2.5525197E-1,-1.1516878E-2,4.1927305E-1,7.915954E-1,1E0,2.4913415E-1,1E0,6.4212754E-3,-1.2738284E-2,3.3145618E-1,-7.5696497E-3,1.9586226E-1,4.4547483E-1,-2.4560973E-4,4.908619E-1,1.9772486E-3,1.3029311E-2,1.9941372E-3,-1.28245065E-2,-2.319792E-3,1.0824175E-2,-1.20028E-2,1.9214442E-1,-3.7526058E-3,-1.566326E-2,-1.0694949E-2,6.9782704E-1,3.087296E-1,7.343363E-1,6.162099E-1,1E0,-2.021097E-3,-1.39662465E-2,-7.699626E-3,1.3577638E-2,3.186102E-3,1.1483517E-2,4.397079E-3,-1.3978321E-2,5.8147362E-3,-9.2930486E-4,-4.9199588E-3,6.0534417E-3,1.4729782E-3,-7.936909E-3],"split_indices":[196,42,148,147,50,178,148,200,36,39,184,0,152,0,44,0,0,0,46,0,49,162,219,38,211,0,0,156,200,38,49,200,159,0,0,0,0,0,0,0,43,0,0,0,178,146,166,170,215,0,0,0,0,0,0,0,0,0,0,0,0,0,0],"split_type":[0,0,0,0,0,0,0,0,0,0,0,0,0,0,0,0,0,0,0,0,0,0,0,0,0,0,0,0,0,0,0,0,0,0,0,0,0,0,0,0,0,0,0,0,0,0,0,0,0,0,0,0,0,0,0,0,0,0,0,0,0,0,0],"sum_hessian":[2.1732541E2,1.9886426E2,1.8461151E1,2.2217417E1,1.7664684E2,6.9926314E0,1.146852E1,4.4966297E0,1.7720787E1,8.794191E1,8.8704926E1,1.2486156E0,5.7440157E0,8.223395E0,3.2451253E0,2.2469733E0,2.2496567E0,1.998242E0,1.5722545E1,1.4974489E0,8.6444466E1,8.545708E1,3.2478547E0,3.2464013E0,2.4976144E0,1.2493527E0,1.9957727E0,6.7429843E0,8.97956E0,3.1718153E1,5.472631E1,7.996146E1,5.495615E0,1.2492286E0,1.9986261E0,1.2494661E0,1.9969352E0,1.2487665E0,1.2488478E0,2.9959056E0,3.747079E0,1.4980551E0,7.481505E0,1.2481724E0,3.0469982E1,6.987343E0,4.7738968E1,3.0483887E1,4.9477573E1,1.2491362E0,4.246479E0,1.4982625E0,2.2488165E0,1.3497261E1,1.6972721E1,2.2494369E0,4.737906E0,3.1489494E1,1.6249472E1,8.99618E0,2.1487707E1,2.5237228E1,2.4240345E1],"tree_param":{"num_deleted":"0","num_feature":"225","num_nodes":"63","size_leaf_vector":"0"}},{"base_weights":[-4.0461406E-2,3.4897797E-2,-8.126245E-1,-5.4208547E-1,1.1008775E-1,1.2295557E-1,-1.3474505E0,-1.7911409E-1,-1.4508964E-2,3.413605E-1,-1.2041487E-1,1.0907155E-2,-2.1799453E-1,-1.566252E-2,-5.5478567E-1,1.0242268E-1,-1.3555974E-2,-1.1451329E-2,3.7990606E-1,1.2478243E-1,-3.8110578E-1,-7.942347E-1,5.4382974E-1,6.3861567E-3,-1.26587255E-2,-4.5211196E-1,1.0968673E0,6.918378E-1,1.899756E-1,6.471418E-1,-1.527472E-1,-1.1631442E0,-9.935786E-2,1.9831068E-3,-1.2743688E-2,-2.3068867E-3,1.0765952E-2,-7.874169E-1,6.479567E-3,1.7709847E-3,1.455054E-2,-1.0638166E-2,7.952744E-1,-8.1861705E-1,3.5129997E-1,-6.30778E-3,8.66902E-1,-3.9957294E-1,8.111666E-1,-1.6051605E-3,-1.3267268E0,-2.3304881E-1,1.1039711E-2,-9.6527184E-4,-1.456428E-2,3.15658E-3,1.13803875E-2,2.5146524E-3,-1.5121034E-2,7.495093E-3,9.3904365E-4,-5.2231206E-3,1.0985972E-2,5.3375964E-3,-8.503871E-3,-3.948982E-3,1.23095475E-2,-1.5574639E-2,-1.73806E-3,-7.759734E-3,2.2224702E-3],"categories":[],"categories_nodes":[],"categories_segments":[],"categories_sizes":[],"default_left":[0,0,0,0,0,0,0,0,0,0,0,0,0,0,0,0,0,0,0,0,0,0,0,0,0,0,0,0,0,0,0,0,0,0,0,0,0,0,0,0,0,0,0,0,0,0,0,0,0,0,0,0,0,0,0,0,0,0,0,0,0,0,0,0,0,0,0,0,0,0,0],"id":8,"left_children":[1,3,5,7,9,11,13,15,-1,17,19,-1,21,-1,23,25,-1,-1,27,29,31,33,35,-1,-1,37,39,41,43,45,47,49,51,-1,-1,-1,-1,53,-1,-1,-1,-1,55,57,59,-1,61,63,65,-1,67,69,-1,-1,-1,-1,-1,-1,-1,-1,-1,-1,-1,-1,-1,-1,-1,-1,-1,-1,-1],"loss_changes":[1.2730059E1,8.729022E0,9.897976E0,7.395674E0,9.510035E0,2.8744311E0,1.2919445E0,6.0097475E0,0E0,5.5302076E0,5.781186E0,0E0,3.3918483E0,0E0,4.409648E0,8.895692E0,0E0,0E0,5.048251E0,6.9090405E0,9.518177E0,2.2758229E0,1.6914501E0,0E0,0E0,4.37847E0,1.6349821E0,6.785877E0,9.353672E0,5.177787E0,7.815362E0,1.6710014E0,5.6040826E0,0E0,0E0,0E0,0E0,3.7830148E0,0E0,0E0,0E0,0E0,4.812809E0,6.3047733E0,4.924879E0,0E0,5.238245E0,1.1283234E1,3.9030595E0,0E0,2.3197784E0,7.770701E0,0E0,0E0,0E0,0E0,0E0,0E0,0E0,0E0,0E0,0E0,0E0,0E0,0E0,0E0,0E0,0E0,0E0,0E0,0E0],"parents":[2147483647,0,0,1,1,2,2,3,3,4,4,5,5,6,6,7,7,9,9,10,10,12,12,14,14,15,15,18,18,19,19,20,20,21,21,22,22,25,25,26,26,27,27,28,28,29,29,30,30,31,31,32,32,37,37,42,42,43,43,44,44,46,46,47,47,48,48,50,50,51,51],"right_children":[2,4,6,8,10,12,14,16,-1,18,20,-1,22,-1,24,26,-1,-1,28,30,32,34,36,-1,-1,38,40,42,44,46,48,50,52,-1,-1,-1,-1,54,-1,-1,-1,-1,56,58,60,-1,62,64,66,-1,68,70,-1,-1,-1,-1,-1,-1,-1,-1,-1,-1,-1,-1,-1,-1,-1,-1,-1,-1,-1],"split_conditions":[2.2E1,2.6827288E-1,4.082403E-1,4.1818106E-1,1E0,5.8343375E-1,6.743972E-1,2.917556E-1,-1.4508964E-2,1.770643E-1,1E0,1.0907155E-2,3.8524842E-1,-1.566252E-2,6.3122475E-1,4.1597718E-1,-1.3555974E-2,-1.1451329E-2,4.1927305E-1,4.4053277E-1,4.7965539E-1,2.4913415E-1,1E0,6.3861567E-3,-1.26587255E-2,1E0,1E0,1.9586226E-1,4.4547483E-1,1E0,2.2296488E0,3.777118E-1,8.62286E-1,1.9831068E-3,-1.2743688E-2,-2.3068867E-3,1.0765952E-2,1.551438E-1,6.479567E-3,1.7709847E-3,1.455054E-2,-1.0638166E-2,6.9782704E-1,3.548756E-1,1E0,-6.30778E-3,3.0004755E-1,-1.5219048E-3,1E0,-1.6051605E-3,4.9061403E-1,1E0,1.1039711E-2,-9.6527184E-4,-1.456428E-2,3.15658E-3,1.13803875E-2,2.5146524E-3,-1.5121034E-2,7.495093E-3,9.3904365E-4,-5.2231206E-3,1.0985972E-2,5.3375964E-3,-8.503871E-3,-3.948982E-3,1.23095475E-2,-1.5574639E-2,-1.73806E-3,-7.759734E-3,2.2224702E-3],"split_indices":[196,42,148,155,50,178,148,35,0,39,208,0,152,0,44,162,0,0,49,47,39,38,211,0,0,106,207,38,49,76,223,40,182,0,0,0,0,146,0,0,0,0,178,147,21,0,48,200,73,0,40,205,0,0,0,0,0,0,0,0,0,0,0,0,0,0,0,0,0,0,0],"split_type":[0,0,0,0,0,0,0,0,0,0,0,0,0,0,0,0,0,0,0,0,0,0,0,0,0,0,0,0,0,0,0,0,0,0,0,0,0,0,0,0,0,0,0,0,0,0,0,0,0,0,0,0,0,0,0,0,0,0,0,0,0,0,0,0,0,0,0,0,0,0,0],"sum_hessian":[2.1728127E2,1.9883116E2,1.8450106E1,2.2207613E1,1.7662355E2,6.990903E0,1.1459204E1,1.672491E1,5.4827023E0,8.792442E1,8.869913E1,1.2483923E0,5.7425103E0,8.215519E0,3.2436848E0,1.4232067E1,2.492844E0,1.4966884E0,8.6427734E1,4.597649E1,4.2722637E1,3.2452648E0,2.4972458E0,1.2491612E0,1.9945234E0,9.487109E0,4.7449574E0,3.1708609E1,5.4719128E1,1.5489931E1,3.0486559E1,1.0486709E1,3.2235928E1,1.2494136E0,1.9958512E0,1.24879E0,1.2484556E0,7.488729E0,1.9983802E0,1.7487822E0,2.9961755E0,1.2476265E0,3.0460983E1,6.9836035E0,4.7735523E1,1.9984591E0,1.3491472E1,2.473757E1,5.748988E0,1.7488618E0,8.737847E0,2.9738304E1,2.497623E0,4.247061E0,3.241668E0,1.349662E1,1.6964363E1,2.996796E0,3.9868078E0,1.7990713E1,2.974481E1,1.7491994E0,1.1742272E1,7.9970584E0,1.6740513E1,1.4996729E0,4.249315E0,6.988362E0,1.7494851E0,1.3242614E1,1.649569E1],"tree_param":{"num_deleted":"0","num_feature":"225","num_nodes":"71","size_leaf_vector":"0"}},{"base_weights":[-4.031797E-2,3.434952E-2,-8.057039E-1,-5.378112E-1,1.08891845E-1,1.22833714E-1,-1.3368615E0,5.161907E-1,-8.18714E-1,3.378863E-1,-1.1932802E-1,1.08480295E-2,-2.1621236E-1,-1.553782E-2,-5.5092764E-1,1.3253469E-2,-4.5073745E-3,3.1876632E-3,-9.737965E-1,-1.1386597E-2,3.761809E-1,-1.7368954E-1,1.015281E0,-7.8906935E-1,5.4087937E-1,6.351301E-3,-1.2580324E-2,-2.9250768E-1,-1.4050637E0,6.852642E-1,1.880247E-1,-9.047665E-2,-1.18438E0,1.9545588E-3,1.2916606E-2,1.972139E-3,-1.2664051E-2,-2.2940552E-3,1.0708387E-2,-1.1868133E-2,5.217545E-1,-1.54558085E-2,-3.6563387E-3,-1.0582019E-2,7.88038E-1,-8.123885E-1,3.4798473E-1,2.7176142E-1,-3.1461713E-1,-1.951971E-3,-1.3826811E-2,-7.6195695E-3,1.3481202E-2,-5.775601E-3,8.878678E-3,4.3495996E-3,-1.3778378E-2,5.7252143E-3,-9.5031987E-4,-4.8899716E-3,5.9788167E-3,1.4804646E-3,-7.831198E-3],"categories":[],"categories_nodes":[],"categories_segments":[],"categories_sizes":[],"default_left":[0,0,0,0,0,0,0,0,0,0,0,0,0,0,0,0,0,0,0,0,0,0,0,0,0,0,0,0,0,0,0,0,0,0,0,0,0,0,0,0,0,0,0,0,0,0,0,0,0,0,0,0,0,0,0,0,0,0,0,0,0,0,0],"id":9,"left_children":[1,3,5,7,9,11,13,15,17,19,21,-1,23,-1,25,-1,-1,-1,27,-1,29,31,33,35,37,-1,-1,39,41,43,45,47,49,-1,-1,-1,-1,-1,-1,-1,51,-1,-1,-1,53,55,57,59,61,-1,-1,-1,-1,-1,-1,-1,-1,-1,-1,-1,-1,-1,-1],"loss_changes":[1.2499112E1,8.579531E0,9.750856E0,7.290564E0,9.321388E0,2.8401334E0,1.2663097E0,4.8963466E0,3.609558E0,5.455407E0,5.7080092E0,0E0,3.3503008E0,0E0,4.356698E0,0E0,0E0,0E0,4.4972258E0,0E0,4.9545593E0,7.1624956E0,7.097454E-1,2.247765E0,1.6731201E0,0E0,0E0,6.2543044E0,8.9058304E-1,6.6928015E0,9.198079E0,6.6576405E0,1.0036688E0,0E0,0E0,0E0,0E0,0E0,0E0,0E0,6.060859E0,0E0,0E0,0E0,4.800417E0,6.2276397E0,4.901961E0,8.101908E0,1.1055315E1,0E0,0E0,0E0,0E0,0E0,0E0,0E0,0E0,0E0,0E0,0E0,0E0,0E0,0E0],"parents":[2147483647,0,0,1,1,2,2,3,3,4,4,5,5,6,6,7,7,8,8,9,9,10,10,12,12,14,14,18,18,20,20,21,21,22,22,23,23,24,24,27,27,28,28,29,29,30,30,31,31,32,32,40,40,44,44,45,45,46,46,47,47,48,48],"right_children":[2,4,6,8,10,12,14,16,18,20,22,-1,24,-1,26,-1,-1,-1,28,-1,30,32,34,36,38,-1,-1,40,42,44,46,48,50,-1,-1,-1,-1,-1,-1,-1,52,-1,-1,-1,54,56,58,60,62,-1,-1,-1,-1,-1,-1,-1,-1,-1,-1,-1,-1,-1,-1],"split_conditions":[2.2E1,2.6827288E-1,4.082403E-1,1.5790464E-1,1E0,5.8343375E-1,6.743972E-1,-4.1120593E-3,1.01419136E-1,1.770643E-1,8.8556015E-1,1.08480295E-2,3.8524842E-1,-1.553782E-2,6.3122475E-1,1.3253469E-2,-4.5073745E-3,3.1876632E-3,2.5525197E-1,-1.1386597E-2,4.1927305E-1,7.915954E-1,5.1337403E-1,2.4913415E-1,1E0,6.351301E-3,-1.2580324E-2,3.3145618E-1,3.2446262E-1,1.9586226E-1,4.4547483E-1,-2.4560973E-4,1E0,1.9545588E-3,1.2916606E-2,1.972139E-3,-1.2664051E-2,-2.2940552E-3,1.0708387E-2,-1.1868133E-2,1.9214442E-1,-1.54558085E-2,-3.6563387E-3,-1.0582019E-2,1.2040317E-1,3.087296E-1,7.343363E-1,6.162099E-1,1E0,-1.951971E-3,-1.3826811E-2,-7.6195695E-3,1.3481202E-2,-5.775601E-3,8.878678E-3,4.3495996E-3,-1.3778378E-2,5.7252143E-3,-9.5031987E-4,-4.8899716E-3,5.9788167E-3,1.4804646E-3,-7.831198E-3],"split_indices":[196,42,148,147,50,178,148,200,36,39,184,0,152,0,44,0,0,0,46,0,49,162,44,38,211,0,0,156,38,38,49,200,77,0,0,0,0,0,0,0,43,0,0,0,35,146,166,170,215,0,0,0,0,0,0,0,0,0,0,0,0,0,0],"split_type":[0,0,0,0,0,0,0,0,0,0,0,0,0,0,0,0,0,0,0,0,0,0,0,0,0,0,0,0,0,0,0,0,0,0,0,0,0,0,0,0,0,0,0,0,0,0,0,0,0,0,0,0,0,0,0,0,0,0,0,0,0,0,0],"sum_hessian":[2.1722498E2,1.9878732E2,1.8437647E1,2.2196894E1,1.7659042E2,6.9888706E0,1.1448776E1,4.4946136E0,1.770228E1,8.790577E1,8.8684654E1,1.2480961E0,5.7407746E0,8.206708E0,3.2420688E0,2.2451353E0,2.2494786E0,1.9972956E0,1.5704985E1,1.4958344E0,8.6409935E1,8.543806E1,3.2466013E0,3.2439713E0,2.4968033E0,1.2489455E0,1.9931232E0,6.738375E0,8.96661E0,3.1697912E1,5.4712025E1,7.994545E1,5.492606E0,1.2489734E0,1.9976281E0,1.2493589E0,1.9946123E0,1.2488099E0,1.2479934E0,2.9932983E0,3.7450771E0,7.469836E0,1.4967732E0,1.2470131E0,3.04509E1,6.9799175E0,4.773211E1,3.0477566E1,4.9467884E1,1.2485963E0,4.24401E0,1.497202E0,2.2478752E0,1.7484155E0,2.8702484E1,2.2491639E0,4.7307534E0,3.148305E1,1.6249058E1,8.995E0,2.1482565E1,2.5233187E1,2.4234695E1],"tree_param":{"num_deleted":"0","num_feature":"225","num_nodes":"63","size_leaf_vector":"0"}},{"base_weights":[-4.0182345E-2,3.3798024E-2,-7.98899E-1,-5.3328276E-1,1.0765291E-1,1.22713484E-1,-1.3264743E0,-1.7486644E-1,-1.4314994E-2,4.041622E-1,-6.5833464E-2,1.0789579E-2,-2.1445137E-1,-1.5415674E-2,-5.4711956E-1,1.033323E-1,-1.33853E-2,1.8107097E-1,6.9376814E-1,9.1440123E-1,-1.542744E-1,-7.8396726E-1,5.3795683E-1,6.316705E-3,-1.2503051E-2,-4.462992E-1,1.0884802E0,6.2370557E-1,-2.5942403E-1,1.0949193E0,2.2285362E-1,1.2328409E0,-6.5966994E-3,-2.5240138E-1,8.8350904E-1,1.9612361E-3,-1.2585572E-2,-2.2878398E-3,1.0657682E-2,-7.7837926E-1,6.423542E-3,1.7593662E-3,1.4438391E-2,1.5793464E-1,1.239136E0,-4.9969858E-1,9.1484404E-1,1.233342E0,-2.3770165E-3,-4.7827065E-1,1.072747E0,1.6473859E-3,1.4948557E-2,-1.6446476E-1,-1.4923254E-2,-1.6547374E-2,1.2191459E0,1.09671615E-4,-1.333087E-2,4.797223E-3,-6.9833766E-3,1.4960787E-2,1.8103045E-3,2.8359755E-3,-8.903215E-3,1.9712166E-3,1.1942426E-2,-1.3635326E-4,1.38713205E-2,2.7993247E-3,-1.3019297E-2,-2.354082E-3,1.41291795E-2,-1.0007778E-2,-9.371003E-4,6.420834E-3,-6.673304E-3,1.5329154E-2,3.1612767E-3],"categories":[],"categories_nodes":[],"categories_segments":[],"categories_sizes":[],"default_left":[0,0,0,0,0,0,0,0,0,0,0,0,0,0,0,0,0,0,0,0,0,0,0,0,0,0,0,0,0,0,0,0,0,0,0,0,0,0,0,0,0,0,0,0,0,0,0,0,0,0,0,0,0,0,0,0,0,0,0,0,0,0,0,0,0,0,0,0,0,0,0,0,0,0,0,0,0,0,0],"id":10,"left_children":[1,3,5,7,9,11,13,15,-1,17,19,-1,21,-1,23,25,-1,27,29,31,33,35,37,-1,-1,39,41,43,45,47,49,51,-1,53,55,-1,-1,-1,-1,57,-1,-1,-1,59,61,63,65,67,-1,69,71,-1,-1,73,-1,75,77,-1,-1,-1,-1,-1,-1,-1,-1,-1,-1,-1,-1,-1,-1,-1,-1,-1,-1,-1,-1,-1,-1],"loss_changes":[1.2272954E1,8.423147E0,9.60702E0,7.213675E0,9.160461E0,2.8063405E0,1.2414856E0,5.871944E0,0E0,4.118025E0,9.926938E0,0E0,3.3093789E0,0E0,4.3045845E0,8.728147E0,0E0,7.659702E0,5.0883694E0,5.568097E0,1.0853887E1,2.2202058E0,1.6587598E0,0E0,0E0,4.28876E0,1.6080394E0,5.3867087E0,6.0945354E0,3.057785E0,8.99851E0,2.0593357E0,0E0,1.0238619E1,2.8116188E0,0E0,0E0,0E0,0E0,3.7287927E0,0E0,0E0,0E0,3.7051816E0,1.9703264E0,5.5254E0,5.160022E-1,2.6535892E0,0E0,5.6693788E0,3.3343387E0,0E0,0E0,5.285616E0,0E0,1.9271566E0,1.4262218E0,0E0,0E0,0E0,0E0,0E0,0E0,0E0,0E0,0E0,0E0,0E0,0E0,0E0,0E0,0E0,0E0,0E0,0E0,0E0,0E0,0E0,0E0],"parents":[2147483647,0,0,1,1,2,2,3,3,4,4,5,5,6,6,7,7,9,9,10,10,12,12,14,14,15,15,17,17,18,18,19,19,20,20,21,21,22,22,25,25,26,26,27,27,28,28,29,29,30,30,31,31,33,33,34,34,39,39,43,43,44,44,45,45,46,46,47,47,49,49,50,50,53,53,55,55,56,56],"right_children":[2,4,6,8,10,12,14,16,-1,18,20,-1,22,-1,24,26,-1,28,30,32,34,36,38,-1,-1,40,42,44,46,48,50,52,-1,54,56,-1,-1,-1,-1,58,-1,-1,-1,60,62,64,66,68,-1,70,72,-1,-1,74,-1,76,78,-1,-1,-1,-1,-1,-1,-1,-1,-1,-1,-1,-1,-1,-1,-1,-1,-1,-1,-1,-1,-1,-1],"split_conditions":[2.2E1,2.6827288E-1,4.082403E-1,4.1818106E-1,-1.3388675E-3,5.8343375E-1,6.743972E-1,2.917556E-1,-1.4314994E-2,-4.791066E-3,3.0220473E-1,1.0789579E-2,3.8524842E-1,-1.5415674E-2,6.3122475E-1,4.1597718E-1,-1.33853E-2,1E0,1.1E1,6E0,8.536392E-1,2.4913415E-1,1E0,6.316705E-3,-1.2503051E-2,1E0,1E0,1E0,2.1136881E-1,8.4629035E-1,1.496425E-1,1E0,-6.5966994E-3,8.075102E-1,5.045504E-1,1.9612361E-3,-1.2585572E-2,-2.2878398E-3,1.0657682E-2,-4.1120593E-3,6.423542E-3,1.7593662E-3,1.4438391E-2,5.260055E-1,6.0235935E-1,4.4951868E-1,1E0,4.1917723E-2,-2.3770165E-3,1E0,2.962705E-1,1.6473859E-3,1.4948557E-2,3.048969E-1,-1.4923254E-2,1E0,6.163804E-1,1.09671615E-4,-1.333087E-2,4.797223E-3,-6.9833766E-3,1.4960787E-2,1.8103045E-3,2.8359755E-3,-8.903215E-3,1.9712166E-3,1.1942426E-2,-1.3635326E-4,1.38713205E-2,2.7993247E-3,-1.3019297E-2,-2.354082E-3,1.41291795E-2,-1.0007778E-2,-9.371003E-4,6.420834E-3,-6.673304E-3,1.5329154E-2,3.1612767E-3],"split_indices":[196,42,148,155,200,178,148,35,0,200,41,0,152,0,44,162,0,208,194,195,174,38,136,0,0,106,207,73,224,172,224,198,0,168,41,0,0,0,0,200,0,0,0,39,39,158,67,224,0,207,45,0,0,40,0,54,38,0,0,0,0,0,0,0,0,0,0,0,0,0,0,0,0,0,0,0,0,0,0],"split_type":[0,0,0,0,0,0,0,0,0,0,0,0,0,0,0,0,0,0,0,0,0,0,0,0,0,0,0,0,0,0,0,0,0,0,0,0,0,0,0,0,0,0,0,0,0,0,0,0,0,0,0,0,0,0,0,0,0,0,0,0,0,0,0,0,0,0,0,0,0,0,0,0,0,0,0,0,0,0,0],"sum_hessian":[2.1717072E2,1.9874692E2,1.842381E1,2.2184757E1,1.7656215E2,6.986541E0,1.1437268E1,1.6711164E1,5.473592E0,6.468241E1,1.11879745E2,1.2477281E0,5.738813E0,8.196988E0,3.2402806E0,1.4222236E1,2.48893E0,3.745503E1,2.722738E1,8.486007E0,1.0339374E2,3.2425241E0,2.4962885E0,1.2487056E0,1.9915749E0,9.480095E0,4.742141E0,1.8474686E1,1.8980343E1,1.3987208E1,1.3240172E1,7.238431E0,1.2475759E0,9.515336E1,8.240378E0,1.2493021E0,1.9932221E0,1.2487693E0,1.2475193E0,7.482622E0,1.9974729E0,1.748129E0,2.9940116E0,1.1231256E1,7.2434306E0,1.623322E1,2.7471242E0,1.2738524E1,1.2486842E0,7.494665E0,5.7455077E0,1.7467107E0,5.49172E0,8.990953E1,5.2438297E0,2.4964645E0,5.743914E0,3.492723E0,3.989899E0,8.483068E0,2.7481873E0,5.4951143E0,1.7483163E0,5.492791E0,1.0740427E1,1.2476549E0,1.4994694E0,1.4986162E0,1.1239908E1,4.2461195E0,3.248546E0,1.2492778E0,4.4962296E0,5.9879766E0,8.3921555E1,1.2473952E0,1.2490695E0,3.7450752E0,1.998839E0],"tree_param":{"num_deleted":"0","num_feature":"225","num_nodes":"79","size_leaf_vector":"0"}},{"base_weights":[-3.9759826E-2,3.3562236E-2,-7.9220635E-1,-5.290246E-1,1.0679927E-1,1.22594625E-1,-1.3162829E0,5.1391715E-1,-8.073043E-1,3.3275473E-1,-1.1835305E-1,1.0731788E-2,-2.1271099E-1,-1.5296001E-2,-5.433601E-1,1.3132569E-2,-4.421337E-3,3.1417268E-3,-9.603176E-1,-1.13234995E-2,3.7077764E-1,1.24021426E-1,-3.7607583E-1,-7.789273E-1,5.3506035E-1,6.282368E-3,-1.242688E-2,-2.8817928E-1,-1.386141E0,6.759949E-1,1.8502337E-1,6.4082754E-1,-1.5055536E-1,-9.9392784E-1,-2.7889725E-2,1.950395E-3,-1.2508225E-2,-2.2830793E-3,1.0608875E-2,-1.1748838E-2,5.1862425E-1,-1.5248058E-2,-3.6088112E-3,-1.0525372E-2,7.780016E-1,-8.0690473E-1,3.435548E-1,-6.2419926E-3,8.5838085E-1,-3.9544553E-1,8.0547774E-1,-1.2195274E0,5.152111E-3,-4.5854488E-1,5.0057006E-1,-6.3030752E-3,1.1088027E-2,3.0355447E-3,1.1178413E-2,2.4445604E-3,-1.4886368E-2,7.3600835E-3,9.0032973E-4,-5.1641767E-3,1.08768605E-2,5.23179E-3,-8.390423E-3,-3.9044374E-3,1.2215333E-2,2.2713093E-3,-1.379353E-2,-9.871678E-3,1.8947982E-3,7.5028585E-3,-1.0813664E-2],"categories":[],"categories_nodes":[],"categories_segments":[],"categories_sizes":[],"default_left":[0,0,0,0,0,0,0,0,0,0,0,0,0,0,0,0,0,0,0,0,0,0,0,0,0,0,0,0,0,0,0,0,0,0,0,0,0,0,0,0,0,0,0,0,0,0,0,0,0,0,0,0,0,0,0,0,0,0,0,0,0,0,0,0,0,0,0,0,0,0,0,0,0,0,0],"id":11,"left_children":[1,3,5,7,9,11,13,15,17,19,21,-1,23,-1,25,-1,-1,-1,27,-1,29,31,33,35,37,-1,-1,39,41,43,45,47,49,51,53,-1,-1,-1,-1,-1,55,-1,-1,-1,57,59,61,-1,63,65,67,69,-1,71,73,-1,-1,-1,-1,-1,-1,-1,-1,-1,-1,-1,-1,-1,-1,-1,-1,-1,-1,-1,-1],"loss_changes":[1.2060826E1,8.285312E0,9.46637E0,7.140191E0,9.071901E0,2.7730443E0,1.2174339E0,4.777416E0,3.5073318E0,5.3709717E0,5.647817E0,0E0,3.2690682E0,0E0,4.2532907E0,0E0,0E0,0E0,4.3758316E0,0E0,4.829092E0,6.7605553E0,9.374687E0,2.193133E0,1.6453872E0,0E0,0E0,6.1416287E0,8.6447144E-1,6.581661E0,9.035954E0,5.07242E0,7.6882596E0,5.9817276E0,6.825414E0,0E0,0E0,0E0,0E0,0E0,3.9148521E0,0E0,0E0,0E0,4.729456E0,6.0791187E0,4.781655E0,0E0,5.1284857E0,1.0923838E1,3.8346567E0,3.5447617E0,0E0,5.8361197E0,6.140931E0,0E0,0E0,0E0,0E0,0E0,0E0,0E0,0E0,0E0,0E0,0E0,0E0,0E0,0E0,0E0,0E0,0E0,0E0,0E0,0E0],"parents":[2147483647,0,0,1,1,2,2,3,3,4,4,5,5,6,6,7,7,8,8,9,9,10,10,12,12,14,14,18,18,20,20,21,21,22,22,23,23,24,24,27,27,28,28,29,29,30,30,31,31,32,32,33,33,34,34,40,40,44,44,45,45,46,46,48,48,49,49,50,50,51,51,53,53,54,54],"right_children":[2,4,6,8,10,12,14,16,18,20,22,-1,24,-1,26,-1,-1,-1,28,-1,30,32,34,36,38,-1,-1,40,42,44,46,48,50,52,54,-1,-1,-1,-1,-1,56,-1,-1,-1,58,60,62,-1,64,66,68,70,-1,72,74,-1,-1,-1,-1,-1,-1,-1,-1,-1,-1,-1,-1,-1,-1,-1,-1,-1,-1,-1,-1],"split_conditions":[2.2E1,2.6827288E-1,4.082403E-1,1.5790464E-1,1E0,5.8343375E-1,6.743972E-1,-4.1120593E-3,1.01419136E-1,1.770643E-1,1E0,1.0731788E-2,3.8524842E-1,-1.5296001E-2,6.3122475E-1,1.3132569E-2,-4.421337E-3,3.1417268E-3,2.5525197E-1,-1.13234995E-2,4.1927305E-1,4.4053277E-1,5.252037E-1,2.4913415E-1,1E0,6.282368E-3,-1.242688E-2,3.0189314E-1,3.2446262E-1,1.9586226E-1,4.4547483E-1,1E0,2.2296488E0,8.35329E-1,8.188913E-1,1.950395E-3,-1.2508225E-2,-2.2830793E-3,1.0608875E-2,-1.1748838E-2,1.8989423E-1,-1.5248058E-2,-3.6088112E-3,-1.0525372E-2,6.9782704E-1,3.548756E-1,1E0,-6.2419926E-3,3.0004755E-1,-1.5219048E-3,1E0,5.8920336E-1,5.152111E-3,1E0,7.02008E-1,-6.3030752E-3,1.1088027E-2,3.0355447E-3,1.1178413E-2,2.4445604E-3,-1.4886368E-2,7.3600835E-3,9.0032973E-4,-5.1641767E-3,1.08768605E-2,5.23179E-3,-8.390423E-3,-3.9044374E-3,1.2215333E-2,2.2713093E-3,-1.379353E-2,-9.871678E-3,1.8947982E-3,7.5028585E-3,-1.0813664E-2],"split_indices":[196,42,148,147,50,178,148,200,36,39,208,0,152,0,44,0,0,0,46,0,49,47,41,38,211,0,0,153,38,38,49,76,223,174,192,0,0,0,0,0,43,0,0,0,178,147,21,0,48,200,73,178,0,214,47,0,0,0,0,0,0,0,0,0,0,0,0,0,0,0,0,0,0,0,0],"split_type":[0,0,0,0,0,0,0,0,0,0,0,0,0,0,0,0,0,0,0,0,0,0,0,0,0,0,0,0,0,0,0,0,0,0,0,0,0,0,0,0,0,0,0,0,0,0,0,0,0,0,0,0,0,0,0,0,0,0,0,0,0,0,0,0,0,0,0,0,0,0,0,0,0,0,0],"sum_hessian":[2.1712645E2,1.9871782E2,1.8408638E1,2.2172361E1,1.7654546E2,6.9839287E0,1.1424709E1,4.491662E0,1.7680698E1,8.787704E1,8.866841E1,1.2472897E0,5.736639E0,8.186385E0,3.2383242E0,2.2428348E0,2.2488275E0,1.9962671E0,1.5684432E1,1.4948922E0,8.638215E1,4.5962204E1,4.270621E1,3.240927E0,2.495712E0,1.2484423E0,1.9898819E0,6.733203E0,8.951228E0,3.1683329E1,5.469882E1,1.5484165E1,3.047804E1,1.4724023E1,2.7982187E1,1.2492433E0,1.9916836E0,1.248711E0,1.247001E0,2.9904146E0,3.7427883E0,7.455627E0,1.4956017E0,1.2462895E0,3.0437038E1,6.9738293E0,4.772499E1,1.9978585E0,1.3486306E1,2.4729809E1,5.7482314E0,1.297614E1,1.7478834E0,1.5490714E1,1.2491472E1,1.2470653E0,2.495723E0,1.3492925E1,1.6944115E1,2.9955459E0,3.9782834E0,1.798341E1,2.9741581E1,1.7488693E0,1.1737437E1,7.994649E0,1.6735159E1,1.4995224E0,4.248709E0,1.2490727E0,1.1727067E1,8.243098E0,7.247616E0,1.1242509E1,1.2489636E0],"tree_param":{"num_deleted":"0","num_feature":"225","num_nodes":"75","size_leaf_vector":"0"}},{"base_weights":[-3.9613623E-2,3.3041302E-2,-7.8562284E-1,-5.246541E-1,1.05616845E-1,1.2247712E-1,-1.3062813E0,-1.7068776E-1,-1.4126758E-2,3.2937998E-1,-1.17341466E-1,1.0674648E-2,-2.109907E-1,-1.51787205E-2,-5.396489E-1,1.04615845E-1,-1.3234814E-2,-1.1260343E-2,3.671571E-1,-1.7095327E-1,1.0017838E0,-7.739482E-1,5.321892E-1,6.2482865E-3,-1.2351793E-2,-4.4014993E-1,1.0804986E0,1.4657776E-1,6.1949265E-1,-8.910006E-2,-1.1656871E0,1.8928254E-3,1.2771962E-2,1.9396148E-3,-1.243198E-2,-2.2768725E-3,1.0559198E-2,-7.691224E-1,6.372827E-3,1.7539444E-3,1.4328059E-2,-4.6957704E-1,4.6210358E-1,9.228776E-1,-7.4400716E-2,2.7004254E-1,-3.0561253E-1,-1.8875416E-3,-1.3623225E-2,1.0128178E-4,-1.3168017E-2,1.1681553E-2,-7.075076E-3,7.800039E-3,-3.7334015E-4,-1.6403398E-3,1.04654E-2,-9.032982E-3,5.8288565E-3,-4.4654147E-3,5.7206093E-3,1.2861267E-3,-7.449215E-3],"categories":[],"categories_nodes":[],"categories_segments":[],"categories_sizes":[],"default_left":[0,0,0,0,0,0,0,0,0,0,0,0,0,0,0,0,0,0,0,0,0,0,0,0,0,0,0,0,0,0,0,0,0,0,0,0,0,0,0,0,0,0,0,0,0,0,0,0,0,0,0,0,0,0,0,0,0,0,0,0,0,0,0],"id":12,"left_children":[1,3,5,7,9,11,13,15,-1,17,19,-1,21,-1,23,25,-1,-1,27,29,31,33,35,-1,-1,37,39,41,43,45,47,-1,-1,-1,-1,-1,-1,49,-1,-1,-1,51,53,55,57,59,61,-1,-1,-1,-1,-1,-1,-1,-1,-1,-1,-1,-1,-1,-1,-1,-1],"loss_changes":[1.18447075E1,8.136699E0,9.328803E0,7.038274E0,8.89422E0,2.7402349E0,1.1941185E0,5.754527E0,0E0,5.298747E0,5.5500154E0,0E0,3.2293575E0,0E0,4.202801E0,8.562259E0,0E0,0E0,4.77166E0,6.93137E0,7.0795584E-1,2.1665335E0,1.6313572E0,0E0,0E0,4.2020407E0,1.5786471E0,9.533862E0,8.581336E0,6.374604E0,9.889269E-1,0E0,0E0,0E0,0E0,0E0,0E0,3.630684E0,0E0,0E0,0E0,7.3439593E0,5.1411376E0,3.963398E0,7.732818E0,6.957006E0,9.815458E0,0E0,0E0,0E0,0E0,0E0,0E0,0E0,0E0,0E0,0E0,0E0,0E0,0E0,0E0,0E0,0E0],"parents":[2147483647,0,0,1,1,2,2,3,3,4,4,5,5,6,6,7,7,9,9,10,10,12,12,14,14,15,15,18,18,19,19,20,20,21,21,22,22,25,25,26,26,27,27,28,28,29,29,30,30,37,37,41,41,42,42,43,43,44,44,45,45,46,46],"right_children":[2,4,6,8,10,12,14,16,-1,18,20,-1,22,-1,24,26,-1,-1,28,30,32,34,36,-1,-1,38,40,42,44,46,48,-1,-1,-1,-1,-1,-1,50,-1,-1,-1,52,54,56,58,60,62,-1,-1,-1,-1,-1,-1,-1,-1,-1,-1,-1,-1,-1,-1,-1,-1],"split_conditions":[2.2E1,2.6827288E-1,4.082403E-1,4.1818106E-1,1E0,5.8343375E-1,6.743972E-1,2.917556E-1,-1.4126758E-2,1.770643E-1,8.8556015E-1,1.0674648E-2,3.8524842E-1,-1.51787205E-2,6.3122475E-1,4.1597718E-1,-1.3234814E-2,-1.1260343E-2,1.387E-1,7.915954E-1,1E0,2.4913415E-1,1E0,6.2482865E-3,-1.2351793E-2,1E0,1E0,7.5892E-1,7.8940755E-1,-2.83246E-4,1E0,1.8928254E-3,1.2771962E-2,1.9396148E-3,-1.243198E-2,-2.2768725E-3,1.0559198E-2,-4.1120593E-3,6.372827E-3,1.7539444E-3,1.4328059E-2,2.7619764E-1,1.05609834E-1,2.743182E-1,1E0,6.162099E-1,1E0,-1.8875416E-3,-1.3623225E-2,1.0128178E-4,-1.3168017E-2,1.1681553E-2,-7.075076E-3,7.800039E-3,-3.7334015E-4,-1.6403398E-3,1.04654E-2,-9.032982E-3,5.8288565E-3,-4.4654147E-3,5.7206093E-3,1.2861267E-3,-7.449215E-3],"split_indices":[196,42,148,155,50,178,148,35,0,39,184,0,152,0,44,162,0,0,224,162,219,38,136,0,0,106,207,192,174,200,77,0,0,0,0,0,0,200,0,0,0,47,224,49,209,170,215,0,0,0,0,0,0,0,0,0,0,0,0,0,0,0,0],"split_type":[0,0,0,0,0,0,0,0,0,0,0,0,0,0,0,0,0,0,0,0,0,0,0,0,0,0,0,0,0,0,0,0,0,0,0,0,0,0,0,0,0,0,0,0,0,0,0,0,0,0,0,0,0,0,0,0,0,0,0,0,0,0,0],"sum_hessian":[2.1705312E2,1.9866095E2,1.839217E1,2.2158484E1,1.7650246E2,6.981041E0,1.1411129E1,1.6695753E1,5.462731E0,8.785401E1,8.864845E1,1.2467821E0,5.734259E0,8.174926E0,3.2362032E0,1.4211172E1,2.4845808E0,1.493858E0,8.636015E1,8.540439E1,3.2440622E0,3.2391827E0,2.4950762E0,1.2481556E0,1.9880475E0,9.472386E0,4.7387857E0,4.6923134E1,3.943702E1,7.99178E1,5.486588E0,1.248399E0,1.9956632E0,1.2491822E0,1.9900004E0,1.248662E0,1.2464143E0,7.475917E0,1.9964689E0,1.7474082E0,2.9913776E0,1.5725785E1,3.119735E1,2.7210155E1,1.2226862E1,2.9965288E1,4.995251E1,1.2476873E0,4.2389007E0,3.4907317E0,3.9851854E0,1.4988942E0,1.4226891E1,1.8719997E1,1.2477353E1,2.7462182E0,2.4463938E1,5.2419744E0,6.9848876E0,8.742907E0,2.1222382E1,2.547729E1,2.4475222E1],"tree_param":{"num_deleted":"0","num_feature":"225","num_nodes":"63","size_leaf_vector":"0"}},{"base_weights":[-3.936655E-2,3.263031E-2,-7.791456E-1,-5.20513E-1,1.0457882E-1,1.223607E-1,-1.296464E0,5.117026E-1,-7.9625946E-1,3.9506122E-1,-6.536272E-2,1.06181465E-2,-2.0929049E-1,-1.5063759E-2,-5.359845E-1,1.3014501E-2,-4.3370207E-3,-4.3958592E-1,-1.4021235E-2,1.7494038E-1,6.809605E-1,9.000159E-1,-1.524126E-1,-7.690291E-1,5.293434E-1,6.2144557E-3,-1.2277758E-2,-8.779836E-1,9.029895E-1,6.1010325E-1,-2.578182E-1,1.0778364E0,2.1550786E-1,1.2144266E0,-6.5250513E-3,-2.4946474E-1,8.742157E-1,1.9288958E-3,-1.235682E-2,-2.2721193E-3,1.0511395E-2,6.337202E-3,-1.1515868E0,1.1587832E-2,2.1598071E-3,1.4743808E-1,1.2225468E0,-4.957771E-1,9.055478E-1,1.2909391E0,9.386048E-2,-4.7626987E-1,1.055083E0,1.5989442E-3,1.4735143E-2,-1.6235569E-1,-1.4778748E-2,-1.708174E-2,1.2067008E0,-4.132655E-3,-1.5299254E-2,4.664534E-3,-6.9842977E-3,1.4767566E-2,1.7710985E-3,2.7891928E-3,-8.820012E-3,1.8977982E-3,1.1867009E-2,-1.7163466E-4,1.4751088E-2,-7.994987E-3,1.0465877E-2,2.7707603E-3,-1.2942659E-2,-2.3501217E-3,1.3912991E-2,-5.0669406E-3,1.7282124E-4,6.3761435E-3,-6.6354107E-3,1.5168307E-2,3.1380658E-3],"categories":[],"categories_nodes":[],"categories_segments":[],"categories_sizes":[],"default_left":[0,0,0,0,0,0,0,0,0,0,0,0,0,0,0,0,0,0,0,0,0,0,0,0,0,0,0,0,0,0,0,0,0,0,0,0,0,0,0,0,0,0,0,0,0,0,0,0,0,0,0,0,0,0,0,0,0,0,0,0,0,0,0,0,0,0,0,0,0,0,0,0,0,0,0,0,0,0,0,0,0,0,0],"id":13,"left_children":[1,3,5,7,9,11,13,15,17,19,21,-1,23,-1,25,-1,-1,27,-1,29,31,33,35,37,39,-1,-1,41,43,45,47,49,51,53,-1,55,57,-1,-1,-1,-1,-1,59,-1,-1,61,63,65,67,69,71,73,75,-1,-1,77,-1,79,81,-1,-1,-1,-1,-1,-1,-1,-1,-1,-1,-1,-1,-1,-1,-1,-1,-1,-1,-1,-1,-1,-1,-1,-1],"loss_changes":[1.1636308E1,7.9989657E0,9.19421E0,6.9949083E0,8.787039E0,2.707904E0,1.1715126E0,4.661968E0,3.4151144E0,4.01231E0,9.618915E0,0E0,3.1902375E0,0E0,4.1530967E0,0E0,0E0,8.561839E0,0E0,7.3957744E0,4.9791956E0,5.418577E0,1.0615358E1,2.1403964E0,1.6182994E0,0E0,0E0,5.05505E0,4.0734005E-1,5.3345237E0,5.9786124E0,3.0194855E0,8.769623E0,2.0131683E0,0E0,1.0045139E1,2.7573066E0,0E0,0E0,0E0,0E0,0E0,1.9403486E0,0E0,0E0,3.6243663E0,1.9278736E0,5.4010353E0,5.285733E-1,2.9724083E0,4.02399E0,5.592222E0,3.250946E0,0E0,0E0,5.630005E0,0E0,1.9023021E0,1.3903627E0,0E0,0E0,0E0,0E0,0E0,0E0,0E0,0E0,0E0,0E0,0E0,0E0,0E0,0E0,0E0,0E0,0E0,0E0,0E0,0E0,0E0,0E0,0E0,0E0],"parents":[2147483647,0,0,1,1,2,2,3,3,4,4,5,5,6,6,7,7,8,8,9,9,10,10,12,12,14,14,17,17,19,19,20,20,21,21,22,22,23,23,24,24,27,27,28,28,29,29,30,30,31,31,32,32,33,33,35,35,36,36,42,42,45,45,46,46,47,47,48,48,49,49,50,50,51,51,52,52,55,55,57,57,58,58],"right_children":[2,4,6,8,10,12,14,16,18,20,22,-1,24,-1,26,-1,-1,28,-1,30,32,34,36,38,40,-1,-1,42,44,46,48,50,52,54,-1,56,58,-1,-1,-1,-1,-1,60,-1,-1,62,64,66,68,70,72,74,76,-1,-1,78,-1,80,82,-1,-1,-1,-1,-1,-1,-1,-1,-1,-1,-1,-1,-1,-1,-1,-1,-1,-1,-1,-1,-1,-1,-1,-1],"split_conditions":[2.2E1,2.6827288E-1,4.082403E-1,1.5790464E-1,-1.3388675E-3,5.8343375E-1,6.743972E-1,-4.1120593E-3,4.1818106E-1,-4.791066E-3,3.0220473E-1,1.06181465E-2,3.8524842E-1,-1.5063759E-2,6.3122475E-1,1.3014501E-2,-4.3370207E-3,3.4028584E-1,-1.4021235E-2,1E0,1.1E1,6E0,8.536392E-1,2.4913415E-1,1E0,6.2144557E-3,-1.2277758E-2,9.818228E-2,3.8524842E-1,1E0,2.1136881E-1,1.9336948E-1,1.496425E-1,1E0,-6.5250513E-3,8.2582057E-1,5.045504E-1,1.9288958E-3,-1.235682E-2,-2.2721193E-3,1.0511395E-2,6.337202E-3,2.085089E-1,1.1587832E-2,2.1598071E-3,5.260055E-1,6.0235935E-1,4.4951868E-1,1E0,4.1917723E-2,1E0,1E0,2.962705E-1,1.5989442E-3,1.4735143E-2,4.2004603E-1,-1.4778748E-2,1E0,5.746863E-1,-4.132655E-3,-1.5299254E-2,4.664534E-3,-6.9842977E-3,1.4767566E-2,1.7710985E-3,2.7891928E-3,-8.820012E-3,1.8977982E-3,1.1867009E-2,-1.7163466E-4,1.4751088E-2,-7.994987E-3,1.0465877E-2,2.7707603E-3,-1.2942659E-2,-2.3501217E-3,1.3912991E-2,-5.0669406E-3,1.7282124E-4,6.3761435E-3,-6.6354107E-3,1.5168307E-2,3.1380658E-3],"split_indices":[196,42,148,147,200,178,148,200,155,200,41,0,152,0,44,0,0,151,0,208,194,195,174,38,211,0,0,34,152,73,224,224,224,198,0,172,41,0,0,0,0,0,40,0,0,39,39,158,67,224,214,207,45,0,0,36,0,54,39,0,0,0,0,0,0,0,0,0,0,0,0,0,0,0,0,0,0,0,0,0,0,0,0],"split_type":[0,0,0,0,0,0,0,0,0,0,0,0,0,0,0,0,0,0,0,0,0,0,0,0,0,0,0,0,0,0,0,0,0,0,0,0,0,0,0,0,0,0,0,0,0,0,0,0,0,0,0,0,0,0,0,0,0,0,0,0,0,0,0,0,0,0,0,0,0,0,0,0,0,0,0,0,0,0,0,0,0,0,0],"sum_hessian":[2.1699661E2,1.9862216E2,1.8374437E1,2.2143953E1,1.7647821E2,6.977882E0,1.1396555E1,4.4880204E0,1.7655933E1,6.464881E1,1.1182941E2,1.2462065E0,5.731675E0,8.162634E0,3.233921E0,2.2401206E0,2.2478998E0,1.2199571E1,5.456363E0,3.7437027E1,2.7211784E1,8.477317E0,1.0335209E2,3.237295E0,2.4943805E0,1.2478462E0,1.9860747E0,9.457434E0,2.7421367E0,1.8462326E1,1.8974699E1,1.3977751E1,1.3234035E1,7.2307444E0,1.2465725E0,9.51172E1,8.234883E0,1.2491194E0,1.9881755E0,1.2485939E0,1.2457865E0,1.2476654E0,8.209768E0,1.4977664E0,1.2443705E0,1.1223995E1,7.2383323E0,1.6229006E1,2.7456944E0,1.1233019E1,2.744732E0,7.4928985E0,5.7411356E0,1.7450851E0,5.485659E0,8.9876076E1,5.2411265E0,2.495034E0,5.739849E0,3.4904785E0,4.71929E0,8.475898E0,2.7480967E0,5.490646E0,1.7476861E0,5.491623E0,1.0737382E1,1.2467319E0,1.4989626E0,1.4982446E0,9.734775E0,1.4995015E0,1.2452306E0,4.244831E0,3.2480674E0,1.249125E0,4.4920106E0,3.0188557E1,5.968752E1,1.2464176E0,1.2486165E0,3.741522E0,1.998327E0],"tree_param":{"num_deleted":"0","num_feature":"225","num_nodes":"83","size_leaf_vector":"0"}},{"base_weights":[-3.8840566E-2,3.2530498E-2,-7.7277166E-1,-5.1587474E-1,1.0382105E-1,1.2224562E-1,-1.2868253E0,5.083665E-1,-7.89613E-1,3.25026E-1,-1.1657199E-1,1.0562272E-2,-2.0760964E-1,-1.4951039E-2,-5.323663E-1,1.29322475E-2,-4.3072826E-3,-4.3538147E-1,-1.3917569E-2,-1.1198683E-2,3.6254442E-1,1.2300183E-1,-3.713482E-1,-7.641684E-1,5.2652246E-1,6.180875E-3,-1.2204755E-2,-8.710041E-1,8.9779717E-1,4.4535893E-1,-2.702352E-1,6.3467497E-1,-1.488304E-1,-9.8320025E-1,-2.6693784E-2,1.9182388E-3,-1.2282714E-2,-2.2659206E-3,1.0462712E-2,6.3027334E-3,-1.1429648E0,1.1521408E-2,2.1478496E-3,8.001391E-1,2.3277906E-1,-7.8083175E-1,8.8964456E-1,-6.1726505E-3,8.4998006E-1,-1.1368465E0,9.183784E-2,-1.2064221E0,5.095059E-3,-4.5009127E-1,4.9285787E-1,-4.1008163E-3,-1.5188938E-2,4.97835E-3,1.5226266E-2,4.0499545E-3,-6.2571964E-3,8.424204E-3,-1.36974435E-2,1.8034941E-3,1.171712E-2,-5.089155E-3,1.0765711E-2,-2.1936288E-3,-1.322583E-2,3.1846447E-3,-1.0747483E-2,2.2523038E-3,-1.3647115E-2,-9.730072E-3,1.9030984E-3,7.403753E-3,-1.0735446E-2],"categories":[],"categories_nodes":[],"categories_segments":[],"categories_sizes":[],"default_left":[0,0,0,0,0,0,0,0,0,0,0,0,0,0,0,0,0,0,0,0,0,0,0,0,0,0,0,0,0,0,0,0,0,0,0,0,0,0,0,0,0,0,0,0,0,0,0,0,0,0,0,0,0,0,0,0,0,0,0,0,0,0,0,0,0,0,0,0,0,0,0,0,0,0,0,0,0],"id":14,"left_children":[1,3,5,7,9,11,13,15,17,19,21,-1,23,-1,25,-1,-1,27,-1,-1,29,31,33,35,37,-1,-1,39,41,43,45,47,49,51,53,-1,-1,-1,-1,-1,55,-1,-1,57,59,61,63,-1,65,67,69,71,-1,73,75,-1,-1,-1,-1,-1,-1,-1,-1,-1,-1,-1,-1,-1,-1,-1,-1,-1,-1,-1,-1,-1,-1],"loss_changes":[1.14410515E1,7.856466E0,9.06251E0,6.885838E0,8.689175E0,2.6760437E0,1.1495838E0,4.6004357E0,3.3703375E0,5.2213974E0,5.516279E0,0E0,3.1516948E0,0E0,4.104162E0,0E0,0E0,8.443619E0,0E0,0E0,4.6970263E0,6.623669E0,9.18573E0,2.1147103E0,1.6045886E0,0E0,0E0,4.987364E0,4.0250278E-1,5.6667233E0,7.049038E0,4.965859E0,7.586569E0,5.8501844E0,6.594873E0,0E0,0E0,0E0,0E0,0E0,1.9128027E0,0E0,0E0,5.5032387E0,7.6367264E0,8.78484E0,5.3834534E-1,0E0,5.0062666E0,7.729244E-1,7.2764206E0,3.4721699E0,0E0,5.705776E0,6.02347E0,0E0,0E0,0E0,0E0,0E0,0E0,0E0,0E0,0E0,0E0,0E0,0E0,0E0,0E0,0E0,0E0,0E0,0E0,0E0,0E0,0E0,0E0],"parents":[2147483647,0,0,1,1,2,2,3,3,4,4,5,5,6,6,7,7,8,8,9,9,10,10,12,12,14,14,17,17,20,20,21,21,22,22,23,23,24,24,27,27,28,28,29,29,30,30,31,31,32,32,33,33,34,34,40,40,43,43,44,44,45,45,46,46,48,48,49,49,50,50,51,51,53,53,54,54],"right_children":[2,4,6,8,10,12,14,16,18,20,22,-1,24,-1,26,-1,-1,28,-1,-1,30,32,34,36,38,-1,-1,40,42,44,46,48,50,52,54,-1,-1,-1,-1,-1,56,-1,-1,58,60,62,64,-1,66,68,70,72,-1,74,76,-1,-1,-1,-1,-1,-1,-1,-1,-1,-1,-1,-1,-1,-1,-1,-1,-1,-1,-1,-1,-1,-1],"split_conditions":[2.2E1,2.6827288E-1,4.082403E-1,1.5790464E-1,1E0,5.8343375E-1,6.743972E-1,-4.1120593E-3,4.1818106E-1,1.770643E-1,1E0,1.0562272E-2,3.8524842E-1,-1.4951039E-2,6.3122475E-1,1.29322475E-2,-4.3072826E-3,3.4028584E-1,-1.3917569E-2,-1.1198683E-2,6.5031266E-3,4.4053277E-1,5.252037E-1,2.4913415E-1,1E0,6.180875E-3,-1.2204755E-2,9.818228E-2,3.8524842E-1,4.1927305E-1,4.7002536E-1,1E0,6.403406E-1,8.35329E-1,8.188913E-1,1.9182388E-3,-1.2282714E-2,-2.2659206E-3,1.0462712E-2,6.3027334E-3,2.085089E-1,1.1521408E-2,2.1478496E-3,3.824414E-1,8.4251386E-1,3.0220473E-1,5.0578713E-1,-6.1726505E-3,3.0004755E-1,-1.5219048E-3,2.0274E-1,5.8138627E-1,5.095059E-3,1E0,7.02008E-1,-4.1008163E-3,-1.5188938E-2,4.97835E-3,1.5226266E-2,4.0499545E-3,-6.2571964E-3,8.424204E-3,-1.36974435E-2,1.8034941E-3,1.171712E-2,-5.089155E-3,1.0765711E-2,-2.1936288E-3,-1.322583E-2,3.1846447E-3,-1.0747483E-2,2.2523038E-3,-1.3647115E-2,-9.730072E-3,1.9030984E-3,7.403753E-3,-1.0735446E-2],"split_indices":[196,42,148,147,50,178,148,200,155,39,208,0,152,0,44,0,0,151,0,0,200,47,41,38,136,0,0,34,152,49,38,76,180,174,192,0,0,0,0,0,40,0,0,45,180,41,40,0,48,200,224,176,0,214,47,0,0,0,0,0,0,0,0,0,0,0,0,0,0,0,0,0,0,0,0,0,0],"split_type":[0,0,0,0,0,0,0,0,0,0,0,0,0,0,0,0,0,0,0,0,0,0,0,0,0,0,0,0,0,0,0,0,0,0,0,0,0,0,0,0,0,0,0,0,0,0,0,0,0,0,0,0,0,0,0,0,0,0,0,0,0,0,0,0,0,0,0,0,0,0,0,0,0,0,0,0,0],"sum_hessian":[2.1693814E2,1.9858266E2,1.8355476E1,2.2127766E1,1.764549E2,6.974458E0,1.1381018E1,4.4858856E0,1.764188E1,8.782829E1,8.86266E1,1.2455642E0,5.728894E0,8.149536E0,3.2314813E0,2.2381945E0,2.2476914E0,1.2192362E1,5.449518E0,1.4927211E0,8.633557E1,4.5942593E1,4.2684006E1,3.2352664E0,2.4936275E0,1.2475146E0,1.9839668E0,9.450904E0,2.741458E0,7.660601E1,9.729562E0,1.5476391E1,3.0466204E1,1.4712587E1,2.7971418E1,1.2490544E0,1.986212E0,1.2485367E0,1.2450908E0,1.2474141E0,8.20349E0,1.4971056E0,1.2443523E0,2.7667326E1,4.8938683E1,6.982541E0,2.7470205E0,1.9970663E0,1.3479324E1,5.238179E0,2.5228024E1,1.2965494E1,1.7470934E0,1.5485518E1,1.2485899E1,3.4901676E0,4.713322E0,2.069652E1,6.9708076E0,4.1201782E1,7.7369003E0,1.7442639E0,5.2382774E0,1.2480421E0,1.4989785E0,1.7483406E0,1.1730984E1,1.2490892E0,3.98909E0,2.1733067E1,3.4949582E0,1.2486998E0,1.1716794E1,8.238801E0,7.246718E0,1.1237525E1,1.2483742E0],"tree_param":{"num_deleted":"0","num_feature":"225","num_nodes":"77","size_leaf_vector":"0"}},{"base_weights":[-3.8664542E-2,3.2061234E-2,-7.664985E-1,-5.1130533E-1,1.0266017E-1,1.2213171E-1,-1.2773602E0,5.0507176E-1,-7.8306854E-1,3.8961953E-1,-6.518809E-2,1.0507014E-2,-2.0594801E-1,-1.4840499E-2,-5.2879333E-1,1.2851234E-2,-4.277773E-3,3.088519E-3,-9.3248606E-1,1.7164494E-1,6.7283493E-1,8.8884956E-1,-1.5116566E-1,-7.5936514E-1,5.237262E-1,6.1475383E-3,-1.2132762E-2,-2.725397E-1,-1.3524008E0,6.0124844E-1,-2.5545526E-1,1.0660242E0,2.11925E-1,1.200774E0,-6.4920452E-3,-2.4715635E-1,8.646896E-1,1.9076421E-3,-1.2209643E-2,-2.261175E-3,1.041588E-2,-1.1497504E-2,5.223152E-1,-1.4875071E-2,-3.5323738E-3,1.4122117E-1,1.2109303E0,-4.9152586E-1,8.987453E-1,1.2027532E0,-2.4288967E-3,-4.7219354E-1,1.042768E0,1.5868872E-3,1.4567981E-2,-1.6084012E-1,-1.4648064E-2,-1.8382354E-2,1.194376E0,-7.410963E-3,1.3319714E-2,4.572225E-3,-6.9495523E-3,1.5661681E-2,3.6668533E-3,2.7424102E-3,-8.7318905E-3,1.8529906E-3,1.1803223E-2,-1.8397399E-4,1.3539121E-2,2.7633929E-3,-1.2851462E-2,-2.353683E-3,1.3765501E-2,-5.0069736E-3,1.6470114E-4,6.305222E-3,-6.582929E-3,1.5015696E-2,3.104833E-3],"categories":[],"categories_nodes":[],"categories_segments":[],"categories_sizes":[],"default_left":[0,0,0,0,0,0,0,0,0,0,0,0,0,0,0,0,0,0,0,0,0,0,0,0,0,0,0,0,0,0,0,0,0,0,0,0,0,0,0,0,0,0,0,0,0,0,0,0,0,0,0,0,0,0,0,0,0,0,0,0,0,0,0,0,0,0,0,0,0,0,0,0,0,0,0,0,0,0,0,0,0],"id":15,"left_children":[1,3,5,7,9,11,13,15,17,19,21,-1,23,-1,25,-1,-1,-1,27,29,31,33,35,37,39,-1,-1,41,43,45,47,49,51,53,-1,55,57,-1,-1,-1,-1,-1,59,-1,-1,61,63,65,67,69,-1,71,73,-1,-1,75,-1,77,79,-1,-1,-1,-1,-1,-1,-1,-1,-1,-1,-1,-1,-1,-1,-1,-1,-1,-1,-1,-1,-1,-1],"loss_changes":[1.1239291E1,7.7064915E0,8.933603E0,6.7788877E0,8.570693E0,2.644645E0,1.1282997E0,4.5399704E0,3.3269873E0,3.9354095E0,9.386544E0,0E0,3.1137204E0,0E0,4.0559797E0,0E0,0E0,0E0,4.240901E0,7.2035418E0,4.883914E0,5.3229084E0,1.0386798E1,2.0894647E0,1.5918361E0,0E0,0E0,5.983672E0,8.1274414E-1,5.285098E0,5.8828564E0,2.9708614E0,8.579713E0,1.9630585E0,0E0,9.864436E0,2.7089195E0,0E0,0E0,0E0,0E0,0E0,5.833748E0,0E0,0E0,3.5465477E0,1.8951216E0,5.273716E0,5.334952E-1,2.5574703E0,0E0,5.522399E0,3.1980658E0,0E0,0E0,5.4834146E0,0E0,1.8658321E0,1.3626318E0,0E0,0E0,0E0,0E0,0E0,0E0,0E0,0E0,0E0,0E0,0E0,0E0,0E0,0E0,0E0,0E0,0E0,0E0,0E0,0E0,0E0,0E0],"parents":[2147483647,0,0,1,1,2,2,3,3,4,4,5,5,6,6,7,7,8,8,9,9,10,10,12,12,14,14,18,18,19,19,20,20,21,21,22,22,23,23,24,24,27,27,28,28,29,29,30,30,31,31,32,32,33,33,35,35,36,36,42,42,45,45,46,46,47,47,48,48,49,49,51,51,52,52,55,55,57,57,58,58],"right_children":[2,4,6,8,10,12,14,16,18,20,22,-1,24,-1,26,-1,-1,-1,28,30,32,34,36,38,40,-1,-1,42,44,46,48,50,52,54,-1,56,58,-1,-1,-1,-1,-1,60,-1,-1,62,64,66,68,70,-1,72,74,-1,-1,76,-1,78,80,-1,-1,-1,-1,-1,-1,-1,-1,-1,-1,-1,-1,-1,-1,-1,-1,-1,-1,-1,-1,-1,-1],"split_conditions":[2.2E1,2.6827288E-1,4.082403E-1,1.5790464E-1,-1.3388675E-3,5.8343375E-1,6.743972E-1,-4.1120593E-3,1.01419136E-1,-4.791066E-3,3.0220473E-1,1.0507014E-2,3.8524842E-1,-1.4840499E-2,6.3122475E-1,1.2851234E-2,-4.277773E-3,3.088519E-3,2.5525197E-1,1E0,1.1E1,6E0,8.536392E-1,2.4913415E-1,1E0,6.1475383E-3,-1.2132762E-2,3.3145618E-1,3.2446262E-1,1E0,2.1136881E-1,8.4629035E-1,1.496425E-1,1E0,-6.4920452E-3,8.2582057E-1,5.045504E-1,1.9076421E-3,-1.2209643E-2,-2.261175E-3,1.041588E-2,-1.1497504E-2,1.9214442E-1,-1.4875071E-2,-3.5323738E-3,5.260055E-1,1E0,4.4951868E-1,1E0,4.1917723E-2,-2.4288967E-3,1E0,2.962705E-1,1.5868872E-3,1.4567981E-2,4.2004603E-1,-1.4648064E-2,1E0,5.746863E-1,-7.410963E-3,1.3319714E-2,4.572225E-3,-6.9495523E-3,1.5661681E-2,3.6668533E-3,2.7424102E-3,-8.7318905E-3,1.8529906E-3,1.1803223E-2,-1.8397399E-4,1.3539121E-2,2.7633929E-3,-1.2851462E-2,-2.353683E-3,1.3765501E-2,-5.0069736E-3,1.6470114E-4,6.305222E-3,-6.582929E-3,1.5015696E-2,3.104833E-3],"split_indices":[196,42,148,147,200,178,148,200,36,200,41,0,152,0,44,0,0,0,46,208,194,195,174,38,211,0,0,156,38,73,224,172,224,198,0,172,41,0,0,0,0,0,43,0,0,39,118,158,67,224,0,207,45,0,0,36,0,54,39,0,0,0,0,0,0,0,0,0,0,0,0,0,0,0,0,0,0,0,0,0,0],"split_type":[0,0,0,0,0,0,0,0,0,0,0,0,0,0,0,0,0,0,0,0,0,0,0,0,0,0,0,0,0,0,0,0,0,0,0,0,0,0,0,0,0,0,0,0,0,0,0,0,0,0,0,0,0,0,0,0,0,0,0,0,0,0,0,0,0,0,0,0,0,0,0,0,0,0,0,0,0,0,0,0,0],"sum_hessian":[2.1686037E2,1.9852505E2,1.8335316E1,2.2110283E1,1.7641476E2,6.970773E0,1.1364542E1,4.483559E0,1.7626724E1,6.4618835E1,1.1179593E2,1.2448562E0,5.725917E0,8.135654E0,3.2288876E0,2.2360957E0,2.2474637E0,1.9932578E0,1.5633466E1,3.7422752E1,2.7196085E1,8.470137E0,1.0332579E2,3.2331004E0,2.4928164E0,1.2471609E0,1.9817268E0,6.720473E0,8.912993E0,1.8453424E1,1.8969328E1,1.3967734E1,1.3228351E1,7.2243047E0,1.2458317E0,9.509658E1,8.229212E0,1.2489876E0,1.984113E0,1.2484593E0,1.2443571E0,2.9824817E0,3.7379913E0,7.4208035E0,1.4921896E0,1.1219519E1,7.233906E0,1.6224953E1,2.744376E0,1.2720099E1,1.2476345E0,7.4914985E0,5.736852E0,1.744313E0,5.479992E0,8.98588E1,5.237779E0,2.493789E0,5.7354226E0,1.4929795E0,2.2450118E0,8.471306E0,2.748212E0,4.4896564E0,2.7442493E0,5.4904346E0,1.0734518E1,1.2458293E0,1.4985466E0,1.4978526E0,1.1222247E1,4.2439375E0,3.2475607E0,1.2489916E0,4.4878607E0,3.0182676E1,5.9676125E1,1.2454774E0,1.2483115E0,3.7376146E0,1.997808E0],"tree_param":{"num_deleted":"0","num_feature":"225","num_nodes":"81","size_leaf_vector":"0"}},{"base_weights":[-3.819801E-2,3.1911496E-2,-7.6032317E-1,-5.07134E-1,1.0190359E-1,1.22018926E-1,-1.2680635E0,1.6690367E-1,-9.2700756E-1,3.2085842E-1,-1.1624693E-1,1.0452362E-2,-2.0430525E-1,-1.4732064E-2,-5.252646E-1,9.126296E-1,-2.5706613E-1,2.9781957E-3,-1.1473258E0,4.7866333E-1,-4.48829E-2,1.2055962E-1,-3.6808673E-1,-7.546183E-1,5.209542E-1,6.1144466E-3,-1.2061755E-2,2.2091626E-3,1.1681515E-2,4.9202847E-1,-9.423235E-1,-1.3666627E0,-1.0239223E-3,8.663439E-1,1.5224223E-1,7.910027E-1,-3.7784895E-1,6.277989E-1,-1.4882629E-1,-1.1285605E0,-9.446266E-2,1.8971075E-3,-1.2137582E-2,-2.2549862E-3,1.0368165E-2,1.1571912E-2,-3.7164146E-3,-1.2062686E-2,-1.9877297E-3,-1.5194514E-2,-1.4718063E-3,9.5609397E-1,-4.3895687E-3,-3.3578438E-1,6.4557177E-1,-4.1798414E-3,1.2455637E0,5.408927E-1,-7.296665E-1,-6.138561E-3,8.41516E-1,-3.915545E-1,7.9834443E-1,-1.4650793E-3,-1.2900251E0,-2.2360922E-1,1.0688398E-2,1.2078466E-2,4.8558707E-3,-9.928852E-3,3.738755E-3,1.0982436E-2,-2.548536E-3,1.47881005E-2,1.729918E-3,-8.941529E-3,1.2967672E-2,3.6524015E-3,-1.2223112E-2,-5.032919E-3,1.0657954E-2,5.0955773E-3,-8.264828E-3,-3.8518007E-3,1.2098695E-2,-1.5155602E-2,-1.6689948E-3,-7.525017E-3,2.195449E-3],"categories":[],"categories_nodes":[],"categories_segments":[],"categories_sizes":[],"default_left":[0,0,0,0,0,0,0,0,0,0,0,0,0,0,0,0,0,0,0,0,0,0,0,0,0,0,0,0,0,0,0,0,0,0,0,0,0,0,0,0,0,0,0,0,0,0,0,0,0,0,0,0,0,0,0,0,0,0,0,0,0,0,0,0,0,0,0,0,0,0,0,0,0,0,0,0,0,0,0,0,0,0,0,0,0,0,0,0,0],"id":16,"left_children":[1,3,5,7,9,11,13,15,17,19,21,-1,23,-1,25,27,29,-1,31,33,35,37,39,41,43,-1,-1,-1,-1,45,47,49,-1,51,53,55,57,59,61,63,65,-1,-1,-1,-1,-1,-1,-1,-1,-1,-1,67,-1,69,71,-1,73,75,77,-1,79,81,83,-1,85,87,-1,-1,-1,-1,-1,-1,-1,-1,-1,-1,-1,-1,-1,-1,-1,-1,-1,-1,-1,-1,-1,-1,-1],"loss_changes":[1.10506115E1,7.5777764E0,8.80741E0,6.6899557E0,8.510178E0,2.6137004E0,1.1076355E0,3.3047972E0,4.2224684E0,5.146411E0,5.38731E0,0E0,3.076304E0,0E0,4.0085354E0,4.0289116E-1,4.0421147E0,0E0,2.7008476E0,7.728859E0,8.002467E0,6.505632E0,8.97913E0,2.06465E0,1.5784351E0,0E0,0E0,0E0,0E0,2.7207632E0,5.4206395E-1,1.670044E0,0E0,3.721117E0,8.62793E0,5.0313993E0,7.0114174E0,4.8868155E0,7.5448756E0,1.6285181E0,5.227101E0,0E0,0E0,0E0,0E0,0E0,0E0,0E0,0E0,0E0,0E0,2.5740852E0,0E0,8.867676E0,7.500823E0,0E0,1.299367E0,7.9309807E0,8.660479E0,0E0,4.9014397E0,1.0497986E1,3.7517242E0,0E0,2.2080555E0,7.3632774E0,0E0,0E0,0E0,0E0,0E0,0E0,0E0,0E0,0E0,0E0,0E0,0E0,0E0,0E0,0E0,0E0,0E0,0E0,0E0,0E0,0E0,0E0,0E0],"parents":[2147483647,0,0,1,1,2,2,3,3,4,4,5,5,6,6,7,7,8,8,9,9,10,10,12,12,14,14,15,15,16,16,18,18,19,19,20,20,21,21,22,22,23,23,24,24,29,29,30,30,31,31,33,33,34,34,35,35,36,36,37,37,38,38,39,39,40,40,51,51,53,53,54,54,56,56,57,57,58,58,60,60,61,61,62,62,64,64,65,65],"right_children":[2,4,6,8,10,12,14,16,18,20,22,-1,24,-1,26,28,30,-1,32,34,36,38,40,42,44,-1,-1,-1,-1,46,48,50,-1,52,54,56,58,60,62,64,66,-1,-1,-1,-1,-1,-1,-1,-1,-1,-1,68,-1,70,72,-1,74,76,78,-1,80,82,84,-1,86,88,-1,-1,-1,-1,-1,-1,-1,-1,-1,-1,-1,-1,-1,-1,-1,-1,-1,-1,-1,-1,-1,-1,-1],"split_conditions":[2.2E1,2.6827288E-1,4.082403E-1,2.0926592E-1,1E0,5.8343375E-1,6.743972E-1,1.1458636E-1,-1.3276939E-2,7.357286E-1,1E0,1.0452362E-2,3.8524842E-1,-1.4732064E-2,6.3122475E-1,6.989496E-1,1E0,2.9781957E-3,2.0314445E-1,1.1E1,4.1927305E-1,4.4053277E-1,4.7965539E-1,2.4913415E-1,1E0,6.1144466E-3,-1.2061755E-2,2.2091626E-3,1.1681515E-2,1.5945873E-1,4.377851E-1,8.4347665E-1,-1.0239223E-3,8.509483E-1,1.387E-1,8.097046E-1,1E0,1E0,2.2296488E0,3.777118E-1,8.62286E-1,1.8971075E-3,-1.2137582E-2,-2.2549862E-3,1.0368165E-2,1.1571912E-2,-3.7164146E-3,-1.2062686E-2,-1.9877297E-3,-1.5194514E-2,-1.4718063E-3,1.7333173E-3,-4.3895687E-3,1E0,2.053E-1,-4.1798414E-3,1E0,3.6426103E-1,2.6223665E-1,-6.138561E-3,3.0004755E-1,-1.5219048E-3,1E0,-1.4650793E-3,4.9061403E-1,1E0,1.0688398E-2,1.2078466E-2,4.8558707E-3,-9.928852E-3,3.738755E-3,1.0982436E-2,-2.548536E-3,1.47881005E-2,1.729918E-3,-8.941529E-3,1.2967672E-2,3.6524015E-3,-1.2223112E-2,-5.032919E-3,1.0657954E-2,5.0955773E-3,-8.264828E-3,-3.8518007E-3,1.2098695E-2,-1.5155602E-2,-1.6689948E-3,-7.525017E-3,2.195449E-3],"split_indices":[196,42,148,44,50,178,148,224,200,166,208,0,152,0,44,190,220,0,224,194,49,47,39,38,136,0,0,0,0,37,164,188,0,182,224,174,130,76,223,40,182,0,0,0,0,0,0,0,0,0,0,200,0,222,224,0,51,34,34,0,48,200,73,0,40,205,0,0,0,0,0,0,0,0,0,0,0,0,0,0,0,0,0,0,0,0,0,0,0],"split_type":[0,0,0,0,0,0,0,0,0,0,0,0,0,0,0,0,0,0,0,0,0,0,0,0,0,0,0,0,0,0,0,0,0,0,0,0,0,0,0,0,0,0,0,0,0,0,0,0,0,0,0,0,0,0,0,0,0,0,0,0,0,0,0,0,0,0,0,0,0,0,0,0,0,0,0,0,0,0,0,0,0,0,0,0,0,0,0,0,0],"sum_hessian":[2.1679219E2,1.984782E2,1.8313993E1,2.209184E1,1.7638635E2,6.966835E0,1.1347158E1,8.710714E0,1.3381126E1,8.779593E1,8.859043E1,1.2440841E0,5.7227507E0,8.121016E0,3.2261434E0,2.7395332E0,5.971182E0,1.986378E0,1.1394748E1,6.1117188E1,2.6678736E1,4.5926624E1,4.2663807E1,3.2308006E0,2.4919503E0,1.2467856E0,1.9793577E0,1.2419817E0,1.4975514E0,2.9874294E0,2.9837523E0,9.163407E0,2.2313406E0,2.7181028E1,3.393616E1,7.207995E0,1.9470741E1,1.5468944E1,3.0457678E1,1.0462171E1,3.2201637E1,1.2489188E0,1.9818817E0,1.2483941E0,1.243556E0,1.4956714E0,1.4917579E0,1.7427891E0,1.2409631E0,7.92456E0,1.2388475E0,2.5682665E1,1.498363E0,1.7220308E1,1.6715853E1,1.9915572E0,5.216438E0,5.2426305E0,1.422811E1,1.9966296E0,1.3472315E1,2.4711542E1,5.746137E0,1.7465787E0,8.715592E0,2.9710987E1,2.4906495E0,1.570977E1,9.972896E0,8.734035E0,8.486274E0,1.0977451E1,5.738401E0,3.973575E0,1.2428628E0,1.7456102E0,3.4970205E0,4.495482E0,9.732629E0,1.7478634E0,1.1724451E1,7.988619E0,1.6722923E1,1.4990283E0,4.247109E0,6.967112E0,1.7484804E0,1.3226937E1,1.648405E1],"tree_param":{"num_deleted":"0","num_feature":"225","num_nodes":"89","size_leaf_vector":"0"}},{"base_weights":[-3.7855092E-2,3.1638324E-2,-7.5424325E-1,-5.0268096E-1,1.0099252E-1,1.2190719E-1,-1.2589304E0,-1.5933062E-1,-1.3669552E-2,3.1799E-1,-1.15209855E-1,1.0398305E-2,-2.026811E-1,-1.4625673E-2,-5.217794E-1,1.0841385E-1,-1.2845993E-2,-1.1129121E-2,3.551902E-1,1.194827E-1,-3.6480644E-1,-7.4992675E-1,5.1820636E-1,6.0815946E-3,-1.1991715E-2,-4.2553297E-1,1.063032E0,1.3917576E-1,6.024925E-1,6.2172264E-1,-1.4720522E-1,-9.664607E-1,-2.6182417E-2,1.8866321E-3,-1.206651E-2,-2.2502472E-3,1.03222765E-2,-7.4953616E-1,6.3138213E-3,1.7467412E-3,1.4084135E-2,-4.6593803E-1,4.493694E-1,8.987316E-1,-7.4784696E-2,-6.0987044E-3,8.3381516E-1,-6.384594E-1,3.2310617E-1,-1.1863831E0,5.025887E-3,-4.4295767E-1,4.8530397E-1,-8.6875056E-4,-1.394183E-2,1.1546702E-2,-7.0123468E-3,7.6161157E-3,-4.0600743E-4,4.295915E-3,1.2311889E-2,-8.858523E-3,5.6914464E-3,-5.001464E-3,1.0564184E-2,3.016737E-3,-1.1037583E-2,-3.895311E-4,1.3167992E-2,2.2636475E-3,-1.3430724E-2,-9.612682E-3,1.911502E-3,7.3048705E-3,-1.0649608E-2],"categories":[],"categories_nodes":[],"categories_segments":[],"categories_sizes":[],"default_left":[0,0,0,0,0,0,0,0,0,0,0,0,0,0,0,0,0,0,0,0,0,0,0,0,0,0,0,0,0,0,0,0,0,0,0,0,0,0,0,0,0,0,0,0,0,0,0,0,0,0,0,0,0,0,0,0,0,0,0,0,0,0,0,0,0,0,0,0,0,0,0,0,0,0,0],"id":17,"left_children":[1,3,5,7,9,11,13,15,-1,17,19,-1,21,-1,23,25,-1,-1,27,29,31,33,35,-1,-1,37,39,41,43,45,47,49,51,-1,-1,-1,-1,53,-1,-1,-1,55,57,59,61,-1,63,65,67,69,-1,71,73,-1,-1,-1,-1,-1,-1,-1,-1,-1,-1,-1,-1,-1,-1,-1,-1,-1,-1,-1,-1,-1,-1],"loss_changes":[1.086226E1,7.4405746E0,8.68384E0,6.630445E0,8.3565235E0,2.5832016E0,1.0875664E0,5.4563727E0,0E0,5.1206274E0,5.2902203E0,0E0,3.0394359E0,0E0,3.9618142E0,8.188932E0,0E0,0E0,4.5787735E0,6.3753023E0,8.868011E0,2.040255E0,1.5659771E0,0E0,0E0,4.051079E0,1.512167E0,9.198061E0,8.171508E0,4.8087983E0,7.472948E0,5.6661234E0,6.3883076E0,0E0,0E0,0E0,0E0,3.4901853E0,0E0,0E0,0E0,7.185412E0,4.952279E0,3.8660374E0,7.405825E0,0E0,4.8241673E0,7.2092814E0,6.071168E0,3.3912964E0,0E0,5.6000385E0,5.9014254E0,0E0,0E0,0E0,0E0,0E0,0E0,0E0,0E0,0E0,0E0,0E0,0E0,0E0,0E0,0E0,0E0,0E0,0E0,0E0,0E0,0E0,0E0],"parents":[2147483647,0,0,1,1,2,2,3,3,4,4,5,5,6,6,7,7,9,9,10,10,12,12,14,14,15,15,18,18,19,19,20,20,21,21,22,22,25,25,26,26,27,27,28,28,29,29,30,30,31,31,32,32,37,37,41,41,42,42,43,43,44,44,46,46,47,47,48,48,49,49,51,51,52,52],"right_children":[2,4,6,8,10,12,14,16,-1,18,20,-1,22,-1,24,26,-1,-1,28,30,32,34,36,-1,-1,38,40,42,44,46,48,50,52,-1,-1,-1,-1,54,-1,-1,-1,56,58,60,62,-1,64,66,68,70,-1,72,74,-1,-1,-1,-1,-1,-1,-1,-1,-1,-1,-1,-1,-1,-1,-1,-1,-1,-1,-1,-1,-1,-1],"split_conditions":[2.2E1,2.6827288E-1,4.082403E-1,4.1818106E-1,1E0,5.8343375E-1,6.743972E-1,2.917556E-1,-1.3669552E-2,1.770643E-1,1E0,1.0398305E-2,3.8524842E-1,-1.4625673E-2,6.3122475E-1,4.1597718E-1,-1.2845993E-2,-1.1129121E-2,1.387E-1,4.4053277E-1,5.252037E-1,2.4913415E-1,1E0,6.0815946E-3,-1.1991715E-2,1E0,1E0,7.5892E-1,7.8940755E-1,1E0,5.7713985E-1,8.35329E-1,8.188913E-1,1.8866321E-3,-1.206651E-2,-2.2502472E-3,1.03222765E-2,1.551438E-1,6.3138213E-3,1.7467412E-3,1.4084135E-2,5.3861237E-1,1.05609834E-1,5.4623216E-1,1E0,-6.0987044E-3,3.0004755E-1,-2.83246E-4,6.833428E-3,5.8920336E-1,5.025887E-3,1E0,7.02008E-1,-8.6875056E-4,-1.394183E-2,1.1546702E-2,-7.0123468E-3,7.6161157E-3,-4.0600743E-4,4.295915E-3,1.2311889E-2,-8.858523E-3,5.6914464E-3,-5.001464E-3,1.0564184E-2,3.016737E-3,-1.1037583E-2,-3.895311E-4,1.3167992E-2,2.2636475E-3,-1.3430724E-2,-9.612682E-3,1.911502E-3,7.3048705E-3,-1.0649608E-2],"split_indices":[196,42,148,155,50,178,148,35,0,39,208,0,152,0,44,162,0,0,224,47,41,38,211,0,0,106,207,192,174,76,44,174,192,0,0,0,0,146,0,0,0,176,224,164,209,0,48,200,200,178,0,214,47,0,0,0,0,0,0,0,0,0,0,0,0,0,0,0,0,0,0,0,0,0,0],"split_type":[0,0,0,0,0,0,0,0,0,0,0,0,0,0,0,0,0,0,0,0,0,0,0,0,0,0,0,0,0,0,0,0,0,0,0,0,0,0,0,0,0,0,0,0,0,0,0,0,0,0,0,0,0,0,0,0,0,0,0,0,0,0,0,0,0,0,0,0,0,0,0,0,0,0,0],"sum_hessian":[2.167073E2,1.9841577E2,1.8291536E1,2.2077566E1,1.7633821E2,6.9626455E0,1.132889E1,1.6648119E1,5.429447E0,8.777231E1,8.85659E1,1.2432487E0,5.719397E0,8.105638E0,3.2232518E0,1.417823E1,2.4698884E0,1.4913349E0,8.6280975E1,4.591443E1,4.265147E1,3.2283695E0,2.4910276E0,1.2463893E0,1.9768627E0,9.447946E0,4.7302847E0,4.6887936E1,3.939304E1,1.5462814E1,3.0451614E1,1.4692432E1,2.7959038E1,1.2488482E0,1.9795213E0,1.2483076E0,1.24272E0,7.4537764E0,1.9941697E0,1.7457566E0,2.984528E0,1.5719958E1,3.1167976E1,2.7178337E1,1.2214702E1,1.9961191E0,1.3466695E1,1.4719322E1,1.5732292E1,1.2946679E1,1.7457535E0,1.5479683E1,1.2479355E1,4.235097E0,3.2186794E0,1.4976413E0,1.4222318E1,1.8697964E1,1.2470013E1,1.2222701E1,1.4955637E1,5.2395177E0,6.9751844E0,1.7475584E0,1.1719136E1,4.989577E0,9.729746E0,1.2235133E1,3.4971597E0,1.2481743E0,1.1698504E1,8.233665E0,7.246017E0,1.1231784E1,1.247571E0],"tree_param":{"num_deleted":"0","num_feature":"225","num_nodes":"75","size_leaf_vector":"0"}},{"base_weights":[-3.763251E-2,3.1241389E-2,-7.4825644E-1,-4.989134E-1,1.0001564E-1,1.2179637E-1,-1.2499565E0,4.996542E-1,-7.6646143E-1,3.8130945E-1,-6.44814E-2,1.0344835E-2,-2.0107532E-1,-1.4521267E-2,-5.1833695E-1,1.2710452E-2,-4.2225285E-3,-4.1996372E-1,-1.35719525E-2,1.6699576E-1,6.599062E-1,8.7573665E-1,-1.4915703E-1,-7.452897E-1,5.1548207E-1,6.0489806E-3,-1.1922619E-2,-8.492897E-1,8.8969547E-1,5.8761704E-1,-2.5095773E-1,1.0492399E0,2.0408079E-1,1.1840869E0,-6.424082E-3,-2.4403381E-1,8.5521656E-1,1.8762149E-3,-1.1996405E-2,-2.244069E-3,1.0275496E-2,6.210726E-3,-1.1166487E0,1.1397504E-2,2.1441E-3,1.3015762E-1,1.1952037E0,-4.850227E-1,8.9296997E-1,1.2598828E0,8.067897E-2,-4.6905088E-1,1.0229696E0,1.5498868E-3,1.4372868E-2,-1.5873209E-1,-1.4479846E-2,-2.1454135E-2,1.1829907E0,-3.9973552E-3,-1.4854768E-2,4.427433E-3,-6.9367513E-3,1.4452538E-2,1.7032275E-3,2.7172058E-3,-8.623757E-3,1.8265871E-3,1.1738111E-2,-2.0819133E-4,1.4407483E-2,1.0205315E-2,-7.943456E-3,2.7530778E-3,-1.2774801E-2,-2.3827578E-3,1.3538112E-2,-4.9506007E-3,1.6724055E-4,6.2350323E-3,-6.5590865E-3,1.4875886E-2,3.0730497E-3],"categories":[],"categories_nodes":[],"categories_segments":[],"categories_sizes":[],"default_left":[0,0,0,0,0,0,0,0,0,0,0,0,0,0,0,0,0,0,0,0,0,0,0,0,0,0,0,0,0,0,0,0,0,0,0,0,0,0,0,0,0,0,0,0,0,0,0,0,0,0,0,0,0,0,0,0,0,0,0,0,0,0,0,0,0,0,0,0,0,0,0,0,0,0,0,0,0,0,0,0,0,0,0],"id":18,"left_children":[1,3,5,7,9,11,13,15,17,19,21,-1,23,-1,25,-1,-1,27,-1,29,31,33,35,37,39,-1,-1,41,43,45,47,49,51,53,-1,55,57,-1,-1,-1,-1,-1,59,-1,-1,61,63,65,67,69,71,73,75,-1,-1,77,-1,79,81,-1,-1,-1,-1,-1,-1,-1,-1,-1,-1,-1,-1,-1,-1,-1,-1,-1,-1,-1,-1,-1,-1,-1,-1],"loss_changes":[1.0674284E1,7.318351E0,8.562819E0,6.543236E0,8.228183E0,2.5531423E0,1.0680676E0,4.432266E0,3.2331514E0,3.804494E0,9.105118E0,0E0,3.0031064E0,0E0,3.9158003E0,0E0,0E0,8.154569E0,0E0,6.8976E0,4.7848597E0,5.1885324E0,1.0144476E1,2.0162692E0,1.5528761E0,0E0,0E0,4.7905335E0,3.8667297E-1,5.2467403E0,5.777503E0,2.948616E0,8.316851E0,1.9174576E0,0E0,9.633953E0,2.675127E0,0E0,0E0,0E0,0E0,0E0,1.8324633E0,0E0,0E0,3.4515047E0,1.8619757E0,5.1510115E0,5.3214335E-1,2.8586445E0,3.885664E0,5.459989E0,3.1302862E0,0E0,0E0,5.3672857E0,0E0,1.8377315E0,1.3378754E0,0E0,0E0,0E0,0E0,0E0,0E0,0E0,0E0,0E0,0E0,0E0,0E0,0E0,0E0,0E0,0E0,0E0,0E0,0E0,0E0,0E0,0E0,0E0,0E0],"parents":[2147483647,0,0,1,1,2,2,3,3,4,4,5,5,6,6,7,7,8,8,9,9,10,10,12,12,14,14,17,17,19,19,20,20,21,21,22,22,23,23,24,24,27,27,28,28,29,29,30,30,31,31,32,32,33,33,35,35,36,36,42,42,45,45,46,46,47,47,48,48,49,49,50,50,51,51,52,52,55,55,57,57,58,58],"right_children":[2,4,6,8,10,12,14,16,18,20,22,-1,24,-1,26,-1,-1,28,-1,30,32,34,36,38,40,-1,-1,42,44,46,48,50,52,54,-1,56,58,-1,-1,-1,-1,-1,60,-1,-1,62,64,66,68,70,72,74,76,-1,-1,78,-1,80,82,-1,-1,-1,-1,-1,-1,-1,-1,-1,-1,-1,-1,-1,-1,-1,-1,-1,-1,-1,-1,-1,-1,-1,-1],"split_conditions":[2.2E1,2.6827288E-1,4.082403E-1,1.5790464E-1,-1.3388675E-3,5.8343375E-1,6.743972E-1,-4.1120593E-3,4.1818106E-1,-4.791066E-3,3.0220473E-1,1.0344835E-2,3.8524842E-1,-1.4521267E-2,6.3122475E-1,1.2710452E-2,-4.2225285E-3,3.4028584E-1,-1.35719525E-2,1E0,1.1E1,6E0,8.536392E-1,2.4913415E-1,1E0,6.0489806E-3,-1.1922619E-2,9.818228E-2,3.8524842E-1,1E0,2.1136881E-1,1.9336948E-1,1.496425E-1,1E0,-6.424082E-3,8.2582057E-1,5.045504E-1,1.8762149E-3,-1.1996405E-2,-2.244069E-3,1.0275496E-2,6.210726E-3,2.085089E-1,1.1397504E-2,2.1441E-3,5.260055E-1,6.0235935E-1,4.4951868E-1,5.322229E-1,4.1917723E-2,3.8486993E-1,1E0,2.962705E-1,1.5498868E-3,1.4372868E-2,4.2004603E-1,-1.4479846E-2,1E0,5.746863E-1,-3.9973552E-3,-1.4854768E-2,4.427433E-3,-6.9367513E-3,1.4452538E-2,1.7032275E-3,2.7172058E-3,-8.623757E-3,1.8265871E-3,1.1738111E-2,-2.0819133E-4,1.4407483E-2,1.0205315E-2,-7.943456E-3,2.7530778E-3,-1.2774801E-2,-2.3827578E-3,1.3538112E-2,-4.9506007E-3,1.6724055E-4,6.2350323E-3,-6.5590865E-3,1.4875886E-2,3.0730497E-3],"split_indices":[196,42,148,147,200,178,148,200,155,200,41,0,152,0,44,0,0,151,0,208,194,195,174,38,136,0,0,34,152,73,224,224,224,198,0,172,41,0,0,0,0,0,40,0,0,39,39,158,35,224,41,207,45,0,0,36,0,54,39,0,0,0,0,0,0,0,0,0,0,0,0,0,0,0,0,0,0,0,0,0,0,0,0],"split_type":[0,0,0,0,0,0,0,0,0,0,0,0,0,0,0,0,0,0,0,0,0,0,0,0,0,0,0,0,0,0,0,0,0,0,0,0,0,0,0,0,0,0,0,0,0,0,0,0,0,0,0,0,0,0,0,0,0,0,0,0,0,0,0,0,0,0,0,0,0,0,0,0,0,0,0,0,0,0,0,0,0,0,0],"sum_hessian":[2.1661664E2,1.9834866E2,1.8267979E1,2.2057941E1,1.7629073E2,6.9582133E0,1.1309765E1,4.4778314E0,1.758011E1,6.456501E1,1.11725716E2,1.2423513E0,5.715862E0,8.089549E0,